{"learner":{"attributes":{"best_iteration":"9","best_score":"0.4405471843067796","scikit_learn":"{\"_estimator_type\": \"classifier\"}"},"feature_names":["REF","ALT","X_PREV1","X_NEXT1","X_PREV2","X_NEXT2","X_PREV3","X_NEXT3","X_HMER_REF","X_HMER_ALT","BCSQ","BCSQCSS","RL","INDEX","REV","SCST","SCED","SMQ_BEFORE","SMQ_AFTER","tm","rq","st","et","EDIST","HAMDIST","HAMDIST_FILT"],"feature_types":["c","c","c","c","c","c","c","c","int","int","int","int","int","int","int","int","int","int","int","c","float","c","c","int","int","int"],"gradient_booster":{"model":{"gbtree_model_param":{"num_parallel_tree":"1","num_trees":"20"},"iteration_indptr":[0,2,4,6,8,10,12,14,16,18,20],"tree_info":[0,1,0,1,0,1,0,1,0,1,0,1,0,1,0,1,0,1,0,1],"trees":[{"base_weights":[-1.7400205E-2,7.827476E-1,-3.933934E-1,8.969957E-1,4.390244E-1,-1.3407822E-1,-6.903226E-1,4.5454547E-1,1.3660714E-1,6.8421054E-1,-1.1111111E-1,5.5793993E-2,-4.8031497E-1,1.8518518E-1,-7.6842105E-1,1.12500004E-1,-3.0000001E-2,7.407407E-1,-3.0000001E-2,2.5E-1,-5.3846157E-1,-1.16883114E-1,3.8271606E-1,4E-1,-5.462185E-1,3.9130434E-1,-1.0000001E-1,-6.5909094E-1,-9.279279E-1,1.2692308E-1,4.117647E-1,6E-1,-2.5E-1,3.0000001E-2,-1.20000005E-1,-2.7868852E-1,4.7058824E-1,4.920635E-1,-0E0,1.12500004E-1,-7.5E-2,-6.036036E-1,2E-1,6.25E-1,-1.1111111E-1,-3.448276E-1,-8E-1,-1.4174312E-1,-0E0,-4.2857143E-1,1.25E-1,-0E0,1.12500004E-1,7.5E-2,-1.0000001E-1,8.571429E-2,-4.1573033E-1,5.625E-1,-7.5E-2,5.5932206E-1,-3.3333334E-1,-3.3333334E-1,1.07142866E-1,-8.4E-1,-3.968254E-1,1.0000001E-1,-3.3333334E-1,1.25E-1,-0E0,3.3333334E-1,-9E-2,5E-1,-4.6153846E-1,-0E0,-8.4210527E-1,-0E0,-9E-2,4.4E-1,-6.666667E-1,-2.542373E-1,-6.875E-1,6.4285713E-1,-0E0,6.1403507E-1,-7.5E-2,-0E0,-7.5E-2,7.5E-2,-5.3846157E-1,-4E-1,-1.3571429E-1,-1.6129032E-1,-5.882353E-1,-7.5E-2,-0E0,7.5E-2,-7.5E-2,-0E0,7.5E-2,1.0000001E-1,-0E0,-0E0,-6.315789E-1,3.3333334E-1,-7.5E-2,-6.216216E-1,-9.240506E-1,6.1904764E-1,-3.3333334E-1,-3.0000001E-2,-1.16666675E-1,-5.3333336E-1,3.2258064E-2,-1.4285715E-1,-7.777778E-1,7.5E-1,-0E0,7.5E-2,-7.5E-2,7.297297E-1,3.6363637E-1,-1.4285715E-1,-1.12500004E-1,-1.0000001E-1,-0E0,5E-1,-3.6E-1,-7.037037E-1,-1.1111111E-1,3.3333334E-1,-1.0000001E-1,-2.5E-1,-8.333333E-1,7.5E-2,-0E0,-0E0,-7.419355E-1,-1.42E-1,-3.3333334E-1,7.647059E-1,-0E0,-0E0,-7.5E-2,-0E0,-6.666667E-1,5.555556E-1,-1.6666667E-1,3.0000001E-2,-7.5E-2,-3.3333334E-1,-1.2391304E-1,8.181818E-1,-0E0,-7.5E-2,7.5E-2,1.20967746E-1,2.5E-1,6.923077E-1,-9.090909E-2,-0E0,-3.0000001E-2,-7.5E-2,7.5E-2,1.0000001E-1,-0E0,-6.666667E-2,-6.666667E-1,-1.4285715E-1,-8.181818E-1,3.3333334E-1,-9E-2,-7.5E-2,6E-1,2E-1,-1.12500004E-1,-0E0,-1.3636364E-1,9E-2,-9E-2,-8.518519E-1,-0E0,-7.5E-2,-0E0,1.3000001E-1,-0E0,7.5E-2,-7.5E-2,5.0000004E-2,-7.5E-2,-0E0,-1.0909092E-1,1.07142866E-1,-0E0,9E-2,-5.0000004E-2,-0E0,-7.5E-2,3.0000001E-2,1.3421053E-1,-7.5E-2,1.0000001E-1,1.22727275E-1,-0E0,1.6666668E-2,-7.5E-2,2.5000002E-2,-9E-2,-1.20000005E-1,-0E0,-9E-2,7.5E-2,-0E0,-1.35E-1,7.5E-2,-0E0,1.12500004E-1,-0E0,1.07142866E-1,-9E-2,-0E0,-1.3800001E-1,7.5E-2,-7.5E-2],"categories":[12,0,1,2,3,4,6,7,8,9,10,12,13,1,2,0,1,2,3,9,0,3,3,4,5,6,9,2,1,2,0,0,2,0,2,3,1,3,1,2,3,0,2,0,1,2,3,4,5,7,8,9,0,3,0,4,5,6,0,0,3,3,6,0,1,1,3,0,0,1,2,0,1,0,1,2,3,0,1,2,0,1,3,2,3,1,2,3,1,3,0,1,3,0,2,0,2,3,0,1,2,3,4,6,7,8,9,10,12,13,0,1,0,1,3,0,1,3,0,1,0,1,3,0,1,2,5,7,0,0,1,1,0,1,3,6,0,0,1,2,3,4,5,6,7,8,9,10,11,12,0,1,0,1,0,0,1,3,2,1,2,0,1,0,1,3,0,0,0,1,2],"categories_nodes":[2,4,5,9,10,12,13,14,17,19,20,22,25,27,32,35,42,43,45,49,56,57,59,60,64,66,68,69,73,74,78,80,82,83,91,101,102,103,105,107,108,111,112,113,114,115,119,120,121,125,126,128,131,132,135,138,139,140,143,145,149,157,158,165,169,173,180],"categories_segments":[0,1,13,15,20,22,27,28,30,31,33,36,37,38,41,43,52,54,55,58,59,61,62,63,65,67,68,71,73,74,77,80,83,84,85,88,90,93,95,98,110,112,115,118,120,123,128,129,131,132,133,135,136,137,150,152,154,155,158,159,161,162,163,165,166,167,168],"categories_sizes":[1,12,2,5,2,5,1,2,1,2,3,1,1,3,2,9,2,1,3,1,2,1,1,2,2,1,3,2,1,3,3,3,1,1,3,2,3,2,3,12,2,3,3,2,3,5,1,2,1,1,2,1,1,13,2,2,1,3,1,2,1,1,2,1,1,1,3],"default_left":[0,0,1,0,1,1,0,0,0,1,1,0,1,1,1,0,0,1,0,1,1,0,1,0,0,1,0,1,0,0,0,0,1,0,0,1,0,0,0,0,0,0,1,1,0,1,0,0,0,1,0,0,0,0,0,0,1,1,0,1,1,0,0,0,1,0,1,0,1,1,0,0,0,1,1,0,0,0,1,0,1,0,1,1,0,0,0,0,0,0,0,1,0,0,0,0,0,0,0,0,0,1,1,1,0,1,0,1,1,0,0,1,1,1,1,1,0,0,0,1,1,1,0,0,0,1,1,0,1,0,0,1,1,0,0,1,0,0,1,1,1,0,0,1,0,1,0,0,0,1,0,0,0,0,0,0,0,1,1,0,0,0,0,0,0,1,0,0,0,1,0,0,0,1,0,0,0,0,0,0,1,0,0,0,0,0,0,0,0,0,0,0,0,0,0,0,0,0,0,0,0,0,0,0,0,0,0,0,0,0,0,0,0,0,0,0,0,0,0,0,0,0,0],"id":0,"left_children":[1,3,5,7,9,11,13,15,-1,17,19,21,23,25,27,-1,-1,29,-1,31,33,35,37,39,41,43,-1,45,47,-1,49,51,53,-1,-1,55,57,59,61,-1,-1,63,65,67,69,71,73,-1,-1,75,-1,-1,-1,-1,-1,77,79,81,-1,83,85,87,-1,89,91,-1,93,-1,95,97,-1,99,101,103,105,-1,-1,107,109,111,113,115,117,119,-1,-1,-1,-1,121,123,-1,125,127,-1,-1,-1,-1,-1,-1,-1,-1,129,131,133,-1,135,137,139,141,-1,-1,143,145,147,149,151,153,-1,-1,155,157,159,-1,-1,161,163,165,167,169,171,-1,173,175,-1,-1,177,179,-1,181,183,185,-1,-1,187,189,191,193,-1,-1,195,-1,197,-1,-1,-1,-1,199,201,203,-1,-1,-1,-1,-1,-1,205,207,209,211,213,-1,-1,215,217,-1,-1,-1,-1,-1,219,221,-1,-1,-1,-1,-1,-1,-1,-1,-1,-1,-1,-1,-1,-1,-1,-1,-1,-1,-1,-1,-1,-1,-1,-1,-1,-1,-1,-1,-1,-1,-1,-1,-1,-1,-1,-1,-1,-1,-1,-1,-1,-1],"loss_changes":[1.4727321E2,5.7519073E0,2.5547863E1,2.931671E-1,5.606333E0,1.1794391E1,1.0740547E1,1.2136363E0,0E0,1.57271E0,2.2179487E0,6.621386E0,3.9024925E0,2.6312401E0,1.8734589E0,0E0,0E0,5.8790016E-1,0E0,1.55E0,1.4153845E0,7.450463E0,1.6948853E0,1.95E0,2.668621E0,1.419686E0,0E0,3.621006E0,8.768501E-1,0E0,3.3683472E0,4.5000005E-1,1.5833334E0,0E0,0E0,3.0818782E0,1.7977941E0,1.9351621E0,2.6190476E0,0E0,0E0,2.3795967E0,1.4666667E0,1.0416665E0,1.1777778E0,3.0901859E0,2.0210495E0,0E0,0E0,2.5714284E-1,0E0,0E0,0E0,0E0,0E0,4.9580956E0,1.7782679E0,7.2321415E-1,0E0,2.0168009E0,1.6666666E-1,1.5512822E0,0E0,3.504753E-1,1.3252611E0,0E0,1.6666666E-1,0E0,1E0,1.6666666E-1,0E0,3.3333337E-1,2.0404859E0,8.333334E-1,4.5544434E-1,0E0,0E0,1.9371428E0,1.5555549E-1,2.3760161E0,6.755953E-1,9.6428585E-1,1E0,5.602827E-1,0E0,0E0,0E0,0E0,4.3681312E-1,5.3333336E-1,0E0,2.216774E0,8.583875E-1,0E0,0E0,0E0,0E0,0E0,0E0,0E0,0E0,2E0,1.2543855E0,1.6666666E-1,0E0,1.3836093E0,2.1215057E-1,9.467788E-1,1.6666666E-1,0E0,0E0,1.0666666E0,1.7060932E0,5.285714E-1,1.4492035E-2,6.136365E-1,1E0,0E0,0E0,4.7929382E-1,1.7062936E0,2.8571427E-2,0E0,0E0,1E0,3.3333337E-1,1.08E0,7.498803E-1,1.1777778E0,1.6333332E0,0E0,1.95E0,7.57576E-1,0E0,0E0,1.8E0,1.2640381E0,0E0,1.6666666E-1,6.62745E-1,1E0,0E0,0E0,8.333334E-1,4.848485E-1,3.9682543E-1,1.7333332E0,0E0,0E0,1.6666666E-1,0E0,3.4162664E-1,0E0,0E0,0E0,0E0,1.5833334E0,5.6643367E-1,5.10101E-1,0E0,0E0,0E0,0E0,0E0,0E0,1.0333333E0,5.333333E-1,1.3285714E0,7.363639E-1,1.6666666E-1,0E0,0E0,4.5000005E-1,2.4857142E0,0E0,0E0,0E0,0E0,0E0,7.837038E-1,1E0,0E0,0E0,0E0,0E0,0E0,0E0,0E0,0E0,0E0,0E0,0E0,0E0,0E0,0E0,0E0,0E0,0E0,0E0,0E0,0E0,0E0,0E0,0E0,0E0,0E0,0E0,0E0,0E0,0E0,0E0,0E0,0E0,0E0,0E0,0E0,0E0,0E0,0E0,0E0,0E0,0E0,0E0],"parents":[2147483647,0,0,1,1,2,2,3,3,4,4,5,5,6,6,7,7,9,9,10,10,11,11,12,12,13,13,14,14,17,17,19,19,20,20,21,21,22,22,23,23,24,24,25,25,27,27,28,28,30,30,31,31,32,32,35,35,36,36,37,37,38,38,41,41,42,42,43,43,44,44,45,45,46,46,49,49,55,55,56,56,57,57,59,59,60,60,61,61,63,63,64,64,66,66,68,68,69,69,71,71,72,72,73,73,74,74,77,77,78,78,79,79,80,80,81,81,82,82,83,83,88,88,89,89,91,91,92,92,101,101,102,102,103,103,105,105,106,106,107,107,108,108,111,111,112,112,113,113,114,114,115,115,116,116,119,119,120,120,121,121,124,124,125,125,126,126,127,127,128,128,129,129,131,131,132,132,135,135,136,136,138,138,139,139,140,140,143,143,144,144,145,145,146,146,149,149,151,151,156,156,157,157,158,158,165,165,166,166,167,167,168,168,169,169,172,172,173,173,179,179,180,180],"right_children":[2,4,6,8,10,12,14,16,-1,18,20,22,24,26,28,-1,-1,30,-1,32,34,36,38,40,42,44,-1,46,48,-1,50,52,54,-1,-1,56,58,60,62,-1,-1,64,66,68,70,72,74,-1,-1,76,-1,-1,-1,-1,-1,78,80,82,-1,84,86,88,-1,90,92,-1,94,-1,96,98,-1,100,102,104,106,-1,-1,108,110,112,114,116,118,120,-1,-1,-1,-1,122,124,-1,126,128,-1,-1,-1,-1,-1,-1,-1,-1,130,132,134,-1,136,138,140,142,-1,-1,144,146,148,150,152,154,-1,-1,156,158,160,-1,-1,162,164,166,168,170,172,-1,174,176,-1,-1,178,180,-1,182,184,186,-1,-1,188,190,192,194,-1,-1,196,-1,198,-1,-1,-1,-1,200,202,204,-1,-1,-1,-1,-1,-1,206,208,210,212,214,-1,-1,216,218,-1,-1,-1,-1,-1,220,222,-1,-1,-1,-1,-1,-1,-1,-1,-1,-1,-1,-1,-1,-1,-1,-1,-1,-1,-1,-1,-1,-1,-1,-1,-1,-1,-1,-1,-1,-1,-1,-1,-1,-1,-1,-1,-1,-1,-1,-1,-1,-1],"split_conditions":[7.1E1,5.9E1,NaN,2E-2,NaN,NaN,2.8E1,5.1E1,1.3660714E-1,NaN,NaN,2.14E2,NaN,NaN,NaN,1.12500004E-1,-3.0000001E-2,NaN,-3.0000001E-2,NaN,NaN,3.51E-1,NaN,3.2E1,3E0,NaN,-1.0000001E-1,NaN,4.84E-1,1.2692308E-1,6.2E1,2E1,NaN,3.0000001E-2,-1.20000005E-1,NaN,1.9E2,3.25E2,3.13E2,1.12500004E-1,-7.5E-2,1.44E-1,NaN,NaN,2.7E1,NaN,1.5E2,-1.4174312E-1,-0E0,NaN,1.25E-1,-0E0,1.12500004E-1,7.5E-2,-1.0000001E-1,2.13E-1,NaN,NaN,-7.5E-2,NaN,NaN,2.42E2,1.07142866E-1,1.54E2,NaN,1.0000001E-1,NaN,1.25E-1,NaN,NaN,-9E-2,3.17E-1,3.5E1,NaN,NaN,-0E0,-9E-2,1.93E2,NaN,1E2,NaN,1.81E2,NaN,NaN,-7.5E-2,-0E0,-7.5E-2,7.5E-2,1E2,7.7E1,-1.3571429E-1,NaN,4.46E-1,-7.5E-2,-0E0,7.5E-2,-7.5E-2,-0E0,7.5E-2,1.0000001E-1,-0E0,NaN,NaN,NaN,-7.5E-2,NaN,2E0,NaN,NaN,-3.0000001E-2,-1.16666675E-1,NaN,NaN,NaN,NaN,NaN,1.84E2,7.5E-2,-7.5E-2,NaN,NaN,NaN,-1.12500004E-1,-1.0000001E-1,3.5E1,NaN,NaN,7.7E1,NaN,1.59E-1,-1.0000001E-1,NaN,NaN,7.5E-2,-0E0,NaN,2.67E-1,-1.42E-1,NaN,NaN,NaN,-0E0,-7.5E-2,NaN,7.4E1,NaN,3.2E1,3.0000001E-2,-7.5E-2,NaN,-1.2391304E-1,2E1,-0E0,-7.5E-2,7.5E-2,1.20967746E-1,3E1,NaN,NaN,-0E0,-3.0000001E-2,-7.5E-2,7.5E-2,1.0000001E-1,-0E0,NaN,4.11E-1,1.68E2,1.68E-1,NaN,-9E-2,-7.5E-2,2.79E-1,NaN,-1.12500004E-1,-0E0,-1.3636364E-1,9E-2,-9E-2,2E-2,NaN,-7.5E-2,-0E0,1.3000001E-1,-0E0,7.5E-2,-7.5E-2,5.0000004E-2,-7.5E-2,-0E0,-1.0909092E-1,1.07142866E-1,-0E0,9E-2,-5.0000004E-2,-0E0,-7.5E-2,3.0000001E-2,1.3421053E-1,-7.5E-2,1.0000001E-1,1.22727275E-1,-0E0,1.6666668E-2,-7.5E-2,2.5000002E-2,-9E-2,-1.20000005E-1,-0E0,-9E-2,7.5E-2,-0E0,-1.35E-1,7.5E-2,-0E0,1.12500004E-1,-0E0,1.07142866E-1,-9E-2,-0E0,-1.3800001E-1,7.5E-2,-7.5E-2],"split_indices":[10,10,21,20,22,1,18,10,0,19,3,12,19,4,1,0,0,6,0,4,0,20,2,18,25,2,0,2,20,0,10,18,1,0,0,19,12,12,12,0,0,20,2,6,18,19,12,0,0,0,0,0,0,0,0,20,0,6,0,19,0,12,0,12,3,0,0,0,1,4,0,20,18,0,6,0,0,12,0,10,2,12,3,4,0,0,0,0,10,10,0,0,20,0,0,0,0,0,0,0,0,6,0,0,0,4,15,21,3,0,0,4,6,3,6,19,12,0,0,3,0,0,0,0,18,3,6,10,19,20,0,1,22,0,0,3,20,0,2,3,3,0,0,3,10,2,18,0,0,2,0,18,0,0,0,0,18,6,6,0,0,0,0,0,0,2,20,12,20,0,0,0,20,6,0,0,0,0,0,20,4,0,0,0,0,0,0,0,0,0,0,0,0,0,0,0,0,0,0,0,0,0,0,0,0,0,0,0,0,0,0,0,0,0,0,0,0,0,0,0,0,0,0],"split_type":[0,0,1,0,1,1,0,0,0,1,1,0,1,1,1,0,0,1,0,1,1,0,1,0,0,1,0,1,0,0,0,0,1,0,0,1,0,0,0,0,0,0,1,1,0,1,0,0,0,1,0,0,0,0,0,0,1,1,0,1,1,0,0,0,1,0,1,0,1,1,0,0,0,1,1,0,0,0,1,0,1,0,1,1,0,0,0,0,0,0,0,1,0,0,0,0,0,0,0,0,0,1,1,1,0,1,0,1,1,0,0,1,1,1,1,1,0,0,0,1,1,1,0,0,0,1,1,0,1,0,0,1,1,0,0,1,0,0,1,1,1,0,0,1,0,1,0,0,0,1,0,0,0,0,0,0,0,1,1,0,0,0,0,0,0,1,0,0,0,1,0,0,0,1,0,0,0,0,0,0,1,0,0,0,0,0,0,0,0,0,0,0,0,0,0,0,0,0,0,0,0,0,0,0,0,0,0,0,0,0,0,0,0,0,0,0,0,0,0,0,0,0,0],"sum_hessian":[4.875E2,1.555E2,3.32E2,1.155E2,4E1,1.78E2,1.54E2,4.5E0,1.11E2,2.75E1,1.25E1,1.155E2,6.25E1,1.25E1,1.415E2,3E0,1.5E0,2.6E1,1.5E0,7E0,5.5E0,7.6E1,3.95E1,4E0,5.85E1,1.05E1,2E0,8.7E1,5.45E1,1.85E1,7.5E0,4E0,3E0,1.5E0,4E0,6E1,1.6E1,3.05E1,9E0,3E0,1E0,5.45E1,4E0,7E0,3.5E0,2.8E1,5.9E1,5.35E1,1E0,2.5E0,5E0,1E0,3E0,1E0,2E0,1.65E1,4.35E1,1.5E1,1E0,2.85E1,2E0,6.5E0,2.5E0,2.4E1,3.05E1,2E0,2E0,5E0,2E0,2E0,1.5E0,3E0,2.5E1,3E0,5.6E1,1E0,1.5E0,1.15E1,5E0,2.85E1,1.5E1,1.3E1,2E0,2.75E1,1E0,1E0,1E0,1E0,5.5E0,4E0,2E1,1.45E1,1.6E1,1E0,1E0,1E0,1E0,1E0,1E0,2E0,1E0,7E0,1.8E1,2E0,1E0,1.75E1,3.85E1,9.5E0,2E0,1.5E0,3.5E0,1.4E1,1.45E1,2.5E0,1.25E1,1.1E1,2E0,1E0,1E0,1.75E1,1E1,2.5E0,3E0,2E0,2E0,3E0,1.15E1,1.25E1,3.5E0,5E0,2E0,7E0,1.1E1,1E0,1E0,3E0,1.45E1,3.65E1,2E0,7.5E0,2E0,1E0,1E0,3E0,1.1E1,3.5E0,1.1E1,1.5E0,1E0,2E0,1.05E1,1E1,1E0,1E0,1E0,1.45E1,3E0,5.5E0,4.5E0,1E0,1.5E0,1E0,1E0,2E0,1E0,6.5E0,5E0,2.5E0,1E1,2E0,1.5E0,1E0,4E0,4E0,3E0,1E0,1E1,1.5E0,1.5E0,1.25E1,2E0,1E0,1E0,6.5E0,1E0,1E0,1E0,2E0,1E0,1E0,1E1,2.5E0,1E0,1.5E0,9.5E0,1E0,1E0,1.5E0,8.5E0,1E0,2E0,4.5E0,1E0,3.5E0,1E0,5E0,1.5E0,4E0,1E0,1.5E0,1E0,1E0,9E0,1E0,1E0,3E0,1E0,2.5E0,1.5E0,1E0,1.15E1,1E0,1E0],"tree_param":{"num_deleted":"0","num_feature":"26","num_nodes":"223","size_leaf_vector":"1"}},{"base_weights":[1.5353122E-2,-7.763158E-1,3.7185186E-1,-1.4067358E-1,-4.8672566E-1,6.7823344E-1,1E-1,-5.272727E-1,9E-2,-1.3043478E-1,7.364865E-1,4.516129E-1,-8.4033616E-2,-1.1111111E-1,-5.9574467E-1,5.555556E-1,-5E-1,-8.3333336E-2,8.029197E-1,-0E0,5.714286E-1,-1.3235295E-1,-2.2421524E-2,2.7272728E-1,-5.555556E-1,-4.2307693E-1,-7.7272725E-1,1.07142866E-1,-0E0,3.0000001E-2,-1.0384616E-1,3.3333334E-1,-6.363636E-1,8.894009E-1,4.5762712E-1,2.3809524E-1,-5.555556E-1,6.344086E-1,-4.2857143E-1,1.0227273E-1,-4.6938777E-1,1.12500004E-1,-9E-2,-0E0,-1.07142866E-1,-5.102041E-1,9E-2,-1.4285715E-1,-8.4615386E-1,5.3846157E-1,-7.5E-2,-0E0,-1.16666675E-1,1.3584906E-1,1.4285715E-1,6.585366E-1,-0E0,3.6842105E-1,-7.5E-2,-0E0,-1.07142866E-1,8.888889E-1,4.5762712E-1,-0E0,-9E-2,-2.857143E-1,2.2058824E-1,-0E0,-5.609756E-1,-5.652174E-1,3.0000001E-2,7.5E-2,-9E-2,-1.3378379E-1,-0E0,-7.5E-2,1.22727275E-1,7.5E-2,-3.0000001E-2,1.2692308E-1,2.9411766E-1,-2.5E-1,1.0000001E-1,6E-1,-3.3333334E-1,1.4090909E-1,3.0000001E-2,5.3846157E-1,-1.1111111E-1,2.5E-1,-3.888889E-1,5.3846157E-1,9.090909E-2,7.5E-2,-2.5E-1,-1.6666667E-1,-6.7741936E-1,-3.3333334E-1,-6.666667E-1,1.12500004E-1,-9.090909E-2,7.5E-2,-4.2857143E-1,1.0384616E-1,-0E0,-0E0,-7.5E-2,-4.2857143E-1,6.5957445E-1,-1.0000001E-1,9E-2,1.0000001E-1,-7.5E-2,-5E-1,3.3333334E-1,7.1428573E-1,7.692308E-2,-1.5E-1,2.4590164E-1,3.0000001E-2,-9E-2,2.5E-1,-1.0000001E-1,-7.241379E-1,-0E0,3.3333334E-1,-5.714286E-1,-2.5E-1,-1.12500004E-1,-9E-2,2.5E-1,-1.1111111E-1,-1.07142866E-1,-0E0,-9E-2,8E-1,3.6842105E-1,-2.3076923E-1,-6.1904764E-1,7.5E-2,-0E0,-0E0,8.333333E-1,2.7272728E-1,-7.5E-2,-3.3333334E-1,1.1111111E-1,-4.2857143E-1,3.2142857E-1,9E-2,-3.0000001E-2,-2.5E-1,-1.2391304E-1,7.5E-2,-0E0,-1.20000005E-1,-0E0,3.0000001E-2,-9E-2,9E-2,-3.0000001E-2,5.0000004E-2,-9E-2,5.0000004E-2,1.2692308E-1,1.0000001E-1,-1.6666668E-2,2.1428574E-2,-7.5E-2,-0E0,-1.1470589E-1,7.5E-2,-7.5E-2,-0E0,1.3636364E-1,7.5E-2,-3.0000001E-2,-0E0,-7.5E-2,6.818182E-2,-5.0000004E-2,-0E0,-9E-2,-7.5E-2,5.5555556E-2,3.0000001E-2,-9E-2],"categories":[0,1,2,3,4,5,6,7,8,9,10,11,13,0,3,0,1,2,0,3,1,3,0,1,0,3,2,3,0,1,3,0,1,0,1,0,2,3,3,0,1,0,1,2,3,4,5,6,7,8,9,10,11,12,0,2,1,2,0,3,0,2,3,5,11,1,2,3,3,1,2,3,0,2,3,3,0,2,3,0,2,0,2,0,2,3,0,1,1,1,2,0,1,1,2,0,1,0,1,0,0,1,0],"categories_nodes":[2,6,7,9,13,14,15,16,17,19,23,24,31,32,34,36,38,47,55,57,65,66,67,68,81,84,94,97,98,107,113,114,116,121,123,125,127,130,131,137,138,141,143,146,147,151],"categories_segments":[0,13,15,18,19,20,22,24,26,28,30,31,33,35,38,39,40,41,54,55,56,58,60,63,65,68,69,71,72,75,76,79,80,81,83,86,88,89,90,91,93,95,97,99,100,102],"categories_sizes":[13,2,3,1,1,2,2,2,2,2,1,2,2,3,1,1,1,13,1,1,2,2,3,2,3,1,2,1,3,1,3,1,1,2,3,2,1,1,1,2,2,2,2,1,2,1],"default_left":[0,0,1,0,0,0,1,1,0,1,0,0,0,1,1,1,1,1,0,1,0,0,0,1,1,0,0,0,0,0,0,1,1,0,1,0,1,0,1,0,0,0,0,0,0,0,0,1,0,0,0,0,0,0,0,1,0,1,0,0,0,0,0,0,0,1,1,1,1,0,0,0,0,0,0,0,0,0,0,0,0,1,0,0,1,0,0,0,0,0,0,0,0,0,1,0,0,1,1,0,0,0,0,0,0,0,0,1,0,0,0,0,0,1,1,0,1,0,0,0,0,1,0,1,0,1,0,1,0,0,1,1,0,0,0,0,0,1,1,0,0,1,0,1,0,0,1,1,0,0,0,1,0,0,0,0,0,0,0,0,0,0,0,0,0,0,0,0,0,0,0,0,0,0,0,0,0,0,0,0,0,0,0,0,0,0,0],"id":1,"left_children":[1,3,5,-1,7,9,11,13,-1,15,17,19,21,23,25,27,29,31,33,35,37,-1,39,41,43,45,47,-1,-1,-1,-1,49,51,53,55,57,59,61,63,65,67,-1,-1,-1,-1,69,-1,71,73,75,-1,-1,-1,-1,77,79,81,83,-1,-1,-1,85,87,-1,-1,89,91,93,95,97,-1,-1,-1,-1,-1,-1,-1,-1,-1,-1,99,101,-1,103,105,-1,-1,107,109,111,113,115,117,-1,119,121,123,125,127,-1,129,-1,131,-1,-1,-1,-1,133,135,-1,-1,-1,-1,137,139,141,143,145,147,-1,-1,149,-1,151,-1,153,155,157,-1,-1,159,161,-1,-1,-1,163,165,167,169,-1,-1,171,173,175,-1,177,179,181,183,-1,-1,185,-1,-1,-1,-1,-1,-1,-1,-1,-1,-1,-1,-1,-1,-1,-1,-1,-1,-1,-1,-1,-1,-1,-1,-1,-1,-1,-1,-1,-1,-1,-1,-1,-1,-1,-1],"loss_changes":[1.3815753E2,6.652748E0,2.804269E1,0E0,2.805953E0,7.562584E0,1.1685497E1,1.5010529E0,0E0,3.1932366E0,8.12748E0,3.3548384E0,5.8333645E0,1.6868685E0,1.1093597E0,3.9682543E-1,1.2153845E0,2.9772727E0,3.6839828E0,1.9841269E0,3.3579102E0,0E0,6.26236E0,2.740909E0,3.9682543E-1,2.623705E0,8.9660263E-1,0E0,0E0,0E0,0E0,1.5512822E0,4.9494958E-1,1.1876373E0,2.7122774E0,1.1942356E0,3.9682543E-1,1.6851349E0,2.5714284E-1,4.102655E0,1.0532603E0,0E0,0E0,0E0,0E0,1.0702748E0,0E0,1.3285714E0,7.546778E-1,2.2972026E0,0E0,0E0,0E0,0E0,5.285714E-1,1.1527433E0,1.8333334E0,1.7438596E0,0E0,0E0,0E0,4.3838406E-1,1.4160509E0,0E0,0E0,1.2579366E0,2.7541137E0,7.5E-1,8.2835007E-1,3.188405E-1,0E0,0E0,0E0,0E0,0E0,0E0,0E0,0E0,0E0,0E0,1.5601604E0,1.2857143E0,0E0,4.1538453E-1,1.6666666E-1,0E0,0E0,3.3277998E0,2.1777778E0,1.5833334E0,1.6111112E0,1.5274725E0,1.8851713E0,0E0,7.5E-1,1.4166667E0,4.9054527E-1,1.6190476E0,3.333335E-1,0E0,1.1045455E0,0E0,5.555556E-1,0E0,0E0,0E0,0E0,2.5714284E-1,6.6607E-1,0E0,0E0,0E0,0E0,3.6996317E-1,1.6666666E-1,1.190476E0,8.706293E-1,9.9444455E-1,1.6914519E0,0E0,0E0,7.5E-1,0E0,4.943776E-1,0E0,1.6666666E-1,9.1428566E-1,7.5E-1,0E0,0E0,7.5E-1,1.1777778E0,0E0,0E0,0E0,4.102516E-2,1.4327487E0,7.252747E-1,9.467788E-1,0E0,0E0,1E0,7.57576E-1,6.9090915E-1,0E0,6.666666E-1,1.5252525E0,2.5714284E-1,1.3108468E0,0E0,0E0,7.5E-1,0E0,0E0,0E0,0E0,0E0,0E0,0E0,0E0,0E0,0E0,0E0,0E0,0E0,0E0,0E0,0E0,0E0,0E0,0E0,0E0,0E0,0E0,0E0,0E0,0E0,0E0,0E0,0E0,0E0,0E0,0E0,0E0,0E0,0E0,0E0],"parents":[2147483647,0,0,1,1,2,2,4,4,5,5,6,6,7,7,9,9,10,10,11,11,12,12,13,13,14,14,15,15,16,16,17,17,18,18,19,19,20,20,22,22,23,23,24,24,25,25,26,26,31,31,32,32,33,33,34,34,35,35,36,36,37,37,38,38,39,39,40,40,45,45,47,47,48,48,49,49,54,54,55,55,56,56,57,57,61,61,62,62,65,65,66,66,67,67,68,68,69,69,80,80,81,81,83,83,84,84,87,87,88,88,89,89,90,90,91,91,92,92,94,94,95,95,96,96,97,97,98,98,100,100,102,102,107,107,108,108,113,113,114,114,115,115,116,116,117,117,118,118,121,121,123,123,125,125,126,126,127,127,130,130,131,131,135,135,136,136,137,137,138,138,141,141,142,142,143,143,145,145,146,146,147,147,148,148,151,151],"right_children":[2,4,6,-1,8,10,12,14,-1,16,18,20,22,24,26,28,30,32,34,36,38,-1,40,42,44,46,48,-1,-1,-1,-1,50,52,54,56,58,60,62,64,66,68,-1,-1,-1,-1,70,-1,72,74,76,-1,-1,-1,-1,78,80,82,84,-1,-1,-1,86,88,-1,-1,90,92,94,96,98,-1,-1,-1,-1,-1,-1,-1,-1,-1,-1,100,102,-1,104,106,-1,-1,108,110,112,114,116,118,-1,120,122,124,126,128,-1,130,-1,132,-1,-1,-1,-1,134,136,-1,-1,-1,-1,138,140,142,144,146,148,-1,-1,150,-1,152,-1,154,156,158,-1,-1,160,162,-1,-1,-1,164,166,168,170,-1,-1,172,174,176,-1,178,180,182,184,-1,-1,186,-1,-1,-1,-1,-1,-1,-1,-1,-1,-1,-1,-1,-1,-1,-1,-1,-1,-1,-1,-1,-1,-1,-1,-1,-1,-1,-1,-1,-1,-1,-1,-1,-1,-1,-1],"split_conditions":[7.1E1,5.4E1,NaN,-1.4067358E-1,6E0,1.3E1,NaN,NaN,9E-2,NaN,2.9E1,0E0,2.6E1,NaN,NaN,NaN,NaN,NaN,1.39E2,NaN,5E0,-1.3235295E-1,1.47E2,NaN,NaN,3E0,1.7E1,1.07142866E-1,-0E0,3.0000001E-2,-1.0384616E-1,NaN,NaN,5E0,NaN,1.77E2,NaN,2E0,NaN,0E0,3E1,1.12500004E-1,-9E-2,-0E0,-1.07142866E-1,2E0,9E-2,NaN,5E0,2.7E1,-7.5E-2,-0E0,-1.16666675E-1,1.3584906E-1,2E0,NaN,1.99E2,NaN,-7.5E-2,-0E0,-1.07142866E-1,1E2,1.56E2,-0E0,-9E-2,NaN,NaN,NaN,NaN,1.21E2,3.0000001E-2,7.5E-2,-9E-2,-1.3378379E-1,-0E0,-7.5E-2,1.22727275E-1,7.5E-2,-3.0000001E-2,1.2692308E-1,2E0,NaN,1.0000001E-1,3E0,NaN,1.4090909E-1,3.0000001E-2,3E1,7.7E1,6.2E1,1.35E2,2E0,7.7E1,7.5E-2,NaN,3E0,2.53E2,NaN,NaN,1.12500004E-1,7.7E1,7.5E-2,1E0,1.0384616E-1,-0E0,-0E0,-7.5E-2,NaN,1.02E2,-1.0000001E-1,9E-2,1.0000001E-1,-7.5E-2,NaN,NaN,3.1E1,NaN,6E1,3.1E1,3.0000001E-2,-9E-2,NaN,-1.0000001E-1,NaN,-0E0,NaN,2E0,NaN,-1.12500004E-1,-9E-2,NaN,NaN,-1.07142866E-1,-0E0,-9E-2,3.2E1,1E0,NaN,NaN,7.5E-2,-0E0,NaN,9E0,NaN,-7.5E-2,2.3E1,NaN,NaN,7E0,9E-2,-3.0000001E-2,NaN,-1.2391304E-1,7.5E-2,-0E0,-1.20000005E-1,-0E0,3.0000001E-2,-9E-2,9E-2,-3.0000001E-2,5.0000004E-2,-9E-2,5.0000004E-2,1.2692308E-1,1.0000001E-1,-1.6666668E-2,2.1428574E-2,-7.5E-2,-0E0,-1.1470589E-1,7.5E-2,-7.5E-2,-0E0,1.3636364E-1,7.5E-2,-3.0000001E-2,-0E0,-7.5E-2,6.818182E-2,-5.0000004E-2,-0E0,-9E-2,-7.5E-2,5.5555556E-2,3.0000001E-2,-9E-2],"split_indices":[10,10,21,0,9,13,1,3,0,2,17,11,17,2,1,0,3,1,13,2,16,0,13,1,0,9,13,0,0,0,0,0,0,24,7,13,3,9,3,11,17,0,0,0,0,16,0,21,24,13,0,0,0,0,9,2,13,3,0,0,0,10,13,0,0,0,2,0,21,13,0,0,0,0,0,0,0,0,0,0,9,0,0,24,7,0,0,17,10,13,13,24,10,0,2,24,13,2,0,0,10,0,14,0,0,0,0,0,13,0,0,0,0,7,1,17,7,13,17,0,0,2,0,7,0,2,25,7,0,0,0,0,0,0,0,17,14,2,3,0,0,7,13,0,0,13,1,0,13,0,0,1,0,0,0,0,0,0,0,0,0,0,0,0,0,0,0,0,0,0,0,0,0,0,0,0,0,0,0,0,0,0,0,0,0,0,0],"split_type":[0,0,1,0,0,0,1,1,0,1,0,0,0,1,1,1,1,1,0,1,0,0,0,1,1,0,0,0,0,0,0,1,1,0,1,0,1,0,1,0,0,0,0,0,0,0,0,1,0,0,0,0,0,0,0,1,0,1,0,0,0,0,0,0,0,1,1,1,1,0,0,0,0,0,0,0,0,0,0,0,0,1,0,0,1,0,0,0,0,0,0,0,0,0,1,0,0,1,1,0,0,0,0,0,0,0,0,1,0,0,0,0,0,1,1,0,1,0,0,0,0,1,0,1,0,1,0,1,0,0,1,1,0,0,0,0,0,1,1,0,0,1,0,1,0,0,1,1,0,0,0,1,0,0,0,0,0,0,0,0,0,0,0,0,0,0,0,0,0,0,0,0,0,0,0,0,0,0,0,0,0,0,0,0,0,0,0],"sum_hessian":[4.875E2,1.51E2,3.365E2,9.55E1,5.55E1,1.575E2,1.79E2,5.4E1,1.5E0,1.05E1,1.47E2,6.1E1,1.18E2,8E0,4.6E1,3.5E0,7E0,1.1E1,1.36E2,1.3E1,4.8E1,7.5E0,1.105E2,4.5E0,3.5E0,2.5E1,2.1E1,2.5E0,1E0,1.5E0,5.5E0,6.5E0,4.5E0,1.075E2,2.85E1,9.5E0,3.5E0,4.55E1,2.5E0,8.7E1,2.35E1,3E0,1.5E0,1E0,2.5E0,2.35E1,1.5E0,2.5E0,1.85E1,5.5E0,1E0,1E0,3.5E0,1.05E2,2.5E0,1.95E1,9E0,8.5E0,1E0,1E0,2.5E0,1.7E1,2.85E1,1E0,1.5E0,2E1,6.7E1,4E0,1.95E1,2.2E1,1.5E0,1E0,1.5E0,1.75E1,1E0,1E0,4.5E0,1E0,1.5E0,1.2E1,7.5E0,7E0,2E0,6.5E0,2E0,1.55E1,1.5E0,2.5E1,3.5E0,3E0,1.7E1,1.85E1,4.85E1,1E0,3E0,5E0,1.45E1,8E0,1.4E1,3E0,4.5E0,1E0,6E0,5.5E0,1E0,1E0,1E0,2.5E0,2.25E1,2E0,1.5E0,2E0,1E0,1.5E1,2E0,1.3E1,5.5E0,1.9E1,2.95E1,1.5E0,1.5E0,3E0,2E0,1.35E1,1E0,2E0,6E0,3E0,1.1E1,1.5E0,3E0,3.5E0,2.5E0,1E0,1.5E0,1.4E1,8.5E0,5.5E0,9.5E0,1E0,1E0,2E0,1.1E1,4.5E0,1E0,1.1E1,8E0,2.5E0,2.7E1,1.5E0,1.5E0,3E0,1.05E1,1E0,1E0,4E0,2E0,1.5E0,1.5E0,1.5E0,1.5E0,2E0,1.5E0,2E0,1.2E1,5E0,3.5E0,2.5E0,3E0,2E0,7.5E0,1E0,1E0,1E0,1E1,3E0,1.5E0,4E0,7E0,4.5E0,3.5E0,1E0,1.5E0,1E0,2.6E1,1.5E0,1.5E0],"tree_param":{"num_deleted":"0","num_feature":"26","num_nodes":"187","size_leaf_vector":"1"}},{"base_weights":[-2.5881674E-2,-2.5572193E-1,3.417871E-1,-4.9433637E-2,-5.000043E-1,6.522441E-1,1.7248686E-1,3.5638523E-1,-2.5347728E-1,-5.6639254E-1,4.7798593E-2,7.058955E-1,-7.416535E-3,2.0459473E-2,5.458688E-1,4.6104667E-1,-6.558619E-2,-3.990477E-1,-5.424409E-2,-6.417805E-1,7.361504E-2,3.7026864E-1,-2.791996E-1,-7.990508E-3,7.3206794E-1,4.5800292E-1,-9.348832E-2,1.2981518E-1,-4.3434936E-1,-1.5686579E-3,5.791519E-1,6.5558153E-1,2.634251E-1,2.6641765E-1,-4.409044E-1,-4.417307E-1,9.248196E-2,-4.2924762E-1,1.1266294E-1,-6.757148E-1,-1.5061504E-1,-3.8279608E-1,2.9480195E-1,1.0759918E-1,-9.9973254E-2,5.7610616E-2,-6.1942285E-1,8.3344454E-1,6.1353135E-1,8.357767E-2,2.6021356E-2,4.566213E-1,2.2444408E-2,6.3386165E-2,-6.063802E-1,7.713974E-1,4.2308962E-1,1.913758E-2,7.1631193E-1,5.658404E-1,-8.595395E-2,1.0261611E-1,-2.2072543E-1,4.3756953E-3,-1.0239805E-1,2.5481316E-1,-5.008652E-1,-9.909018E-2,-1.1864853E-1,1.04268804E-1,4.378129E-2,-7.3189473E-1,-4.187774E-1,7.835808E-2,-8.923664E-2,2.1449765E-2,-9.734973E-2,5.537094E-1,-5.1801745E-2,2.6174031E-2,-4.425343E-2,-1.0902474E-1,-2.6324186E-2,4.5951266E-2,1.2908112E-1,2.3815043E-1,6.7526865E-1,2.4335834E-1,1.13666736E-1,-1.1612674E-1,2.192882E-1,-3.733445E-1,-1.18501365E-1,1.2440017E-1,2.6052346E-2,5.154994E-1,-4.498882E-2,7.5676304E-1,2.0665871E-2,1.1911162E-1,2.1434772E-1,2.5504634E-1,-1.06460735E-1,-7.977192E-2,2.696662E-2,-2.8306127E-2,7.030599E-2,-2.7976778E-1,-6.0717756E-1,-4.4984102E-1,4.5191008E-1,-5.662127E-1,1.5393868E-1,-3.0749E-1,-7.637231E-1,4.7526713E-2,-5.1342124E-1,3.061492E-1,-4.3659016E-2,1.0744771E-1,2.3023191E-1,4.6600115E-1,-3.9905157E-2,7.343751E-1,-4.4664717E-3,1.5061314E-2,1.04056485E-1,1.1343715E-1,-4.8647073E-1,4.551443E-1,-1.7530845E-1,1.8199269E-2,-5.901626E-1,2.3829606E-1,1.1952086E-1,2.531045E-2,7.997116E-1,3.7320286E-1,-2.834074E-2,-2.9167024E-2,3.790434E-1,-2.2115666E-2,-5.000535E-1,-4.6146536E-1,-7.4337894E-1,-1.0578671E-1,2.8590646E-2,2.6037026E-2,8.2098976E-2,-2.494258E-2,-1.0342202E-1,2.5930384E-1,-2.2716334E-1,5.957683E-2,-1.10921256E-1,-6.2436414E-1,-1.2832282E-1,-1.9227454E-1,-7.2922504E-1,9.138599E-2,-2.7071299E-2,-2.6522249E-2,8.1436366E-2,8.814801E-2,1.9857753E-2,1.2578773E-1,3.5384718E-1,3.0694744E-1,-4.263553E-1,3.314971E-1,-3.855031E-1,4.7436204E-2,-6.6273916E-1,5.4760766E-1,-3.4069836E-2,2.3685752E-1,-5.9191096E-1,3.0671746E-2,-2.6417922E-2,-2.285868E-2,-1.072784E-1,4.5273927E-1,-2.4724849E-1,1.2785831E-1,5.3783193E-2,9.045245E-2,2.6924186E-3,5.715276E-1,-2.9162057E-2,2.911997E-1,-5.0603867E-1,-6.322601E-1,3.0366661E-2,-6.164546E-1,2.7506761E-2,-2.2142906E-2,-7.886361E-1,-1.01031E-2,5.5469507E-1,-8.99538E-2,6.10805E-3,-1.5235586E-2,-6.620473E-1,9.643601E-3,-8.9669414E-2,-2.451782E-2,-1.2014265E-1,-3.4324452E-2,5.559907E-1,9.1082394E-2,3.6707218E-3,-8.230227E-2,-1.9775879E-2,5.863638E-1,-2.4137999E-1,-9.7080715E-2,-9.5061846E-2,-7.2077686E-1,-2.6101949E-2,7.107451E-1,6.4252034E-2,4.45384E-1,-2.8596768E-2,-2.7758567E-2,-1.0671713E-1,6.0633945E-1,-1.0384531E-3,2.936863E-2,-8.83435E-2,1.01337604E-1,2.6298553E-2,9.644993E-2,3.012742E-3,-9.230162E-2,-2.5505971E-2,-4.5822747E-2,-1.1562883E-1,-1.1455508E-1,-2.0732962E-2,5.2276805E-2,-8.398595E-2,-1.2624544E-1,-2.314241E-2,-9.630944E-2,3.182939E-2,1.1273464E-1,4.2128853E-2,5.7705354E-2,-7.9011075E-2,-2.2243682E-2,-1.0238196E-1,4.6835992E-2,-5.750662E-2,9.912771E-2,2.4654077E-2,-2.819745E-2,2.9013326E-2,1.08153485E-1,-1.8455453E-3,1.8217495E-2,-8.762163E-2,2.8265785E-2,-4.5065917E-2,-1.19391456E-1,-2.8494364E-2,1.18498676E-1,2.3422714E-2,-5.211039E-2,8.011815E-2,8.121212E-2,2.5364565E-2,1.0575668E-1,2.7644733E-2],"categories":[12,13,1,3,0,1,0,2,1,3,0,1,0,2,3,0,1,1,3,0,1,2,2,0,1,0,1,2,3,4,6,7,8,9,10,11,12,13,0,1,2,11,12,0,0,3,2,0,3,0,0,1,1,3,2,0,1,0,1,0,1,2,3,3,1,2,12,0,1,1,2,3,5,1,2,0,1,2,3],"categories_nodes":[1,12,15,16,21,22,27,30,32,41,42,44,59,66,89,90,91,100,107,111,114,116,123,125,131,136,137,157,173,175,176,182,187,194,203,214,216],"categories_segments":[0,2,4,6,8,10,12,15,17,19,22,23,25,38,41,43,44,46,47,49,50,52,54,55,57,59,60,63,64,66,67,68,69,72,73,75,78],"categories_sizes":[2,2,2,2,2,2,3,2,2,3,1,2,13,3,2,1,2,1,2,1,2,2,1,2,2,1,3,1,2,1,1,1,3,1,2,3,1],"default_left":[0,1,0,0,0,0,0,0,0,0,0,0,1,0,0,1,1,0,0,0,0,1,1,0,0,0,0,1,0,0,1,0,1,0,0,0,0,0,0,0,0,1,1,0,1,0,0,0,0,0,0,0,0,0,0,0,0,0,0,1,0,0,0,0,0,0,1,0,0,0,0,0,0,0,0,0,0,0,0,0,0,0,0,0,0,0,0,0,0,1,1,1,0,0,0,0,0,0,0,0,1,0,0,0,0,0,0,1,0,0,0,1,0,0,1,0,1,0,0,0,0,0,0,1,0,1,0,0,0,0,0,1,0,0,0,0,1,1,0,0,0,0,0,0,0,0,0,0,0,0,0,0,0,0,0,0,0,1,0,0,0,0,0,0,0,0,0,0,0,0,0,0,0,1,0,1,1,0,0,0,0,0,1,0,0,0,0,1,0,0,0,0,0,0,1,0,0,0,0,0,0,0,0,1,0,0,0,0,0,0,0,0,0,0,1,0,1,0,0,0,0,0,0,0,0,0,0,0,0,0,0,0,0,0,0,0,0,0,0,0,0,0,0,0,0,0,0,0,0,0,0,0,0,0,0,0,0,0,0,0,0,0,0,0,0,0,0,0,0,0,0,0,0],"id":2,"left_children":[1,3,5,7,9,11,13,15,17,19,21,23,25,27,29,31,33,35,37,39,41,43,45,-1,47,49,-1,51,53,-1,55,57,59,61,63,65,-1,67,69,71,73,75,77,-1,79,-1,81,83,85,-1,-1,87,89,-1,91,93,95,-1,97,99,101,-1,103,-1,-1,105,107,109,-1,-1,111,113,115,117,-1,-1,-1,119,-1,-1,-1,-1,-1,-1,-1,121,123,125,-1,127,129,131,-1,-1,-1,133,-1,135,-1,-1,137,139,-1,-1,-1,-1,-1,141,143,145,147,149,151,153,155,-1,157,159,-1,-1,161,163,-1,165,-1,167,-1,169,171,173,175,177,179,181,-1,-1,183,185,-1,-1,187,189,191,193,195,-1,-1,-1,-1,-1,-1,197,199,-1,-1,201,-1,203,205,-1,-1,-1,-1,-1,-1,-1,207,209,211,213,215,-1,217,219,-1,221,223,-1,-1,-1,-1,225,227,-1,-1,-1,-1,229,-1,231,233,235,-1,237,239,-1,241,243,245,-1,247,-1,249,251,-1,-1,-1,-1,253,-1,255,-1,-1,257,259,-1,261,263,-1,265,267,269,-1,-1,-1,271,-1,-1,-1,-1,-1,-1,-1,-1,-1,-1,-1,-1,-1,-1,-1,-1,-1,-1,-1,-1,-1,-1,-1,-1,-1,-1,-1,-1,-1,-1,-1,-1,-1,-1,-1,-1,-1,-1,-1,-1,-1,-1,-1,-1,-1,-1,-1],"loss_changes":[4.1308556E1,1.5129835E1,9.772285E0,1.3683071E1,5.0303917E0,2.3413143E0,6.974182E0,2.474156E0,3.1633139E0,5.9713783E0,1.7686863E0,1.2520542E0,1.9920764E0,4.4575534E0,6.6464615E-1,1.5366964E0,1.5969253E0,3.0161705E0,3.0226839E0,1.7307549E0,1.5096123E0,1.4395654E0,2.1360335E0,0E0,1.9867134E-1,1.530987E-2,0E0,2.5199747E0,2.8187718E0,0E0,6.810503E-1,6.055641E-1,2.555767E0,1.5597326E0,6.960318E-1,2.6536455E0,0E0,1.694469E0,1.3206884E0,1.173851E0,9.0036047E-1,7.85854E-1,1.8294499E0,0E0,2.8899893E-1,0E0,1.5578842E-1,1.5140343E-1,5.582409E-1,0E0,0E0,9.5754457E-1,1.5346258E0,0E0,3.4211206E-1,3.3489895E-1,1.5408518E0,0E0,3.4685898E-1,8.607578E-1,2.7075236E0,0E0,5.879977E-1,0E0,0E0,6.0658896E-1,1.1667557E0,1.9241133E0,0E0,0E0,2.182451E0,8.8386154E-1,1.6064978E0,6.2948984E-1,0E0,0E0,0E0,2.2548175E-1,0E0,0E0,0E0,0E0,0E0,0E0,0E0,8.0486166E-1,1.1095362E0,1.2112124E0,0E0,2.8712754E0,2.2393274E0,7.286893E-1,0E0,0E0,0E0,1.2733526E0,0E0,3.1445122E-1,0E0,0E0,4.8239154E-1,5.427313E-1,0E0,0E0,0E0,0E0,0E0,1.1421784E0,4.020939E-1,1.1063364E0,1.0220587E-2,1.3102782E-1,1.1510592E0,2.562007E0,4.4242096E-1,0E0,1.1596417E0,7.6770896E-1,0E0,0E0,5.995565E-1,1.0262948E-1,0E0,6.597557E-1,0E0,1.2785101E0,0E0,2.440779E0,2.029799E0,1.0581231E0,1.7547187E0,1.8022852E-1,1.9055939E-1,1.2445524E0,0E0,0E0,7.352924E-2,3.9317894E-1,0E0,0E0,8.765816E-1,1.7259395E0,1.1410222E0,1.591507E0,3.626871E-1,0E0,0E0,0E0,0E0,0E0,0E0,1.73843E0,5.619138E-1,0E0,0E0,6.029844E-1,0E0,7.3419666E-1,3.097701E-1,0E0,0E0,0E0,0E0,0E0,0E0,0E0,9.417554E-1,5.3898567E-1,7.047576E-2,2.3800316E0,4.6505666E-1,0E0,1.8292952E-1,1.0052836E0,0E0,5.6992376E-1,1.0966039E-1,0E0,0E0,0E0,0E0,5.6186926E-1,7.177271E-1,0E0,0E0,0E0,0E0,1.0607326E-1,0E0,6.503874E-1,5.905521E-2,1.912589E-1,0E0,1.0083618E0,1.3185483E0,0E0,4.1764545E-1,1.8740666E0,3.4980893E-1,0E0,1.1992608E0,0E0,2.3107624E-1,9.4304544E-1,0E0,0E0,0E0,0E0,1.14201665E-1,0E0,1.8047616E-1,0E0,0E0,8.877804E-1,7.461231E-1,0E0,3.1605223E-1,2.2381115E-1,0E0,3.1021643E-1,1.0487232E0,1.3426125E-2,0E0,0E0,0E0,1.17155075E-1,0E0,0E0,0E0,0E0,0E0,0E0,0E0,0E0,0E0,0E0,0E0,0E0,0E0,0E0,0E0,0E0,0E0,0E0,0E0,0E0,0E0,0E0,0E0,0E0,0E0,0E0,0E0,0E0,0E0,0E0,0E0,0E0,0E0,0E0,0E0,0E0,0E0,0E0,0E0,0E0,0E0,0E0,0E0,0E0,0E0,0E0,0E0],"parents":[2147483647,0,0,1,1,2,2,3,3,4,4,5,5,6,6,7,7,8,8,9,9,10,10,11,11,12,12,13,13,14,14,15,15,16,16,17,17,18,18,19,19,20,20,21,21,22,22,24,24,25,25,27,27,28,28,30,30,31,31,32,32,33,33,34,34,35,35,37,37,38,38,39,39,40,40,41,41,42,42,44,44,46,46,47,47,48,48,51,51,52,52,54,54,55,55,56,56,58,58,59,59,60,60,62,62,65,65,66,66,67,67,70,70,71,71,72,72,73,73,77,77,85,85,86,86,87,87,89,89,90,90,91,91,95,95,97,97,100,100,101,101,107,107,108,108,109,109,110,110,111,111,112,112,113,113,114,114,116,116,117,117,120,120,121,121,123,123,125,125,127,127,128,128,129,129,130,130,131,131,132,132,133,133,136,136,137,137,140,140,141,141,142,142,143,143,144,144,151,151,152,152,155,155,157,157,158,158,166,166,167,167,168,168,169,169,170,170,172,172,173,173,175,175,176,176,181,181,182,182,187,187,189,189,190,190,191,191,193,193,194,194,196,196,197,197,198,198,200,200,202,202,203,203,208,208,210,210,213,213,214,214,216,216,217,217,219,219,220,220,221,221,225,225],"right_children":[2,4,6,8,10,12,14,16,18,20,22,24,26,28,30,32,34,36,38,40,42,44,46,-1,48,50,-1,52,54,-1,56,58,60,62,64,66,-1,68,70,72,74,76,78,-1,80,-1,82,84,86,-1,-1,88,90,-1,92,94,96,-1,98,100,102,-1,104,-1,-1,106,108,110,-1,-1,112,114,116,118,-1,-1,-1,120,-1,-1,-1,-1,-1,-1,-1,122,124,126,-1,128,130,132,-1,-1,-1,134,-1,136,-1,-1,138,140,-1,-1,-1,-1,-1,142,144,146,148,150,152,154,156,-1,158,160,-1,-1,162,164,-1,166,-1,168,-1,170,172,174,176,178,180,182,-1,-1,184,186,-1,-1,188,190,192,194,196,-1,-1,-1,-1,-1,-1,198,200,-1,-1,202,-1,204,206,-1,-1,-1,-1,-1,-1,-1,208,210,212,214,216,-1,218,220,-1,222,224,-1,-1,-1,-1,226,228,-1,-1,-1,-1,230,-1,232,234,236,-1,238,240,-1,242,244,246,-1,248,-1,250,252,-1,-1,-1,-1,254,-1,256,-1,-1,258,260,-1,262,264,-1,266,268,270,-1,-1,-1,272,-1,-1,-1,-1,-1,-1,-1,-1,-1,-1,-1,-1,-1,-1,-1,-1,-1,-1,-1,-1,-1,-1,-1,-1,-1,-1,-1,-1,-1,-1,-1,-1,-1,-1,-1,-1,-1,-1,-1,-1,-1,-1,-1,-1,-1,-1,-1],"split_conditions":[3E0,NaN,2.9E1,3.5E1,4.05E-1,4E0,1.48E2,4E0,1.1E2,1.6E2,1.69E2,1.7E1,NaN,4E0,3.5E-2,NaN,NaN,4.78E-1,5.4E-2,2.01E2,6.3E-2,NaN,NaN,-7.990508E-3,2.3E1,1.25E2,-9.348832E-2,NaN,1.61E2,-1.5686579E-3,NaN,2.9E1,NaN,3.1E1,8E1,9E0,9.248196E-2,2.8E-2,1.49E2,1.22E2,1.22E2,NaN,NaN,1.0759918E-1,NaN,5.7610616E-2,1.81E2,1.7E2,2.4E1,8.357767E-2,2.6021356E-2,4.75E-1,4.15E-1,6.3386165E-2,2.51E-1,2E0,4E0,1.913758E-2,3E0,NaN,1.44E2,1.0261611E-1,1.85E2,4.3756953E-3,-1.0239805E-1,1.67E2,NaN,2E-2,-1.1864853E-1,1.04268804E-1,1.65E2,1.2E1,1.24E2,2.28E2,-8.923664E-2,2.1449765E-2,-9.734973E-2,2.24E-1,-5.1801745E-2,2.6174031E-2,-4.425343E-2,-1.0902474E-1,-2.6324186E-2,4.5951266E-2,1.2908112E-1,1E0,4E0,3.09E2,1.13666736E-1,NaN,NaN,NaN,-1.18501365E-1,1.2440017E-1,2.6052346E-2,3.08E2,-4.498882E-2,1.64E2,2.0665871E-2,1.1911162E-1,NaN,1.36E-1,-1.06460735E-1,-7.977192E-2,2.696662E-2,-2.8306127E-2,7.030599E-2,NaN,6E1,1.44E2,1.82E2,NaN,1.99E2,3.5E1,NaN,4.7526713E-2,NaN,1.84E-1,-4.3659016E-2,1.0744771E-1,1.73E2,2.76E2,-3.9905157E-2,NaN,-4.4664717E-3,NaN,1.04056485E-1,4E0,0E0,3E0,2E0,NaN,3E1,3.02E2,1.1952086E-1,2.531045E-2,NaN,NaN,-2.834074E-2,-2.9167024E-2,1.81E2,1.76E2,2.05E2,5E1,0E0,-1.0578671E-1,2.8590646E-2,2.6037026E-2,8.2098976E-2,-2.494258E-2,-1.0342202E-1,1.39E2,2.89E2,5.957683E-2,-1.10921256E-1,2.2E1,-1.2832282E-1,NaN,1.58E2,9.138599E-2,-2.7071299E-2,-2.6522249E-2,8.1436366E-2,8.814801E-2,1.9857753E-2,1.2578773E-1,1.12E2,3E0,7.4E1,9.5E1,2E0,4.7436204E-2,2.49E2,NaN,-3.4069836E-2,NaN,NaN,3.0671746E-2,-2.6417922E-2,-2.285868E-2,-1.072784E-1,4.75E-1,NaN,1.2785831E-1,5.3783193E-2,9.045245E-2,2.6924186E-3,NaN,-2.9162057E-2,0E0,1.91E2,1.54E2,3.0366661E-2,1.85E2,NaN,-2.2142906E-2,1.07E2,1.73E2,2E0,-8.99538E-2,3.12E2,-1.5235586E-2,1.38E2,NaN,-8.9669414E-2,-2.451782E-2,-1.2014265E-1,-3.4324452E-2,3E0,9.1082394E-2,3.5E1,-8.230227E-2,-1.9775879E-2,3.4E-1,NaN,-9.7080715E-2,NaN,8.2E1,-2.6101949E-2,8.53E-1,7.5E-1,1E0,-2.8596768E-2,-2.7758567E-2,-1.0671713E-1,2E0,-1.0384531E-3,2.936863E-2,-8.83435E-2,1.01337604E-1,2.6298553E-2,9.644993E-2,3.012742E-3,-9.230162E-2,-2.5505971E-2,-4.5822747E-2,-1.1562883E-1,-1.1455508E-1,-2.0732962E-2,5.2276805E-2,-8.398595E-2,-1.2624544E-1,-2.314241E-2,-9.630944E-2,3.182939E-2,1.1273464E-1,4.2128853E-2,5.7705354E-2,-7.9011075E-2,-2.2243682E-2,-1.0238196E-1,4.6835992E-2,-5.750662E-2,9.912771E-2,2.4654077E-2,-2.819745E-2,2.9013326E-2,1.08153485E-1,-1.8455453E-3,1.8217495E-2,-8.762163E-2,2.8265785E-2,-4.5065917E-2,-1.19391456E-1,-2.8494364E-2,1.18498676E-1,2.3422714E-2,-5.211039E-2,8.011815E-2,8.121212E-2,2.5364565E-2,1.0575668E-1,2.7644733E-2],"split_indices":[23,22,17,17,20,11,13,11,13,13,12,13,2,11,20,4,2,20,20,12,20,6,6,0,17,13,0,2,12,0,6,13,6,17,13,13,0,20,12,13,13,2,4,0,2,0,12,12,17,0,0,20,20,0,20,16,11,0,8,22,13,0,12,0,0,12,4,20,0,0,12,13,13,12,0,0,0,20,0,0,0,0,0,0,0,14,16,12,0,22,6,4,0,0,0,12,0,12,0,0,2,20,0,0,0,0,0,6,13,13,12,2,13,17,2,0,2,20,0,0,13,12,0,2,0,6,0,24,11,8,8,6,17,12,0,0,6,4,0,0,12,12,12,13,11,0,0,0,0,0,0,13,12,0,0,13,0,6,12,0,0,0,0,0,0,0,13,24,13,13,25,0,12,2,0,22,2,0,0,0,0,20,2,0,0,0,0,4,0,11,12,12,0,12,22,0,13,12,8,0,12,0,12,4,0,0,0,0,24,0,17,0,0,20,2,0,2,13,0,20,20,14,0,0,0,8,0,0,0,0,0,0,0,0,0,0,0,0,0,0,0,0,0,0,0,0,0,0,0,0,0,0,0,0,0,0,0,0,0,0,0,0,0,0,0,0,0,0,0,0,0,0,0],"split_type":[0,1,0,0,0,0,0,0,0,0,0,0,1,0,0,1,1,0,0,0,0,1,1,0,0,0,0,1,0,0,1,0,1,0,0,0,0,0,0,0,0,1,1,0,1,0,0,0,0,0,0,0,0,0,0,0,0,0,0,1,0,0,0,0,0,0,1,0,0,0,0,0,0,0,0,0,0,0,0,0,0,0,0,0,0,0,0,0,0,1,1,1,0,0,0,0,0,0,0,0,1,0,0,0,0,0,0,1,0,0,0,1,0,0,1,0,1,0,0,0,0,0,0,1,0,1,0,0,0,0,0,1,0,0,0,0,1,1,0,0,0,0,0,0,0,0,0,0,0,0,0,0,0,0,0,0,0,1,0,0,0,0,0,0,0,0,0,0,0,0,0,0,0,1,0,1,1,0,0,0,0,0,1,0,0,0,0,1,0,0,0,0,0,0,1,0,0,0,0,0,0,0,0,1,0,0,0,0,0,0,0,0,0,0,1,0,1,0,0,0,0,0,0,0,0,0,0,0,0,0,0,0,0,0,0,0,0,0,0,0,0,0,0,0,0,0,0,0,0,0,0,0,0,0,0,0,0,0,0,0,0,0,0,0,0,0,0,0,0,0,0,0,0],"sum_hessian":[4.86795E2,2.9972983E2,1.8706519E2,1.6315404E2,1.3657578E2,6.5006294E1,1.2205889E2,5.4337173E1,1.0881687E2,1.2178295E2,1.4792819E1,6.005206E1,4.954236E0,8.74907E1,3.4568195E1,4.346417E1,1.0873006E1,6.2296677E1,4.6520195E1,1.0894706E2,1.2835893E1,7.3813534E0,7.4114656E0,1.9668106E0,5.8085247E1,2.967697E0,1.9865389E0,7.1107864E1,1.6382832E1,1.9900644E0,3.257813E1,2.0735338E1,2.2728828E1,5.923381E0,4.949625E0,6.032635E1,1.970322E0,1.3843995E1,3.26762E1,1.01554955E2,7.3921065E0,3.9514906E0,8.884402E0,3.9446123E0,3.4367414E0,2.4690795E0,4.942386E0,2.8057978E1,3.002727E1,1.4900193E0,1.4776776E0,1.6780386E1,5.432748E1,2.4955513E0,1.38872795E1,1.2830266E1,1.9747864E1,2.4588253E0,1.8276512E1,1.1851153E1,1.0877676E1,2.9713442E0,2.9520366E0,1.9796245E0,2.9700007E0,4.461806E0,5.5864548E1,7.9040246E0,5.93997E0,2.4941454E0,3.0182056E1,8.1816956E1,1.9737997E1,5.4216375E0,1.9704691E0,1.483717E0,2.4677737E0,6.4220366E0,2.4623656E0,1.4714953E0,1.9652461E0,3.466413E0,1.4759729E0,1.9734848E0,2.6084492E1,4.92702E0,2.510025E1,1.0882249E1,5.8981366E0,3.2123627E1,2.2203854E1,7.457025E0,6.430255E0,1.1343248E1,1.4870181E0,1.7764381E1,1.9834809E0,1.6794214E1,1.4822984E0,6.421974E0,5.429179E0,7.41519E0,3.4624858E0,1.4769584E0,1.4750781E0,1.4899844E0,2.9718213E0,1.9318823E1,3.6545723E1,4.941806E0,2.9622188E0,3.983497E0,2.6198559E1,6.451563E0,7.5365395E1,1.9823513E0,1.7755646E1,3.459625E0,1.9620125E0,3.4655252E0,2.9565113E0,3.4456146E0,1.4814054E0,2.3120384E1,1.9798652E0,7.9072595E0,2.9749894E0,2.0259275E1,1.1864351E1,1.3801223E1,8.402631E0,2.9841394E0,4.472885E0,9.877779E0,7.886603E0,1.4786189E0,1.5315596E1,3.9484658E0,1.4807132E0,1.4804296E0,5.9347606E0,9.411397E0,9.907425E0,1.977643E1,1.6769295E1,3.4605799E0,1.4812262E0,1.475977E0,1.4862418E0,1.4919573E0,2.4915395E0,2.0774519E1,5.4240394E0,2.4825363E0,3.9690266E0,3.302089E1,4.23445E1,7.8960996E0,9.859548E0,1.9765644E0,1.4830606E0,1.4731976E0,1.4833137E0,1.9669175E0,1.4786971E0,1.7204966E1,5.9154196E0,4.943204E0,2.9640555E0,1.4331392E1,5.9278836E0,1.9932343E0,9.871117E0,1.2327904E1,1.4733185E0,4.440688E0,3.9619431E0,1.4968944E0,1.4872451E0,1.4865866E0,2.9862988E0,6.898559E0,2.9792197E0,1.2849153E1,2.4664428E0,1.9740357E0,1.97443E0,4.44585E0,1.4889107E0,5.954448E0,3.4569488E0,8.422363E0,1.4850624E0,1.4818655E1,4.957776E0,1.4848405E0,1.5284453E1,1.13702545E1,9.404264E0,1.4837446E0,3.9402947E0,2.4685879E0,3.0552303E1,5.923084E0,1.9730155E0,1.4782199E0,8.381328E0,1.489612E0,4.425808E0,1.9803312E0,2.9628727E0,1.4844847E0,1.4795709E0,9.902388E0,4.4290047E0,2.4720745E0,3.455809E0,8.398913E0,1.4722033E0,8.865327E0,3.462577E0,2.9566643E0,1.4840238E0,1.4783529E0,2.4835901E0,4.931543E0,1.9670162E0,1.4832045E0,1.4960152E0,2.9626236E0,1.4832263E0,1.9945822E0,3.9598663E0,1.9810847E0,1.475864E0,3.46262E0,4.959743E0,1.0873765E1,3.9448898E0,3.4688463E0,1.48893E0,1.380434E1,1.4801133E0,2.4674401E0,8.902815E0,4.456077E0,4.948188E0,2.4661188E0,1.4741758E0,1.488207E0,2.9064096E1,3.4626474E0,2.4604363E0,2.9488134E0,1.4769943E0,1.4786843E0,1.4841883E0,7.917181E0,1.9852064E0,2.4651828E0,1.9638221E0,1.4864337E0,1.9693754E0,6.9195876E0,1.4793258E0,7.3855524E0,1.4797746E0,1.9845457E0,1.4780314E0,1.4819639E0,1.4747003E0,3.4533348E0,1.4782083E0],"tree_param":{"num_deleted":"0","num_feature":"26","num_nodes":"273","size_leaf_vector":"1"}},{"base_weights":[1.3944565E-2,-3.256832E-1,3.452644E-1,-1.2902787E-1,-6.2854135E-1,7.174479E-1,2.0612057E-1,3.3880377E-1,-2.5758657E-1,-6.607529E-1,2.7117905E-1,7.40662E-1,-2.683955E-2,-2.002941E-1,3.4501833E-1,7.266678E-1,1.204245E-1,-5.8543324E-1,-1.3004649E-1,-4.010699E-1,-7.0192385E-1,9.2167795E-2,-2.7404372E-2,8.4096587E-1,5.835837E-1,3.5418648E-1,-2.825809E-1,6.2522966E-1,1.9325577E-1,1.1947822E-1,3.9275818E-2,5.0938725E-1,-1.390064E-1,-6.9888663E-1,2.9585307E-2,-1.2507069E-2,-4.3979892E-1,5.8811758E-2,-5.914503E-1,-3.5628048E-1,-7.255807E-1,4.1256478E-1,1.2985829E-1,7.928372E-1,2.4392712E-1,1.0497396E-1,-2.1561291E-2,-3.4247357E-1,1.2842943E-1,6.730369E-1,-4.5495704E-2,3.700437E-1,-1.528131E-1,-1.6962094E-2,1.1485162E-1,3.486553E-1,-3.68446E-1,-2.388315E-1,-7.784122E-1,9.216879E-2,-3.0391186E-1,1.1048799E-1,-4.5007074E-1,-5.426973E-1,1.15728796E-1,3.1339277E-2,-7.204508E-1,3.5375506E-2,-5.600703E-1,-5.25404E-1,-7.643664E-1,1.9992173E-2,7.885191E-2,1.2546347E-1,2.9611092E-2,6.136066E-1,-1.3403381E-1,-2.0406297E-1,-5.4958624E-1,8.8575825E-2,-2.4828964E-1,7.60144E-1,3.9623255E-1,4.268979E-1,-2.667401E-1,1.2934808E-1,-4.4346127E-1,-5.7139597E-4,8.754411E-2,2.7089188E-2,-4.8667032E-1,-4.4625497E-1,2.8293056E-2,-1.218249E-1,-2.6593676E-2,-8.349052E-2,1.5116538E-3,1.6582023E-1,-4.8715454E-1,-1.2622203E-1,-6.764549E-1,-7.142393E-1,-1.21699914E-1,9.104583E-2,-7.8495495E-2,-1.19507134E-1,-2.1302348E-2,-2.1900717E-2,-1.0169802E-1,5.031841E-3,-6.1443216E-1,-5.4043746E-1,-8.133972E-1,1.0562856E-1,2.8143074E-2,8.250198E-2,-4.2187536E-1,7.1826233E-3,-5.778605E-1,-6.8874127E-1,-1.0313473E-1,-8.969718E-2,2.9897563E-2,4.5136717E-1,8.0443466E-1,6.0400337E-1,-1.3098417E-1,4.6210632E-1,-5.03395E-2,1.847113E-2,-9.435739E-2,2.378236E-1,-8.53982E-2,1.9939972E-2,-5.644085E-1,-1.941307E-1,-1.0520605E-1,-2.5763223E-2,-8.104654E-2,3.407468E-1,2.6811592E-2,-8.807104E-2,-2.5553385E-2,1.8521738E-1,-9.0369545E-2,-2.4029102E-2,-1.15655474E-1,-2.4019068E-1,-1.23228945E-1,5.9624266E-2,-4.9914724E-1,-1.6817601E-1,-1.1897057E-1,-1.17357165E-1,-1.599255E-1,-2.3570282E-2,-1.2480566E-1,-9.836799E-2,-9.3434966E-4,-1.02449425E-1,2.1912108E-1,4.0015078E-4,-1.1360378E-1,-2.2972325E-2,-1.2553133E-1,2.8969077E-2,-4.726206E-2,1.0606063E-1,-3.548994E-2,1.2483277E-1,4.4134147E-2,1.1062609E-1,2.916426E-1,7.975837E-2,-9.589208E-2,1.2810457E-1,3.3904505E-1,4.5953855E-1,-1.7101094E-1,-1.7969599E-2,-6.588843E-1,2.7392287E-2,-6.1182804E-2,4.883963E-1,-2.9267687E-1,1.9468437E-1,-4.347055E-1,8.5571215E-2,-2.1676814E-2,-8.393611E-2,2.6661612E-2,-9.095115E-2,-2.527375E-2,8.022991E-2,-9.365248E-2,-4.383344E-1,3.066506E-2,1.1178846E-1,-1.4739326E-1,8.203692E-2,-2.8589685E-3,1.6678135E-1,7.1051735E-1,7.0088774E-1,-5.0507355E-2,-4.818204E-1,4.516378E-2,-2.3167746E-1,-1.19668566E-1,1.0570418E-1,3.6620904E-2,2.9134879E-2,-9.008639E-2,7.323964E-2,-4.8697433E-3,-9.3072E-2,2.7550012E-2,-8.382961E-2,-2.111896E-2,8.373479E-2,-5.6914557E-2,7.489841E-2,-2.6469275E-2,2.7924942E-2,1.1444857E-1,1.1718101E-1,3.1826943E-2,-8.724831E-2,-2.8055342E-2,2.6579091E-2,-8.1939265E-2],"categories":[0,1,2,3,4,5,6,7,8,9,10,11,13,5,11,13,1,2,3,1,2,3,4,5,6,7,0,3,1,3,4,5,6,8,0,3,0,1,3,0,1,3,0,2,0,1,2,6,7,8,0,1,3,0,2,3,0,1,1,3,1,0,2,0,1,3,1,0,1,0,1,2,3,4,5,6,0,1,3,3,0,1,0,1,2,3,4,6,7,8,9,10,11,12,13,1,1,2,5,11,0,1,2,0,2,3,0,1,2,4,5,6,8,0,1,2,3,4,5,6,7,8,9,10,12,13,1,2,3,0,1,2,3,5,6,7,8,9,0,1,3,1,0,2,3,1,2,3,2,1,11,3,0,1,2,0,1,2,0,3,0,3,1,2,2,3,3,0,1,3,0,1],"categories_nodes":[2,3,9,10,13,14,15,20,24,32,33,34,35,38,40,41,44,49,52,56,64,68,69,70,77,82,90,97,98,99,100,101,102,110,112,118,119,123,126,131,134,135,139,140,143,150,151,160,172,180,183,184,185,195,198,201],"categories_segments":[0,13,16,19,22,26,28,29,34,36,39,42,44,50,53,56,58,60,61,63,66,67,69,76,79,80,81,82,95,96,98,100,103,106,109,113,126,129,138,141,142,145,148,149,150,151,152,155,157,158,160,162,164,166,167,170],"categories_sizes":[13,3,3,3,4,2,1,5,2,3,3,2,6,3,3,2,2,1,2,3,1,2,7,3,1,1,1,13,1,2,2,3,3,3,4,13,3,9,3,1,3,3,1,1,1,1,3,2,1,2,2,2,2,1,3,2],"default_left":[0,0,1,1,0,0,0,0,0,1,1,0,0,1,1,1,0,0,0,0,1,0,0,0,1,0,0,0,0,0,0,0,1,1,1,1,0,0,1,0,1,1,0,0,1,0,0,0,0,1,0,0,1,0,0,0,1,0,0,0,0,0,0,0,1,0,0,0,1,1,1,0,0,0,0,0,0,1,0,0,0,0,1,0,0,0,0,0,0,0,1,0,0,0,0,0,0,1,1,1,1,1,1,0,0,0,0,0,0,0,1,0,1,0,0,0,0,0,1,1,0,0,0,1,0,0,1,0,0,0,0,1,0,0,1,1,0,0,0,1,1,0,0,1,0,0,0,0,0,0,1,1,0,0,0,0,0,0,0,0,1,0,0,0,0,0,0,0,0,0,0,0,1,0,0,0,0,0,0,0,1,0,0,1,1,1,0,0,0,0,0,0,0,0,0,1,0,0,1,0,0,1,0,0,0,0,0,0,0,0,0,0,0,0,0,0,0,0,0,0,0,0,0,0,0,0,0,0,0,0,0],"id":3,"left_children":[1,3,5,7,9,11,13,15,17,19,21,23,-1,25,27,29,31,33,35,37,39,-1,-1,41,43,45,47,49,51,-1,-1,53,55,57,59,61,63,-1,65,67,69,71,-1,73,75,-1,-1,77,79,81,-1,83,85,-1,-1,87,89,91,93,-1,95,97,99,101,103,-1,105,-1,107,109,111,-1,-1,-1,-1,113,115,117,119,-1,121,123,125,127,129,131,133,-1,-1,-1,135,137,-1,-1,-1,-1,-1,139,141,143,145,147,149,-1,-1,-1,-1,-1,-1,-1,151,153,155,-1,-1,-1,157,159,161,163,165,-1,-1,167,169,171,173,175,-1,-1,-1,177,-1,-1,179,181,-1,-1,-1,183,185,-1,-1,187,-1,-1,-1,189,-1,-1,191,193,-1,-1,195,-1,-1,-1,-1,-1,197,-1,-1,-1,-1,-1,-1,-1,-1,-1,-1,-1,199,-1,-1,-1,201,203,205,-1,207,-1,-1,209,211,213,215,-1,-1,-1,-1,-1,-1,-1,-1,217,-1,-1,219,-1,-1,221,223,225,-1,227,-1,229,-1,-1,-1,-1,-1,-1,-1,-1,-1,-1,-1,-1,-1,-1,-1,-1,-1,-1,-1,-1,-1,-1,-1],"loss_changes":[5.4610706E1,1.419368E1,1.257328E1,8.902871E0,2.9063454E0,1.5150948E0,1.0241498E1,2.6252992E0,4.755319E0,6.9288254E-1,7.2947615E-1,5.326958E-1,0E0,2.2231865E0,5.606062E0,1.5959597E-1,2.2594752E0,2.2587938E0,3.0699534E0,2.467479E0,3.7383652E-1,0E0,0E0,3.923416E-2,1.8380957E0,1.2118592E0,1.0551143E0,2.2845058E0,5.48966E0,0E0,0E0,1.5052495E0,1.6721776E0,8.063364E-1,1.3482696E0,3.4006865E0,1.3893952E0,0E0,1.4244146E0,9.6693945E-1,1.5286636E-1,5.479473E-2,0E0,2.8235626E-1,1.806519E0,0E0,0E0,9.2339563E-1,1.1826124E0,7.809601E-1,0E0,2.2524347E0,2.5778565E0,0E0,0E0,4.1037077E-1,7.28467E-1,5.6648505E-1,3.162117E-1,0E0,3.5959777E-1,1.7145686E0,9.306681E-1,1.3398409E0,1.7149009E0,0E0,3.654971E-1,0E0,1.6678798E-1,7.565956E-1,1.9309998E-1,0E0,0E0,0E0,0E0,1.1552954E-1,1.5950868E0,1.839554E0,7.912736E-1,0E0,7.4255586E-1,8.888435E-2,1.4847007E0,1.621233E0,8.4832335E-1,1.3759758E0,1.1461878E0,0E0,0E0,0E0,3.90864E-1,9.429574E-3,0E0,0E0,0E0,0E0,0E0,1.1085647E0,4.063201E-2,1.1396544E0,2.6357293E-1,5.061264E-1,1.5554638E0,0E0,0E0,0E0,0E0,0E0,0E0,0E0,8.88165E-1,1.1021557E0,4.2334175E-1,0E0,0E0,0E0,5.24651E-1,2.4664767E0,8.7786126E-1,6.974106E-1,3.418015E-1,0E0,0E0,1.2974261E0,1.4673424E-1,1.7617726E-1,1.8386141E0,2.248495E0,0E0,0E0,0E0,1.4268725E0,0E0,0E0,4.6254826E-1,4.7185528E-1,0E0,0E0,0E0,2.0384688E0,2.153044E0,0E0,0E0,7.119621E-1,0E0,0E0,0E0,6.288177E-1,0E0,0E0,5.567348E-2,1.915677E0,0E0,0E0,7.4274296E-1,0E0,0E0,0E0,0E0,0E0,2.5925667E0,0E0,0E0,0E0,0E0,0E0,0E0,0E0,0E0,0E0,0E0,0E0,3.6443758E-1,0E0,0E0,0E0,2.5503573E0,2.1415043E0,1.0194536E0,0E0,4.328885E-1,0E0,0E0,7.1612597E-1,7.8477544E-1,1.3674052E0,9.675193E-1,0E0,0E0,0E0,0E0,0E0,0E0,0E0,0E0,6.361157E-2,0E0,0E0,1.5909805E0,0E0,0E0,3.4895706E0,2.1307182E-1,1.4565778E-1,0E0,8.2781315E-3,0E0,6.0658544E-1,0E0,0E0,0E0,0E0,0E0,0E0,0E0,0E0,0E0,0E0,0E0,0E0,0E0,0E0,0E0,0E0,0E0,0E0,0E0,0E0,0E0,0E0,0E0],"parents":[2147483647,0,0,1,1,2,2,3,3,4,4,5,5,6,6,7,7,8,8,9,9,10,10,11,11,13,13,14,14,15,15,16,16,17,17,18,18,19,19,20,20,23,23,24,24,25,25,26,26,27,27,28,28,31,31,32,32,33,33,34,34,35,35,36,36,38,38,39,39,40,40,41,41,43,43,44,44,47,47,48,48,49,49,51,51,52,52,55,55,56,56,57,57,58,58,60,60,61,61,62,62,63,63,64,64,66,66,68,68,69,69,70,70,75,75,76,76,77,77,78,78,80,80,81,81,82,82,83,83,84,84,85,85,86,86,90,90,91,91,97,97,98,98,99,99,100,100,101,101,102,102,110,110,111,111,112,112,116,116,117,117,118,118,119,119,120,120,123,123,124,124,125,125,126,126,127,127,131,131,134,134,135,135,139,139,140,140,143,143,147,147,150,150,151,151,154,154,160,160,172,172,176,176,177,177,178,178,180,180,183,183,184,184,185,185,186,186,195,195,198,198,201,201,202,202,203,203,205,205,207,207],"right_children":[2,4,6,8,10,12,14,16,18,20,22,24,-1,26,28,30,32,34,36,38,40,-1,-1,42,44,46,48,50,52,-1,-1,54,56,58,60,62,64,-1,66,68,70,72,-1,74,76,-1,-1,78,80,82,-1,84,86,-1,-1,88,90,92,94,-1,96,98,100,102,104,-1,106,-1,108,110,112,-1,-1,-1,-1,114,116,118,120,-1,122,124,126,128,130,132,134,-1,-1,-1,136,138,-1,-1,-1,-1,-1,140,142,144,146,148,150,-1,-1,-1,-1,-1,-1,-1,152,154,156,-1,-1,-1,158,160,162,164,166,-1,-1,168,170,172,174,176,-1,-1,-1,178,-1,-1,180,182,-1,-1,-1,184,186,-1,-1,188,-1,-1,-1,190,-1,-1,192,194,-1,-1,196,-1,-1,-1,-1,-1,198,-1,-1,-1,-1,-1,-1,-1,-1,-1,-1,-1,200,-1,-1,-1,202,204,206,-1,208,-1,-1,210,212,214,216,-1,-1,-1,-1,-1,-1,-1,-1,218,-1,-1,220,-1,-1,222,224,226,-1,228,-1,230,-1,-1,-1,-1,-1,-1,-1,-1,-1,-1,-1,-1,-1,-1,-1,-1,-1,-1,-1,-1,-1,-1,-1],"split_conditions":[3.5E1,4.35E-1,NaN,NaN,4E0,5.96E-1,3.5E1,1.67E2,2.9E1,NaN,NaN,1.77E2,-2.683955E-2,NaN,NaN,NaN,3.1E1,3.86E-1,4E0,5.29E-1,NaN,9.2167795E-2,-2.7404372E-2,2E-2,NaN,3.4E-1,4E0,2E0,1.97E2,1.1947822E-1,3.9275818E-2,1.77E2,NaN,NaN,NaN,NaN,3.77E-1,5.8811758E-2,NaN,1.56E2,NaN,NaN,1.2985829E-1,3.92E-1,NaN,1.0497396E-1,-2.1561291E-2,3.3E1,2E0,NaN,-4.5495704E-2,3.68E-1,NaN,-1.6962094E-2,1.1485162E-1,1.84E2,NaN,2.5E1,3.33E2,9.216879E-2,2.7E1,3.18E2,1.39E-1,3E0,NaN,3.1339277E-2,2.89E2,3.5375506E-2,NaN,NaN,NaN,1.9992173E-2,7.885191E-2,1.2546347E-1,2.9611092E-2,1.98E2,5.3E-2,NaN,1.87E2,8.8575825E-2,1.84E2,1.54E2,NaN,4E0,3E0,4E0,2.07E2,-5.7139597E-4,8.754411E-2,2.7089188E-2,NaN,5E0,2.8293056E-2,-1.218249E-1,-2.6593676E-2,-8.349052E-2,1.5116538E-3,NaN,NaN,NaN,NaN,NaN,NaN,9.104583E-2,-7.8495495E-2,-1.19507134E-1,-2.1302348E-2,-2.1900717E-2,-1.0169802E-1,5.031841E-3,NaN,2E0,NaN,1.0562856E-1,2.8143074E-2,8.250198E-2,3.5E1,2.6E1,NaN,NaN,3E0,-8.969718E-2,2.9897563E-2,NaN,5E0,1.85E2,NaN,3.5E-2,-5.03395E-2,1.847113E-2,-9.435739E-2,NaN,-8.53982E-2,1.9939972E-2,NaN,NaN,-1.0520605E-1,-2.5763223E-2,-8.104654E-2,NaN,NaN,-8.807104E-2,-2.5553385E-2,NaN,-9.0369545E-2,-2.4029102E-2,-1.15655474E-1,3.03E2,-1.23228945E-1,5.9624266E-2,NaN,NaN,-1.1897057E-1,-1.17357165E-1,6.7E-1,-2.3570282E-2,-1.2480566E-1,-9.836799E-2,-9.3434966E-4,-1.02449425E-1,NaN,4.0015078E-4,-1.1360378E-1,-2.2972325E-2,-1.2553133E-1,2.8969077E-2,-4.726206E-2,1.0606063E-1,-3.548994E-2,1.2483277E-1,4.4134147E-2,1.1062609E-1,NaN,7.975837E-2,-9.589208E-2,1.2810457E-1,2.13E-1,2.92E-1,7.2E-2,-1.7969599E-2,NaN,2.7392287E-2,-6.1182804E-2,NaN,NaN,NaN,3.3E1,8.5571215E-2,-2.1676814E-2,-8.393611E-2,2.6661612E-2,-9.095115E-2,-2.527375E-2,8.022991E-2,-9.365248E-2,NaN,3.066506E-2,1.1178846E-1,NaN,8.203692E-2,-2.8589685E-3,NaN,1.32E2,3E0,-5.0507355E-2,2.19E2,4.516378E-2,1.64E-1,-1.19668566E-1,1.0570418E-1,3.6620904E-2,2.9134879E-2,-9.008639E-2,7.323964E-2,-4.8697433E-3,-9.3072E-2,2.7550012E-2,-8.382961E-2,-2.111896E-2,8.373479E-2,-5.6914557E-2,7.489841E-2,-2.6469275E-2,2.7924942E-2,1.1444857E-1,1.1718101E-1,3.1826943E-2,-8.724831E-2,-2.8055342E-2,2.6579091E-2,-8.1939265E-2],"split_indices":[18,20,22,22,9,20,17,12,17,2,4,12,0,19,1,5,18,20,23,20,19,0,0,20,2,20,9,16,12,0,0,12,5,2,3,19,20,0,5,12,4,0,0,20,1,0,0,17,23,4,0,20,2,0,0,12,3,18,12,0,18,12,20,9,4,0,12,0,0,19,5,0,0,0,0,12,20,2,12,0,12,12,0,23,9,16,12,0,0,0,0,23,0,0,0,0,0,22,0,2,22,3,0,0,0,0,0,0,0,0,1,9,19,0,0,0,17,17,22,5,23,0,0,19,23,12,5,20,0,0,0,4,0,0,5,4,0,0,0,4,3,0,0,22,0,0,0,12,0,0,0,2,0,0,20,0,0,0,0,0,3,0,0,0,0,0,0,0,0,0,0,0,1,0,0,0,20,20,20,0,3,0,0,1,1,2,18,0,0,0,0,0,0,0,0,0,0,0,4,0,0,2,12,9,0,12,0,20,0,0,0,0,0,0,0,0,0,0,0,0,0,0,0,0,0,0,0,0,0,0,0],"split_type":[0,0,1,1,0,0,0,0,0,1,1,0,0,1,1,1,0,0,0,0,1,0,0,0,1,0,0,0,0,0,0,0,1,1,1,1,0,0,1,0,1,1,0,0,1,0,0,0,0,1,0,0,1,0,0,0,1,0,0,0,0,0,0,0,1,0,0,0,1,1,1,0,0,0,0,0,0,1,0,0,0,0,1,0,0,0,0,0,0,0,1,0,0,0,0,0,0,1,1,1,1,1,1,0,0,0,0,0,0,0,1,0,1,0,0,0,0,0,1,1,0,0,0,1,0,0,1,0,0,0,0,1,0,0,1,1,0,0,0,1,1,0,0,1,0,0,0,0,0,0,1,1,0,0,0,0,0,0,0,0,1,0,0,0,0,0,0,0,0,0,0,0,1,0,0,0,0,0,0,0,1,0,0,1,1,1,0,0,0,0,0,0,0,0,0,1,0,0,1,0,0,1,0,0,0,0,0,0,0,0,0,0,0,0,0,0,0,0,0,0,0,0,0,0,0,0,0,0,0,0,0],"sum_hessian":[4.8331958E2,2.3867586E2,2.446437E2,1.4557529E2,9.310057E1,6.544215E1,1.7920155E2,3.1027874E1,1.1454741E2,9.013904E1,2.9615314E0,6.3959465E1,1.4826832E0,4.553224E1,1.3366933E2,1.0338351E1,2.0689524E1,3.107577E1,8.347164E1,1.3805204E1,7.633384E1,1.484778E0,1.4767534E0,3.6376854E1,2.7582613E1,5.4569416E0,4.00753E1,4.5865105E1,8.7804214E1,8.367343E0,1.9710081E0,7.892652E0,1.2796871E1,2.612085E1,4.954919E0,6.1264458E1,2.2207182E1,2.4671798E0,1.1338024E1,5.9186373E0,7.04152E1,2.9523194E0,3.3424534E1,1.624207E1,1.1340543E1,2.981701E0,2.4752407E0,3.512379E1,4.951508E0,4.388098E1,1.9841257E0,5.8070072E1,2.9734142E1,2.4648635E0,5.4277887E0,3.9281664E0,8.868706E0,4.4398026E0,2.1681047E1,1.493395E0,3.4615238E0,4.840559E1,1.2858867E1,1.8756145E1,3.4510357E0,1.4877489E0,9.850276E0,1.4751863E0,4.443451E0,1.3790008E1,5.662519E1,1.4789721E0,1.4733472E0,1.4757101E1,1.4849682E0,5.4178944E0,5.9226484E0,2.224382E1,1.28799715E1,1.9689445E0,2.9825635E0,3.2049294E1,1.1831687E1,5.361293E1,4.4571414E0,1.5368942E1,1.43652E1,1.9647602E0,1.9634062E0,1.4778633E0,7.390842E0,2.9596343E0,1.4801683E0,2.0195932E1,1.4851152E0,1.4898474E0,1.9716763E0,4.496508E1,3.4405117E0,5.9313984E0,6.927469E0,1.2831292E1,5.9248543E0,1.9795021E0,1.4715338E0,8.369451E0,1.4808254E0,1.4810225E0,2.9624283E0,1.9802867E0,1.1809721E1,1.2330935E1,4.429426E1,3.9292717E0,1.4886227E0,1.4843396E0,4.438309E0,1.4838734E1,7.405085E0,9.405621E0,3.4743507E0,1.4858189E0,1.4967445E0,5.4242926E0,2.6625E1,8.38256E0,3.4491272E0,5.162317E1,1.9897606E0,2.4648442E0,1.9922973E0,1.3874405E1,1.4945374E0,2.4743185E0,1.1890882E1,3.9343522E0,3.4564898E0,1.4765193E0,1.4831152E0,1.9267658E1,2.5697422E1,1.9665035E0,1.4740083E0,3.9556656E0,1.9757326E0,1.489723E0,5.437746E0,2.9657712E0,9.865521E0,2.4717464E0,3.4531076E0,3.9319837E0,7.8777375E0,6.8923783E0,5.438556E0,1.48383E0,4.281043E1,2.470338E0,1.967971E0,2.9639614E0,1.1874773E1,1.9815484E0,5.423537E0,2.4784431E0,6.9271774E0,1.4859915E0,1.9883592E0,3.9342432E0,1.4900494E0,2.4651445E1,1.9735562E0,4.919062E0,3.463497E0,1.4771549E0,1.9719723E0,1.0916512E1,4.0706657E1,8.915449E0,4.9589553E0,2.4813683E0,9.409513E0,1.4769255E0,2.4574265E0,1.58110895E1,3.456568E0,1.9267282E1,6.4301395E0,1.4875158E0,2.4681497E0,1.4889903E0,1.4767808E0,1.9780866E0,1.4750209E0,1.4794275E0,2.4525561E0,2.967809E0,2.4707472E0,4.451391E0,7.423382E0,1.4840056E0,1.9794915E0,2.8800097E1,1.1906562E1,6.933604E0,1.9818456E0,2.9778805E0,1.9810749E0,2.963406E0,6.446107E0,7.385719E0,8.425371E0,1.4820434E0,1.9745246E0,7.9032154E0,1.1364067E1,4.942024E0,1.4881155E0,1.4871235E0,1.4806856E0,1.4891343E0,5.934247E0,1.4397128E1,1.4402967E1,1.4968389E0,1.0409722E1,5.4408827E0,1.4927211E0,1.4975511E0,1.4803293E0,1.4785029E0,1.4849033E0],"tree_param":{"num_deleted":"0","num_feature":"26","num_nodes":"231","size_leaf_vector":"1"}},{"base_weights":[-1.0869617E-2,2.818688E-1,-2.9419962E-1,5.896109E-1,1.4193243E-1,-8.300347E-2,-5.5619943E-1,6.425377E-1,2.2461885E-1,2.3758052E-1,-2.5958848E-1,-1.9476922E-1,4.19212E-1,-2.8738627E-1,-6.574276E-1,4.5787475E-1,7.161536E-1,1.0316883E-1,-1.3790162E-1,3.8624406E-1,-3.981707E-2,1.2149477E-1,-4.4780308E-1,6.569765E-2,-2.6868278E-1,5.03971E-1,-2.7390538E-2,3.0232245E-1,-5.1137424E-1,-1.08002886E-1,-4.986036E-1,5.269921E-1,-3.9528377E-2,7.3450583E-1,1.6663661E-2,2.911166E-1,-9.651918E-2,5.246879E-1,1.7013039E-1,2.0419633E-1,-3.1818393E-1,5.255111E-1,-1.6387676E-1,-5.32981E-1,3.9714687E-2,2.6853374E-1,-1.7415121E-1,-1.8756102E-1,-5.155198E-1,5.925298E-1,2.091173E-1,4.2450037E-2,-4.902489E-2,1.0161901E-1,-9.43571E-2,-2.3169696E-1,-1.0646167E-1,-6.928701E-2,-6.239067E-1,7.1133894E-1,1.2390728E-1,1.1295541E-1,3.4434516E-2,8.629511E-2,-2.5419353E-2,6.3209474E-1,2.5541922E-1,4.6034983E-1,-9.870721E-2,-2.4858446E-1,3.5060245E-1,7.182861E-2,-3.956059E-1,2.3869937E-2,9.4862685E-2,-9.369905E-2,1.9287018E-1,-1.7165746E-1,-7.152228E-1,-1.5408055E-1,5.080611E-1,1.9368272E-1,-4.893107E-1,-9.413702E-2,-4.7631004E-1,-6.5836704E-1,5.869683E-2,2.4181497E-1,7.0800817E-1,9.863141E-2,-5.460581E-2,2.0702095E-1,-7.938087E-2,-1.779082E-2,-9.3582645E-2,3.2921666E-1,-8.624566E-2,-2.4620187E-1,-7.327125E-1,1.1530978E-1,2.257365E-2,-7.975999E-2,3.8105774E-1,1.9970838E-2,6.493731E-1,1.04676545E-1,-1.5099651E-2,6.072168E-1,1.8261388E-1,2.9494333E-1,-3.4342512E-1,7.906986E-2,-5.5385107E-1,5.3438723E-1,-3.705381E-2,-4.8763108E-1,4.884227E-2,7.7566564E-2,-1.4181961E-2,5.3592023E-2,-4.1111085E-1,-2.2351649E-2,-1.1646584E-1,4.2851437E-2,-6.731813E-2,6.497277E-1,-2.1807555E-2,8.860652E-2,-1.9691385E-1,-1.037388E-1,1.2657305E-3,-1.6231814E-1,3.760596E-1,8.398153E-3,-5.53834E-1,-4.0636647E-2,-1.0322573E-1,4.6517232E-1,-3.220425E-2,2.6207967E-2,1.15582034E-1,7.1691476E-2,-2.1491516E-2,7.373301E-2,-1.9901532E-1,8.310232E-2,4.3310076E-3,3.5746958E-2,-8.130899E-2,-1.1769628E-1,-2.3214452E-2,-3.366122E-2,9.5458455E-2,1.1662922E-1,4.9663314E-1,4.074949E-1,-2.1232274E-1,1.3922901E-2,1.1229034E-1,4.8240376E-1,-2.0139658E-1,5.5572367E-1,-4.844477E-2,-1.0717036E-1,-1.14781916E-1,-2.0638535E-2,-1.0075682E-1,6.067051E-1,1.9760062E-1,2.404532E-1,-8.066374E-2,-5.973619E-1,-3.219788E-1,2.5124236E-3,-9.4589114E-2,1.0872582E-1,2.9110726E-2,3.0125324E-2,-7.7817604E-2,1.4595683E-1,-2.919993E-1,9.7652964E-2,5.9605576E-3,-6.8928796E-1,-1.03702076E-1,2.7220262E-2,8.370787E-2,2.6398487E-2,-4.5066348E-1,3.309558E-2,-2.4987679E-2,6.432623E-1,3.0784166E-1,2.2946626E-2,7.443E-2,5.1493417E-2,-5.190767E-1,8.821303E-2,2.3502842E-2,2.836109E-2,-7.631675E-2,9.908245E-2,2.1389823E-2,1.1413175E-1,-4.2782506E-1,1.06416166E-1,3.3783373E-1,-2.4119817E-2,7.1545295E-2,9.417707E-2,-4.3535195E-2,-2.2893341E-1,-1.0755134E-1,1.1344042E-2,-4.6755144E-1,-1.494674E-1,5.2480465E-1,-1.7789653E-2,-5.145671E-1,2.806612E-2,-2.6904957E-2,-1.1445037E-1,-1.9974265E-2,7.9284124E-2,-8.927529E-2,-8.082781E-2,-2.3655118E-2,1.6918806E-2,1.0858264E-1,7.830139E-2,2.9410904E-3,-2.1928772E-2,4.0022276E-2,-2.8355528E-2,-9.5103726E-2,8.335024E-2,-3.6947552E-2,-7.795422E-2,-2.3684965E-2,2.3476349E-3,8.174344E-2,-8.394795E-2,2.9146353E-2,7.8651205E-2,-7.61458E-2,-1.0113915E-1,2.528974E-2,6.680322E-2,-6.7654945E-2,-2.6261602E-2,1.15328535E-1,6.7203455E-2,-2.428448E-2,-2.1754906E-2,-9.878331E-2],"categories":[12,0,1,2,3,4,5,6,9,10,0,1,2,3,4,6,7,8,9,10,12,13,1,2,3,11,12,13,7,11,2,3,4,5,3,1,1,2,3,0,1,0,1,2,3,4,6,7,8,9,10,12,13,0,2,0,1,2,3,4,5,6,7,8,9,10,11,13,5,12,0,1,5,12,0,1,0,1,3,1,2,0,2,0,1,2,3,0,1,2,3,4,5,6,7,8,9,10,12,0,2,3,0,1,3,0,1,3,1,4,5,6,0,1,0,1,2,3,5,7,8,9,0,2,0,2,3,3,0,1,12,0,2,3,0,1,2,3,4,6,7,8,9,10,12,4,5,0,1,2,3,4,6,2,3,2,0,3,1,1,2,2,3,0,1,0,0,1,12,3,2,12,2,3,0,1,0,3,11,11,0,1,0,1,0,1,2],"categories_nodes":[2,8,9,10,13,15,18,20,21,24,25,26,28,31,37,41,43,46,47,50,54,55,57,58,59,67,68,69,76,77,78,79,80,81,84,87,91,93,95,104,106,108,109,113,114,125,137,144,154,156,160,164,167,169,171,180,182,184,196,203,204,215,218],"categories_segments":[0,1,10,22,25,28,29,30,32,34,35,36,39,41,53,55,68,70,72,74,76,79,81,83,86,87,99,102,105,108,109,112,114,122,124,127,128,130,131,134,145,147,153,155,156,158,159,161,163,165,166,168,169,170,171,172,174,176,178,179,180,182,184],"categories_sizes":[1,9,12,3,3,1,1,2,2,1,1,3,2,12,2,13,2,2,2,2,3,2,2,3,1,12,3,3,3,1,3,2,8,2,3,1,2,1,3,11,2,6,2,1,2,1,2,2,2,1,2,1,1,1,1,2,2,2,1,1,2,2,3],"default_left":[0,0,1,0,0,0,0,0,1,1,1,0,0,1,0,1,0,0,1,0,1,1,0,0,1,1,1,0,1,0,0,1,0,0,0,0,0,1,0,0,0,1,0,1,0,0,1,1,0,0,1,0,0,0,1,1,0,1,1,1,0,0,0,0,0,0,0,1,1,1,0,0,0,0,0,0,1,1,1,1,1,1,0,0,1,0,0,1,0,0,0,1,0,1,0,1,0,0,0,0,0,0,0,0,1,0,1,0,1,1,0,0,0,1,1,0,0,0,0,0,0,0,0,0,0,1,0,0,0,0,0,0,0,0,0,0,0,1,0,0,0,0,0,0,1,0,0,0,0,0,0,0,0,0,1,0,1,0,0,0,1,0,0,0,1,0,0,1,0,1,0,1,0,0,0,0,0,0,0,0,1,0,1,0,1,0,0,0,0,0,0,0,0,0,0,0,1,0,0,0,0,0,0,1,1,0,0,0,0,0,0,0,0,0,0,1,0,0,1,0,0,0,0,0,0,0,0,0,0,0,0,0,0,0,0,0,0,0,0,0,0,0,0,0,0,0,0,0,0,0,0,0,0,0,0],"id":4,"left_children":[1,3,5,7,9,11,13,15,17,19,21,23,25,27,29,31,33,-1,35,37,39,41,43,45,47,49,51,53,55,-1,57,59,-1,61,-1,63,-1,65,67,69,71,73,75,77,-1,79,81,83,85,87,89,-1,-1,-1,91,93,-1,95,97,99,101,-1,-1,-1,-1,103,105,107,109,111,113,-1,115,-1,-1,-1,117,119,121,123,125,127,129,131,133,135,-1,137,139,-1,-1,141,-1,143,-1,145,-1,147,149,-1,-1,-1,151,-1,153,-1,155,157,159,161,163,-1,165,167,169,171,-1,-1,-1,-1,173,-1,-1,-1,-1,175,-1,-1,177,-1,-1,179,181,-1,183,-1,-1,185,-1,-1,-1,-1,-1,-1,187,-1,-1,189,-1,-1,-1,-1,-1,-1,191,193,195,-1,-1,197,199,201,-1,-1,203,-1,-1,205,207,209,-1,211,213,-1,-1,-1,-1,-1,-1,215,217,-1,219,221,223,-1,-1,-1,225,-1,-1,227,229,-1,-1,231,233,-1,-1,-1,-1,-1,-1,235,237,-1,239,-1,-1,-1,-1,241,-1,243,245,247,249,251,253,-1,-1,-1,-1,-1,-1,-1,-1,-1,-1,-1,-1,-1,-1,-1,-1,-1,-1,-1,-1,-1,-1,-1,-1,-1,-1,-1,-1,-1,-1,-1,-1,-1,-1,-1,-1],"loss_changes":[3.9439697E1,9.988703E0,1.3323488E1,1.2618885E0,6.2870154E0,7.6567965E0,2.7407646E0,5.2902603E-1,1.900938E0,5.4356217E0,2.3254654E0,2.1560168E0,9.557471E-1,4.279585E0,4.1078186E-1,1.1729894E0,3.9918327E-1,0E0,1.6766797E0,2.473875E0,3.241673E0,1.3837291E0,1.440506E0,1.2803161E0,1.6397076E0,4.2355633E-1,5.4956895E-1,1.4366856E0,1.1118174E0,0E0,1.3092704E0,1.3430152E0,0E0,2.1865463E-1,0E0,6.738062E-1,0E0,1.334856E0,2.7707753E0,1.7795815E0,1.561645E0,9.1153026E-2,1.3300297E0,1.1582747E0,0E0,1.5087504E0,1.5119033E0,1.7582109E0,2.9620957E0,4.5970392E-1,1.8812176E0,0E0,0E0,0E0,8.122011E-1,9.142607E-1,0E0,1.5606391E0,6.1427593E-1,3.0292225E-1,1.4258096E0,0E0,0E0,0E0,0E0,2.2654724E-1,1.977025E0,5.814786E-1,1.9274449E0,1.9077219E0,1.4238586E0,0E0,1.5403297E0,0E0,0E0,0E0,5.065878E-1,1.1396551E0,3.2159662E-1,8.9014953E-1,9.5092773E-1,1.1021842E0,6.972598E-1,1.7199438E0,6.950884E-1,2.6156902E-2,0E0,6.481825E-1,2.3892307E-1,0E0,0E0,4.3723002E-1,0E0,8.51676E-1,0E0,2.8389946E-1,0E0,5.057494E-1,3.13931E-1,0E0,0E0,0E0,1.0384867E0,0E0,2.9569626E-1,0E0,1.0179077E0,7.0671463E-1,9.3768483E-1,1.43716E0,9.4889665E-1,0E0,1.717273E-1,2.0730948E-1,1.1399329E0,1.5049505E-1,0E0,0E0,0E0,0E0,5.6092614E-1,0E0,0E0,0E0,0E0,1.258173E-1,0E0,0E0,6.104677E-1,0E0,0E0,1.8772389E0,6.9367164E-1,0E0,7.9058886E-1,0E0,0E0,2.1985173E-3,0E0,0E0,0E0,0E0,0E0,0E0,7.149347E-1,0E0,0E0,1.8353413E-1,0E0,0E0,0E0,0E0,0E0,0E0,3.185401E-1,1.2106597E-2,6.965289E-1,0E0,0E0,5.913508E-2,5.650614E-1,1.5941381E-1,0E0,0E0,6.729841E-1,0E0,0E0,5.2471876E-2,4.6295473E-1,1.2863663E0,0E0,2.844298E-1,4.7522354E-1,0E0,0E0,0E0,0E0,0E0,0E0,1.6739184E0,1.9826257E0,0E0,1.6553327E-1,3.3667755E-1,1.6966047E0,0E0,0E0,0E0,2.6414871E-2,0E0,0E0,3.2828784E-1,6.117096E-1,0E0,0E0,2.6713789E-1,2.8752208E-2,0E0,0E0,0E0,0E0,0E0,0E0,1.0632001E0,1.4393091E-2,0E0,3.1398767E-1,0E0,0E0,0E0,0E0,6.635529E-1,0E0,1.3098707E0,1.0031801E0,1.7772243E0,1.2393097E0,1.1235691E0,8.6109686E-1,0E0,0E0,0E0,0E0,0E0,0E0,0E0,0E0,0E0,0E0,0E0,0E0,0E0,0E0,0E0,0E0,0E0,0E0,0E0,0E0,0E0,0E0,0E0,0E0,0E0,0E0,0E0,0E0,0E0,0E0,0E0,0E0,0E0,0E0,0E0,0E0],"parents":[2147483647,0,0,1,1,2,2,3,3,4,4,5,5,6,6,7,7,8,8,9,9,10,10,11,11,12,12,13,13,14,14,15,15,16,16,18,18,19,19,20,20,21,21,22,22,23,23,24,24,25,25,26,26,27,27,28,28,30,30,31,31,33,33,35,35,37,37,38,38,39,39,40,40,41,41,42,42,43,43,45,45,46,46,47,47,48,48,49,49,50,50,54,54,55,55,57,57,58,58,59,59,60,60,65,65,66,66,67,67,68,68,69,69,70,70,72,72,76,76,77,77,78,78,79,79,80,80,81,81,82,82,83,83,84,84,85,85,87,87,88,88,91,91,93,93,95,95,97,97,98,98,102,102,104,104,106,106,107,107,108,108,109,109,110,110,112,112,113,113,114,114,115,115,120,120,125,125,128,128,131,131,132,132,134,134,137,137,144,144,147,147,154,154,155,155,156,156,159,159,160,160,161,161,164,164,167,167,168,168,169,169,171,171,172,172,179,179,180,180,182,182,183,183,184,184,188,188,191,191,192,192,195,195,196,196,203,203,204,204,206,206,211,211,213,213,214,214,215,215,216,216,217,217,218,218],"right_children":[2,4,6,8,10,12,14,16,18,20,22,24,26,28,30,32,34,-1,36,38,40,42,44,46,48,50,52,54,56,-1,58,60,-1,62,-1,64,-1,66,68,70,72,74,76,78,-1,80,82,84,86,88,90,-1,-1,-1,92,94,-1,96,98,100,102,-1,-1,-1,-1,104,106,108,110,112,114,-1,116,-1,-1,-1,118,120,122,124,126,128,130,132,134,136,-1,138,140,-1,-1,142,-1,144,-1,146,-1,148,150,-1,-1,-1,152,-1,154,-1,156,158,160,162,164,-1,166,168,170,172,-1,-1,-1,-1,174,-1,-1,-1,-1,176,-1,-1,178,-1,-1,180,182,-1,184,-1,-1,186,-1,-1,-1,-1,-1,-1,188,-1,-1,190,-1,-1,-1,-1,-1,-1,192,194,196,-1,-1,198,200,202,-1,-1,204,-1,-1,206,208,210,-1,212,214,-1,-1,-1,-1,-1,-1,216,218,-1,220,222,224,-1,-1,-1,226,-1,-1,228,230,-1,-1,232,234,-1,-1,-1,-1,-1,-1,236,238,-1,240,-1,-1,-1,-1,242,-1,244,246,248,250,252,254,-1,-1,-1,-1,-1,-1,-1,-1,-1,-1,-1,-1,-1,-1,-1,-1,-1,-1,-1,-1,-1,-1,-1,-1,-1,-1,-1,-1,-1,-1,-1,-1,-1,-1,-1,-1],"split_conditions":[3.5E1,2.6E1,NaN,4E0,4E0,2.9E2,3.5E1,4E0,NaN,NaN,NaN,3.5E1,6E0,NaN,1.95E2,NaN,6E0,1.0316883E-1,NaN,3.5E1,NaN,NaN,4E0,1.85E2,NaN,NaN,NaN,1.93E2,NaN,-1.08002886E-1,2.11E2,NaN,-3.9528377E-2,4E0,1.6663661E-2,1.7E2,-9.651918E-2,NaN,2E0,1.58E2,2.6E1,NaN,2E0,NaN,3.9714687E-2,1.66E2,NaN,NaN,5E0,2E0,NaN,4.2450037E-2,-4.902489E-2,1.0161901E-1,NaN,NaN,-1.0646167E-1,NaN,NaN,NaN,2E0,1.1295541E-1,3.4434516E-2,8.629511E-2,-2.5419353E-2,0E0,2.7E1,NaN,NaN,NaN,1.81E2,7.182861E-2,2.06E2,2.3869937E-2,9.4862685E-2,-9.369905E-2,NaN,NaN,NaN,NaN,NaN,NaN,3E0,2.04E2,NaN,0E0,5.869683E-2,NaN,2.98E2,9.863141E-2,-5.460581E-2,NaN,-7.938087E-2,NaN,-9.3582645E-2,NaN,-8.624566E-2,3.09E2,3.25E2,1.1530978E-1,2.257365E-2,-7.975999E-2,2.4E1,1.9970838E-2,NaN,1.04676545E-1,NaN,3E1,NaN,NaN,0E0,7.906986E-2,2E0,NaN,NaN,3.2E1,4.884227E-2,7.7566564E-2,-1.4181961E-2,5.3592023E-2,3.2E1,-2.2351649E-2,-1.1646584E-1,4.2851437E-2,-6.731813E-2,NaN,-2.1807555E-2,8.860652E-2,1.94E2,-1.037388E-1,1.2657305E-3,1.58E2,1E0,8.398153E-3,3E0,-4.0636647E-2,-1.0322573E-1,NaN,-3.220425E-2,2.6207967E-2,1.15582034E-1,7.1691476E-2,-2.1491516E-2,7.373301E-2,NaN,8.310232E-2,4.3310076E-3,1E0,-8.130899E-2,-1.1769628E-1,-2.3214452E-2,-3.366122E-2,9.5458455E-2,1.1662922E-1,NaN,3E1,NaN,1.3922901E-2,1.1229034E-1,3E0,NaN,3.16E2,-4.844477E-2,-1.0717036E-1,NaN,-2.0638535E-2,-1.0075682E-1,NaN,3E0,NaN,-8.066374E-2,NaN,3.5E1,2.5124236E-3,-9.4589114E-2,1.0872582E-1,2.9110726E-2,3.0125324E-2,-7.7817604E-2,2E0,NaN,9.7652964E-2,NaN,4E0,NaN,2.7220262E-2,8.370787E-2,2.6398487E-2,1.74E2,3.309558E-2,-2.4987679E-2,2.4E1,3.1E1,2.2946626E-2,7.443E-2,3E2,NaN,8.821303E-2,2.3502842E-2,2.836109E-2,-7.631675E-2,9.908245E-2,2.1389823E-2,NaN,NaN,1.06416166E-1,3E0,-2.4119817E-2,7.1545295E-2,9.417707E-2,-4.3535195E-2,1E0,-1.0755134E-1,2E2,1.82E2,NaN,1.39E2,0E0,NaN,2.806612E-2,-2.6904957E-2,-1.1445037E-1,-1.9974265E-2,7.9284124E-2,-8.927529E-2,-8.082781E-2,-2.3655118E-2,1.6918806E-2,1.0858264E-1,7.830139E-2,2.9410904E-3,-2.1928772E-2,4.0022276E-2,-2.8355528E-2,-9.5103726E-2,8.335024E-2,-3.6947552E-2,-7.795422E-2,-2.3684965E-2,2.3476349E-3,8.174344E-2,-8.394795E-2,2.9146353E-2,7.8651205E-2,-7.61458E-2,-1.0113915E-1,2.528974E-2,6.680322E-2,-6.7654945E-2,-2.6261602E-2,1.15328535E-1,6.7203455E-2,-2.428448E-2,-2.1754906E-2,-9.878331E-2],"split_indices":[18,18,21,11,11,12,17,23,19,22,2,17,23,22,12,19,24,0,21,17,3,19,24,12,6,2,3,12,7,0,12,22,0,8,0,12,0,2,8,12,17,22,23,22,0,12,7,22,23,8,6,0,0,0,3,2,0,7,3,3,23,0,0,0,0,11,17,21,7,2,12,0,12,0,0,0,6,2,19,6,19,2,23,12,3,11,0,7,12,0,0,2,0,22,0,7,0,12,12,0,0,0,17,0,21,0,19,18,19,3,11,0,23,6,2,18,0,0,0,0,17,0,0,0,0,7,0,0,12,0,0,12,14,0,23,0,0,7,0,0,0,0,0,0,6,0,0,14,0,0,0,0,0,0,7,18,2,0,0,24,6,12,0,0,21,0,0,7,23,7,0,21,17,0,0,0,0,0,0,8,2,0,3,11,2,0,0,0,12,0,0,17,18,0,0,12,21,0,0,0,0,0,0,22,3,0,23,0,0,0,0,14,0,12,12,2,12,11,7,0,0,0,0,0,0,0,0,0,0,0,0,0,0,0,0,0,0,0,0,0,0,0,0,0,0,0,0,0,0,0,0,0,0,0,0],"split_type":[0,0,1,0,0,0,0,0,1,1,1,0,0,1,0,1,0,0,1,0,1,1,0,0,1,1,1,0,1,0,0,1,0,0,0,0,0,1,0,0,0,1,0,1,0,0,1,1,0,0,1,0,0,0,1,1,0,1,1,1,0,0,0,0,0,0,0,1,1,1,0,0,0,0,0,0,1,1,1,1,1,1,0,0,1,0,0,1,0,0,0,1,0,1,0,1,0,0,0,0,0,0,0,0,1,0,1,0,1,1,0,0,0,1,1,0,0,0,0,0,0,0,0,0,0,1,0,0,0,0,0,0,0,0,0,0,0,1,0,0,0,0,0,0,1,0,0,0,0,0,0,0,0,0,1,0,1,0,0,0,1,0,0,0,1,0,0,1,0,1,0,1,0,0,0,0,0,0,0,0,1,0,1,0,1,0,0,0,0,0,0,0,0,0,0,0,1,0,0,0,0,0,0,1,1,0,0,0,0,0,0,0,0,0,0,1,0,0,1,0,0,0,0,0,0,0,0,0,0,0,0,0,0,0,0,0,0,0,0,0,0,0,0,0,0,0,0,0,0,0,0,0,0,0,0],"sum_hessian":[4.73512E2,2.3289182E2,2.4062018E2,7.17934E1,1.610984E2,1.3395601E2,1.0666417E2,6.2037094E1,9.756311E0,1.3043517E2,3.0663244E1,1.1007214E2,2.388387E1,3.0229149E1,7.643502E1,1.9739931E1,4.2297165E1,3.8895667E0,5.866745E0,8.466756E1,4.5767605E1,1.025472E1,2.0408525E1,2.435561E1,8.571653E1,1.9966122E1,3.9177468E0,8.22497E0,2.2004179E1,5.2293156E1,2.4141863E1,1.8259924E1,1.4800068E0,4.084438E1,1.4527851E0,3.4030683E0,2.4636767E0,5.073716E1,3.3930393E1,2.4530704E1,2.1236902E1,3.8965957E0,6.3581243E0,1.8454557E1,1.9539676E0,1.313119E1,1.1224419E1,6.58388E1,1.9877733E1,1.4578055E1,5.3880672E0,1.9506656E0,1.9670811E0,3.8634758E0,4.361494E0,1.0030468E1,1.1973711E1,5.80513E0,1.8336733E1,1.2004876E1,6.2550488E0,3.8924606E1,1.9197729E0,1.950499E0,1.4525694E0,3.530652E1,1.5430642E1,1.597378E1,1.7956615E1,5.823336E0,1.8707367E1,1.4211777E0,1.9815725E1,1.442286E0,2.4543097E0,2.4467933E0,3.9113312E0,6.838351E0,1.1616207E1,4.8792076E0,8.251983E0,5.3572392E0,5.86718E0,5.0746056E1,1.5092739E1,1.7409348E1,2.4683864E0,4.3774633E0,1.0200592E1,2.9403594E0,2.447708E0,2.885548E0,1.475946E0,7.1668825E0,2.863586E0,3.4417953E0,2.3633347E0,4.830628E0,1.3506105E1,1.0554182E1,1.450694E0,1.4613485E0,4.7937E0,1.4730825E0,3.3833435E1,5.2556143E0,1.0175028E1,9.672594E0,6.3011856E0,6.804973E0,1.1151642E1,1.4392488E0,4.384087E0,1.2433999E1,6.2733684E0,1.7860653E1,1.9550732E0,1.4624013E0,2.4489298E0,1.9776902E0,4.8606606E0,1.4684179E0,1.0147789E1,1.9701E0,2.9091074E0,6.786386E0,1.4655968E0,2.4026766E0,2.9545624E0,3.8948884E0,1.9722916E0,4.489135E1,5.8547077E0,1.95399E0,1.3138749E1,1.964221E0,1.5445127E1,2.9265907E0,1.4508728E0,1.4688663E0,8.731726E0,1.4216471E0,1.463901E0,1.4314084E0,5.735474E0,1.4854037E0,1.9563917E0,2.923626E0,1.907002E0,1.2064472E1,1.4416337E0,1.4578437E0,3.3358564E0,1.6173056E1,1.766038E1,2.8983989E0,7.276629E0,2.4425287E0,7.2300653E0,3.394745E0,2.9064405E0,4.856139E0,1.9488338E0,3.441664E0,7.709978E0,1.4456707E0,2.9384165E0,9.576246E0,2.8577528E0,4.3707333E0,1.9026351E0,9.176118E0,8.684534E0,1.9611955E0,2.899465E0,5.318858E0,1.4675277E0,1.4897041E0,1.4648583E0,1.3255407E1,3.1635942E1,2.9236093E0,2.9310987E0,9.6911745E0,3.4475746E0,1.4503287E0,1.476262E0,2.423955E0,3.311519E0,1.4803815E0,1.4432445E0,8.585215E0,9.075165E0,1.4532418E0,1.4451569E0,4.359491E0,2.917138E0,1.9549353E0,1.4398098E0,1.4497261E0,1.4567144E0,3.395625E0,1.4605142E0,4.820434E0,2.8895438E0,5.743183E0,3.8330636E0,1.4377246E0,1.4200282E0,2.4206295E0,1.9501036E0,2.9636292E0,6.2124887E0,2.9201758E0,5.7643585E0,7.7878995E0,5.4675083E0,1.4657468E1,1.6978474E1,1.4774071E0,1.4536916E0,8.228493E0,1.4626818E0,1.4747974E0,1.9727771E0,1.9001961E0,1.4113228E0,1.4491603E0,7.1360545E0,4.741223E0,4.3339424E0,2.4402084E0,1.9192824E0,1.4366784E0,1.4804599E0,1.9231027E0,2.8973315E0,1.4654473E0,1.4240963E0,1.9207952E0,1.9122683E0,1.4827313E0,1.4808981E0,1.4633636E0,1.4568121E0,4.3054447E0,1.4589138E0,2.45962E0,5.3282795E0,1.4866843E0,3.980824E0,2.9648595E0,1.1692608E1,5.3234673E0,1.1655007E1],"tree_param":{"num_deleted":"0","num_feature":"26","num_nodes":"255","size_leaf_vector":"1"}},{"base_weights":[1.9785045E-2,-2.7567196E-1,3.0124626E-1,-9.134336E-2,-5.7352024E-1,5.24471E-1,1.1874283E-1,9.490423E-2,-3.6927575E-1,-6.0286355E-1,1.1393656E-1,5.8184344E-1,-5.9957337E-3,3.2521373E-1,-1.4298443E-1,2.9805008E-1,-1.393064E-1,-4.6117303E-1,1.9185789E-1,-3.7283787E-1,-6.524514E-1,8.489893E-2,-4.5698233E-2,6.527006E-1,1.3301376E-1,6.56432E-2,-2.0473848E-1,3.5928297E-1,-9.366393E-2,1.9794157E-1,-3.299754E-1,-3.9207286E-1,4.0669525E-1,-3.525286E-1,2.2836415E-1,-2.7928373E-1,-6.647203E-1,-2.9759058E-1,5.5902034E-1,-4.6518332E-1,2.0021234E-2,-2.9095417E-1,-6.697621E-1,-1.4618577E-2,7.0220464E-1,-1.6441312E-1,1.02460556E-1,4.4437084E-2,-3.8960627E-1,-5.6006137E-2,3.8982365E-1,4.2428038E-1,-1.8637155E-1,-2.2658284E-1,-1.12030305E-1,2.7907038E-2,-5.820299E-1,5.630315E-1,-3.703046E-2,-8.494408E-2,-6.1123145E-1,-2.1255887E-1,4.7943977E-1,3.103958E-1,-4.1575566E-1,-2.1614207E-1,-1.09718226E-1,-8.6778134E-2,2.3443675E-2,9.9633925E-2,2.4182905E-2,-5.575412E-1,1.5507042E-2,3.872527E-2,-9.032847E-2,-4.5278257E-1,-7.038467E-1,8.963659E-2,-4.856546E-1,5.189074E-1,1.14014186E-1,4.1747758E-1,-4.5281574E-1,-9.802617E-2,9.346554E-3,4.1578865E-1,-7.5799465E-2,-1.9146753E-2,5.5095166E-1,2.9124358E-1,-5.422134E-1,-1.8893372E-2,-4.5199057E-1,-1.02802396E-1,-2.705336E-2,6.705592E-1,8.64915E-2,-3.9841843E-1,3.9165646E-1,2.2353368E-1,-5.6102246E-1,-7.1517277E-1,-1.6568374E-2,2.1700531E-1,-9.619306E-2,-7.5585835E-2,6.9844604E-1,9.27243E-2,-1.2751538E-2,7.564122E-2,-5.344043E-1,3.9395295E-2,-8.207329E-2,-1.6413344E-1,-6.5568894E-1,6.521551E-2,-1.0816366E-1,-7.171788E-1,-3.3787586E-2,-8.61759E-2,-2.716585E-2,6.4815557E-1,3.0155545E-1,8.0171935E-2,1.9443529E-2,7.7085323E-3,-1.07090525E-1,6.3071346E-1,3.1545362E-1,-6.1517307E-3,6.7392355E-1,8.746799E-2,-2.6558213E-2,-9.7433195E-2,-2.2707995E-2,1.7362948E-1,-9.907631E-2,2.350226E-2,-5.247881E-1,7.2060245E-1,2.753867E-1,8.5030764E-2,-3.018938E-1,-5.406156E-1,-3.708733E-3,9.2642516E-2,-5.8869394E-3,4.4874135E-1,-2.0003094E-1,-2.5285292E-2,-9.799623E-2,-2.1521874E-2,-1.1840273E-1,7.6865226E-2,-2.4802435E-2,2.8874384E-2,1.1567526E-1,-9.095541E-2,9.579933E-2,2.8684396E-2,-6.38426E-1,-7.409562E-2,3.3967275E-2,-1.08742975E-1,-2.1033145E-2,6.439563E-2,-7.169975E-2,-4.822709E-2,-1.0949558E-1,1.1283473E-1,2.1073316E-1,5.5039704E-1,-7.536999E-2,2.0213975E-1,6.8875617E-1,4.2001548E-1,-9.599577E-2,1.1218029E-1,2.2650149E-2,-2.8187627E-1,3.9530638E-1,1.854655E-2,-6.678656E-1,1.6497398E-2,1.1393744E-1,-2.8256586E-2,8.497998E-2,2.1205237E-2,-8.496155E-2,-2.5097616E-2,-9.692221E-2,1.02791525E-1,-2.9807102E-2,2.6665257E-2,-7.512435E-2,-7.287582E-2,7.853609E-2,4.189694E-3,-7.3229325E-1,7.5620845E-2,-2.604593E-2,9.613291E-2,2.1541547E-2,4.989943E-2,-9.009215E-2,7.604954E-2,-2.7154205E-2,1.1564504E-1,3.771742E-1,7.2914314E-1,2.8761292E-1,2.5615874E-1,-3.7765625E-1,-2.8620593E-3,-6.3765E-2,5.788971E-1,-2.091626E-2,8.0717295E-2,-7.6897696E-2,-2.9595822E-1,-1.1867861E-1,-3.798278E-2,-1.1807629E-1,8.099366E-2,2.350433E-2,1.1694159E-1,3.5401214E-2,5.6798562E-2,-1.4566304E-2,6.978045E-2,-2.7101193E-2,1.8285481E-2,-1.07344426E-1,2.3689063E-2,1.1117049E-1,-7.870059E-2,-7.561339E-4],"categories":[0,1,2,3,4,5,6,7,8,9,10,11,13,5,11,13,0,2,3,0,1,3,0,3,0,1,2,0,1,2,0,1,2,0,2,3,0,1,3,0,1,5,11,12,3,0,1,2,0,1,1,3,1,2,3,3,11,0,1,3,0,2,3,0,1,1,2,3,0,3,0,0,1,3,1,3,0,2,0,2,3,0,1,2,3,3,2,0,1,2,0,1,3,0,1,3,3,0,2,3,1,0,1,3,11,11,1,1,2,3,1,0,1,3,1,2,3,1,2],"categories_nodes":[2,7,9,12,14,26,31,32,33,35,36,37,42,43,45,52,53,57,59,61,63,64,65,81,82,85,91,92,95,98,99,101,103,110,115,121,122,128,143,147,160,170,171,172,174,175,176,179,180,181,182,198,208,210,211],"categories_segments":[0,13,16,19,22,24,27,30,31,33,36,39,41,44,45,48,50,52,53,55,56,57,60,63,65,68,70,71,74,75,76,78,81,82,85,86,87,89,90,92,93,96,97,99,100,101,104,105,106,107,110,111,114,117,118],"categories_sizes":[13,3,3,3,2,3,3,1,2,3,3,2,3,1,3,2,2,1,2,1,1,3,3,2,3,2,1,3,1,1,2,3,1,3,1,1,2,1,2,1,3,1,2,1,1,3,1,1,1,3,1,3,3,1,1],"default_left":[0,0,1,0,0,0,0,1,0,1,0,0,1,0,1,0,0,0,0,0,0,0,0,0,0,0,1,0,0,0,0,1,1,1,0,1,1,1,0,0,0,0,1,1,0,1,0,0,0,0,0,0,1,1,0,0,0,1,0,1,0,1,0,1,1,1,0,0,0,0,0,0,0,0,0,0,0,0,0,0,0,1,1,0,0,1,0,0,0,0,0,1,1,0,0,1,0,0,1,1,0,1,0,1,0,0,0,0,0,0,1,0,0,0,0,1,0,0,0,0,0,1,1,0,0,0,0,0,1,0,0,0,0,0,0,0,0,0,0,0,0,0,0,1,0,0,0,1,0,0,0,0,0,0,0,0,0,0,0,0,1,0,0,0,0,0,0,0,0,0,1,1,1,0,1,1,1,0,0,1,1,1,1,0,0,0,0,0,0,0,0,0,0,0,0,0,0,0,1,0,0,0,0,0,0,0,0,0,1,0,1,1,0,0,0,0,0,0,0,0,0,0,0,0,0,0,0,0,0,0,0,0,0,0,0,0,0],"id":5,"left_children":[1,3,5,7,9,11,13,15,17,19,21,23,25,27,29,31,33,35,37,39,41,-1,-1,43,45,-1,47,49,-1,51,53,55,57,59,61,63,65,67,69,71,-1,73,75,77,79,81,-1,-1,83,-1,85,87,89,91,-1,-1,93,95,97,99,101,103,105,107,109,111,-1,-1,-1,-1,-1,113,-1,-1,-1,115,117,-1,119,121,-1,123,125,-1,-1,127,-1,-1,129,131,133,135,137,-1,-1,139,141,143,145,147,149,151,-1,153,-1,-1,155,-1,-1,157,159,-1,-1,161,163,165,-1,167,-1,-1,-1,169,171,-1,-1,-1,-1,173,175,-1,177,-1,-1,-1,-1,179,-1,-1,181,183,185,-1,187,189,-1,-1,-1,191,193,-1,-1,-1,-1,-1,-1,-1,-1,-1,-1,195,197,-1,-1,-1,-1,-1,-1,-1,-1,-1,199,201,203,205,207,209,211,-1,-1,213,215,217,219,-1,-1,-1,-1,-1,-1,-1,-1,-1,-1,-1,-1,-1,-1,-1,221,-1,-1,-1,-1,-1,-1,-1,-1,-1,223,225,227,229,231,-1,-1,233,-1,-1,-1,235,-1,-1,-1,-1,-1,-1,-1,-1,-1,-1,-1,-1,-1,-1,-1,-1,-1],"loss_changes":[3.9296585E1,1.2606628E1,9.795412E0,7.4693856E0,1.8429585E0,3.307104E0,7.3104596E0,4.1708465E0,3.0705914E0,7.207489E-1,1.0129125E0,3.028759E0,1.1109196E0,2.6653461E0,3.8885846E0,3.6680937E0,3.29423E0,1.6649866E0,1.7557459E0,8.719685E-1,2.3186111E-1,0E0,0E0,2.7968445E0,2.5030403E0,0E0,9.194504E-1,1.7894907E0,0E0,1.9812369E0,1.5163431E0,8.631791E-1,2.8595695E0,1.7714429E0,1.8348869E0,2.392152E0,5.26351E-1,6.5700036E-1,1.1894488E-1,8.3861566E-1,0E0,9.902291E-1,1.5691566E-1,2.2525506E0,4.3905258E-1,1.9159993E0,0E0,0E0,8.4850967E-1,0E0,1.8607769E0,1.0538378E0,1.6535397E0,1.5255578E0,0E0,0E0,1.0117042E-1,1.495719E0,1.9530854E0,2.1974502E0,6.0968065E-1,1.3127674E0,2.566159E0,7.653941E-1,1.3968081E0,8.379139E-1,0E0,0E0,0E0,0E0,0E0,3.924303E-1,0E0,0E0,0E0,1.6500573E0,1.8157196E-1,0E0,1.4950037E-2,4.2270136E-1,0E0,6.309497E-2,1.0057181E0,0E0,0E0,1.3011808E0,0E0,0E0,8.742261E-1,7.057158E-1,1.278857E-1,2.3503342E0,7.765956E-1,0E0,0E0,2.8786469E-1,1.4268309E0,3.4741855E-1,5.899473E-1,9.7465724E-1,1.011101E-1,3.4363842E-1,0E0,5.286963E-1,0E0,0E0,1.7636347E-1,0E0,0E0,2.4610567E0,1.1232128E0,0E0,0E0,6.1683226E-1,2.56485E-1,1.164976E0,0E0,2.777481E-2,0E0,0E0,0E0,4.3006945E-1,9.865179E-1,0E0,0E0,0E0,0E0,3.866291E-1,2.1667223E0,0E0,2.6163387E-1,0E0,0E0,0E0,0E0,1.597101E0,0E0,0E0,1.1183555E0,4.2126942E-1,6.9848216E-1,0E0,5.929258E-1,8.375037E-2,0E0,0E0,0E0,1.1109105E0,5.335798E-1,0E0,0E0,0E0,0E0,0E0,0E0,0E0,0E0,0E0,0E0,1.2470213E0,1.0190587E0,0E0,0E0,0E0,0E0,0E0,0E0,0E0,0E0,0E0,5.2444834E-1,1.3579118E-1,1.2469947E0,5.516514E-1,1.7547512E-1,1.4109521E0,1.1708871E0,0E0,0E0,1.9514364E-1,1.0932094E0,1.3628478E0,2.8358364E-1,0E0,0E0,0E0,0E0,0E0,0E0,0E0,0E0,0E0,0E0,0E0,0E0,0E0,0E0,0E0,1.6957283E-1,0E0,0E0,0E0,0E0,0E0,0E0,0E0,0E0,0E0,1.22042775E-1,9.5303535E-2,1.0656478E0,5.7792413E-1,1.1713595E0,0E0,0E0,4.2055702E-1,0E0,0E0,0E0,2.9069245E-1,0E0,0E0,0E0,0E0,0E0,0E0,0E0,0E0,0E0,0E0,0E0,0E0,0E0,0E0,0E0,0E0,0E0],"parents":[2147483647,0,0,1,1,2,2,3,3,4,4,5,5,6,6,7,7,8,8,9,9,10,10,11,11,12,12,13,13,14,14,15,15,16,16,17,17,18,18,19,19,20,20,23,23,24,24,26,26,27,27,29,29,30,30,31,31,32,32,33,33,34,34,35,35,36,36,37,37,38,38,39,39,41,41,42,42,43,43,44,44,45,45,48,48,50,50,51,51,52,52,53,53,56,56,57,57,58,58,59,59,60,60,61,61,62,62,63,63,64,64,65,65,71,71,75,75,76,76,78,78,79,79,81,81,82,82,85,85,88,88,89,89,90,90,91,91,92,92,95,95,96,96,97,97,98,98,99,99,100,100,101,101,103,103,106,106,109,109,110,110,113,113,114,114,115,115,117,117,121,121,122,122,127,127,128,128,130,130,135,135,138,138,139,139,140,140,142,142,143,143,147,147,148,148,159,159,160,160,170,170,171,171,172,172,173,173,174,174,175,175,176,176,179,179,180,180,181,181,182,182,198,198,208,208,209,209,210,210,211,211,212,212,215,215,219,219],"right_children":[2,4,6,8,10,12,14,16,18,20,22,24,26,28,30,32,34,36,38,40,42,-1,-1,44,46,-1,48,50,-1,52,54,56,58,60,62,64,66,68,70,72,-1,74,76,78,80,82,-1,-1,84,-1,86,88,90,92,-1,-1,94,96,98,100,102,104,106,108,110,112,-1,-1,-1,-1,-1,114,-1,-1,-1,116,118,-1,120,122,-1,124,126,-1,-1,128,-1,-1,130,132,134,136,138,-1,-1,140,142,144,146,148,150,152,-1,154,-1,-1,156,-1,-1,158,160,-1,-1,162,164,166,-1,168,-1,-1,-1,170,172,-1,-1,-1,-1,174,176,-1,178,-1,-1,-1,-1,180,-1,-1,182,184,186,-1,188,190,-1,-1,-1,192,194,-1,-1,-1,-1,-1,-1,-1,-1,-1,-1,196,198,-1,-1,-1,-1,-1,-1,-1,-1,-1,200,202,204,206,208,210,212,-1,-1,214,216,218,220,-1,-1,-1,-1,-1,-1,-1,-1,-1,-1,-1,-1,-1,-1,-1,222,-1,-1,-1,-1,-1,-1,-1,-1,-1,224,226,228,230,232,-1,-1,234,-1,-1,-1,236,-1,-1,-1,-1,-1,-1,-1,-1,-1,-1,-1,-1,-1,-1,-1,-1,-1],"split_conditions":[3.5E1,4.35E-1,NaN,1.48E2,4E0,4.11E-1,9.7E1,NaN,4E0,NaN,1E0,1.51E2,NaN,2E0,NaN,2.2E1,3E0,2.26E2,1.86E2,3.5E1,1.5E1,8.489893E-2,-4.5698233E-2,1E1,2.01E2,6.56432E-2,NaN,2.8E1,-9.366393E-2,1.57E2,3.43E-1,NaN,NaN,NaN,1.77E-1,NaN,NaN,NaN,3.1E1,3.2E1,2.0021234E-2,2.8E1,NaN,NaN,3.5E1,NaN,1.02460556E-1,4.4437084E-2,3.5E1,-5.6006137E-2,4E0,3.5E1,NaN,NaN,-1.12030305E-1,2.7907038E-2,4E0,NaN,3.2E1,NaN,1.3E2,NaN,2.5E1,NaN,NaN,NaN,-1.09718226E-1,-8.6778134E-2,2.3443675E-2,9.9633925E-2,2.4182905E-2,2.3E1,1.5507042E-2,3.872527E-2,-9.032847E-2,1.03E2,4E0,8.963659E-2,1.25E-1,3.2E1,1.14014186E-1,NaN,NaN,-9.802617E-2,9.346554E-3,NaN,-7.5799465E-2,-1.9146753E-2,0E0,2.05E2,4.23E-1,NaN,NaN,-1.02802396E-1,-2.705336E-2,NaN,1.09E2,1.11E2,NaN,NaN,9.7E-2,NaN,-1.6568374E-2,NaN,-9.619306E-2,-7.5585835E-2,2.6E1,9.27243E-2,-1.2751538E-2,1.61E2,NaN,3.9395295E-2,-8.207329E-2,7.6E1,3.2E1,NaN,-1.0816366E-1,0E0,-3.3787586E-2,-8.61759E-2,-2.716585E-2,NaN,NaN,8.0171935E-2,1.9443529E-2,7.7085323E-3,-1.07090525E-1,3.5E1,NaN,-6.1517307E-3,1.49E2,8.746799E-2,-2.6558213E-2,-9.7433195E-2,-2.2707995E-2,6.3E-2,-9.907631E-2,2.350226E-2,5E-2,0E0,2E0,8.5030764E-2,9.4E-2,NaN,-3.708733E-3,9.2642516E-2,-5.8869394E-3,NaN,1.42E-1,-2.5285292E-2,-9.799623E-2,-2.1521874E-2,-1.1840273E-1,7.6865226E-2,-2.4802435E-2,2.8874384E-2,1.1567526E-1,-9.095541E-2,9.579933E-2,3E1,NaN,-7.409562E-2,3.3967275E-2,-1.08742975E-1,-2.1033145E-2,6.439563E-2,-7.169975E-2,-4.822709E-2,-1.0949558E-1,1.1283473E-1,NaN,NaN,NaN,2.9E1,NaN,NaN,NaN,1.1218029E-1,2.2650149E-2,NaN,NaN,NaN,NaN,1.6497398E-2,1.1393744E-1,-2.8256586E-2,8.497998E-2,2.1205237E-2,-8.496155E-2,-2.5097616E-2,-9.692221E-2,1.02791525E-1,-2.9807102E-2,2.6665257E-2,-7.512435E-2,-7.287582E-2,7.853609E-2,4.189694E-3,NaN,7.5620845E-2,-2.604593E-2,9.613291E-2,2.1541547E-2,4.989943E-2,-9.009215E-2,7.604954E-2,-2.7154205E-2,1.1564504E-1,NaN,3.12E-1,NaN,NaN,1E0,-2.8620593E-3,-6.3765E-2,0E0,-2.091626E-2,8.0717295E-2,-7.6897696E-2,3.1E1,-1.1867861E-1,-3.798278E-2,-1.1807629E-1,8.099366E-2,2.350433E-2,1.1694159E-1,3.5401214E-2,5.6798562E-2,-1.4566304E-2,6.978045E-2,-2.7101193E-2,1.8285481E-2,-1.07344426E-1,2.3689063E-2,1.1117049E-1,-7.870059E-2,-7.561339E-4],"split_indices":[18,20,21,13,9,20,13,21,11,4,14,13,5,15,1,13,9,13,13,17,13,0,0,13,13,0,6,17,0,13,20,6,0,3,20,1,0,5,18,18,0,18,21,1,17,6,0,0,17,0,16,17,4,0,0,0,9,3,18,1,13,1,18,21,5,6,0,0,0,0,0,17,0,0,0,13,16,0,20,17,0,0,5,0,0,1,0,0,11,13,20,5,4,0,0,4,13,13,4,6,20,6,0,6,0,0,18,0,0,13,0,0,0,13,17,1,0,11,0,0,0,4,6,0,0,0,0,17,6,0,13,0,0,0,0,20,0,0,20,11,9,0,20,6,0,0,0,5,20,0,0,0,0,0,0,0,0,0,0,18,3,0,0,0,0,0,0,0,0,0,0,1,5,13,3,3,21,0,0,21,3,4,0,0,0,0,0,0,0,0,0,0,0,0,0,0,0,0,6,0,0,0,0,0,0,0,0,0,4,20,4,3,14,0,0,11,0,0,0,17,0,0,0,0,0,0,0,0,0,0,0,0,0,0,0,0,0],"split_type":[0,0,1,0,0,0,0,1,0,1,0,0,1,0,1,0,0,0,0,0,0,0,0,0,0,0,1,0,0,0,0,1,1,1,0,1,1,1,0,0,0,0,1,1,0,1,0,0,0,0,0,0,1,1,0,0,0,1,0,1,0,1,0,1,1,1,0,0,0,0,0,0,0,0,0,0,0,0,0,0,0,1,1,0,0,1,0,0,0,0,0,1,1,0,0,1,0,0,1,1,0,1,0,1,0,0,0,0,0,0,1,0,0,0,0,1,0,0,0,0,0,1,1,0,0,0,0,0,1,0,0,0,0,0,0,0,0,0,0,0,0,0,0,1,0,0,0,1,0,0,0,0,0,0,0,0,0,0,0,0,1,0,0,0,0,0,0,0,0,0,1,1,1,0,1,1,1,0,0,1,1,1,1,0,0,0,0,0,0,0,0,0,0,0,0,0,0,0,1,0,0,0,0,0,0,0,0,0,1,0,1,1,0,0,0,0,0,0,0,0,0,0,0,0,0,0,0,0,0,0,0,0,0,0,0,0,0],"sum_hessian":[4.705451E2,2.2957497E2,2.4097014E2,1.4261923E2,8.6955734E1,1.07549614E2,1.3342052E2,8.5788994E1,5.6830242E1,8.351408E1,3.4416528E0,9.696549E1,1.0584119E1,7.4447754E1,5.8972767E1,4.579526E1,3.9993732E1,4.898592E1,7.84432E0,1.6321491E1,6.719259E1,1.4853827E0,1.9562702E0,8.335235E1,1.3613146E1,2.9027946E0,7.6813245E0,7.2469505E1,1.9782485E0,2.086772E1,3.810505E1,5.874053E0,3.9921207E1,2.5339718E1,1.4654013E1,2.7121927E1,2.1863995E1,3.443467E0,4.4008527E0,1.3872538E1,2.4489532E0,3.8843231E0,6.3308266E1,5.805007E0,7.754734E1,9.290617E0,4.322529E0,1.9080606E0,5.773264E0,2.4507844E0,7.001872E1,1.3067627E1,7.800093E0,3.1769487E1,6.3355603E0,1.457833E0,4.4162197E0,2.9321573E1,1.0599635E1,1.3109005E1,1.2230713E1,5.372528E0,9.281485E0,4.857743E0,2.2264183E1,3.3803918E0,1.8483603E1,1.9573543E0,1.4861126E0,2.9507322E0,1.4501206E0,1.1950651E1,1.9218864E0,1.4668388E0,2.4174843E0,1.0533987E1,5.2774277E1,2.4074497E0,3.3975573E0,2.1004456E1,5.6542885E1,2.9304638E0,6.3601527E0,3.3632047E0,2.4100592E0,6.856541E1,1.4533126E0,2.4378538E0,1.0629773E1,3.4077315E0,4.3923616E0,1.7098679E1,1.467081E1,2.9509406E0,1.4652791E0,2.359124E1,5.730332E0,5.7895694E0,4.8100657E0,8.276602E0,4.832403E0,9.773905E0,2.456808E0,2.9303267E0,2.4422011E0,1.453655E0,7.82783E0,2.4148068E0,2.4429362E0,4.400692E0,1.7863491E1,1.4662213E0,1.9141705E0,2.9197326E0,9.030919E0,3.8527603E0,6.6812267E0,5.0859005E1,1.9152713E0,1.9439875E0,1.4535699E0,1.1928895E1,9.07556E0,1.4744016E0,1.4560622E0,2.4440544E0,3.9160984E0,2.013937E1,4.842604E1,1.9430062E0,8.686767E0,1.9482541E0,1.4594774E0,2.926572E0,1.4657898E0,1.3713267E1,3.3854108E0,1.4441056E0,1.3226705E1,2.0208586E1,3.3826544E0,2.3563209E0,3.3740113E0,3.870205E0,1.9193646E0,2.8711562E0,1.9389098E0,5.3647466E0,2.9118552E0,1.4581352E0,3.374268E0,1.4595354E0,8.31437E0,1.4611502E0,1.4691765E0,1.442053E0,6.385777E0,1.9552382E0,2.4454536E0,2.8983638E0,1.4965128E1,1.4394476E0,1.4802848E0,7.602907E0,1.4280119E0,2.4322455E0,1.4205148E0,2.4112172E0,4.844779E1,9.054796E0,2.8740995E0,5.189371E0,3.886188E0,2.936864E0,1.7202505E1,3.8596638E1,9.829405E0,7.2336984E0,1.4530685E0,4.4001646E0,9.313103E0,2.9384305E0,1.0288274E1,1.4419681E0,1.8766619E1,1.4407239E0,1.9419307E0,1.4349544E0,1.9390569E0,1.4228041E0,2.4474008E0,3.8864799E0,1.4782668E0,1.4720216E0,1.4398336E0,1.429961E0,1.468403E0,1.9345224E0,1.3030605E1,1.4532169E0,1.4208827E0,3.7743003E0,1.415071E0,2.3934793E0,1.4927087E0,1.4555906E0,1.4812734E0,1.2444633E1,4.757873E0,1.0222525E1,2.8374111E1,4.4083157E0,5.4210887E0,1.9519058E0,2.4482586E0,6.8714294E0,2.4416728E0,1.4788921E0,1.4595385E0,3.4086738E0,6.8796E0,1.9163455E0,1.111426E1,1.9034765E0,2.8543966E0,8.746482E0,1.4760424E0,2.295709E1,5.4170203E0,2.9375997E0,1.470716E0,2.4455795E0,2.9755092E0,2.4604945E0,4.410935E0,1.4585176E0,1.950156E0],"tree_param":{"num_deleted":"0","num_feature":"26","num_nodes":"237","size_leaf_vector":"1"}},{"base_weights":[-4.7222925E-3,2.4004692E-1,-2.1729729E-1,3.7176976E-1,-1.7913845E-1,-4.6536393E-2,-4.2625725E-1,4.4822976E-1,-2.0959793E-2,-4.9820244E-1,3.6056426E-1,-2.076599E-1,2.2336099E-1,-4.9800572E-1,-6.1816305E-2,6.225757E-1,3.3722982E-1,1.3255669E-1,-5.7098955E-1,5.461424E-2,-5.769875E-1,4.5754057E-1,-5.3765066E-2,-3.3658487E-1,1.0923363E-1,-3.3242294E-1,2.9903346E-1,-5.6950575E-1,-1.288817E-1,3.321646E-1,-4.3196774E-1,-1.2188051E-2,6.511135E-1,3.6782312E-1,-7.982645E-2,3.1599924E-1,-3.430666E-1,-2.4239898E-2,-9.8992325E-2,-9.972263E-2,-3.0571586E-1,-4.3031313E-3,6.444439E-1,-3.8525903E-1,3.27423E-1,2.2614479E-1,-2.8970814E-1,-9.6410915E-2,2.4378298E-2,3.9724362E-1,4.4649485E-2,-2.543915E-2,-6.155725E-1,1.4002322E-1,-3.7247917E-1,5.6695485E-1,-2.9819552E-2,-6.2499315E-1,4.3596055E-2,6.959849E-1,1.7611061E-1,2.3560931E-1,4.8620763E-1,8.38862E-2,-5.4382056E-1,5.140999E-1,-1.5732279E-2,-9.7941495E-2,4.173412E-2,8.533986E-2,-5.3170055E-1,3.8244736E-1,-6.392977E-2,3.4993723E-2,1.0439156E-1,-5.6353003E-2,-4.6117133E-1,-2.8023096E-2,8.938807E-2,3.0683833E-1,-7.469371E-2,3.428534E-2,-4.9381453E-1,5.6015E-1,1.9060892E-1,-1.6749367E-1,9.6238844E-2,4.1569358E-1,-4.2019328E-1,-4.4374952E-1,-1.1186064E-1,-2.701703E-1,5.1393557E-1,-1.05766945E-1,-9.453393E-2,1.01823725E-1,3.6541946E-2,-3.5318095E-2,-1.0540627E-1,1.0698869E-1,1.3694618E-2,7.504645E-2,-1.0583968E-1,3.3074963E-1,-1.8270949E-1,5.2656E-1,-1.6886942E-2,-9.577273E-2,-3.03741E-2,6.45953E-1,-8.05202E-3,8.031257E-2,-2.4790014E-1,-4.151922E-2,7.244212E-2,-2.06829E-2,-9.3009844E-2,1.9952677E-2,7.0250385E-2,9.1155745E-2,-2.8581557E-1,-8.159021E-2,-5.268355E-1,6.11586E-1,9.4163865E-2,-2.0581169E-2,-9.0306476E-2,9.8920204E-2,1.9361608E-1,-3.51968E-2,4.795316E-1,8.614044E-2,-3.8675907E-1,7.594652E-2,2.299809E-2,-1.9768361E-2,-7.718353E-2,2.1022095E-1,-5.227562E-1,3.6133323E-2,-8.390361E-2,9.282929E-2,2.2844424E-2,5.1025487E-2,-7.919216E-2,-9.026722E-2,6.838826E-2,4.4748053E-1,6.932628E-2,2.4475542E-1,-7.842341E-2,1.0338127E-1,3.773392E-1,2.3877833E-2,1.0794012E-1,-8.804431E-2,2.4558846E-2,5.667359E-2,-5.0443834E-1,2.3325647E-1,-4.1620064E-1,-3.7988976E-1,-1.05842434E-1,3.497302E-2,1.0435773E-1,4.9948332E-1,-1.1526005E-1,6.1393943E-2,-3.2813538E-2,-4.425844E-1,2.3396464E-1,9.646781E-2,1.6376518E-2,-5.982046E-1,5.0778944E-2,6.2914506E-2,-1.9276075E-2,-1.0291869E-1,-1.8382663E-1,-2.9192347E-2,5.7636136E-1,3.3311403E-1,-4.4608554E-1,7.568259E-2,-2.4213422E-2,5.095065E-1,7.4970305E-2,-1.04069516E-1,2.6664227E-2,-2.4556465E-2,6.661185E-2,-7.9611674E-2,-1.6084552E-2,-1.0837172E-1,-1.3414407E-1,8.886782E-2,2.7832452E-2,1.0756471E-1,-9.14954E-2,-2.0328758E-2,-8.1866294E-2,4.9810457E-1,-4.2080164E-2,-1.0199832E-1,-2.8839486E-2,3.638081E-2,-2.4338903E-2,2.2166456E-1,-5.156764E-1,-8.204478E-2,5.5481173E-2,9.746186E-2,1.0918669E-2,8.35792E-2,-3.839361E-2,-2.1807857E-2,-8.075589E-2,-2.8373009E-2,8.897848E-2,6.155058E-2,-2.7475318E-2,5.1558428E-3,-6.960669E-2,5.3456534E-2,-7.623653E-2,8.81781E-2,2.4321642E-2,9.364477E-2,-3.9035387E-2,-9.154709E-2,-1.4629413E-2],"categories":[12,12,5,1,0,3,0,1,2,4,7,8,9,10,0,2,1,2,0,1,2,7,9,10,0,1,2,4,5,9,10,1,2,0,1,2,7,9,0,2,3,0,1,2,3,4,6,7,8,9,10,12,13,12,0,3,0,5,11,0,1,3,3,4,6,0,2,3,0,1,2,2,0,1,2,3,4,5,6,7,8,9,10,13,0,2,3,1,2,3,11,0,1,1,2,3,0,0,1,5,3,0,1,2,3,4,6,7,8,9,10,12,13,4,2],"categories_nodes":[1,2,8,17,18,26,28,29,32,35,40,45,46,49,51,52,64,66,75,76,82,83,91,93,103,104,120,121,130,152,160,169,170,181,194,197,207],"categories_segments":[0,1,2,3,4,6,14,16,18,24,31,33,38,41,53,54,56,57,59,62,65,67,68,71,72,84,87,90,91,93,96,97,99,100,101,113,114],"categories_sizes":[1,1,1,1,2,8,2,2,6,7,2,5,3,12,1,2,1,2,3,3,2,1,3,1,12,3,3,1,2,3,1,2,1,1,12,1,1],"default_left":[0,1,1,0,0,0,0,0,1,0,0,0,0,0,0,0,0,1,1,0,0,0,0,0,0,0,1,0,1,1,0,0,1,0,0,1,0,0,0,0,1,0,0,0,0,1,1,0,0,1,0,1,1,0,0,0,0,0,0,0,0,0,0,0,1,0,1,0,0,0,0,0,0,0,0,1,1,0,0,0,0,0,1,1,0,0,0,0,0,0,0,1,0,1,0,0,0,0,0,0,0,0,0,1,1,0,0,0,0,0,0,0,0,0,0,0,0,0,0,0,1,1,0,0,0,0,0,0,0,0,1,0,0,0,0,0,0,0,0,0,0,0,0,0,0,0,0,0,0,0,0,0,1,0,0,0,0,0,0,0,1,0,0,0,0,0,0,0,0,1,1,0,0,0,0,0,0,0,0,0,0,1,0,0,0,0,0,0,0,0,0,0,0,0,1,0,0,1,0,0,0,0,0,0,0,0,0,1,0,0,0,0,0,0,0,0,0,0,0,0,0,0,0,0,0,0,0,0,0,0,0],"id":6,"left_children":[1,3,5,7,9,11,13,15,17,19,21,23,25,27,29,31,33,35,37,-1,39,41,-1,43,45,47,49,51,53,55,57,-1,59,61,63,65,67,-1,-1,-1,69,71,73,75,77,79,81,-1,-1,83,85,87,89,91,93,95,-1,97,-1,99,101,103,105,-1,107,109,111,-1,-1,113,115,117,-1,-1,-1,119,121,-1,-1,123,-1,-1,125,127,129,131,-1,133,135,137,-1,139,141,143,-1,-1,-1,-1,-1,-1,-1,-1,145,147,149,151,-1,-1,-1,153,-1,-1,155,-1,-1,-1,-1,-1,-1,-1,157,159,161,163,165,-1,-1,-1,167,169,171,-1,173,-1,-1,-1,-1,175,177,-1,-1,-1,-1,-1,-1,-1,-1,179,181,183,-1,-1,185,-1,-1,-1,-1,-1,187,189,191,193,-1,-1,-1,195,197,-1,-1,199,201,-1,-1,203,205,-1,-1,-1,207,209,211,213,215,-1,-1,217,219,-1,-1,-1,-1,-1,-1,-1,221,-1,-1,223,-1,-1,-1,225,-1,-1,-1,-1,-1,227,229,-1,-1,-1,-1,-1,-1,-1,-1,-1,-1,-1,-1,-1,-1,-1,-1,-1,-1,-1,-1,-1,-1],"loss_changes":[2.417118E1,1.1989543E1,8.851187E0,4.952841E0,9.186429E0,6.044671E0,2.8893929E0,2.4576607E0,2.4216723E0,2.4717531E0,1.5594318E0,3.586685E0,2.2882423E0,2.385498E0,2.9889169E0,1.1061954E0,1.1318064E0,2.0743566E0,1.210022E-1,0E0,5.3275967E-1,1.5629165E0,0E0,2.1302204E0,1.2726879E0,1.1351058E0,1.1398158E0,1.9331741E0,1.1271305E0,1.3614607E0,1.6454742E0,0E0,9.5394135E-1,1.1482162E0,2.2987611E0,1.1108966E0,1.4814167E0,0E0,0E0,0E0,8.766739E-1,1.1747142E0,1.10229015E-1,1.4279432E0,7.7069795E-1,1.3551778E0,7.7976024E-1,0E0,0E0,1.0142231E0,1.8844588E0,1.4133027E0,1.2714081E0,1.4466828E0,5.440489E-1,9.5256805E-2,0E0,9.4886065E-2,0E0,4.1334534E-1,5.738076E-1,1.6544952E0,1.0650368E0,0E0,1.30159855E-2,8.2348466E-1,1.0597622E0,0E0,0E0,7.538052E-1,1.2677574E-1,1.8297136E-2,0E0,0E0,0E0,2.0111907E0,1.1327925E0,0E0,0E0,1.1824939E0,0E0,0E0,1.041733E-1,5.31405E-1,1.0735211E0,2.0349073E0,0E0,1.4187992E-2,4.7879517E-2,1.8330054E0,0E0,8.325623E-1,8.8089466E-2,1.2277827E0,0E0,0E0,0E0,0E0,0E0,0E0,0E0,0E0,1.3533968E0,9.7562146E-1,1.3006037E0,6.9068146E-1,0E0,0E0,0E0,1.9474435E-1,0E0,0E0,9.029352E-1,0E0,0E0,0E0,0E0,0E0,0E0,0E0,1.5895505E0,9.5466304E-1,7.836437E-1,8.2386255E-2,1.1144663E0,0E0,0E0,0E0,5.5874115E-1,1.2025682E0,3.6439204E-1,0E0,8.8155985E-1,0E0,0E0,0E0,0E0,3.5918003E-1,1.5372934E0,0E0,0E0,0E0,0E0,0E0,0E0,0E0,0E0,1.4065351E0,1.6939133E0,5.3044975E-1,0E0,0E0,8.6655736E-1,0E0,0E0,0E0,0E0,0E0,1.1155851E0,4.773232E-1,9.545952E-2,1.935328E0,0E0,0E0,0E0,1.934135E-2,1.0601287E0,0E0,0E0,6.3337386E-2,1.0488232E0,0E0,0E0,7.7792406E-2,1.994684E-1,0E0,0E0,0E0,1.6128999E0,1.3937743E0,6.1251783E-1,1.2105855E0,4.0371478E-2,0E0,0E0,1.0231729E0,7.7279985E-1,0E0,0E0,0E0,0E0,0E0,0E0,0E0,8.6565125E-1,0E0,0E0,1.2644451E0,0E0,0E0,0E0,4.8823237E-2,0E0,0E0,0E0,0E0,0E0,1.2706904E0,1.9473588E-1,0E0,0E0,0E0,0E0,0E0,0E0,0E0,0E0,0E0,0E0,0E0,0E0,0E0,0E0,0E0,0E0,0E0,0E0,0E0,0E0,0E0,0E0],"parents":[2147483647,0,0,1,1,2,2,3,3,4,4,5,5,6,6,7,7,8,8,9,9,10,10,11,11,12,12,13,13,14,14,15,15,16,16,17,17,18,18,20,20,21,21,23,23,24,24,25,25,26,26,27,27,28,28,29,29,30,30,32,32,33,33,34,34,35,35,36,36,40,40,41,41,42,42,43,43,44,44,45,45,46,46,49,49,50,50,51,51,52,52,53,53,54,54,55,55,57,57,59,59,60,60,61,61,62,62,64,64,65,65,66,66,69,69,70,70,71,71,75,75,76,76,79,79,82,82,83,83,84,84,85,85,87,87,88,88,89,89,91,91,92,92,93,93,102,102,103,103,104,104,105,105,109,109,112,112,120,120,121,121,122,122,123,123,124,124,128,128,129,129,130,130,132,132,137,137,138,138,147,147,148,148,149,149,152,152,158,158,159,159,160,160,161,161,165,165,166,166,169,169,170,170,173,173,174,174,178,178,179,179,180,180,181,181,182,182,185,185,186,186,194,194,197,197,201,201,207,207,208,208],"right_children":[2,4,6,8,10,12,14,16,18,20,22,24,26,28,30,32,34,36,38,-1,40,42,-1,44,46,48,50,52,54,56,58,-1,60,62,64,66,68,-1,-1,-1,70,72,74,76,78,80,82,-1,-1,84,86,88,90,92,94,96,-1,98,-1,100,102,104,106,-1,108,110,112,-1,-1,114,116,118,-1,-1,-1,120,122,-1,-1,124,-1,-1,126,128,130,132,-1,134,136,138,-1,140,142,144,-1,-1,-1,-1,-1,-1,-1,-1,146,148,150,152,-1,-1,-1,154,-1,-1,156,-1,-1,-1,-1,-1,-1,-1,158,160,162,164,166,-1,-1,-1,168,170,172,-1,174,-1,-1,-1,-1,176,178,-1,-1,-1,-1,-1,-1,-1,-1,180,182,184,-1,-1,186,-1,-1,-1,-1,-1,188,190,192,194,-1,-1,-1,196,198,-1,-1,200,202,-1,-1,204,206,-1,-1,-1,208,210,212,214,216,-1,-1,218,220,-1,-1,-1,-1,-1,-1,-1,222,-1,-1,224,-1,-1,-1,226,-1,-1,-1,-1,-1,228,230,-1,-1,-1,-1,-1,-1,-1,-1,-1,-1,-1,-1,-1,-1,-1,-1,-1,-1,-1,-1,-1,-1],"split_conditions":[3.5E1,NaN,NaN,4E0,4.84E-1,1.11E2,1.51E2,2.7E1,NaN,1E1,1.89E2,3E0,2E-2,3.26E-1,2.16E2,1.7E1,2E0,NaN,NaN,5.461424E-2,1.22E2,3E0,-5.3765066E-2,3.43E-1,4E0,2E0,NaN,1.9E1,NaN,NaN,3E0,-1.2188051E-2,NaN,3E0,2E0,NaN,4.29E-1,-2.4239898E-2,-9.8992325E-2,-9.972263E-2,NaN,1.69E2,1.53E2,0E0,1.66E2,NaN,NaN,-9.6410915E-2,2.4378298E-2,NaN,1.74E2,NaN,NaN,1.75E2,3E0,2E0,-2.9819552E-2,1.83E2,4.3596055E-2,6E0,8.2E1,1.75E2,4E0,8.38862E-2,NaN,5.08E-1,NaN,-9.7941495E-2,4.173412E-2,3.2E1,2.8E1,1.62E2,-6.392977E-2,3.4993723E-2,1.0439156E-1,NaN,NaN,-2.8023096E-2,8.938807E-2,4E0,-7.469371E-2,3.428534E-2,NaN,NaN,2.89E2,1.52E2,9.6238844E-2,1.25E-1,1.02E-1,1.47E2,-1.1186064E-1,NaN,4.68E-1,NaN,-9.453393E-2,1.01823725E-1,3.6541946E-2,-3.5318095E-2,-1.0540627E-1,1.0698869E-1,1.3694618E-2,7.504645E-2,1.21E2,NaN,NaN,1E0,-1.6886942E-2,-9.577273E-2,-3.03741E-2,6.4E-2,-8.05202E-3,8.031257E-2,2.76E-1,-4.151922E-2,7.244212E-2,-2.06829E-2,-9.3009844E-2,1.9952677E-2,7.0250385E-2,9.1155745E-2,NaN,NaN,6.2E1,1.41E-1,4.9E-2,-2.0581169E-2,-9.0306476E-2,9.8920204E-2,3.06E2,8.6E-2,NaN,8.614044E-2,1.42E2,7.594652E-2,2.299809E-2,-1.9768361E-2,-7.718353E-2,2E0,1.64E-1,3.6133323E-2,-8.390361E-2,9.282929E-2,2.2844424E-2,5.1025487E-2,-7.919216E-2,-9.026722E-2,6.838826E-2,1.66E2,1.71E2,2E0,-7.842341E-2,1.0338127E-1,NaN,2.3877833E-2,1.0794012E-1,-8.804431E-2,2.4558846E-2,5.667359E-2,6.6E1,2E0,NaN,1.66E2,-1.05842434E-1,3.497302E-2,1.0435773E-1,2.26E2,6.6E1,6.1393943E-2,-3.2813538E-2,NaN,NaN,9.646781E-2,1.6376518E-2,3E0,2E0,6.2914506E-2,-1.9276075E-2,-1.0291869E-1,2.33E-1,1.36E-1,4E0,NaN,3.2E1,7.568259E-2,-2.4213422E-2,1.84E-1,4E0,-1.04069516E-1,2.6664227E-2,-2.4556465E-2,6.661185E-2,-7.9611674E-2,-1.6084552E-2,-1.0837172E-1,NaN,8.886782E-2,2.7832452E-2,NaN,-9.14954E-2,-2.0328758E-2,-8.1866294E-2,2E0,-4.2080164E-2,-1.0199832E-1,-2.8839486E-2,3.638081E-2,-2.4338903E-2,NaN,1.2E2,-8.204478E-2,5.5481173E-2,9.746186E-2,1.0918669E-2,8.35792E-2,-3.839361E-2,-2.1807857E-2,-8.075589E-2,-2.8373009E-2,8.897848E-2,6.155058E-2,-2.7475318E-2,5.1558428E-3,-6.960669E-2,5.3456534E-2,-7.623653E-2,8.81781E-2,2.4321642E-2,9.364477E-2,-3.9035387E-2,-9.154709E-2,-1.4629413E-2],"split_indices":[17,22,21,11,20,13,13,17,19,13,12,23,20,20,12,13,16,3,4,0,13,23,0,20,11,9,19,13,3,3,23,0,19,23,24,19,20,0,0,0,4,12,12,11,12,19,4,0,0,21,12,22,3,12,23,24,0,13,0,24,13,13,9,0,3,20,22,0,0,17,17,12,0,0,0,3,19,0,0,23,0,0,3,4,12,12,0,20,20,12,0,4,20,3,0,0,0,0,0,0,0,0,13,21,3,14,0,0,0,20,0,0,20,0,0,0,0,0,0,0,4,21,13,20,20,0,0,0,12,20,4,0,13,0,0,0,0,23,20,0,0,0,0,0,0,0,0,12,12,23,0,0,3,0,0,0,0,0,13,9,4,12,0,0,0,12,13,0,0,4,22,0,0,8,8,0,0,0,20,20,8,3,17,0,0,20,23,0,0,0,0,0,0,0,22,0,0,19,0,0,0,23,0,0,0,0,0,3,13,0,0,0,0,0,0,0,0,0,0,0,0,0,0,0,0,0,0,0,0,0,0],"split_type":[0,1,1,0,0,0,0,0,1,0,0,0,0,0,0,0,0,1,1,0,0,0,0,0,0,0,1,0,1,1,0,0,1,0,0,1,0,0,0,0,1,0,0,0,0,1,1,0,0,1,0,1,1,0,0,0,0,0,0,0,0,0,0,0,1,0,1,0,0,0,0,0,0,0,0,1,1,0,0,0,0,0,1,1,0,0,0,0,0,0,0,1,0,1,0,0,0,0,0,0,0,0,0,1,1,0,0,0,0,0,0,0,0,0,0,0,0,0,0,0,1,1,0,0,0,0,0,0,0,0,1,0,0,0,0,0,0,0,0,0,0,0,0,0,0,0,0,0,0,0,0,0,1,0,0,0,0,0,0,0,1,0,0,0,0,0,0,0,0,1,1,0,0,0,0,0,0,0,0,0,0,1,0,0,0,0,0,0,0,0,0,0,0,0,1,0,0,1,0,0,0,0,0,0,0,0,0,1,0,0,0,0,0,0,0,0,0,0,0,0,0,0,0,0,0,0,0,0,0,0,0],"sum_hessian":[4.6254373E2,2.1493167E2,2.4761205E2,1.6362732E2,5.130436E1,1.3693349E2,1.1067856E2,1.3684401E2,2.67833E1,3.2291195E1,1.9013166E1,8.588964E1,5.104385E1,9.216692E1,1.8511637E1,5.143968E1,8.5404335E1,2.1532467E1,5.2508354E0,2.400165E0,2.989103E1,1.7073927E1,1.9392393E0,6.1007294E1,2.4882347E1,5.710394E0,4.5333458E1,7.675623E1,1.5410686E1,9.016888E0,9.494748E0,1.9324477E0,4.9507233E1,7.9677605E1,5.7267294E0,1.5781377E1,5.751089E0,1.4400918E0,3.8107433E0,2.1484283E1,8.406745E0,5.200446E0,1.1873481E1,5.7231792E1,3.775498E0,1.957807E1,5.3042774E0,3.3262935E0,2.3841E0,3.2301292E1,1.30321665E1,6.1128883E0,7.064335E1,7.5269475E0,7.8837385E0,6.2051797E0,2.8117085E0,7.599762E0,1.8949864E0,4.48091E1,4.6981325E0,3.9052883E1,4.0624718E1,2.3225546E0,3.4041746E0,9.536628E0,6.2447495E0,3.803243E0,1.9478462E0,3.3068182E0,5.0999265E0,2.7620149E0,2.4384313E0,1.9372501E0,9.936231E0,1.1058946E1,4.6172848E1,1.3994261E0,2.376072E0,1.8133532E1,1.4445381E0,1.4648377E0,3.8394399E0,1.710514E1,1.519615E1,1.0145903E1,2.8862643E0,2.861809E0,3.2510796E0,3.2349655E1,3.8293694E1,3.721641E0,3.8053064E0,4.567607E0,3.3161314E0,3.7933524E0,2.4118273E0,1.9342493E0,5.665513E0,4.3390106E1,1.4189942E0,1.8250957E0,2.8730369E0,3.1987211E1,7.065674E0,3.8172867E1,2.4518514E0,1.983475E0,1.4206996E0,7.6276164E0,1.9090109E0,1.4637501E0,4.780999E0,1.8896263E0,1.417192E0,1.4038475E0,3.6960793E0,1.3602961E0,1.4017189E0,2.4167006E0,8.642245E0,7.140233E0,3.9032616E1,6.682411E0,1.145112E1,1.421952E0,2.4174879E0,1.2829573E1,4.2755694E0,9.022696E0,6.1734533E0,1.9454582E0,8.200444E0,1.4360886E0,1.4257205E0,1.3923223E0,1.8587573E0,3.3079126E0,2.9041742E1,1.4052538E0,2.3163874E0,2.3982177E0,1.4070888E0,2.3157768E0,2.25183E0,1.4880747E0,1.3849621E0,2.1621195E1,1.0366016E1,3.2550263E0,3.8106472E0,1.65332E1,2.1639668E1,1.41786E0,6.2097564E0,2.3880055E0,2.3929937E0,1.961084E0,6.681161E0,3.8348188E0,3.3054142E0,2.3138891E1,1.58937235E1,1.9013373E0,4.781074E0,3.4292016E0,8.021918E0,2.812212E0,1.4633573E0,3.333297E0,5.6893992E0,3.7712047E0,2.4022489E0,5.281088E0,2.9193563E0,1.8976283E0,1.4102843E0,1.8904936E1,1.0136807E1,4.766293E0,1.6854902E1,7.0906935E0,3.2753232E0,1.8375337E0,1.4174927E0,1.4581121E1,7.0585465E0,5.2162776E0,1.4648831E0,1.4076912E0,2.4271276E0,1.8877779E0,1.4176364E0,8.85475E0,1.42841425E1,1.9612155E0,1.4679862E0,6.070321E0,1.9515972E0,1.4203084E0,1.9129885E0,3.7804232E0,1.9089758E0,3.8336413E0,1.4474467E0,1.4635303E0,1.455826E0,4.711636E0,5.425171E0,1.91328E0,2.8530128E0,1.44577265E1,2.397175E0,5.17591E0,1.9147835E0,1.3739455E0,1.9013777E0,1.4248563E0,1.3156265E1,2.8136005E0,4.244946E0,1.0047562E1,4.236581E0,4.6235147E0,1.4468064E0,2.39172E0,1.3887031E0,2.4059458E0,2.3056903E0,4.0491705E0,1.3760003E0],"tree_param":{"num_deleted":"0","num_feature":"26","num_nodes":"231","size_leaf_vector":"1"}},{"base_weights":[2.204089E-2,-6.031705E-1,2.8905997E-1,-6.9185024E-1,-3.3737352E-1,4.9561772E-1,1.0407013E-1,-7.063027E-1,2.8376456E-2,-4.1165483E-1,9.540508E-2,-6.1672408E-2,5.51745E-1,3.6205676E-1,-3.4794006E-2,-2.111808E-1,-7.2331977E-1,-2.570901E-1,-5.824653E-1,3.9429235E-1,-3.474036E-1,6.4477956E-1,1.229983E-1,4.152229E-1,-3.3404428E-1,-1.0461333E-1,1.01531595E-2,-8.136949E-2,4.8563354E-2,-1.0958051E-1,-4.6148714E-2,-3.6768675E-1,7.8399375E-2,-2.69709E-1,-1.0726059E-1,-3.1984434E-2,9.3609974E-2,-7.710443E-2,-9.7924694E-2,3.222327E-1,6.659911E-1,4.4153488E-1,-2.7963963E-1,4.0459488E-2,5.064917E-1,2.4726097E-2,-8.8204525E-2,1.2891246E-1,-2.1307123E-1,-5.0399977E-1,-6.564717E-2,2.5397185E-2,-8.883627E-2,4.8387066E-2,-4.085809E-1,5.197062E-1,-2.324763E-2,6.769586E-1,2.0143172E-1,5.467942E-1,-1.1884172E-2,1.8717077E-1,-5.169251E-1,-8.267439E-2,2.080764E-1,7.06753E-1,3.6687732E-1,4.0712667E-1,-1.5318899E-3,1.925974E-1,