{"learner":{"attributes":{"best_iteration":"9","best_score":"0.4528966666340168","scikit_learn":"{\"_estimator_type\": \"classifier\"}"},"feature_names":["REF","ALT","X_PREV1","X_NEXT1","X_PREV2","X_NEXT2","X_PREV3","X_NEXT3","X_HMER_REF","X_HMER_ALT","BCSQ","BCSQCSS","RL","INDEX","REV","SCST","SCED","SMQ_BEFORE","SMQ_AFTER","tm","rq","st","et","EDIST","HAMDIST","HAMDIST_FILT"],"feature_types":["c","c","c","c","c","c","c","c","int","int","int","int","int","int","int","int","int","int","int","c","float","c","c","int","int","int"],"gradient_booster":{"model":{"gbtree_model_param":{"num_parallel_tree":"1","num_trees":"20"},"iteration_indptr":[0,2,4,6,8,10,12,14,16,18,20],"tree_info":[0,1,0,1,0,1,0,1,0,1,0,1,0,1,0,1,0,1,0,1],"trees":[{"base_weights":[4.511278E-2,8.314176E-1,-3.3580706E-1,8.967136E-1,5.2E-1,3.937008E-2,-6.6550523E-1,3.0000001E-2,1.3571429E-1,-3.3333334E-1,6.086956E-1,2.2033899E-1,-3.6708862E-1,6E-1,-7.5464684E-1,-0E0,-7.5E-2,8.064516E-1,1.764706E-1,1.923077E-2,4.9333334E-1,8.571429E-2,-6.956522E-1,1.1111111E-1,1.2692308E-1,-7.7862597E-1,1.1111111E-1,3.0000001E-2,1.2857144E-1,1.16666675E-1,-4E-1,1.8421052E-1,-4E-1,7E-1,2.4324325E-1,4.4444445E-1,-2.631579E-1,-1.4210527E-1,4E-1,9E-2,-3.3333334E-1,-6.1904764E-1,-8.742138E-1,9E-2,-3.3333334E-1,3.0000001E-2,-1.07142866E-1,6.296296E-1,-5.882353E-2,4.2857143E-1,-6E-1,8.181818E-1,1.1111111E-1,5.2E-1,-2.857143E-1,6.363636E-1,1.1111111E-1,7.692308E-2,-1.12500004E-1,1.07142866E-1,-3.0000001E-2,-7.5E-2,-0E0,-6.6E-1,1.4285715E-1,3.0000001E-2,-8.974359E-1,-0E0,-7.5E-2,7.5E-1,-3.0000001E-2,1.1627907E-1,-1.20000005E-1,9E-2,-0E0,-2E-1,-7.647059E-1,8.7096775E-1,-0E0,7.5E-2,-1.4285715E-1,7.1428573E-1,-3.3333334E-1,-1.12500004E-1,2.5E-1,1.16666675E-1,-0E0,9E-2,-3.3333334E-1,1.0000001E-1,-3.3333334E-1,-7.4358976E-1,-3.3333334E-1,9E-2,-7.5E-2,-6.756757E-1,-1.4256199E-1,8.181818E-1,-0E0,3.846154E-1,-2.631579E-1,3.3333334E-1,-1.0000001E-1,-3.0000001E-2,-1.2857144E-1,3.3333334E-1,1.388889E-1,3.0000001E-2,-7.5E-2,7.894737E-1,-0E0,-0E0,-7.5E-2,9E-2,-3.0000001E-2,-0E0,-7.5E-2,3.0000001E-2,-1.0000001E-1,-4.4E-1,-8.545455E-1,1.4285715E-1,-1.25E-1,-0E0,-7.5757575E-1,1.3421053E-1,3.0000001E-2,6.666667E-1,-2E-1,9E-2,-5E-1,7.5E-2,-0E0,7.5E-2,-0E0,-0E0,1.3235295E-1,1.4285715E-1,-6E-1,-0E0,-8.867925E-1,4E-1,-3.3333334E-1,7.5E-2,-7.5E-2,-8.064516E-1,-0E0,-0E0,1.12500004E-1,7.5E-2,-7.5E-2,-1.0384616E-1,3.0000001E-2,9E-2,-7.5E-2,-0E0,-1.2857144E-1,-5.0000004E-2,-1.3775511E-1,1.0000001E-1,-0E0,-7.5E-2,-0E0,-0E0,-1.2931035E-1],"categories":[5,12,1,2,0,1,0,3,4,9,1,3,0,0,2,1,3,0,1,1,2,11,13,3,0,1,2,3,6,7,8,9,2,3,1,0,1,0,1,0,1,2,3,4,5,6,7,9,0,1,2,0,2,0,1,3,1,2,3,13,1,2,3,2,3,2,0,2,3,1,3,1,3,2,3,0,1,2,3,4,5,6,7,8,9,10,11,0,2,3,0,1,2,3,0,1,2,2,3,2,1,0,0,2,0,1,2,3,4,5,0,1,3,0,1,0,1,3,0],"categories_nodes":[2,5,9,10,12,18,19,20,21,23,31,32,33,34,35,36,38,40,42,44,47,49,50,52,53,55,56,57,64,66,71,75,76,80,81,82,84,88,90,91,92,97,99,101,105,121,123,128,137,138,142],"categories_segments":[0,2,4,6,7,10,12,13,15,17,19,21,23,24,32,34,35,37,39,48,50,51,53,56,59,60,62,63,65,66,69,71,73,75,87,88,89,90,92,94,97,99,100,101,102,103,104,110,113,115,118],"categories_sizes":[2,2,2,1,3,2,1,2,2,2,2,2,1,8,2,1,2,2,9,2,1,2,3,3,1,2,1,2,1,3,2,2,2,12,1,1,1,2,2,3,2,1,1,1,1,1,6,3,2,3,1],"default_left":[0,0,1,0,0,1,0,0,0,1,1,0,1,0,0,0,0,0,1,1,1,1,0,1,0,0,0,0,0,0,0,1,1,1,1,1,1,0,1,0,1,0,1,0,1,0,0,1,0,1,1,0,1,1,0,1,1,1,0,0,0,0,0,0,1,0,1,0,0,0,0,1,0,0,0,1,1,0,0,0,1,1,1,0,1,0,0,0,1,0,1,1,1,0,0,0,0,1,0,1,0,1,0,0,0,1,0,0,0,0,0,0,0,0,0,0,0,0,0,0,0,1,0,1,0,0,0,0,1,0,0,0,0,0,0,0,0,1,1,0,0,0,1,0,0,0,0,0,0,0,0,0,0,0,0,0,0,0,0,0,0,0,0,0,0],"id":0,"left_children":[1,3,5,7,9,11,13,-1,-1,15,17,19,21,23,25,-1,-1,27,29,31,33,35,37,39,-1,41,43,-1,-1,-1,45,47,49,51,53,55,57,-1,59,-1,61,63,65,-1,67,-1,-1,69,71,73,75,77,79,81,83,85,87,89,-1,-1,-1,-1,-1,91,93,-1,95,-1,-1,97,-1,99,-1,-1,-1,101,103,105,-1,-1,107,109,111,-1,113,-1,-1,-1,115,-1,117,119,121,-1,-1,123,-1,125,-1,127,129,131,-1,-1,-1,133,-1,-1,-1,135,-1,-1,-1,-1,-1,-1,-1,-1,-1,137,139,141,-1,143,145,-1,-1,147,149,-1,151,-1,-1,-1,-1,-1,-1,153,155,-1,157,159,161,-1,-1,163,-1,-1,-1,-1,-1,-1,-1,-1,-1,-1,-1,-1,-1,-1,-1,-1,-1,-1,-1],"loss_changes":[1.1978732E2,2.1873398E0,3.336206E1,4.1622925E-1,2.0950718E0,9.4225445E0,1.6640907E1,0E0,0E0,1.6666666E-1,1.8236122E0,4.8492875E0,5.9362216E0,1.1094017E0,2.878746E0,0E0,0E0,3.0506897E-1,3.2575164E0,3.6702428E0,1.7679281E0,2.307101E0,6.7221956E0,1.1777778E0,0E0,1.4570618E0,1.1777778E0,0E0,0E0,0E0,1.0857143E0,4.150614E0,2.742857E0,1.3010101E0,2.856834E0,5.0505054E-1,1.6305667E0,0E0,1.0857143E0,0E0,1.6666666E-1,1.7323818E0,2.162651E0,0E0,1.6666666E-1,0E0,0E0,1.498148E0,3.4024622E0,2.5714284E-1,6.70588E-1,7.126093E-1,5.15873E-1,2.3104763E0,1.9285715E0,4.9494958E-1,1.1777778E0,1.7948718E0,0E0,0E0,0E0,0E0,0E0,1.1174355E0,1.3285714E0,0E0,2.741928E-1,0E0,0E0,6.136365E-1,0E0,2.2902741E0,0E0,0E0,0E0,1.4666667E0,2.7226877E-1,1.4934254E-1,0E0,0E0,5.285714E-1,5.6390953E-1,1.6666666E-1,0E0,7.5E-1,0E0,0E0,0E0,1.6666666E-1,0E0,9.333334E-1,9.3771553E-1,2.97619E0,0E0,0E0,1.0237513E0,0E0,3.4162664E-1,0E0,2.276923E0,2.2421055E0,1.6666666E-1,0E0,0E0,0E0,1.6666666E-1,0E0,0E0,0E0,6.965947E-1,0E0,0E0,0E0,0E0,0E0,0E0,0E0,0E0,0E0,1.2514284E0,7.578049E-1,9.904762E-1,0E0,1E0,6.1094856E-1,0E0,0E0,5E-1,1.3E0,0E0,1.2153845E0,0E0,0E0,0E0,0E0,0E0,0E0,1.3285714E0,1.5428572E0,0E0,1.569767E-1,5.3333336E-1,1.6666666E-1,0E0,0E0,6.952162E-1,0E0,0E0,0E0,0E0,0E0,0E0,0E0,0E0,0E0,0E0,0E0,0E0,0E0,0E0,0E0,0E0,0E0,0E0,0E0],"parents":[2147483647,0,0,1,1,2,2,3,3,4,4,5,5,6,6,9,9,10,10,11,11,12,12,13,13,14,14,17,17,18,18,19,19,20,20,21,21,22,22,23,23,25,25,26,26,30,30,31,31,32,32,33,33,34,34,35,35,36,36,38,38,40,40,41,41,42,42,44,44,47,47,48,48,49,49,50,50,51,51,52,52,53,53,54,54,55,55,56,56,57,57,63,63,64,64,66,66,69,69,71,71,75,75,76,76,77,77,80,80,81,81,82,82,84,84,88,88,90,90,91,91,92,92,95,95,97,97,99,99,100,100,101,101,105,105,109,109,119,119,120,120,121,121,123,123,124,124,127,127,128,128,130,130,137,137,138,138,140,140,141,141,142,142,145,145],"right_children":[2,4,6,8,10,12,14,-1,-1,16,18,20,22,24,26,-1,-1,28,30,32,34,36,38,40,-1,42,44,-1,-1,-1,46,48,50,52,54,56,58,-1,60,-1,62,64,66,-1,68,-1,-1,70,72,74,76,78,80,82,84,86,88,90,-1,-1,-1,-1,-1,92,94,-1,96,-1,-1,98,-1,100,-1,-1,-1,102,104,106,-1,-1,108,110,112,-1,114,-1,-1,-1,116,-1,118,120,122,-1,-1,124,-1,126,-1,128,130,132,-1,-1,-1,134,-1,-1,-1,136,-1,-1,-1,-1,-1,-1,-1,-1,-1,138,140,142,-1,144,146,-1,-1,148,150,-1,152,-1,-1,-1,-1,-1,-1,154,156,-1,158,160,162,-1,-1,164,-1,-1,-1,-1,-1,-1,-1,-1,-1,-1,-1,-1,-1,-1,-1,-1,-1,-1,-1],"split_conditions":[7.2E1,6.2E1,NaN,2E-2,6.4E1,NaN,2.5E1,3.0000001E-2,1.3571429E-1,NaN,NaN,2.14E-1,NaN,4.23E-1,2E0,-0E0,-7.5E-2,4.5E-2,NaN,NaN,NaN,NaN,3.84E-1,NaN,1.2692308E-1,7.9E1,6E0,3.0000001E-2,1.2857144E-1,1.16666675E-1,1.82E2,NaN,NaN,NaN,NaN,NaN,NaN,-1.4210527E-1,NaN,9E-2,NaN,6.94E-1,NaN,9E-2,NaN,3.0000001E-2,-1.07142866E-1,NaN,2.03E2,NaN,NaN,3.2E2,NaN,NaN,1.77E2,NaN,NaN,NaN,-1.12500004E-1,1.07142866E-1,-3.0000001E-2,-7.5E-2,-0E0,2.17E2,NaN,3.0000001E-2,NaN,-0E0,-7.5E-2,1.5E-1,-3.0000001E-2,NaN,-1.20000005E-1,9E-2,-0E0,NaN,NaN,1.58E2,-0E0,7.5E-2,NaN,NaN,NaN,-1.12500004E-1,NaN,1.16666675E-1,-0E0,9E-2,NaN,1.0000001E-1,NaN,NaN,NaN,9E-2,-7.5E-2,2E-2,-1.4256199E-1,NaN,-0E0,NaN,3.1E1,NaN,-1.0000001E-1,-3.0000001E-2,-1.2857144E-1,NaN,1.388889E-1,3.0000001E-2,-7.5E-2,1.5E1,-0E0,-0E0,-7.5E-2,9E-2,-3.0000001E-2,-0E0,-7.5E-2,3.0000001E-2,-1.0000001E-1,1.66E2,1.33E2,NaN,-1.25E-1,NaN,3.12E2,1.3421053E-1,3.0000001E-2,1.53E2,NaN,9E-2,1.89E2,7.5E-2,-0E0,7.5E-2,-0E0,-0E0,1.3235295E-1,NaN,NaN,-0E0,7.4E1,3.5E1,NaN,7.5E-2,-7.5E-2,3.3E1,-0E0,-0E0,1.12500004E-1,7.5E-2,-7.5E-2,-1.0384616E-1,3.0000001E-2,9E-2,-7.5E-2,-0E0,-1.2857144E-1,-5.0000004E-2,-1.3775511E-1,1.0000001E-1,-0E0,-7.5E-2,-0E0,-0E0,-1.2931035E-1],"split_indices":[10,10,21,20,10,1,18,0,0,0,2,20,19,20,16,0,0,20,3,3,3,0,20,3,0,10,16,0,0,0,12,0,22,0,19,6,1,0,2,0,1,20,19,0,0,0,0,4,12,0,2,12,2,22,12,0,4,3,0,0,0,0,0,12,0,0,0,0,0,20,0,6,0,0,0,6,6,12,0,0,22,0,0,0,2,0,0,0,3,0,2,1,6,0,0,20,0,2,0,2,18,4,0,0,0,1,0,0,0,18,0,0,0,0,0,0,0,0,0,12,12,0,0,19,12,0,0,12,4,0,12,0,0,0,0,0,0,6,2,0,10,18,1,0,0,18,0,0,0,0,0,0,0,0,0,0,0,0,0,0,0,0,0,0,0],"split_type":[0,0,1,0,0,1,0,0,0,1,1,0,1,0,0,0,0,0,1,1,1,1,0,1,0,0,0,0,0,0,0,1,1,1,1,1,1,0,1,0,1,0,1,0,1,0,0,1,0,1,1,0,1,1,0,1,1,1,0,0,0,0,0,0,1,0,1,0,0,0,0,1,0,0,0,1,1,0,0,0,1,1,1,0,1,0,0,0,1,0,1,1,1,0,0,0,0,1,0,1,0,1,0,0,0,1,0,0,0,0,0,0,0,0,0,0,0,0,0,0,0,1,0,1,0,0,0,0,1,0,0,0,0,0,0,0,0,1,1,0,0,0,1,0,0,0,0,0,0,0,0,0,0,0,0,0,0,0,0,0,0,0,0,0,0],"sum_hessian":[3.98E2,1.295E2,2.685E2,1.055E2,2.4E1,1.26E2,1.425E2,1.5E0,1.04E2,2E0,2.2E1,8.75E1,3.85E1,9E0,1.335E2,1E0,1E0,1.45E1,7.5E0,5.1E1,3.65E1,1.65E1,2.2E1,3.5E0,5.5E0,1.3E2,3.5E0,1.5E0,1.3E1,3.5E0,4E0,3.7E1,1.4E1,1.9E1,1.75E1,8E0,8.5E0,1.8E1,4E0,1.5E0,2E0,5.15E1,7.85E1,1.5E0,2E0,1.5E0,2.5E0,1.25E1,2.45E1,2.5E0,1.15E1,1.55E1,3.5E0,1.15E1,6E0,4.5E0,3.5E0,5.5E0,3E0,2.5E0,1.5E0,1E0,1E0,4.9E1,2.5E0,1.5E0,7.7E1,1E0,1E0,1.1E1,1.5E0,2.05E1,4E0,1.5E0,1E0,4E0,7.5E0,1.45E1,1E0,1E0,2.5E0,9.5E0,2E0,3E0,3E0,3.5E0,1E0,1.5E0,2E0,2E0,3.5E0,3.8E1,1.1E1,1.5E0,1E0,1.75E1,5.95E1,1E1,1E0,1.2E1,8.5E0,2E0,2E0,1.5E0,6E0,2E0,1.25E1,1.5E0,1E0,8.5E0,1E0,1E0,1E0,1.5E0,1.5E0,1E0,1E0,1.5E0,2E0,1.15E1,2.65E1,6E0,5E0,2E0,1.55E1,8.5E0,1.5E0,8E0,4E0,1.5E0,7E0,1E0,1E0,1E0,1E0,1E0,7.5E0,2.5E0,9E0,1E0,2.55E1,4E0,2E0,1E0,1E0,1.45E1,1E0,1E0,7E0,1E0,3E0,5.5E0,1.5E0,1.5E0,1E0,3E0,6E0,2E0,2.35E1,2E0,2E0,1E0,1E0,1E0,1.35E1],"tree_param":{"num_deleted":"0","num_feature":"26","num_nodes":"165","size_leaf_vector":"1"}},{"base_weights":[-4.8933502E-2,-8.084291E-1,3.197026E-1,-8.2239383E-1,7.5E-2,6.4444447E-1,-7.4074073E-3,-6E-1,-9.2045456E-1,-1.6666667E-1,7.627119E-1,-6.1904764E-1,1.04347825E-1,1.6666667E-1,-7.0666665E-1,-9.306358E-1,-3.0000001E-2,2E-1,-5.555556E-1,7.777778E-1,-7.5E-2,-7.777778E-1,2.5E-1,5E-1,-6.097561E-2,1.0000001E-1,-2.5E-1,-9.130435E-1,-3.548387E-1,-1.4117648E-1,-3.0000001E-2,1.16666675E-1,-2.3076923E-1,-1.25E-1,-0E0,7.982456E-1,-0E0,1.4285715E-1,-1.4032258E-1,1.0000001E-1,-7.5E-2,6.1403507E-1,-7.692308E-2,4.411765E-2,-5.3333336E-1,3.0000001E-2,-9E-2,-1.4302325E-1,-3.0000001E-2,3.3333334E-1,-5.833333E-1,1.4285715E-1,-5E-1,-9E-2,9E-2,8.293839E-1,3.6842105E-1,3.3333334E-1,-7.5E-2,9E-2,-7.5E-2,6.862745E-1,-0E0,1.0000001E-1,-5.555556E-1,2.3255815E-1,-2.6923078E-1,-0E0,-6.666667E-1,1.07142866E-1,-7.5E-2,-0E0,-1.3125001E-1,7.5E-2,-3.0000001E-2,-0E0,-1.0000001E-1,2.5E-1,8.4390247E-1,-2.5E-1,6.923077E-1,7.5E-2,-0E0,1.1111111E-1,7.7272725E-1,-7.5E-2,3.3333334E-1,-0E0,-1.07142866E-1,-5E-1,3.4210527E-1,9.090909E-2,-5E-1,3.3333334E-1,-7.5E-2,-2.7272728E-1,-1.3000001E-1,2.5E-1,-7.5E-2,9E-2,-3.0000001E-2,3.3333334E-1,8.5858583E-1,3.0000001E-2,-9E-2,1.22727275E-1,-0E0,4.2857143E-1,-7.5E-2,3.3333334E-1,1.3235295E-1,-0E0,7.5E-2,-1.4285715E-1,-1.07142866E-1,-2.2222222E-1,5E-1,1.12500004E-1,-2.5E-1,-1.25E-1,-7.777778E-1,-0E0,7.5E-2,1.4285715E-1,-1.0000001E-1,-3.0000001E-2,9E-2,1.07142866E-1,-7.5E-2,1.3000001E-1,3.0000001E-2,9E-2,-0E0,6E-1,-7.5E-2,3.0000001E-2,-7.5E-2,5E-1,-6.666667E-1,5.7894737E-1,-9E-2,4.2857143E-1,-6.363636E-1,-1.12500004E-1,4E-1,-0E0,-1.3125001E-1,7.5E-2,-3.0000001E-2,-0E0,1.12500004E-1,1.0000001E-1,-0E0,-0E0,-1.20000005E-1,7.1428575E-2,1.1470589E-1,9E-2,-0E0,-0E0,-1.16666675E-1,7.5E-2,-0E0],"categories":[0,1,2,3,4,5,6,7,8,9,10,11,13,1,3,0,2,3,0,3,0,0,3,0,1,2,0,1,2,0,1,2,3,0,2,0,2,3,1,0,2,0,3,0,1,5,11,2,0,1,3,0,1,2,1,1,0,1,0,3,0,2,1,3,0,1,3,3,3,2,3,2,3,0,3,0,1,2,0,0,1,3,0],"categories_nodes":[2,3,7,12,13,17,21,22,24,26,32,36,37,41,44,49,50,51,52,57,66,67,77,79,80,83,86,89,91,92,93,95,101,113,115,118,120,123,137,138,141,142,144],"categories_segments":[0,13,15,18,20,21,23,26,27,28,29,32,33,34,35,38,39,40,41,43,45,47,48,51,54,55,56,58,60,62,64,66,67,68,69,71,73,74,75,76,78,79,82],"categories_sizes":[13,2,3,2,1,2,3,1,1,1,3,1,1,1,3,1,1,1,2,2,2,1,3,3,1,1,2,2,2,2,2,1,1,1,2,2,1,1,1,2,1,3,1],"default_left":[0,0,1,1,0,0,0,1,0,0,0,0,1,1,0,0,0,1,0,0,0,1,1,0,1,0,1,0,0,0,0,0,1,0,0,0,1,1,0,0,0,1,0,0,1,0,0,0,0,1,1,1,1,0,0,0,0,1,0,0,0,0,0,0,0,0,1,1,0,0,0,0,0,0,0,0,0,1,0,1,1,0,0,1,0,0,1,0,0,1,0,1,1,1,0,1,0,0,0,0,0,1,0,0,0,0,0,0,0,0,0,0,0,1,0,1,0,0,1,0,1,0,0,1,0,0,0,0,0,0,0,0,0,0,0,0,0,1,1,0,0,1,1,0,1,0,0,0,0,0,0,0,0,0,0,0,0,0,0,0,0,0,0],"id":1,"left_children":[1,3,5,7,-1,9,11,13,15,17,19,21,23,25,27,29,-1,31,33,35,-1,37,39,41,43,-1,45,47,49,-1,-1,-1,51,-1,53,55,57,59,-1,-1,-1,61,63,65,67,-1,-1,-1,-1,69,71,73,75,-1,-1,77,79,81,-1,-1,-1,83,85,-1,87,89,91,93,95,-1,-1,97,-1,-1,-1,-1,-1,99,101,103,105,-1,-1,107,109,-1,111,-1,-1,113,115,117,119,121,-1,123,-1,125,-1,-1,-1,127,129,-1,-1,-1,-1,131,-1,133,-1,-1,-1,135,-1,137,139,-1,141,143,145,-1,-1,147,-1,-1,-1,-1,-1,-1,-1,-1,-1,149,-1,-1,-1,151,153,155,-1,157,159,-1,161,-1,-1,-1,-1,-1,-1,-1,-1,-1,-1,-1,-1,-1,-1,-1,-1,-1,-1],"loss_changes":[1.1182949E2,2.7956772E0,2.857965E1,2.2718735E0,0E0,1.30774E1,9.292386E0,3.5933332E0,4.5936584E-1,2.6777778E0,2.6337128E0,3.0912704E0,7.5527043E0,1.4166667E0,2.398859E0,4.779358E-1,0E0,2.668376E0,1.3888888E0,1.8625717E0,0E0,2.747055E0,1.5833334E0,2.2840757E0,4.0941415E0,0E0,7.5E-1,4.7259712E-1,2.6317205E0,0E0,0E0,0E0,7.252747E-1,0E0,1.8E0,1.2202148E0,8.333334E-1,1.3285714E0,0E0,0E0,0E0,1.2641897E0,2.683761E0,4.0778437E0,1.0666666E0,0E0,0E0,0E0,0E0,1.7857141E0,2.0416665E0,5.285714E-1,3.3333337E-1,0E0,0E0,6.764679E-1,2.075911E0,1.6666666E-1,0E0,0E0,0E0,1.1821156E0,8.333334E-1,0E0,3.9682543E-1,3.6217873E0,2.2062936E0,8.333334E-1,7.090907E-1,0E0,0E0,7.5E-1,0E0,0E0,0E0,0E0,0E0,7.5E-1,4.8223877E-1,7.5E-1,5.6643367E-1,0E0,0E0,1.0873015E0,7.6559734E-1,0E0,1.6666666E-1,0E0,0E0,3.571428E-1,3.497076E0,2.659091E0,1.5694447E0,1.6666666E-1,0E0,9.9567103E-1,0E0,7.5E-1,0E0,0E0,0E0,1.7857141E0,3.5353088E-1,0E0,0E0,0E0,0E0,2.5714284E-1,0E0,1.6333332E0,0E0,0E0,0E0,5.285714E-1,0E0,3.2222223E0,2.952631E0,0E0,2.3701298E0,2.925E0,6.8055534E-1,0E0,0E0,5.285714E-1,0E0,0E0,0E0,0E0,0E0,0E0,0E0,0E0,0E0,4.5000005E-1,0E0,0E0,0E0,3.3333337E-1,5.333333E-1,1.7986107E-1,0E0,2.5714284E-1,4.9494958E-1,0E0,1.9999999E-1,0E0,0E0,0E0,0E0,0E0,0E0,0E0,0E0,0E0,0E0,0E0,0E0,0E0,0E0,0E0,0E0,0E0,0E0],"parents":[2147483647,0,0,1,1,2,2,3,3,5,5,6,6,7,7,8,8,9,9,10,10,11,11,12,12,13,13,14,14,15,15,17,17,18,18,19,19,21,21,22,22,23,23,24,24,26,26,27,27,28,28,32,32,34,34,35,35,36,36,37,37,41,41,42,42,43,43,44,44,49,49,50,50,51,51,52,52,55,55,56,56,57,57,61,61,62,62,64,64,65,65,66,66,67,67,68,68,71,71,77,77,78,78,79,79,80,80,83,83,84,84,86,86,89,89,90,90,91,91,92,92,93,93,95,95,97,97,101,101,102,102,107,107,109,109,113,113,115,115,116,116,118,118,119,119,120,120,123,123,133,133,137,137,138,138,139,139,141,141,142,142,144,144],"right_children":[2,4,6,8,-1,10,12,14,16,18,20,22,24,26,28,30,-1,32,34,36,-1,38,40,42,44,-1,46,48,50,-1,-1,-1,52,-1,54,56,58,60,-1,-1,-1,62,64,66,68,-1,-1,-1,-1,70,72,74,76,-1,-1,78,80,82,-1,-1,-1,84,86,-1,88,90,92,94,96,-1,-1,98,-1,-1,-1,-1,-1,100,102,104,106,-1,-1,108,110,-1,112,-1,-1,114,116,118,120,122,-1,124,-1,126,-1,-1,-1,128,130,-1,-1,-1,-1,132,-1,134,-1,-1,-1,136,-1,138,140,-1,142,144,146,-1,-1,148,-1,-1,-1,-1,-1,-1,-1,-1,-1,150,-1,-1,-1,152,154,156,-1,158,160,-1,162,-1,-1,-1,-1,-1,-1,-1,-1,-1,-1,-1,-1,-1,-1,-1,-1,-1,-1],"split_conditions":[7.2E1,2.5E1,NaN,NaN,7.5E-2,2.9E1,3E1,NaN,4E0,2E0,5E0,2.88E2,NaN,NaN,5.9E1,7E0,-3.0000001E-2,NaN,2.7E1,2E0,-7.5E-2,NaN,NaN,1.53E2,NaN,1.0000001E-1,NaN,9E0,1E0,-1.4117648E-1,-3.0000001E-2,1.16666675E-1,NaN,-1.25E-1,7.9E1,1.89E2,NaN,NaN,-1.4032258E-1,1.0000001E-1,-7.5E-2,NaN,3.5E1,1.23E2,NaN,3.0000001E-2,-9E-2,-1.4302325E-1,-3.0000001E-2,NaN,NaN,NaN,NaN,-9E-2,9E-2,9E0,2.01E2,NaN,-7.5E-2,9E-2,-7.5E-2,0E0,7.9E1,1.0000001E-1,1.72E2,3.5E1,NaN,NaN,7.9E1,1.07142866E-1,-7.5E-2,7.9E1,-1.3125001E-1,7.5E-2,-3.0000001E-2,-0E0,-1.0000001E-1,NaN,3E1,NaN,NaN,7.5E-2,-0E0,NaN,4.7E1,-7.5E-2,NaN,-0E0,-1.07142866E-1,NaN,1.6E1,NaN,NaN,NaN,-7.5E-2,NaN,-1.3000001E-1,1.9E1,-7.5E-2,9E-2,-3.0000001E-2,NaN,4E0,3.0000001E-2,-9E-2,1.22727275E-1,-0E0,6.1E1,-7.5E-2,3E1,1.3235295E-1,-0E0,7.5E-2,NaN,-1.07142866E-1,NaN,3E0,1.12500004E-1,NaN,1E0,NaN,-0E0,7.5E-2,NaN,-1.0000001E-1,-3.0000001E-2,9E-2,1.07142866E-1,-7.5E-2,1.3000001E-1,3.0000001E-2,9E-2,-0E0,8E0,-7.5E-2,3.0000001E-2,-7.5E-2,NaN,NaN,9.4E1,-9E-2,NaN,NaN,-1.12500004E-1,NaN,-0E0,-1.3125001E-1,7.5E-2,-3.0000001E-2,-0E0,1.12500004E-1,1.0000001E-1,-0E0,-0E0,-1.20000005E-1,7.1428575E-2,1.1470589E-1,9E-2,-0E0,-0E0,-1.16666675E-1,7.5E-2,-0E0],"split_indices":[10,15,21,2,0,17,17,1,9,24,24,13,1,3,10,24,0,1,17,16,0,0,3,13,3,0,0,15,14,0,0,0,3,0,10,13,7,1,0,0,0,3,17,13,7,0,0,0,0,7,3,0,0,0,0,13,13,0,0,0,0,11,10,0,13,17,21,0,10,0,0,13,0,0,0,0,0,1,17,3,1,0,0,2,13,0,0,0,0,0,13,2,0,0,0,1,0,13,0,0,0,7,24,0,0,0,0,13,0,13,0,0,0,1,0,3,25,0,3,14,1,0,0,0,0,0,0,0,0,0,0,0,0,13,0,0,0,2,0,13,0,2,0,0,7,0,0,0,0,0,0,0,0,0,0,0,0,0,0,0,0,0,0],"split_type":[0,0,1,1,0,0,0,1,0,0,0,0,1,1,0,0,0,1,0,0,0,1,1,0,1,0,1,0,0,0,0,0,1,0,0,0,1,1,0,0,0,1,0,0,1,0,0,0,0,1,1,1,1,0,0,0,0,1,0,0,0,0,0,0,0,0,1,1,0,0,0,0,0,0,0,0,0,1,0,1,1,0,0,1,0,0,1,0,0,1,0,1,1,1,0,1,0,0,0,0,0,1,0,0,0,0,0,0,0,0,0,0,0,1,0,1,0,0,1,0,1,0,0,1,0,0,0,0,0,0,0,0,0,0,0,0,0,1,1,0,0,1,1,0,1,0,0,0,0,0,0,0,0,0,0,0,0,0,0,0,0,0,0],"sum_hessian":[3.975E2,1.295E2,2.68E2,1.285E2,1E0,1.34E2,1.34E2,4.15E1,8.7E1,1.7E1,1.17E2,2E1,1.14E2,5E0,3.65E1,8.55E1,1.5E0,9E0,8E0,1.16E2,1E0,1.7E1,3E0,3.3E1,8.1E1,2E0,3E0,2.2E1,1.45E1,8.4E1,1.5E0,3.5E0,5.5E0,5E0,3E0,1.13E2,3E0,2.5E0,1.45E1,2E0,1E0,2.75E1,5.5E0,6.7E1,1.4E1,1.5E0,1.5E0,2.05E1,1.5E0,3.5E0,1.1E1,2.5E0,3E0,1.5E0,1.5E0,1.045E2,8.5E0,2E0,1E0,1.5E0,1E0,2.45E1,3E0,2E0,3.5E0,4.2E1,2.5E1,3E0,1.1E1,2.5E0,1E0,4E0,7E0,1E0,1.5E0,1E0,2E0,3E0,1.015E2,3E0,5.5E0,1E0,1E0,3.5E0,2.1E1,1E0,2E0,1E0,2.5E0,5E0,3.7E1,1E1,1.5E1,2E0,1E0,4.5E0,6.5E0,3E0,1E0,1.5E0,1.5E0,3.5E0,9.8E1,1.5E0,1.5E0,4.5E0,1E0,2.5E0,1E0,5E0,1.6E1,1E0,1E0,2.5E0,2.5E0,8E0,2.9E1,3E0,7E0,7E0,8E0,1E0,1E0,2.5E0,2E0,1.5E0,1.5E0,2.5E0,1E0,9.65E1,1.5E0,1.5E0,1E0,4E0,1E0,1.5E0,1E0,3E0,5E0,2.75E1,1.5E0,2.5E0,4.5E0,3E0,4E0,1E0,7E0,1E0,1.5E0,1E0,3E0,2E0,1E0,1E0,4E0,2E1,7.5E0,1.5E0,1E0,1E0,3.5E0,3E0,1E0],"tree_param":{"num_deleted":"0","num_feature":"26","num_nodes":"163","size_leaf_vector":"1"}},{"base_weights":[2.8642097E-2,5.464405E-1,-1.77406E-1,6.288051E-1,2.7840406E-2,-3.8436773E-1,9.554721E-2,5.380391E-1,8.0225605E-1,4.0500057E-1,-3.9546508E-1,-2.16354E-1,-7.1776474E-1,2.11898E-1,-2.2976385E-1,6.074727E-1,2.7025923E-1,1.2434163E-1,3.9389685E-2,-3.1094495E-2,5.4685956E-1,4.3371797E-2,-6.4867455E-1,5.1701504E-1,-2.6293093E-1,-5.3615105E-1,-7.90276E-1,3.708289E-1,2.7136886E-2,-3.8376465E-2,-6.2600476E-1,-5.1628343E-5,6.308399E-1,4.3266383E-1,-6.592236E-4,1.0593477E-1,2.0948872E-1,-1.1142949E-1,-2.982431E-2,1.12029225E-1,-5.891402E-3,-4.2889875E-1,2.1530844E-2,-6.196796E-1,3.893964E-2,-1.2177963E-1,-4.069302E-2,4.4237298E-1,-1.3563682E-1,5.5591935E-1,-7.7943E-2,1.964795E-1,-3.3392632E-1,-1.1497305E-1,-2.5220677E-1,6.7409515E-1,2.565761E-1,-2.045794E-2,6.415239E-1,8.138112E-2,-2.4828556E-1,-2.8167617E-2,7.848688E-2,1.725232E-1,-5.3731644E-1,1.6300258E-1,-3.217989E-1,-7.4550146E-1,-2.5312376E-1,5.5798393E-1,2.0167463E-1,-4.475998E-1,2.0959535E-1,1.15530916E-1,-2.7283723E-2,-1.971939E-1,5.9259504E-1,1.0666142E-1,-4.3571755E-2,-3.849184E-3,-5.2098274E-1,8.727559E-3,-7.864605E-2,7.1840924E-1,2.1729863E-1,1.02536686E-1,-2.3564382E-1,2.0999076E-2,1.1149285E-1,-1.5117403E-3,-8.124826E-2,-4.1456708E-1,6.413435E-1,-2.1910992E-1,-6.0868675E-1,2.989083E-1,-2.3144822E-1,-4.9914017E-1,8.237774E-2,-4.387614E-2,-1.2047943E-1,5.5423148E-2,-9.865644E-2,6.0550267E-1,-2.9200831E-2,3.70233E-1,-9.7414374E-2,-8.1684545E-2,-2.5417209E-2,8.2409464E-2,-3.2166813E-2,-1.2382253E-1,-1.0434076E-1,1.0360741E-1,2.6586287E-2,3.6500603E-1,-3.507126E-1,5.6094546E-2,-7.939177E-2,-1.132416E-1,3.01611E-2,3.4661043E-1,7.712904E-1,9.225627E-2,-2.815747E-2,2.6044602E-2,-8.224267E-2,2.793526E-2,-2.8290505E-2,-1.0146134E-1,2.5896087E-2,2.9004531E-2,1.10420495E-1,-6.2135017E-1,2.1768677E-1,-4.2070442E-1,-7.3099285E-1,1.187983E-1,6.6608244E-1,5.802698E-2,-5.8256274E-1,-1.2271909E-2,-6.914075E-1,1.9807663E-2,6.467729E-1,6.585591E-1,3.2108914E-2,-5.0448086E-2,-9.960581E-2,-2.6389904E-2,9.687906E-2,2.7684966E-2,-5.4802036E-1,5.387261E-1,-3.18228E-2,1.1902807E-1,2.4254538E-2,-1.1099904E-1,-1.9978508E-2,-8.316035E-2,5.614182E-1,-9.346541E-2,-6.220071E-1,-1.13577746E-1,-2.6663534E-2,4.9276283E-1,-2.683685E-1,1.1493858E-1,2.6749164E-2,-2.715534E-2,-1.02933586E-1,2.7748283E-2,-3.064439E-2,-2.6809458E-2,-1.1823716E-1,1.0820528E-1,1.962638E-1,1.146571E-1,2.0998338E-2,-5.2994233E-1,9.9021904E-2,-3.74056E-1,1.4085034E-1,-9.830773E-2,-2.6369764E-2,1.7787876E-2,9.9769086E-2,9.9254526E-2,2.9218405E-2,-6.019265E-2,4.5716904E-2,1.9683451E-3,-1.1161154E-1,9.993874E-2,-2.8398596E-2,-9.077975E-2,5.8189802E-2,-1.5194716E-2,7.999047E-2,-2.535451E-2,-9.806515E-2,2.0515665E-2,-9.740676E-2,-6.0933243E-2,3.8292814E-2],"categories":[0,1,2,3,4,6,7,8,9,10,12,1,3,12,12,0,0,1,2,0,2,0,2,3,1,2,3,0,1,2,3,4,6,7,8,9,10,12,13,2,0,2,3,0,1,2,1,3,11,0,1,2,3,4,5,6,7,8,9,10,11,2,3,2,1,3,0,2,3,0,3,1,2,0,0,1,0,3,0,3,2,1,2,1,3],"categories_nodes":[1,4,5,6,7,10,13,23,29,52,55,56,64,67,68,71,72,78,86,94,96,97,105,116,135,140,142,144,152,165,181],"categories_segments":[0,11,13,14,15,16,19,21,22,24,27,39,40,43,46,48,49,61,63,64,66,69,71,73,74,76,78,80,81,82,83],"categories_sizes":[11,2,1,1,1,3,2,1,2,3,12,1,3,3,2,1,12,2,1,2,3,2,2,1,2,2,2,1,1,1,2],"default_left":[0,1,0,0,1,1,1,1,0,0,1,0,0,1,0,0,0,0,0,0,0,0,0,1,0,0,0,0,0,1,0,0,0,0,0,0,0,0,0,0,0,0,0,0,0,0,0,0,0,0,0,0,1,0,0,1,1,0,0,0,0,0,0,0,1,0,0,1,1,0,0,1,1,0,0,0,0,0,1,0,0,0,0,0,0,0,1,0,0,0,0,0,0,0,1,0,1,1,0,0,0,0,0,0,0,1,0,0,0,0,0,0,0,0,0,0,1,0,0,0,0,0,0,0,0,0,0,0,0,0,0,0,0,0,0,1,0,0,0,0,1,0,1,0,1,0,0,0,0,0,0,0,1,0,0,0,0,0,0,0,0,0,0,0,0,1,0,0,0,0,0,0,0,0,0,0,0,0,0,0,0,1,0,0,0,0,0,0,0,0,0,0,0,0,0,0,0,0,0,0,0,0,0,0,0],"id":2,"left_children":[1,3,5,7,9,11,13,15,17,19,21,23,25,27,29,31,33,-1,-1,-1,35,-1,37,39,41,43,45,47,49,51,53,-1,55,57,59,-1,61,-1,-1,-1,-1,63,65,67,-1,-1,-1,69,71,73,75,77,79,-1,81,83,85,-1,87,-1,89,-1,-1,91,93,95,97,99,101,103,105,107,109,-1,-1,111,113,-1,115,117,119,-1,-1,121,123,-1,125,-1,-1,127,-1,129,131,133,135,137,139,141,-1,-1,-1,-1,-1,143,-1,145,-1,-1,-1,-1,-1,147,-1,-1,-1,149,151,-1,-1,-1,-1,153,155,-1,-1,-1,-1,-1,-1,-1,-1,-1,-1,157,159,161,163,165,167,-1,169,171,173,-1,175,177,179,181,-1,-1,-1,-1,183,185,-1,-1,-1,-1,-1,-1,187,189,191,-1,-1,193,195,-1,-1,-1,-1,-1,-1,-1,-1,-1,197,-1,-1,199,-1,201,203,-1,-1,-1,-1,-1,-1,-1,-1,-1,-1,-1,-1,-1,-1,-1,-1,-1,-1,-1,-1,-1,-1],"loss_changes":[4.3045933E1,4.887581E0,1.6346697E1,1.1277428E0,2.8399394E0,9.054115E0,4.791692E0,1.1012573E0,2.4305916E-1,9.272654E-1,1.6462302E0,3.9189405E0,2.960968E-1,2.7154875E0,2.515802E0,7.5644684E-1,6.961304E-1,0E0,0E0,0E0,2.758801E-1,0E0,1.2562847E-1,9.18085E-1,4.95695E0,1.404213E0,1.9377327E-1,1.8651485E0,2.4881852E0,1.7071003E0,3.7605333E-1,0E0,6.57114E-1,1.2628675E0,1.0663061E0,0E0,5.907047E-1,0E0,0E0,0E0,0E0,4.411339E0,1.9742817E0,6.056919E-1,0E0,0E0,0E0,1.108717E0,8.403536E-1,1.3127799E0,3.1220915E0,1.7365468E0,6.6739416E-1,0E0,4.0652755E-1,7.618351E-1,1.6168936E0,0E0,2.7410102E-1,0E0,3.9325014E-1,0E0,0E0,3.258541E0,1.1465721E0,1.6069088E0,2.109496E0,8.6750984E-2,1.7331434E0,1.1579571E0,2.5079515E0,1.4534295E-2,6.900613E-1,0E0,0E0,1.1081706E0,1.190238E-1,0E0,1.4277529E0,1.1764218E0,1.3195717E0,0E0,0E0,5.3687286E-1,9.924034E-1,0E0,6.020581E-1,0E0,0E0,1.7419502E-1,0E0,9.5242447E-1,1.3105035E-1,2.2238383E0,7.379246E-1,1.3605893E0,1.9434577E0,9.6469045E-1,0E0,0E0,0E0,0E0,0E0,4.5382595E-1,0E0,1.3271296E0,0E0,0E0,0E0,0E0,0E0,1.1431383E0,0E0,0E0,0E0,8.633302E-1,7.7946323E-1,0E0,0E0,0E0,0E0,8.5600513E-1,3.459053E-1,0E0,0E0,0E0,0E0,0E0,0E0,0E0,0E0,0E0,0E0,2.7488494E-1,2.0202234E0,1.2777481E0,2.4494171E-1,2.42319E0,2.0281696E-1,0E0,1.02476835E-1,1.8784122E-1,2.2824311E-1,0E0,7.0286655E-1,2.9981065E-1,2.9677863E0,1.7375741E0,0E0,0E0,0E0,0E0,8.239186E-2,2.0918429E-1,0E0,0E0,0E0,0E0,0E0,0E0,5.3191304E-2,1.2133939E0,9.6949816E-1,0E0,0E0,1.1203375E0,2.096477E0,0E0,0E0,0E0,0E0,0E0,0E0,0E0,0E0,0E0,5.497425E-1,0E0,0E0,8.91943E-2,0E0,1.5494177E0,1.2200477E0,0E0,0E0,0E0,0E0,0E0,0E0,0E0,0E0,0E0,0E0,0E0,0E0,0E0,0E0,0E0,0E0,0E0,0E0,0E0,0E0,0E0,0E0],"parents":[2147483647,0,0,1,1,2,2,3,3,4,4,5,5,6,6,7,7,8,8,9,9,10,10,11,11,12,12,13,13,14,14,15,15,16,16,20,20,22,22,23,23,24,24,25,25,26,26,27,27,28,28,29,29,30,30,32,32,33,33,34,34,36,36,41,41,42,42,43,43,47,47,48,48,49,49,50,50,51,51,52,52,54,54,55,55,56,56,58,58,60,60,63,63,64,64,65,65,66,66,67,67,68,68,69,69,70,70,71,71,72,72,75,75,76,76,78,78,79,79,80,80,83,83,84,84,86,86,89,89,91,91,92,92,93,93,94,94,95,95,96,96,97,97,103,103,105,105,111,111,115,115,116,116,121,121,122,122,133,133,134,134,135,135,136,136,137,137,138,138,140,140,141,141,142,142,144,144,145,145,146,146,147,147,152,152,153,153,160,160,161,161,162,162,165,165,166,166,176,176,179,179,181,181,182,182],"right_children":[2,4,6,8,10,12,14,16,18,20,22,24,26,28,30,32,34,-1,-1,-1,36,-1,38,40,42,44,46,48,50,52,54,-1,56,58,60,-1,62,-1,-1,-1,-1,64,66,68,-1,-1,-1,70,72,74,76,78,80,-1,82,84,86,-1,88,-1,90,-1,-1,92,94,96,98,100,102,104,106,108,110,-1,-1,112,114,-1,116,118,120,-1,-1,122,124,-1,126,-1,-1,128,-1,130,132,134,136,138,140,142,-1,-1,-1,-1,-1,144,-1,146,-1,-1,-1,-1,-1,148,-1,-1,-1,150,152,-1,-1,-1,-1,154,156,-1,-1,-1,-1,-1,-1,-1,-1,-1,-1,158,160,162,164,166,168,-1,170,172,174,-1,176,178,180,182,-1,-1,-1,-1,184,186,-1,-1,-1,-1,-1,-1,188,190,192,-1,-1,194,196,-1,-1,-1,-1,-1,-1,-1,-1,-1,198,-1,-1,200,-1,202,204,-1,-1,-1,-1,-1,-1,-1,-1,-1,-1,-1,-1,-1,-1,-1,-1,-1,-1,-1,-1,-1,-1],"split_conditions":[3.1E1,NaN,2.22E-1,6.55E-1,NaN,NaN,NaN,NaN,3E0,2.1E1,NaN,9E0,1.63E2,NaN,4E0,2.4E1,2E0,1.2434163E-1,3.9389685E-2,-3.1094495E-2,1.84E2,4.3371797E-2,4.95E-1,NaN,1.25E2,1.39E2,1.72E2,4E0,2.49E-1,NaN,1.85E2,-5.1628343E-5,2.92E2,3E0,1.69E2,1.0593477E-1,2.93E-1,-1.1142949E-1,-2.982431E-2,1.12029225E-1,-5.891402E-3,3.5E1,2E0,1.59E2,3.893964E-2,-1.2177963E-1,-4.069302E-2,1E0,1E0,2E0,2.19E2,3.5E1,NaN,-1.1497305E-1,1.99E2,NaN,NaN,-2.045794E-2,2.41E-1,8.138112E-2,4.59E-1,-2.8167617E-2,7.848688E-2,7.4E1,NaN,2.11E2,2.56E2,NaN,NaN,8E0,2.8E2,NaN,NaN,1.15530916E-1,-2.7283723E-2,3E0,3.23E2,1.0666142E-1,NaN,1.17E2,1.26E2,8.727559E-3,-7.864605E-2,1.8E1,2.4E1,1.02536686E-1,NaN,2.0999076E-2,1.1149285E-1,2.71E2,-8.124826E-2,2E0,2E0,1.76E2,NaN,2.23E2,NaN,NaN,8.237774E-2,-4.387614E-2,-1.2047943E-1,5.5423148E-2,-9.865644E-2,1.53E2,-2.9200831E-2,NaN,-9.7414374E-2,-8.1684545E-2,-2.5417209E-2,8.2409464E-2,-3.2166813E-2,2E0,-1.0434076E-1,1.0360741E-1,2.6586287E-2,2.75E-1,NaN,5.6094546E-2,-7.939177E-2,-1.132416E-1,3.01611E-2,3.17E2,6E0,9.225627E-2,-2.815747E-2,2.6044602E-2,-8.224267E-2,2.793526E-2,-2.8290505E-2,-1.0146134E-1,2.5896087E-2,2.9004531E-2,1.10420495E-1,4E0,4.5E-2,NaN,3E0,1.82E2,3.13E2,5.802698E-2,NaN,1.84E2,NaN,1.9807663E-2,NaN,1.84E2,3E0,2E0,-9.960581E-2,-2.6389904E-2,9.687906E-2,2.7684966E-2,NaN,2.56E2,-3.18228E-2,1.1902807E-1,2.4254538E-2,-1.1099904E-1,-1.9978508E-2,-8.316035E-2,2E2,8.2E-2,1.6E1,-1.13577746E-1,-2.6663534E-2,NaN,1.77E2,1.1493858E-1,2.6749164E-2,-2.715534E-2,-1.02933586E-1,2.7748283E-2,-3.064439E-2,-2.6809458E-2,-1.1823716E-1,1.0820528E-1,6.21E-1,1.146571E-1,2.0998338E-2,1.57E2,9.9021904E-2,NaN,1.55E2,-9.830773E-2,-2.6369764E-2,1.7787876E-2,9.9769086E-2,9.9254526E-2,2.9218405E-2,-6.019265E-2,4.5716904E-2,1.9683451E-3,-1.1161154E-1,9.993874E-2,-2.8398596E-2,-9.077975E-2,5.8189802E-2,-1.5194716E-2,7.999047E-2,-2.535451E-2,-9.806515E-2,2.0515665E-2,-9.740676E-2,-6.0933243E-2,3.8292814E-2],"split_indices":[17,22,20,20,4,22,22,2,8,17,2,13,12,2,11,13,8,0,0,0,12,0,20,6,13,13,13,11,20,4,12,0,13,23,12,0,20,0,0,0,0,17,25,12,0,0,0,14,14,24,13,17,6,0,12,22,6,0,20,0,20,0,0,13,6,13,13,2,2,23,12,22,22,0,0,8,12,0,6,13,13,0,0,17,17,0,4,0,0,12,0,8,23,12,4,12,6,6,0,0,0,0,0,12,0,4,0,0,0,0,0,15,0,0,0,20,4,0,0,0,0,12,24,0,0,0,0,0,0,0,0,0,0,8,20,2,24,12,12,0,6,12,2,0,6,12,23,23,0,0,0,0,2,12,0,0,0,0,0,0,12,20,13,0,0,2,13,0,0,0,0,0,0,0,0,0,20,0,0,12,0,6,12,0,0,0,0,0,0,0,0,0,0,0,0,0,0,0,0,0,0,0,0,0,0],"split_type":[0,1,0,0,1,1,1,1,0,0,1,0,0,1,0,0,0,0,0,0,0,0,0,1,0,0,0,0,0,1,0,0,0,0,0,0,0,0,0,0,0,0,0,0,0,0,0,0,0,0,0,0,1,0,0,1,1,0,0,0,0,0,0,0,1,0,0,1,1,0,0,1,1,0,0,0,0,0,1,0,0,0,0,0,0,0,1,0,0,0,0,0,0,0,1,0,1,1,0,0,0,0,0,0,0,1,0,0,0,0,0,0,0,0,0,0,1,0,0,0,0,0,0,0,0,0,0,0,0,0,0,0,0,0,0,1,0,0,0,0,1,0,1,0,1,0,0,0,0,0,0,0,1,0,0,0,0,0,0,0,0,0,0,0,0,1,0,0,0,0,0,0,0,0,0,0,0,0,0,0,0,1,0,0,0,0,0,0,0,0,0,0,0,0,0,0,0,0,0,0,0,0,0,0,0],"sum_hessian":[4.0155356E2,1.1383484E2,2.8771872E2,9.804994E1,1.57849E1,1.634088E2,1.24309906E2,6.705982E1,3.0990122E1,8.370302E0,7.414597E0,1.0974985E2,5.3658955E1,9.1818665E1,3.2491245E1,5.2244576E1,1.4815242E1,2.901897E1,1.9711509E0,1.4877093E0,6.882593E0,1.9636079E0,5.4509892E0,5.9508896E0,1.0379896E2,1.7706026E1,3.595293E1,4.881827E1,4.300039E1,2.2648632E1,9.842612E0,1.9706303E0,5.0273945E1,8.889389E0,5.9258537E0,3.9318628E0,2.9507303E0,3.968659E0,1.4823302E0,3.9685884E0,1.9823014E0,6.523194E1,3.8567017E1,1.6224255E1,1.481772E0,3.3975357E1,1.9775733E0,4.28866E1,5.9316726E0,6.417224E0,3.6583164E1,1.2806931E1,9.8417015E0,6.3904057E0,3.452207E0,4.43474E1,5.926544E0,2.479865E0,6.4095235E0,1.4826049E0,4.4432487E0,1.4792426E0,1.4714878E0,9.872921E0,5.535902E1,2.7684591E1,1.0882425E1,1.1308694E1,4.91556E0,2.8080795E1,1.4805804E1,2.9602115E0,2.971461E0,4.9388866E0,1.4783373E0,3.1658772E1,4.924393E0,3.4496818E0,9.357249E0,3.9290795E0,5.9126225E0,1.9798815E0,1.4723256E0,3.9903618E1,4.443784E0,2.9653401E0,2.961204E0,1.48187E0,4.927654E0,2.9592052E0,1.4840437E0,4.43492E0,5.438001E0,1.0887374E1,4.4471645E1,2.0770466E1,6.9141254E0,9.396189E0,1.4862372E0,1.9633371E0,9.345357E0,1.9702779E0,2.945282E0,2.6597105E1,1.4836906E0,1.2829884E1,1.9759209E0,1.4848125E0,1.475399E0,1.4854711E0,1.48599E0,2.868454E1,2.974232E0,3.4471054E0,1.477288E0,3.934686E0,5.422563E0,2.4532948E0,1.4757848E0,4.4312572E0,1.4813651E0,5.909492E0,3.3994125E1,1.9803882E0,2.4633958E0,1.4749693E0,1.4862349E0,1.4793013E0,1.4799037E0,2.9621568E0,1.4727633E0,1.4806219E0,3.9573793E0,5.4479313E0,5.439443E0,1.9279367E1,2.5192276E1,1.4822924E1,5.9475427E0,2.4673972E0,4.446728E0,2.961293E0,6.4348955E0,2.4692745E0,2.412783E1,6.4133716E0,6.4165115E0,2.6217018E1,2.4675214E0,1.4723845E0,2.4623015E0,1.4778523E0,3.9447107E0,4.424205E0,1.4852872E0,3.2506977E1,1.48715E0,3.967725E0,1.4802065E0,1.4868311E0,3.952612E0,7.9005227E0,1.1378845E1,2.3701517E1,1.4907584E0,7.401283E0,7.4216413E0,4.4604664E0,1.487076E0,1.4759839E0,2.9707444E0,1.4788026E0,1.4824903E0,1.4744873E0,4.960408E0,2.0184446E1,3.943384E0,4.932757E0,1.4806147E0,3.4685678E0,2.947944E0,9.385234E0,1.6831785E1,2.4711814E0,1.4735293E0,1.4714556E0,2.9527493E0,2.4717393E0,1.4808728E0,4.451868E0,3.4486547E0,1.9782927E0,9.400553E0,5.9189467E0,1.482336E0,4.955975E0,2.465666E0,2.4656966E0,1.4776874E0,1.4901916E0,1.9783762E0,3.4631023E0,5.9221315E0,2.470662E0,1.4361122E1],"tree_param":{"num_deleted":"0","num_feature":"26","num_nodes":"205","size_leaf_vector":"1"}},{"base_weights":[-2.497406E-2,-5.766805E-1,1.8463035E-1,-6.588501E-1,-1.8456617E-1,5.4194665E-1,2.7255882E-2,-4.2894286E-1,-7.6513314E-1,5.908991E-1,-4.404234E-1,6.3009965E-1,-7.595191E-2,3.0698943E-1,-1.149897E-1,1.8692172E-1,-5.271637E-1,-4.7412246E-1,-8.160594E-1,2.667665E-2,1.04942806E-1,8.18004E-2,-5.807329E-1,2.7413848E-1,7.0029396E-1,2.014395E-1,-1.020673E-1,3.440572E-1,-2.962648E-1,-4.0456754E-1,2.4303062E-2,9.102375E-2,-4.4594534E-2,-1.643781E-1,-6.988258E-1,-6.824388E-1,2.9229859E-2,-1.247224E-1,-4.41197E-2,-7.1970433E-1,-2.2122289E-1,5.6467944E-1,-1.1946526E-1,7.823428E-1,4.9973267E-1,4.7662634E-1,-2.6067135E-1,5.864667E-1,2.4637862E-1,2.7068833E-2,-8.928474E-2,-1.5361567E-1,-5.9771615E-1,1.4135213E-1,-2.5501117E-1,-4.4395727E-1,2.0403194E-1,-1.9096397E-1,-1.1816473E-1,-1.1444836E-1,-2.498722E-2,-2.148089E-2,-1.2064105E-1,3.1899445E-2,-4.3822852E-1,1.13689035E-1,-6.31109E-3,8.055554E-2,-3.9795953E-1,1.1980758E-1,2.8608404E-2,-1.3837197E-1,6.3218766E-1,1.0040538E-1,2.1982312E-2,2.1621717E-2,-8.412258E-2,7.146668E-1,-2.1936469E-2,-1.181978E-1,3.5181677E-1,-4.3938753E-1,4.0090737E-1,-3.4975246E-1,-7.5885695E-1,2.6556075E-1,-1.7704654E-1,1.7582677E-1,-5.75963E-1,2.7612284E-2,-1.04082875E-1,8.9879654E-2,-3.9029326E-2,3.479661E-2,-8.0772206E-2,-7.943787E-2,-2.545374E-2,2.629287E-2,-9.846128E-2,4.035697E-2,-8.550783E-2,7.157802E-1,-2.5983445E-2,1.22438885E-1,2.1746643E-1,2.3506315E-1,-1.0785326E-1,2.60974E-1,1.1745357E-1,-1.3785227E-1,-1.14767626E-1,9.903295E-2,8.065427E-2,-5.6473655E-1,1.0948648E-1,-5.0294485E-2,-1.2313688E-1,3.7210426E-1,-1.009307E-1,6.5994523E-3,-4.9211434E-1,3.6296025E-1,-6.1115284E-2,-1.2039433E-1,-3.3652234E-1,7.6470244E-1,2.034912E-2,7.937369E-2,-2.7266556E-2,1.01663254E-1,-9.069662E-2,3.7394714E-1,-3.0003908E-1,2.0093521E-1,-4.8398903E-1,4.568606E-2,-3.306434E-2,-2.4473235E-1,-1.0621629E-1,9.4170906E-2,-8.3177604E-2,5.595776E-1,4.2269867E-2,2.4185789E-1,-1.03422575E-1,4.0426666E-1,-2.5199875E-1,-1.0592373E-1,-1.1307148E-2,1.0055543E-1,1.3581966E-1,2.2256041E-2,-5.3082687E-1,2.170061E-2,1.2343977E-1,1.8508375E-2,-4.6522796E-2,6.0053957E-1,1.8662535E-1,8.273745E-2,-1.0615196E-1,9.114695E-2,-4.111227E-2,-2.4366377E-2,-8.840218E-2,2.9164836E-2,-8.749396E-2,-2.8583946E-2,6.5810865E-1,5.0405043E-1,-2.9711226E-1,1.0133993E-1,-1.5315308E-1,9.599567E-2,-8.2095526E-4,5.998298E-2,-5.9158987E-1,3.7307563E-1,-4.5940682E-2,3.0640208E-3,-1.1306817E-1,1.6534718E-2,1.0766475E-1,6.917026E-2,-3.0700583E-2,1.08759694E-1,1.7239556E-2,1.0976816E-1,-8.9022703E-4,1.6095797E-2,-8.617623E-2,2.714591E-2,-8.373422E-2,-2.7684897E-2,-1.0296211E-1,1.007411E-1,-2.9174987E-2],"categories":[0,1,2,3,4,5,6,7,8,9,10,11,13,0,1,2,5,11,13,0,2,3,0,3,0,1,3,1,2,3,0,3,0,1,3,1,3,0,1,2,3,6,7,0,1,3,0,1,2,3,6,0,1,2,3,4,0,2,3,0,3,0,1,2,0,2,3,0,1,3,0,1,2,3,2,3,0,1,3,0,2,3,2,1,1,3,1,3,0,1,0,3,0,1,2,0,1,2,3,0,2,0,3,0,1,2,3,1,2,0,0,1,2,1,4,1,0,1,0,2],"categories_nodes":[2,4,7,10,15,16,24,25,27,28,29,30,34,39,40,41,42,52,53,54,55,57,68,71,72,77,79,81,82,84,86,87,101,104,105,109,114,118,121,124,130,131,132,133,142,143,145,146,150,158,168,169,170],"categories_segments":[0,13,16,19,22,24,27,28,30,32,35,37,43,46,48,50,51,56,58,59,61,64,67,70,71,72,73,74,76,79,82,83,84,85,86,88,90,91,92,95,98,99,101,103,105,107,109,110,113,114,115,116,118],"categories_sizes":[13,3,3,3,2,3,1,2,2,3,2,6,3,2,2,1,5,2,1,2,3,3,3,1,1,1,1,2,3,3,1,1,1,1,2,2,1,1,3,3,1,2,2,2,2,2,1,3,1,1,1,2,2],"default_left":[0,0,1,0,1,0,0,1,0,0,1,0,0,0,0,1,1,0,0,0,0,0,0,0,1,1,0,1,1,1,1,0,0,0,1,0,0,0,0,1,1,1,1,0,0,0,0,0,0,0,0,0,1,1,1,1,0,1,0,0,0,0,0,0,0,0,0,0,1,0,0,1,1,0,0,0,0,1,0,1,0,1,1,0,1,0,1,1,0,0,0,0,0,0,0,0,0,0,0,0,0,1,0,0,1,1,0,0,0,1,0,0,0,0,1,0,0,0,1,0,0,1,0,0,1,0,0,0,0,0,1,1,1,1,0,0,0,0,0,0,0,0,1,1,0,1,1,0,0,0,1,0,0,0,0,0,0,0,1,0,0,0,0,0,0,0,0,0,1,1,1,0,0,0,0,0,0,0,0,0,0,0,0,0,0,0,0,0,0,0,0,0,0,0,0,0,0],"id":3,"left_children":[1,3,5,7,9,11,13,15,17,19,21,23,25,27,29,31,33,35,37,-1,-1,-1,39,41,43,45,-1,47,49,51,53,-1,-1,55,57,59,-1,-1,-1,61,63,65,67,69,71,73,75,77,79,-1,-1,81,83,85,87,89,91,93,-1,-1,-1,-1,-1,-1,95,-1,-1,-1,97,-1,-1,99,101,-1,-1,-1,-1,103,-1,105,107,109,111,113,115,117,119,121,123,-1,-1,-1,-1,-1,-1,-1,-1,-1,-1,-1,-1,125,-1,-1,127,129,-1,131,-1,133,-1,-1,135,137,139,-1,-1,141,143,145,147,149,-1,-1,151,153,-1,-1,-1,-1,155,157,159,161,163,-1,-1,165,-1,-1,-1,167,169,171,-1,173,175,-1,-1,-1,177,-1,179,-1,-1,-1,-1,181,183,-1,-1,-1,-1,-1,-1,-1,-1,-1,185,187,189,-1,191,-1,-1,-1,193,195,-1,-1,-1,-1,-1,-1,-1,-1,-1,-1,-1,-1,-1,-1,-1,-1,-1,-1,-1],"loss_changes":[4.5745293E1,3.3871803E0,1.611053E1,1.862297E0,4.279258E0,4.820959E0,7.9987535E0,1.9505353E0,5.027199E-1,1.20426536E-1,2.5025551E0,1.7268696E0,2.121282E0,1.6165862E0,5.390554E0,1.186749E0,1.5458426E0,1.7115195E0,1.5552902E-1,0E0,0E0,0E0,5.561862E-1,1.7019416E0,6.5402985E-1,1.2538298E0,0E0,1.3774738E0,7.428576E-1,2.010985E0,3.0116258E0,0E0,0E0,1.1074786E0,6.532965E-1,2.4103212E-1,0E0,0E0,0E0,3.6667013E-1,6.050048E-1,1.0165274E0,1.4743757E0,2.6711082E-1,1.879705E0,2.7859342E-1,5.6221426E-1,1.7706041E0,1.8690398E0,0E0,0E0,3.3793988E0,7.0029926E-1,2.6089506E0,3.8671231E0,1.0582182E0,1.0630195E0,7.086812E-1,0E0,0E0,0E0,0E0,0E0,0E0,7.0439577E-3,0E0,0E0,0E0,9.174306E-1,0E0,0E0,9.387216E-1,1.3183141E0,0E0,0E0,0E0,0E0,5.9358025E-1,0E0,2.5914369E0,1.2499905E0,1.2515795E0,5.6106865E-1,1.1848418E0,8.731842E-2,1.8728285E0,1.0898373E0,1.5005226E0,5.896449E-1,0E0,0E0,0E0,0E0,0E0,0E0,0E0,0E0,0E0,0E0,0E0,0E0,3.579054E-1,0E0,0E0,5.881227E-1,1.2066431E0,0E0,2.1508832E0,0E0,1.0816497E0,0E0,0E0,3.670766E-1,1.8961596E-1,1.8846802E0,0E0,0E0,2.2412672E0,2.4612339E0,1.4234011E0,5.647875E-1,6.0101044E-1,0E0,0E0,9.668057E-1,4.147606E-1,0E0,0E0,0E0,0E0,2.9463366E-1,1.0432878E0,2.454716E0,1.122652E0,5.487156E-2,0E0,0E0,7.0451826E-1,0E0,0E0,0E0,1.8455176E0,2.3996172E0,1.4616797E0,0E0,5.2963626E-1,2.0967836E0,0E0,0E0,0E0,8.4364736E-1,0E0,8.6930156E-1,0E0,0E0,0E0,0E0,6.0299826E-1,1.8508273E0,0E0,0E0,0E0,0E0,0E0,0E0,0E0,0E0,0E0,6.7296314E-1,7.537166E-1,1.0605006E0,0E0,7.72895E-1,0E0,0E0,0E0,1.02115154E-1,9.7378117E-1,0E0,0E0,0E0,0E0,0E0,0E0,0E0,0E0,0E0,0E0,0E0,0E0,0E0,0E0,0E0,0E0,0E0,0E0,0E0],"parents":[2147483647,0,0,1,1,2,2,3,3,4,4,5,5,6,6,7,7,8,8,9,9,10,10,11,11,12,12,13,13,14,14,15,15,16,16,17,17,18,18,22,22,23,23,24,24,25,25,27,27,28,28,29,29,30,30,33,33,34,34,35,35,39,39,40,40,41,41,42,42,43,43,44,44,45,45,46,46,47,47,48,48,51,51,52,52,53,53,54,54,55,55,56,56,57,57,64,64,68,68,71,71,72,72,77,77,79,79,80,80,81,81,82,82,83,83,84,84,85,85,86,86,87,87,88,88,101,101,104,104,105,105,107,107,109,109,112,112,113,113,114,114,117,117,118,118,119,119,120,120,121,121,124,124,125,125,130,130,131,131,132,132,133,133,134,134,137,137,141,141,142,142,143,143,145,145,146,146,150,150,152,152,157,157,158,158,168,168,169,169,170,170,172,172,176,176,177,177],"right_children":[2,4,6,8,10,12,14,16,18,20,22,24,26,28,30,32,34,36,38,-1,-1,-1,40,42,44,46,-1,48,50,52,54,-1,-1,56,58,60,-1,-1,-1,62,64,66,68,70,72,74,76,78,80,-1,-1,82,84,86,88,90,92,94,-1,-1,-1,-1,-1,-1,96,-1,-1,-1,98,-1,-1,100,102,-1,-1,-1,-1,104,-1,106,108,110,112,114,116,118,120,122,124,-1,-1,-1,-1,-1,-1,-1,-1,-1,-1,-1,-1,126,-1,-1,128,130,-1,132,-1,134,-1,-1,136,138,140,-1,-1,142,144,146,148,150,-1,-1,152,154,-1,-1,-1,-1,156,158,160,162,164,-1,-1,166,-1,-1,-1,168,170,172,-1,174,176,-1,-1,-1,178,-1,180,-1,-1,-1,-1,182,184,-1,-1,-1,-1,-1,-1,-1,-1,-1,186,188,190,-1,192,-1,-1,-1,194,196,-1,-1,-1,-1,-1,-1,-1,-1,-1,-1,-1,-1,-1,-1,-1,-1,-1,-1,-1],"split_conditions":[3.1E1,3.3E1,NaN,3.33E-1,NaN,4.21E-1,1.1E-1,NaN,1.8E1,2.75E-1,NaN,3.3E1,4E0,5E0,3.5E1,NaN,NaN,1.7E1,3.25E2,2.667665E-2,1.04942806E-1,8.18004E-2,2E0,2.17E-1,NaN,NaN,-1.020673E-1,NaN,NaN,NaN,NaN,9.102375E-2,-4.4594534E-2,1.71E-1,NaN,3.19E2,2.9229859E-2,-1.247224E-1,-4.41197E-2,NaN,NaN,NaN,NaN,2.13E2,5.7E-2,1.72E2,3E0,2.92E2,2E-2,2.7068833E-2,-8.928474E-2,3.5E1,NaN,NaN,NaN,NaN,3E0,NaN,-1.1816473E-1,-1.1444836E-1,-2.498722E-2,-2.148089E-2,-1.2064105E-1,3.1899445E-2,1.69E2,1.13689035E-1,-6.31109E-3,8.055554E-2,NaN,1.1980758E-1,2.8608404E-2,NaN,NaN,1.0040538E-1,2.1982312E-2,2.1621717E-2,-8.412258E-2,NaN,-2.1936469E-2,NaN,2.98E2,NaN,NaN,3.3E1,NaN,3.87E-1,NaN,NaN,3.5E1,2.7612284E-2,-1.04082875E-1,8.9879654E-2,-3.9029326E-2,3.479661E-2,-8.0772206E-2,-7.943787E-2,-2.545374E-2,2.629287E-2,-9.846128E-2,4.035697E-2,-8.550783E-2,NaN,-2.5983445E-2,1.22438885E-1,NaN,NaN,-1.0785326E-1,2.31E2,1.1745357E-1,NaN,-1.14767626E-1,9.903295E-2,2E0,4E0,NaN,-5.0294485E-2,-1.2313688E-1,1.88E2,NaN,2E0,3.32E-1,NaN,-6.1115284E-2,-1.2039433E-1,NaN,3.2E1,2.034912E-2,7.937369E-2,-2.7266556E-2,1.01663254E-1,NaN,NaN,NaN,NaN,1.82E2,4.568606E-2,-3.306434E-2,3.5E1,-1.0621629E-1,9.4170906E-2,-8.3177604E-2,1.37E2,NaN,NaN,-1.03422575E-1,NaN,NaN,-1.0592373E-1,-1.1307148E-2,1.0055543E-1,NaN,2.2256041E-2,1.75E2,2.170061E-2,1.2343977E-1,1.8508375E-2,-4.6522796E-2,1.52E2,NaN,8.273745E-2,-1.0615196E-1,9.114695E-2,-4.111227E-2,-2.4366377E-2,-8.840218E-2,2.9164836E-2,-8.749396E-2,-2.8583946E-2,NaN,NaN,NaN,1.0133993E-1,2E0,9.599567E-2,-8.2095526E-4,5.998298E-2,1.48E2,3E0,-4.5940682E-2,3.0640208E-3,-1.1306817E-1,1.6534718E-2,1.0766475E-1,6.917026E-2,-3.0700583E-2,1.08759694E-1,1.7239556E-2,1.0976816E-1,-8.9022703E-4,1.6095797E-2,-8.617623E-2,2.714591E-2,-8.373422E-2,-2.7684897E-2,-1.0296211E-1,1.007411E-1,-2.9174987E-2],"split_indices":[17,18,22,20,3,20,20,22,17,20,4,18,23,23,17,1,4,17,12,0,0,0,9,20,0,3,0,1,3,4,19,0,0,20,5,12,0,0,0,3,2,19,19,12,20,12,23,12,20,0,0,18,3,2,5,1,23,1,0,0,0,0,0,0,12,0,0,0,0,0,0,4,3,0,0,0,0,2,0,3,12,2,2,17,0,20,0,0,18,0,0,0,0,0,0,0,0,0,0,0,0,5,0,0,0,5,0,12,0,5,0,0,23,23,1,0,0,12,1,23,20,3,0,0,2,17,0,0,0,0,4,2,5,0,12,0,0,18,0,0,0,12,4,2,0,1,1,0,0,0,1,0,12,0,0,0,0,12,19,0,0,0,0,0,0,0,0,0,5,1,5,0,9,0,0,0,12,9,0,0,0,0,0,0,0,0,0,0,0,0,0,0,0,0,0,0,0],"split_type":[0,0,1,0,1,0,0,1,0,0,1,0,0,0,0,1,1,0,0,0,0,0,0,0,1,1,0,1,1,1,1,0,0,0,1,0,0,0,0,1,1,1,1,0,0,0,0,0,0,0,0,0,1,1,1,1,0,1,0,0,0,0,0,0,0,0,0,0,1,0,0,1,1,0,0,0,0,1,0,1,0,1,1,0,1,0,1,1,0,0,0,0,0,0,0,0,0,0,0,0,0,1,0,0,1,1,0,0,0,1,0,0,0,0,1,0,0,0,1,0,0,1,0,0,1,0,0,0,0,0,1,1,1,1,0,0,0,0,0,0,0,0,1,1,0,1,1,0,0,0,1,0,0,0,0,0,0,0,1,0,0,0,0,0,0,0,0,0,1,1,1,0,0,0,0,0,0,0,0,0,0,0,0,0,0,0,0,0,0,0,0,0,0,0,0,0,0],"sum_hessian":[3.936626E2,1.07901184E2,2.857614E2,8.864493E1,1.9256262E1,8.662868E1,1.9913272E2,2.9616203E1,5.902872E1,4.452353E0,1.4803908E1,7.57955E1,1.0833175E1,6.673554E1,1.3239719E2,3.9494257E0,2.5666777E1,1.0326936E1,4.8701786E1,1.4769253E0,2.9754276E0,1.4849021E0,1.3319006E1,1.3292677E1,6.2502827E1,7.882718E0,2.9504561E0,6.327706E1,3.458479E0,4.23827E1,9.001448E1,1.9795773E0,1.9698485E0,8.872809E0,1.6793968E1,7.8594685E0,2.467467E0,4.6727856E1,1.9739327E0,8.883222E0,4.435784E0,7.3975163E0,5.8951607E0,4.229808E1,2.0204744E1,4.920908E0,2.9618104E0,1.6736912E1,4.654015E1,1.4857452E0,1.9727339E0,1.921395E1,2.316875E1,6.3780598E1,2.6233885E1,4.927991E0,3.9448185E0,2.9717505E0,1.3822217E1,6.3836093E0,1.4758592E0,1.4809731E0,7.402249E0,1.4855512E0,2.9502325E0,5.4216123E0,1.9759036E0,1.4793915E0,4.415769E0,4.08183E1,1.4797846E0,3.4654067E0,1.6739338E1,2.4578037E0,2.4631042E0,1.4823157E0,1.4794947E0,1.4265539E1,2.4713733E0,1.0413183E1,3.612697E1,1.2816588E1,6.3973618E0,1.0374671E1,1.2794081E1,4.6001266E1,1.7779331E1,1.1392731E1,1.4841154E1,1.4778359E0,3.450155E0,1.973861E0,1.9709574E0,1.4903781E0,1.4813722E0,1.4759827E0,1.47425E0,1.4721926E0,2.9435763E0,1.9766226E0,1.4887841E0,1.5266168E1,1.4731708E0,1.1312382E1,2.9531574E0,6.940945E0,3.4722385E0,3.1166342E1,4.9606247E0,7.394526E0,5.4220624E0,2.9484305E0,3.4489312E0,6.91011E0,3.464561E0,2.4531639E0,1.0340917E1,3.5628353E1,1.03729105E1,1.1850812E1,5.9285197E0,8.91133E0,2.4814003E0,6.4156747E0,8.425479E0,1.3785441E1,1.4807259E0,1.4756827E0,1.4774746E0,2.4843276E0,4.4566174E0,2.621981E1,4.946531E0,3.9489312E0,3.4455945E0,1.9712753E0,1.4776559E0,2.975597E0,3.9345133E0,1.9763455E0,1.4882154E0,2.2272455E1,1.3355899E1,6.9273224E0,3.4455884E0,4.447789E0,7.403023E0,3.457936E0,2.4705837E0,2.9574342E0,5.953896E0,2.4779716E0,5.9475074E0,1.4826393E0,1.2302802E1,2.4774923E0,1.9791253E0,1.086777E1,1.5352041E1,1.486953E0,3.4595778E0,1.977004E0,1.9719272E0,1.4776697E0,1.9679248E0,1.4806626E0,1.4949342E0,2.4774103E0,1.9795046E1,5.4521823E0,7.903717E0,2.9632242E0,3.964098E0,2.466835E0,1.9809539E0,2.4747999E0,4.928223E0,3.9761403E0,1.9777559E0,1.9743825E0,3.973125E0,2.471362E0,8.396408E0,8.917545E0,6.434496E0,1.7324635E1,2.4704099E0,3.4684181E0,1.983764E0,3.4650967E0,4.43862E0,2.4754562E0,1.4886416E0,1.4879093E0,3.4403138E0,2.4855216E0,1.4906187E0],"tree_param":{"num_deleted":"0","num_feature":"26","num_nodes":"197","size_leaf_vector":"1"}},{"base_weights":[1.688402E-2,4.9650276E-1,-1.7302842E-1,5.63812E-1,5.159957E-2,-4.545428E-2,-4.7203678E-1,6.113855E-1,2.5873995E-1,5.3291655E-1,-2.1189974E-1,-1.19869545E-1,4.108467E-1,-5.036983E-1,8.393666E-2,6.29641E-1,-3.393751E-2,4.726465E-1,-4.3633175E-1,9.398524E-2,2.2402545E-2,-4.3273768E-1,8.0140695E-2,-4.5924116E-2,-4.0997744E-1,6.105499E-1,1.4216719E-2,5.1999614E-2,-5.5122733E-1,2.4194963E-1,6.6171825E-1,1.0504488E-1,1.7258589E-1,-8.107732E-2,-2.3172531E-2,-6.2426823E-1,-3.3259366E-2,3.0011746E-1,-1.5348028E-1,-6.769841E-1,-2.1078193E-1,1.0855877E-1,2.0255023E-1,9.253637E-2,-2.5193223E-1,3.7326255E-1,-8.296103E-2,8.2633965E-2,-5.8102965E-1,9.503981E-2,-2.0346577E-1,7.112773E-1,4.2921957E-1,-4.260354E-2,7.903024E-2,-3.0978879E-2,-1.0715797E-1,2.1098994E-2,-2.9304123E-2,5.436371E-1,4.6475854E-2,-3.650813E-2,-4.400653E-1,-1.65574E-2,-1.179021E-1,1.8548083E-1,-3.9603207E-1,8.376256E-2,-2.4070436E-2,5.602053E-2,-5.99941E-1,-3.1387188E-2,9.628039E-2,-6.0354745E-1,-9.180423E-2,2.7414134E-2,-8.593595E-2,1.08515754E-1,3.5177313E-2,5.5293745E-1,-2.4032759E-2,-5.9991296E-2,7.223653E-2,6.591748E-1,8.080019E-2,2.8141913E-1,-3.0375373E-1,3.8105628E-1,-8.7513976E-2,-1.293432E-1,-5.324725E-1,5.4052806E-1,-5.6921273E-2,1.9242233E-2,-5.1133186E-1,-2.483259E-2,-1.0763393E-1,-4.4661674E-1,-6.712969E-1,7.685091E-2,-8.453198E-2,1.0715642E-1,2.6928684E-1,1.1336304E-1,2.5900077E-2,-4.52987E-2,7.654205E-2,-5.399384E-2,4.6543625E-1,1.6362906E-2,-5.2984387E-1,1.1148911E-1,-2.1029417E-1,-2.92263E-1,8.984035E-2,5.354255E-2,-3.9160776E-1,-3.6806074E-1,-1.1343493E-1,2.6146883E-2,9.688827E-2,4.5708916E-3,-1.01252794E-1,-5.1398553E-2,-5.4357E-1,-3.3660847E-1,-7.103813E-1,-8.7537095E-2,9.806395E-2,1.0421877E-1,9.012691E-3,-9.406908E-2,-2.6325908E-2,-8.174603E-2,3.1172693E-2,-8.191125E-2,-5.9915227E-1,1.9906585E-1,-2.1629314E-1,-1.2464741E-2,-8.801637E-2,-9.936773E-2,-2.2615914E-1,3.025621E-2,-2.913987E-2,-3.966548E-1,6.2477104E-2,-1.10328525E-1,-2.7990842E-1,2.2129312E-2,-9.602431E-2,-1.1198582E-1,-3.299911E-1,7.9934634E-2,-7.825821E-2,3.7389547E-2,-6.382294E-2,4.5286424E-2,-1.188053E-1,6.163248E-2,2.9131128E-3,4.3320306E-2,-7.615551E-2,-9.873912E-2,-6.097752E-3,-2.0852648E-2,-7.362382E-2,2.7331794E-2,-6.895167E-2,1.2468493E-2,-8.847457E-2],"categories":[0,1,2,3,4,6,7,8,9,10,12,12,0,1,2,3,0,2,0,1,2,3,4,5,6,7,8,9,10,12,0,1,12,13,5,12,0,0,4,12,0,1,2,5,11,1,2,3,12,1,0,1,3,0,1,3,0,1,2,0,1,2,3,4,5,11,12,5,0,1,2,0,1,2,0,1,0,1,3,0,0,1,2,4,7,8,9,4,5,3,1,2,3,1,3,0,2,3,2,3,3,1,2,3],"categories_nodes":[1,2,4,8,12,17,18,26,28,29,30,36,38,39,40,44,50,52,59,60,62,65,66,70,73,74,87,94,108,114,117,121,125,135,136,138,145,152],"categories_segments":[0,11,12,15,16,18,30,32,34,36,37,38,39,40,43,45,48,49,50,51,53,56,59,67,68,71,74,76,79,80,87,89,90,93,95,98,100,101],"categories_sizes":[11,1,3,1,2,12,2,2,2,1,1,1,1,3,2,3,1,1,1,2,3,3,8,1,3,3,2,3,1,7,2,1,3,2,3,2,1,3],"default_left":[0,1,1,0,1,0,0,0,1,0,0,0,1,0,0,0,0,1,1,0,0,0,0,0,0,0,1,0,1,1,1,0,0,0,0,0,1,0,1,1,1,0,0,0,1,0,0,0,0,0,1,0,1,0,0,0,0,0,0,1,1,0,1,0,0,1,1,0,0,0,1,0,0,1,1,0,0,0,0,0,0,0,0,0,0,0,0,1,0,0,0,0,0,0,1,0,0,0,0,0,0,0,0,0,0,0,0,0,1,0,0,0,0,0,1,0,0,1,0,0,0,1,0,0,0,1,0,0,0,0,0,0,0,0,0,1,1,0,1,0,0,0,0,0,0,1,0,0,0,0,0,0,1,0,0,0,0,0,0,0,0,0,0,0,0,0,0,0,0,0,0],"id":4,"left_children":[1,3,5,7,9,11,13,15,17,19,21,23,25,27,-1,29,-1,31,33,-1,-1,35,-1,37,39,41,43,45,47,49,51,-1,53,-1,-1,55,57,59,61,63,65,-1,67,-1,69,71,-1,-1,73,-1,75,77,79,81,-1,-1,-1,-1,-1,83,85,87,89,-1,-1,91,93,-1,-1,-1,95,-1,-1,97,99,-1,-1,-1,-1,101,-1,-1,-1,103,105,107,109,111,113,115,117,119,-1,-1,121,-1,-1,123,125,-1,-1,-1,127,-1,-1,-1,-1,-1,129,-1,131,-1,133,135,137,-1,139,141,-1,-1,-1,143,-1,145,147,149,151,-1,-1,-1,153,-1,-1,-1,-1,155,157,159,161,-1,-1,-1,163,-1,-1,165,-1,-1,167,-1,-1,-1,169,-1,-1,-1,-1,-1,-1,-1,-1,-1,-1,-1,-1,-1,-1,-1,-1,-1,-1],"loss_changes":[3.5156918E1,3.2492027E0,1.0528147E1,1.2203846E0,2.0770245E0,6.6692157E0,2.9798355E0,1.3877716E0,2.3692124E0,1.1344743E-1,1.9982015E0,3.5936356E0,2.1744823E0,2.1592655E0,0E0,8.3436203E-1,0E0,6.7182946E-1,3.2295406E-2,0E0,0E0,6.54598E-1,0E0,5.0824604E0,1.6697946E0,6.988015E-1,1.8002301E0,1.6195953E0,2.7637672E0,1.469907E0,5.390549E-1,0E0,5.052694E-1,0E0,0E0,7.495022E-2,1.3790467E-1,1.9775045E0,3.4667013E0,7.8481007E-1,1.6127815E0,0E0,7.8261185E-1,0E0,1.9267015E0,9.707149E-1,0E0,0E0,7.479725E-1,0E0,7.2591186E-1,1.7173386E-1,1.2114217E0,1.1038976E0,0E0,0E0,0E0,0E0,0E0,8.2634926E-1,1.4823189E0,1.6279496E0,7.9318714E-1,0E0,0E0,1.6816735E0,9.487145E-1,0E0,0E0,0E0,1.5760887E-1,0E0,0E0,4.3951416E-1,1.5393976E0,0E0,0E0,0E0,0E0,4.006741E-1,0E0,0E0,0E0,4.814272E-1,8.816739E-1,1.4279451E0,7.388547E-1,1.9419394E0,2.4786081E0,1.1859678E0,5.611963E-1,7.779968E-2,0E0,0E0,1.0312638E0,0E0,0E0,8.900056E-1,3.702259E-1,0E0,0E0,0E0,2.448112E0,0E0,0E0,0E0,0E0,0E0,9.0808725E-1,0E0,5.8339834E-2,0E0,6.654509E-1,1.9896221E0,1.2786589E0,0E0,3.0081487E-1,4.810984E-1,0E0,0E0,0E0,1.9307213E-1,0E0,1.1060096E0,7.624364E-1,1.089597E0,3.154621E-1,0E0,0E0,0E0,1.3719398E0,0E0,0E0,0E0,0E0,2.3698895E0,2.4437695E0,1.0481889E0,1.6474531E0,0E0,0E0,0E0,9.1182387E-1,0E0,0E0,2.5495112E-2,0E0,0E0,8.87513E-1,0E0,0E0,0E0,6.2198323E-1,0E0,0E0,0E0,0E0,0E0,0E0,0E0,0E0,0E0,0E0,0E0,0E0,0E0,0E0,0E0,0E0,0E0,0E0],"parents":[2147483647,0,0,1,1,2,2,3,3,4,4,5,5,6,6,7,7,8,8,9,9,10,10,11,11,12,12,13,13,15,15,17,17,18,18,21,21,23,23,24,24,25,25,26,26,27,27,28,28,29,29,30,30,32,32,35,35,36,36,37,37,38,38,39,39,40,40,42,42,44,44,45,45,48,48,50,50,51,51,52,52,53,53,59,59,60,60,61,61,62,62,65,65,66,66,70,70,73,73,74,74,79,79,83,83,84,84,85,85,86,86,87,87,88,88,89,89,90,90,91,91,94,94,97,97,98,98,102,102,108,108,110,110,112,112,113,113,114,114,116,116,117,117,121,121,123,123,124,124,125,125,126,126,130,130,135,135,136,136,137,137,138,138,142,142,145,145,148,148,152,152],"right_children":[2,4,6,8,10,12,14,16,18,20,22,24,26,28,-1,30,-1,32,34,-1,-1,36,-1,38,40,42,44,46,48,50,52,-1,54,-1,-1,56,58,60,62,64,66,-1,68,-1,70,72,-1,-1,74,-1,76,78,80,82,-1,-1,-1,-1,-1,84,86,88,90,-1,-1,92,94,-1,-1,-1,96,-1,-1,98,100,-1,-1,-1,-1,102,-1,-1,-1,104,106,108,110,112,114,116,118,120,-1,-1,122,-1,-1,124,126,-1,-1,-1,128,-1,-1,-1,-1,-1,130,-1,132,-1,134,136,138,-1,140,142,-1,-1,-1,144,-1,146,148,150,152,-1,-1,-1,154,-1,-1,-1,-1,156,158,160,162,-1,-1,-1,164,-1,-1,166,-1,-1,168,-1,-1,-1,170,-1,-1,-1,-1,-1,-1,-1,-1,-1,-1,-1,-1,-1,-1,-1,-1,-1,-1],"split_conditions":[3.1E1,NaN,NaN,3.2E1,NaN,5E0,2.13E2,4E0,NaN,1E0,5E0,4E0,NaN,2.9E1,8.393666E-2,2E0,-3.393751E-2,NaN,NaN,9.398524E-2,2.2402545E-2,1.89E2,8.0140695E-2,3.5E1,1E0,8E0,NaN,4E0,NaN,NaN,NaN,1.0504488E-1,3E0,-8.107732E-2,-2.3172531E-2,2.4E1,NaN,1.82E2,NaN,NaN,NaN,1.0855877E-1,2.5E1,9.253637E-2,NaN,3.2E1,-8.296103E-2,8.2633965E-2,4E0,9.503981E-2,NaN,7E0,NaN,2.13E2,7.903024E-2,-3.0978879E-2,-1.0715797E-1,2.1098994E-2,-2.9304123E-2,NaN,NaN,1.54E2,NaN,-1.65574E-2,-1.179021E-1,NaN,NaN,8.376256E-2,-2.4070436E-2,5.602053E-2,NaN,-3.1387188E-2,9.628039E-2,NaN,NaN,2.7414134E-2,-8.593595E-2,1.08515754E-1,3.5177313E-2,2.68E2,-2.4032759E-2,-5.9991296E-2,7.223653E-2,3.5E1,1.75E2,1.92E2,3.2E1,NaN,1.77E2,3E1,2E0,1.73E2,-5.6921273E-2,1.9242233E-2,NaN,-2.483259E-2,-1.0763393E-1,1.6E2,3.3E1,7.685091E-2,-8.453198E-2,1.0715642E-1,3E2,1.1336304E-1,2.5900077E-2,-4.52987E-2,7.654205E-2,-5.399384E-2,NaN,1.6362906E-2,3.02E2,1.1148911E-1,2E0,1.7E2,NaN,5.354255E-2,2E0,NaN,-1.1343493E-1,2.6146883E-2,9.688827E-2,NaN,-1.01252794E-1,1.56E2,1.8E2,NaN,1.93E2,-8.7537095E-2,9.806395E-2,1.0421877E-1,3.01E2,-9.406908E-2,-2.6325908E-2,-8.174603E-2,3.1172693E-2,NaN,NaN,1E0,NaN,-1.2464741E-2,-8.801637E-2,-9.936773E-2,3.2E1,3.025621E-2,-2.913987E-2,NaN,6.2477104E-2,-1.10328525E-1,1.82E2,2.2129312E-2,-9.602431E-2,-1.1198582E-1,NaN,7.9934634E-2,-7.825821E-2,3.7389547E-2,-6.382294E-2,4.5286424E-2,-1.188053E-1,6.163248E-2,2.9131128E-3,4.3320306E-2,-7.615551E-2,-9.873912E-2,-6.097752E-3,-2.0852648E-2,-7.362382E-2,2.7331794E-2,-6.895167E-2,1.2468493E-2,-8.847457E-2],"split_indices":[17,22,22,18,2,23,12,8,3,14,23,11,2,18,0,23,0,21,2,0,0,12,0,17,14,23,21,11,21,6,2,0,8,0,0,17,19,12,21,6,22,0,18,0,7,17,0,0,23,0,21,24,3,12,0,0,0,0,0,2,3,12,7,0,0,3,21,0,0,0,19,0,0,3,7,0,0,0,0,12,0,0,0,18,12,12,17,3,12,18,8,12,0,0,3,0,0,12,18,0,0,0,12,0,0,0,0,0,6,0,12,0,8,12,19,0,8,19,0,0,0,6,0,12,12,6,12,0,0,0,12,0,0,0,0,3,3,14,6,0,0,0,18,0,0,6,0,0,12,0,0,0,2,0,0,0,0,0,0,0,0,0,0,0,0,0,0,0,0,0,0],"split_type":[0,1,1,0,1,0,0,0,1,0,0,0,1,0,0,0,0,1,1,0,0,0,0,0,0,0,1,0,1,1,1,0,0,0,0,0,1,0,1,1,1,0,0,0,1,0,0,0,0,0,1,0,1,0,0,0,0,0,0,1,1,0,1,0,0,1,1,0,0,0,1,0,0,1,1,0,0,0,0,0,0,0,0,0,0,0,0,1,0,0,0,0,0,0,1,0,0,0,0,0,0,0,0,0,0,0,0,0,1,0,0,0,0,0,1,0,0,1,0,0,0,1,0,0,0,1,0,0,0,0,0,0,0,0,0,1,1,0,1,0,0,0,0,0,0,1,0,0,0,0,0,0,1,0,0,0,0,0,0,0,0,0,0,0,0,0,0,0,0,0,0],"sum_hessian":[3.8403366E2,1.0847318E2,2.755605E2,9.39867E1,1.4486483E1,1.939586E2,8.160187E1,8.043884E1,1.3547861E1,4.7632694E0,9.723213E0,1.6739629E2,2.656231E1,7.966849E1,1.9333838E0,7.896616E1,1.4726788E0,1.060439E1,2.9434714E0,3.3192966E0,1.4439731E0,7.8268285E0,1.8963846E0,1.3431828E2,3.3078007E1,1.7308258E1,9.254052E0,6.269774E0,7.339871E1,6.6871204E0,7.227904E1,5.2712746E0,5.3331156E0,1.4790094E0,1.464462E0,4.9100084E0,2.9168203E0,3.1424757E1,1.02893524E2,1.3108482E1,1.9969526E1,1.2943906E1,4.364352E0,2.4310496E0,6.823003E0,4.345596E0,1.924178E0,1.4721522E0,7.192656E1,3.3335104E0,3.35361E0,5.788177E1,1.4397271E1,3.865174E0,1.4679414E0,1.4553701E0,3.4546382E0,1.4709277E0,1.4458926E0,1.5448973E1,1.5975784E1,7.387017E1,2.9023357E1,2.440132E0,1.066835E1,6.3612113E0,1.36083145E1,1.9320836E0,2.4322684E0,2.4131665E0,4.4098363E0,1.4411823E0,2.9044137E0,6.853824E1,3.3883164E0,1.8865967E0,1.4670134E0,5.5937542E1,1.9442291E0,1.1950822E1,2.4464493E0,2.4392977E0,1.4258763E0,1.2023378E1,3.4255946E0,9.679196E0,6.296588E0,7.336702E0,6.653347E1,7.202943E0,2.1820415E1,3.9328475E0,2.428364E0,2.4328036E0,1.117551E1,1.4525988E0,2.9572372E0,2.295617E1,4.5582073E1,1.4479368E0,1.9403796E0,6.648403E0,5.3024187E0,9.570141E0,2.4532375E0,1.9682007E0,1.4573939E0,1.9447607E0,7.7344356E0,2.4112196E0,3.8853683E0,4.3905725E0,2.9461293E0,3.0580967E1,3.5952503E1,2.3971298E0,4.8058133E0,1.4102931E1,7.717483E0,1.4719888E0,2.4608588E0,2.9258823E0,8.249628E0,4.823576E0,1.8132593E1,5.771529E0,3.9810543E1,1.4866793E0,3.8157396E0,4.800103E0,2.9343324E0,2.4444017E0,1.4409667E0,1.4678051E0,1.4783243E0,1.889597E1,1.1684997E1,2.675597E1,9.196532E0,2.414655E0,2.391158E0,3.3937762E0,1.0709155E1,1.4619687E0,1.4639137E0,2.8632057E0,1.9603705E0,9.457559E0,8.6750345E0,2.4222612E0,3.3492677E0,3.5472954E1,4.337588E0,1.4746432E0,1.4596891E0,9.761386E0,9.134584E0,1.9606214E0,9.724376E0,1.1687815E1,1.5068154E1,3.3679273E0,5.8286047E0,2.4511862E0,8.257969E0,1.429241E0,1.4339647E0,2.425748E0,6.2492867E0,1.937417E0,2.4001708E0],"tree_param":{"num_deleted":"0","num_feature":"26","num_nodes":"171","size_leaf_vector":"1"}},{"base_weights":[-2.7678464E-2,-5.9134865E-1,1.1763005E-1,2.8739963E-2,-6.082758E-1,3.3413872E-1,-9.815192E-2,-6.512461E-1,-2.7425396E-1,4.0834823E-1,-2.7297807E-1,-4.696532E-1,8.043265E-2,-4.363683E-1,-7.0490324E-1,-5.1944274E-1,5.8236893E-2,4.8699853E-1,-1.16211876E-1,3.546829E-1,-4.790121E-1,-5.358711E-1,-9.384502E-2,1.8495779E-1,-3.672287E-1,-6.1889046E-1,1.95861E-1,-1.1632368E-1,-4.696662E-1,-9.887883E-3,-1.0434796E-1,5.816266E-1,2.597352E-1,-2.388372E-1,9.333032E-2,-2.3220574E-2,9.23143E-2,1.5940376E-2,-6.173883E-1,-1.5904781E-1,-6.1442006E-1,-4.4752917E-1,1.6127674E-1,3.3941138E-1,-6.148383E-2,1.8089524E-1,-5.070587E-1,-2.870837E-1,-1.09160356E-1,-7.355212E-2,1.0365292E-1,-5.6669706E-1,3.736461E-2,-3.3841886E-2,5.9864724E-1,-2.0130232E-1,3.696559E-1,-3.423646E-1,7.6636724E-2,-1.1119766E-1,-1.975798E-1,-5.5373996E-1,6.932793E-2,-1.5438882E-1,-6.672155E-1,-2.5684305E-2,-8.133253E-2,8.765969E-2,-2.0209976E-1,-3.2849854E-1,4.211369E-1,1.7592046E-1,-2.4928772E-1,7.699973E-2,-1.6684076E-2,-7.0618324E-2,-6.579458E-1,-8.562071E-2,3.2056946E-2,7.139186E-3,-6.753131E-1,3.9284188E-1,6.9346523E-1,2.8831732E-1,-9.7988844E-2,6.0186934E-1,1.3720334E-1,-1.4915322E-2,-6.3137186E-1,2.8407684E-2,-7.5430505E-2,-2.058144E-2,-9.865234E-2,4.6953954E-2,-8.600029E-2,-1.17409445E-1,-5.0700384E-1,-7.534412E-2,2.7088182E-2,3.266349E-2,-5.37844E-1,1.8451704E-2,5.432175E-1,4.609341E-1,-1.00302145E-1,6.968117E-2,-4.451433E-1,7.695926E-2,-4.2092934E-1,6.118117E-3,-1.1906955E-1,-2.163772E-2,-1.104057E-1,1.5264827E-1,1.1344268E-1,7.06924E-1,1.7643444E-2,-3.4562085E-2,9.31897E-2,6.8627584E-1,2.428286E-1,4.8358557E-1,-1.5036896E-1,3.5372496E-1,-4.31242E-1,-1.0710609E-1,-2.1056954E-2,3.3042584E-2,-5.958273E-1,-2.7039586E-2,-9.530597E-2,-4.5546252E-1,2.1891546E-1,6.823543E-1,3.3142725E-1,-3.2516778E-2,9.731262E-2,4.1076186E-1,-4.2293075E-1,4.4774532E-1,-9.0205185E-2,-5.323126E-2,-1.1180995E-1,-2.2663536E-2,-7.753374E-2,1.08879775E-1,-5.44949E-2,1.1595663E-1,5.3528726E-1,1.126954E-1,2.0327376E-2,7.704042E-2,-1.0259466E-2,-3.662316E-2,1.0435746E-1,1.3539031E-1,-5.253808E-1,9.5021E-2,-2.725799E-2,-8.0093175E-2,-1.9707548E-2,-2.3925392E-1,-1.1252365E-1,-8.5475594E-2,-2.3485469E-2,4.379283E-1,-1.9490594E-1,1.1257691E-1,2.4814555E-1,6.4518565E-1,1.3882413E-2,1.7079892E-2,8.076725E-2,-3.1262476E-2,-8.5071966E-2,9.794297E-2,3.290128E-3,8.3096534E-2,-3.467652E-1,5.5508748E-2,-5.672495E-2,1.0184792E-1,3.80841E-2,-5.8022186E-2,6.8837024E-2,-2.7692782E-2,-9.430314E-2,5.3453755E-2,-9.44986E-2,9.248774E-2,2.5392435E-2,-7.469242E-2,2.8110877E-2,8.2039185E-2,-3.0792182E-2,1.115933E-1,1.5883926E-2,7.416388E-2,-6.388127E-2,-9.4243474E-2,2.7887886E-2],"categories":[5,11,13,0,1,2,0,3,1,0,2,3,0,1,2,0,1,3,0,2,3,0,1,11,0,2,3,0,1,0,1,2,3,0,1,0,2,1,0,1,1,2,3,0,1,0,3,0,1,3,1,2,0,1,2,1,3,1,2,0,1,1,2,1,0,1,2,1,3,5,11,0,2,0,2,0,1,3,0,3,0,1,0,2,1,2,0,1,2,3,4,5,6,7,8,9,10,12,13,11,3],"categories_nodes":[2,10,15,17,20,21,24,25,44,45,46,55,56,57,60,61,63,68,69,71,72,75,86,87,100,102,104,106,108,115,119,120,123,124,128,131,133,134,137,141,146,148,161,165,168,169],"categories_segments":[0,3,6,8,9,12,15,18,21,23,24,27,29,31,33,35,37,38,40,43,45,47,48,50,52,53,55,57,59,61,63,64,67,68,69,71,72,73,75,78,80,82,84,86,99,100],"categories_sizes":[3,3,2,1,3,3,3,3,2,1,3,2,2,2,2,2,1,2,3,2,2,1,2,2,1,2,2,2,2,2,1,3,1,1,2,1,1,2,3,2,2,2,2,13,1,1],"default_left":[0,0,1,0,0,0,0,0,0,0,1,0,0,0,0,1,0,1,0,0,1,1,0,0,1,1,0,0,0,0,0,0,0,0,0,0,0,0,0,0,0,0,0,0,1,1,1,0,0,0,0,0,0,0,0,1,1,1,0,0,1,1,0,1,0,0,0,0,1,1,0,1,1,0,0,1,0,0,0,0,0,0,0,0,0,0,1,1,0,0,0,0,0,0,0,0,0,0,0,0,1,0,1,0,1,0,1,0,1,0,0,0,0,0,0,1,0,0,0,1,1,0,0,1,1,0,0,0,1,0,0,1,0,1,1,0,0,1,0,0,0,1,0,0,0,0,1,0,1,0,0,0,0,0,0,0,0,0,0,0,0,1,0,0,0,1,0,0,1,1,0,0,0,0,0,0,0,0,0,0,0,0,0,0,0,0,0,0,0,0,0,0,0,0,0,0,0,0,0,0,0],"id":5,"left_children":[1,3,5,-1,7,9,11,13,15,17,19,21,23,25,27,29,-1,31,33,35,37,39,41,43,45,47,49,-1,51,-1,-1,53,55,57,-1,-1,-1,-1,59,61,63,65,67,69,71,73,75,77,-1,-1,-1,79,-1,-1,81,83,85,87,-1,-1,89,91,-1,93,95,-1,-1,-1,97,99,101,103,105,-1,-1,107,109,-1,-1,-1,111,113,115,117,-1,119,121,123,125,-1,-1,-1,-1,-1,-1,-1,127,-1,-1,-1,129,131,133,135,137,139,141,-1,143,-1,-1,-1,-1,145,-1,147,-1,-1,-1,149,151,153,155,157,159,-1,-1,-1,161,-1,-1,163,165,167,169,-1,-1,171,173,175,-1,177,-1,-1,-1,-1,179,-1,181,-1,-1,-1,-1,-1,-1,183,185,-1,-1,-1,-1,187,-1,-1,-1,189,191,-1,193,195,197,-1,-1,-1,-1,-1,-1,-1,199,-1,-1,-1,-1,-1,-1,-1,-1,-1,-1,-1,-1,-1,-1,-1,-1,-1,-1,-1,-1,-1,-1],"loss_changes":[3.184926E1,1.1726627E0,1.448349E1,0E0,9.444008E-1,7.07786E0,1.0366899E1,4.8329926E-1,1.9309242E0,5.757576E0,2.425336E0,1.2111578E0,5.0278068E0,2.0058045E0,5.2023125E-1,6.092689E-1,0E0,2.437292E0,1.853128E0,7.441964E-1,1.1634996E0,1.1716204E0,8.667663E-1,3.317157E0,1.6552515E0,2.574501E-1,1.8400713E0,0E0,1.1754286E0,0E0,0E0,1.2915211E0,1.9590735E0,1.4840635E0,0E0,0E0,0E0,0E0,4.3158484E-1,2.4005628E0,7.5040436E-1,1.0631144E-2,1.0177009E0,3.052556E0,1.5691589E0,5.313351E-1,1.0411959E0,8.0985796E-1,0E0,0E0,0E0,9.243016E-1,0E0,0E0,1.3414822E0,1.9159532E0,1.5574083E0,1.4497247E0,0E0,0E0,5.554653E-1,1.6102052E-1,0E0,1.1426196E0,1.8092251E-1,0E0,0E0,0E0,5.37678E-1,8.469615E-1,2.3499575E0,1.2819614E0,1.2501228E0,0E0,0E0,1.3126099E0,1.185986E0,0E0,0E0,0E0,2.623663E-1,2.3630986E0,3.4552765E-1,9.1018826E-1,0E0,2.8501225E-1,1.7141418E0,1.4191288E0,2.3121262E-1,0E0,0E0,0E0,0E0,0E0,0E0,0E0,1.1595612E0,0E0,0E0,0E0,5.6424975E-2,1.2590446E0,8.5834885E-1,1.1466955E0,1.623446E0,2.3720677E0,1.3989923E0,0E0,2.2918224E-2,0E0,0E0,0E0,0E0,2.2181022E0,0E0,1.9732285E-1,0E0,0E0,0E0,3.1073904E-1,4.0460733E-1,1.36043E0,1.1177299E0,8.530426E-1,6.309432E-2,0E0,0E0,0E0,6.160078E-1,0E0,0E0,4.5886695E-2,9.23802E-1,4.4315147E-1,1.6385794E0,0E0,0E0,8.690953E-2,6.37815E-2,4.990232E-1,0E0,1.3293159E0,0E0,0E0,0E0,0E0,2.1197486E0,0E0,5.6463385E-1,0E0,0E0,0E0,0E0,0E0,0E0,1.2482725E0,3.982961E-2,0E0,0E0,0E0,0E0,1.582447E0,0E0,0E0,0E0,2.0075E-1,5.4442614E-1,0E0,7.0556384E-1,3.6309624E-1,2.1632855E0,0E0,0E0,0E0,0E0,0E0,0E0,0E0,8.5405844E-1,0E0,0E0,0E0,0E0,0E0,0E0,0E0,0E0,0E0,0E0,0E0,0E0,0E0,0E0,0E0,0E0,0E0,0E0,0E0,0E0,0E0,0E0],"parents":[2147483647,0,0,1,1,2,2,4,4,5,5,6,6,7,7,8,8,9,9,10,10,11,11,12,12,13,13,14,14,15,15,17,17,18,18,19,19,20,20,21,21,22,22,23,23,24,24,25,25,26,26,28,28,31,31,32,32,33,33,38,38,39,39,40,40,41,41,42,42,43,43,44,44,45,45,46,46,47,47,51,51,54,54,55,55,56,56,57,57,60,60,61,61,63,63,64,64,68,68,69,69,70,70,71,71,72,72,75,75,76,76,80,80,81,81,82,82,83,83,85,85,86,86,87,87,88,88,96,96,100,100,101,101,102,102,103,103,104,104,105,105,106,106,108,108,113,113,115,115,119,119,120,120,121,121,122,122,123,123,124,124,128,128,131,131,132,132,133,133,134,134,137,137,138,138,139,139,141,141,146,146,148,148,155,155,156,156,161,161,165,165,166,166,168,168,169,169,170,170,178,178],"right_children":[2,4,6,-1,8,10,12,14,16,18,20,22,24,26,28,30,-1,32,34,36,38,40,42,44,46,48,50,-1,52,-1,-1,54,56,58,-1,-1,-1,-1,60,62,64,66,68,70,72,74,76,78,-1,-1,-1,80,-1,-1,82,84,86,88,-1,-1,90,92,-1,94,96,-1,-1,-1,98,100,102,104,106,-1,-1,108,110,-1,-1,-1,112,114,116,118,-1,120,122,124,126,-1,-1,-1,-1,-1,-1,-1,128,-1,-1,-1,130,132,134,136,138,140,142,-1,144,-1,-1,-1,-1,146,-1,148,-1,-1,-1,150,152,154,156,158,160,-1,-1,-1,162,-1,-1,164,166,168,170,-1,-1,172,174,176,-1,178,-1,-1,-1,-1,180,-1,182,-1,-1,-1,-1,-1,-1,184,186,-1,-1,-1,-1,188,-1,-1,-1,190,192,-1,194,196,198,-1,-1,-1,-1,-1,-1,-1,200,-1,-1,-1,-1,-1,-1,-1,-1,-1,-1,-1,-1,-1,-1,-1,-1,-1,-1,-1,-1,-1,-1],"split_conditions":[2.7E1,2E-2,NaN,2.8739963E-2,4E0,1.89E2,3.5E1,1.8E1,3E1,5.01E-1,NaN,4E0,1.53E2,1.7E1,2.5E1,NaN,5.8236893E-2,NaN,4E0,3.5E1,NaN,NaN,1E-1,2.14E-1,NaN,NaN,1.9E1,-1.1632368E-1,2.68E2,-9.887883E-3,-1.0434796E-1,6E0,3.3E1,2E0,9.333032E-2,-2.3220574E-2,9.23143E-2,1.5940376E-2,2.61E2,1E0,1.02E-1,6.1E-2,2.11E-1,1.2E1,NaN,NaN,NaN,2.1E1,-1.09160356E-1,-7.355212E-2,1.0365292E-1,5.9E1,3.736461E-2,-3.3841886E-2,3.5E1,NaN,NaN,NaN,7.6636724E-2,-1.1119766E-1,NaN,NaN,6.932793E-2,NaN,1.15E2,-2.5684305E-2,-8.133253E-2,8.765969E-2,NaN,NaN,0E0,NaN,NaN,7.699973E-2,-1.6684076E-2,NaN,0E0,-8.562071E-2,3.2056946E-2,7.139186E-3,3.5E-1,4E0,4.1E-1,2.27E-1,-9.7988844E-2,1.18E2,NaN,NaN,8.38E-1,2.8407684E-2,-7.5430505E-2,-2.058144E-2,-9.865234E-2,4.6953954E-2,-8.600029E-2,-1.17409445E-1,1.21E2,-7.534412E-2,2.7088182E-2,3.266349E-2,NaN,3.4E1,NaN,2.3E-1,NaN,3.84E-1,NaN,7.695926E-2,NaN,6.118117E-3,-1.1906955E-1,-2.163772E-2,-1.104057E-1,2.9E1,1.1344268E-1,NaN,1.7643444E-2,-3.4562085E-2,9.31897E-2,NaN,NaN,4.5E-2,1.15E-1,NaN,NaN,-1.0710609E-1,-2.1056954E-2,3.3042584E-2,NaN,-2.7039586E-2,-9.530597E-2,NaN,1.2E2,NaN,NaN,-3.2516778E-2,9.731262E-2,NaN,1E0,1E0,-9.0205185E-2,NaN,-1.1180995E-1,-2.2663536E-2,-7.753374E-2,1.08879775E-1,NaN,1.1595663E-1,NaN,1.126954E-1,2.0327376E-2,7.704042E-2,-1.0259466E-2,-3.662316E-2,1.0435746E-1,2.8E-2,2E0,9.5021E-2,-2.725799E-2,-8.0093175E-2,-1.9707548E-2,NaN,-1.1252365E-1,-8.5475594E-2,-2.3485469E-2,NaN,1.32E2,1.1257691E-1,NaN,NaN,8.5E-2,1.7079892E-2,8.076725E-2,-3.1262476E-2,-8.5071966E-2,9.794297E-2,3.290128E-3,8.3096534E-2,4E0,5.5508748E-2,-5.672495E-2,1.0184792E-1,3.80841E-2,-5.8022186E-2,6.8837024E-2,-2.7692782E-2,-9.430314E-2,5.3453755E-2,-9.44986E-2,9.248774E-2,2.5392435E-2,-7.469242E-2,2.8110877E-2,8.2039185E-2,-3.0792182E-2,1.115933E-1,1.5883926E-2,7.416388E-2,-6.388127E-2,-9.4243474E-2,2.7887886E-2],"split_indices":[18,20,21,0,11,13,17,17,17,20,6,11,13,17,18,3,0,0,11,17,0,3,20,20,5,1,18,0,13,0,0,13,18,15,0,0,0,0,13,14,20,20,20,13,6,21,0,18,0,0,0,13,0,0,17,3,1,1,0,0,4,5,0,0,13,0,0,0,4,6,11,5,1,0,0,1,11,0,0,0,20,11,20,20,0,13,3,4,20,0,0,0,0,0,0,0,13,0,0,0,5,13,6,20,4,20,0,0,4,0,0,0,0,17,0,0,0,0,0,6,5,20,20,6,6,0,0,0,21,0,0,4,13,3,0,0,0,1,14,14,0,4,0,0,0,0,4,0,5,0,0,0,0,0,0,20,9,0,0,0,0,0,0,0,0,21,13,0,21,5,20,0,0,0,0,0,0,0,11,0,0,0,0,0,0,0,0,0,0,0,0,0,0,0,0,0,0,0,0,0,0],"split_type":[0,0,1,0,0,0,0,0,0,0,1,0,0,0,0,1,0,1,0,0,1,1,0,0,1,1,0,0,0,0,0,0,0,0,0,0,0,0,0,0,0,0,0,0,1,1,1,0,0,0,0,0,0,0,0,1,1,1,0,0,1,1,0,1,0,0,0,0,1,1,0,1,1,0,0,1,0,0,0,0,0,0,0,0,0,0,1,1,0,0,0,0,0,0,0,0,0,0,0,0,1,0,1,0,1,0,1,0,1,0,0,0,0,0,0,1,0,0,0,1,1,0,0,1,1,0,0,0,1,0,0,1,0,1,1,0,0,1,0,0,0,1,0,0,0,0,1,0,1,0,0,0,0,0,0,0,0,0,0,0,0,1,0,0,0,1,0,0,1,1,0,0,0,0,0,0,0,0,0,0,0,0,0,0,0,0,0,0,0,0,0,0,0,0,0,0,0,0,0,0,0],"sum_hessian":[3.8700174E2,7.868869E1,3.0831305E2,1.4468488E0,7.7241844E1,1.536236E2,1.5468945E2,6.75962E1,9.645648E0,1.3718277E2,1.644082E1,4.969058E1,1.0499888E2,1.5331506E1,5.226469E1,7.19773E0,2.447918E0,1.193583E2,1.7824467E1,3.8847778E0,1.2556043E1,4.188455E1,7.8060293E0,8.559906E1,1.9399818E1,1.1913284E1,3.4182217E0,3.8434856E1,1.3829836E1,2.3985434E0,4.7991867E0,8.316905E1,3.618925E1,1.5866189E1,1.9582778E0,1.4526541E0,2.4321237E0,2.4453073E0,1.0110736E1,7.746597E0,3.413795E1,2.9550972E0,4.850932E0,5.2388256E1,3.3210808E1,3.8834162E0,1.5516402E1,3.841202E0,8.072082E0,1.4367868E0,1.981435E0,1.2371314E1,1.4585218E0,1.4643396E0,8.170471E1,6.8070955E0,2.9382158E1,1.4418591E1,1.4475986E0,7.21499E0,2.8957453E0,4.803443E0,2.9431539E0,3.9185023E0,3.0219448E1,1.4710109E0,1.4840862E0,1.9602008E0,2.8907313E0,5.382194E0,4.700606E1,1.4696336E1,1.8514471E1,1.4621904E0,2.4212258E0,4.3633766E0,1.1153026E1,2.3627932E0,1.4784088E0,1.943188E0,1.0428126E1,2.7392208E1,5.4312504E1,3.4411986E0,3.3658967E0,1.3903625E1,1.5478533E1,7.2527413E0,7.1658487E0,1.4444807E0,1.4512645E0,1.4226162E0,3.380827E0,1.9716139E0,1.9468883E0,1.53014E1,1.4918048E1,1.4448187E0,1.4459126E0,1.4800501E0,3.902144E0,1.120321E1,3.5802853E1,6.9039526E0,7.792383E0,7.288575E0,1.1225896E1,1.462314E0,2.9010625E0,1.9293611E0,9.223665E0,1.416427E0,9.0117E0,1.7347513E1,1.0044695E1,5.2849648E1,1.462856E0,1.4656601E0,1.9755386E0,1.051925E1,3.3843749E0,6.7121277E0,8.766405E0,3.9264219E0,3.3263195E0,5.744382E0,1.4214668E0,1.4625608E0,1.3455487E1,1.4466101E0,2.4555337E0,2.9521112E0,8.251099E0,2.0266695E1,1.5536156E1,1.4646709E0,5.439282E0,2.9098403E0,4.8825426E0,4.8748746E0,2.4137008E0,5.3803864E0,5.845509E0,1.4364213E0,1.4646413E0,3.9401002E0,1.3407412E1,3.5622665E1,1.7226982E1,9.082753E0,1.4364966E0,1.4620714E0,1.9223034E0,1.4808689E0,5.231259E0,5.337896E0,3.4285095E0,2.458747E0,1.4676747E0,1.8961341E0,1.4301852E0,4.834911E0,8.620577E0,1.4794778E0,1.4726334E0,5.357445E0,2.893654E0,1.6887394E1,3.3793018E0,7.2956777E0,8.2404785E0,1.4440062E0,1.465834E0,2.945869E0,1.9366738E0,2.9296014E0,1.945273E0,1.4642183E0,3.9161682E0,5.7378616E0,7.6695504E0,1.0468235E1,6.758747E0,1.9671118E0,3.3707838E0,1.4459767E0,1.9825327E0,1.9501774E0,2.8847337E0,2.4397683E0,2.917676E0,1.4454405E0,1.4482135E0,1.9127192E0,1.4665825E0,5.845578E0,1.4500995E0,3.878236E0,4.362242E0,2.444675E0,1.4714934E0],"tree_param":{"num_deleted":"0","num_feature":"26","num_nodes":"201","size_leaf_vector":"1"}},{"base_weights":[1.3143563E-2,4.3874487E-1,-1.545082E-1,5.089447E-1,3.8698632E-2,-2.867922E-2,-4.4649488E-1,1.02445565E-1,4.1507053E-1,2.6053602E-1,-9.913065E-2,-3.1388712E-1,8.332048E-2,-5.9802306E-1,-1.7658062E-1,4.504275E-1,-1.550217E-1,-8.706747E-2,4.5014527E-1,-4.7226024E-1,4.816213E-2,1.5129225E-1,-2.740128E-1,-3.9493996E-1,-6.9259137E-1,6.991729E-2,-4.296109E-1,4.7099626E-1,-3.058735E-2,-7.828282E-2,3.2098934E-2,1.6544388E-1,9.807821E-2,5.097049E-2,-5.3729373E-1,2.839885E-1,-2.4879113E-1,3.748678E-1,3.8899086E-2,-3.7928474E-1,8.318254E-2,-6.177113E-1,-7.5212575E-2,-1.073132E-1,-2.9484669E-2,2.784181E-1,-4.4397494E-1,-5.0908417E-1,3.0605812E-2,3.778068E-1,6.5748936E-1,-5.4314993E-2,8.916449E-2,2.3486588E-2,-5.9248066E-1,3.8223672E-1,-2.7156956E-2,6.933532E-3,-9.0968326E-2,4.517272E-1,7.007843E-2,-5.1452473E-2,3.162401E-1,2.5833879E-2,-5.056448E-1,-1.6396556E-2,-1.0220171E-1,-3.1678542E-1,2.518518E-1,9.4656125E-2,7.8681E-2,-1.0686122E-2,-8.473401E-2,8.958681E-3,-6.0184413E-1,-1.2562457E-1,4.402851E-1,1.0617876E-1,5.392957E-3,-3.8184214E-1,-6.8432206E-1,5.777764E-1,-1.1369355E-2,-7.660222E-2,2.999187E-1,-2.4405122E-2,4.8786864E-1,-3.1481475E-1,3.5434645E-1,4.8599917E-1,-1.1217454E-1,4.4772935E-1,-1.24047495E-1,5.7010606E-2,-5.1211502E-2,-2.0441532E-1,-6.0002935E-1,1.314776E-2,-8.200294E-2,-1.19340215E-2,6.608015E-2,-3.119068E-1,4.0952373E-1,-2.3622949E-2,-9.6689984E-2,3.3297643E-2,-5.729025E-2,5.7135665E-1,3.0574036E-1,2.1994056E-2,-5.2503425E-1,-1.14081755E-1,-2.557493E-1,1.0220098E-1,2.2658337E-2,-7.445488E-2,7.231599E-2,8.336373E-2,-2.0906115E-2,5.790877E-1,2.6596683E-1,2.2719104E-2,-8.773901E-2,-7.0474683E-3,8.5763484E-2,9.726293E-2,2.3562416E-2,2.1657066E-1,-2.1968822E-1,6.363126E-1,1.17144376E-1,1.3454841E-2,-4.8959106E-2,1.5563845E-2,-7.0422664E-2,-3.694113E-2,-6.443034E-1,-8.382388E-2,2.43055E-2,9.6812926E-2,-2.0468088E-2,2.288444E-1,6.502093E-1,4.1129303E-1,-1.1908084E-1,-1.0255035E-1,-2.905901E-3,3.568082E-2,-8.2057565E-2,1.0673355E-1,4.1195562E-1,-5.5862382E-2,4.9948698E-1,3.5283804E-1,-2.2785154E-1,-1.21395454E-1,-6.162395E-1,1.061763E-1,2.0231027E-2,4.6350104E-1,-5.4837238E-2,-2.3012793E-2,2.610148E-2,-2.0102067E-2,-1.0752807E-1,-1.8094677E-2,7.577202E-2,1.0593254E-1,3.0374043E-2,9.0379596E-2,2.0566262E-2,-7.06292E-2,6.5831214E-2,8.020376E-2,-3.8206965E-2,9.499849E-2,3.526452E-2,7.956124E-2,-6.169647E-3,-7.652466E-2,2.2629773E-2,-6.0583778E-2,5.049229E-3,-2.1064827E-2,-1.0427189E-1,2.1659765E-2,8.555694E-2],"categories":[0,1,2,3,4,6,7,8,9,10,12,12,0,1,2,3,4,6,7,8,9,10,12,13,2,3,0,2,0,1,2,3,7,8,9,3,0,1,2,3,4,5,7,8,0,1,2,0,1,2,4,6,7,8,0,1,2,3,4,5,6,7,8,9,10,12,13,0,1,2,0,1,1,2,5,11,0,1,2,3,4,5,7,8,9,0,1,2,3,4,5,6,7,8,9,10,12,0,1,5,11,2,0,1,2,3,4,8,9,10,0,2,0,2,3],"categories_nodes":[1,2,3,14,20,35,37,39,41,62,63,64,67,76,79,90,91,92,96,108,119,136,156],"categories_segments":[0,11,12,24,26,28,35,36,44,47,54,67,70,72,74,76,85,97,99,101,102,110,112],"categories_sizes":[11,1,12,2,2,7,1,8,3,7,13,3,2,2,2,9,12,2,2,1,8,2,3],"default_left":[0,1,1,1,0,0,0,0,0,0,0,0,0,0,1,0,0,0,0,0,1,0,0,0,0,0,0,0,0,0,0,0,0,0,0,1,0,1,0,1,0,1,0,0,0,0,0,0,0,0,0,0,0,0,0,0,0,0,0,0,0,0,1,1,1,0,0,1,0,0,0,0,0,0,0,0,1,0,0,1,0,0,0,0,0,0,0,0,0,0,1,1,1,0,0,0,1,0,0,0,0,0,0,0,0,0,0,0,1,0,0,0,0,0,0,0,0,0,0,1,0,0,0,0,0,0,0,0,0,0,0,0,0,0,0,0,1,0,0,0,0,0,0,0,0,0,0,0,0,0,0,0,0,0,0,0,1,0,0,0,0,0,0,0,0,0,0,0,0,0,0,0,0,0,0,0,0,0,0,0,0,0,0,0,0,0,0],"id":6,"left_children":[1,3,5,7,9,11,13,-1,15,17,-1,19,21,23,25,27,29,-1,31,33,35,37,39,41,43,45,47,49,-1,-1,-1,51,-1,-1,53,55,57,59,61,63,-1,65,67,-1,-1,69,71,73,-1,75,77,-1,-1,-1,79,81,-1,83,-1,85,87,89,91,93,95,-1,-1,97,99,-1,101,-1,-1,-1,103,105,107,-1,-1,109,111,113,115,-1,117,-1,119,121,123,125,127,129,131,-1,-1,133,135,-1,-1,-1,-1,137,139,-1,-1,-1,-1,141,143,-1,145,-1,147,-1,-1,-1,-1,-1,-1,149,151,-1,-1,-1,-1,-1,-1,153,155,157,159,-1,-1,161,-1,-1,163,-1,-1,-1,-1,165,167,169,171,-1,-1,-1,-1,-1,173,-1,175,177,179,181,183,-1,-1,185,-1,-1,-1,-1,-1,-1,-1,-1,-1,-1,-1,-1,-1,-1,-1,-1,-1,-1,-1,-1,-1,-1,-1,-1,-1,-1,-1],"loss_changes":[2.6943651E1,2.9768925E0,9.94228E0,1.198122E0,2.8121924E0,6.1089325E0,3.2290554E0,0E0,1.308712E0,2.4351854E0,0E0,3.1135058E0,3.381656E0,7.2127724E-1,1.946948E0,8.784056E-1,6.98306E-1,0E0,5.6968594E-1,2.1678705E0,1.2829441E0,2.905012E0,2.1584246E0,1.291461E0,2.4456787E-1,1.8838081E0,8.7465143E-1,7.362995E-1,0E0,0E0,0E0,1.6214466E0,0E0,0E0,1.4403763E0,5.313734E-1,7.5379837E-1,8.7616587E-1,1.9816941E0,1.0578842E0,0E0,2.7918577E-1,7.7919E-1,0E0,0E0,8.167292E-1,1.9082856E-1,7.686219E-1,0E0,1.3175983E0,5.2328825E-1,0E0,0E0,0E0,3.7338924E-1,6.740655E-1,0E0,1.0278212E0,0E0,7.6255035E-1,1.0949531E0,2.0133145E0,1.1794338E0,8.8480836E-1,3.210554E-1,0E0,0E0,5.625102E-1,3.0504394E-1,0E0,1.2901342E0,0E0,0E0,0E0,1.2703037E-1,5.488565E-1,4.58817E-1,0E0,0E0,1.0020052E0,5.105972E-1,1.5399218E-1,1.162937E0,0E0,5.621752E-1,0E0,4.3918133E-1,6.361767E-1,5.1899064E-1,2.3366117E-1,1.9823645E0,8.7093973E-1,2.5623354E-1,0E0,0E0,3.128512E-1,1.9346237E-2,0E0,0E0,0E0,0E0,6.397321E-1,7.7099496E-1,0E0,0E0,0E0,0E0,3.1156397E-1,9.4031596E-1,0E0,7.757747E-1,0E0,8.154233E-1,0E0,0E0,0E0,0E0,0E0,0E0,1.4787483E-1,1.7344396E0,0E0,0E0,0E0,0E0,0E0,0E0,9.2788184E-1,1.552393E0,2.4281049E-1,1.2954232E0,0E0,0E0,1.2928268E-1,0E0,0E0,2.5501823E-1,0E0,0E0,0E0,0E0,5.1795053E-1,1.9081211E-1,7.64009E-1,1.1353304E0,0E0,0E0,0E0,0E0,0E0,1.0511723E0,0E0,1.3532329E-1,7.985203E-1,4.9303666E-1,1.5335422E0,2.044959E-1,0E0,0E0,6.640655E-2,0E0,0E0,0E0,0E0,0E0,0E0,0E0,0E0,0E0,0E0,0E0,0E0,0E0,0E0,0E0,0E0,0E0,0E0,0E0,0E0,0E0,0E0,0E0,0E0,0E0,0E0,0E0],"parents":[2147483647,0,0,1,1,2,2,3,3,4,4,5,5,6,6,8,8,9,9,11,11,12,12,13,13,14,14,15,15,16,16,18,18,19,19,20,20,21,21,22,22,23,23,24,24,25,25,26,26,27,27,31,31,34,34,35,35,36,36,37,37,38,38,39,39,41,41,42,42,45,45,46,46,47,47,49,49,50,50,54,54,55,55,57,57,59,59,60,60,61,61,62,62,63,63,64,64,67,67,68,68,70,70,74,74,75,75,76,76,79,79,80,80,81,81,82,82,84,84,86,86,87,87,88,88,89,89,90,90,91,91,92,92,95,95,96,96,101,101,102,102,107,107,108,108,110,110,112,112,119,119,120,120,127,127,128,128,129,129,130,130,133,133,136,136,141,141,142,142,143,143,144,144,150,150,152,152,153,153,154,154,155,155,156,156,159,159],"right_children":[2,4,6,8,10,12,14,-1,16,18,-1,20,22,24,26,28,30,-1,32,34,36,38,40,42,44,46,48,50,-1,-1,-1,52,-1,-1,54,56,58,60,62,64,-1,66,68,-1,-1,70,72,74,-1,76,78,-1,-1,-1,80,82,-1,84,-1,86,88,90,92,94,96,-1,-1,98,100,-1,102,-1,-1,-1,104,106,108,-1,-1,110,112,114,116,-1,118,-1,120,122,124,126,128,130,132,-1,-1,134,136,-1,-1,-1,-1,138,140,-1,-1,-1,-1,142,144,-1,146,-1,148,-1,-1,-1,-1,-1,-1,150,152,-1,-1,-1,-1,-1,-1,154,156,158,160,-1,-1,162,-1,-1,164,-1,-1,-1,-1,166,168,170,172,-1,-1,-1,-1,-1,174,-1,176,178,180,182,184,-1,-1,186,-1,-1,-1,-1,-1,-1,-1,-1,-1,-1,-1,-1,-1,-1,-1,-1,-1,-1,-1,-1,-1,-1,-1,-1,-1,-1,-1],"split_conditions":[3.1E1,NaN,NaN,NaN,4E0,8.2E-2,2.2E-1,1.02445565E-1,3E1,2.8E1,-9.913065E-2,1.41E2,4E0,1.63E2,NaN,4E0,1.75E2,-8.706747E-2,3.57E-1,9E0,NaN,3.5E1,5E0,1.57E2,1.72E2,4E0,2E0,6.55E-1,-3.058735E-2,-7.828282E-2,3.2098934E-2,2.7E1,9.807821E-2,5.097049E-2,1.43E2,NaN,3E2,NaN,1.55E2,NaN,8.318254E-2,NaN,8E1,-1.073132E-1,-2.9484669E-2,3.5E1,3.3E1,2.32E-1,3.0605812E-2,8.2E1,3E0,-5.4314993E-2,8.916449E-2,2.3486588E-2,3.8E1,2E0,-2.7156956E-2,1.5E2,-9.0968326E-2,1.2E-1,3.39E-1,1.5E2,NaN,NaN,NaN,-1.6396556E-2,-1.0220171E-1,NaN,1E0,9.4656125E-2,2E0,-1.0686122E-2,-8.473401E-2,8.958681E-3,1.52E2,1.7E2,NaN,1.0617876E-1,5.392957E-3,NaN,3E0,1.85E2,1.74E2,-7.660222E-2,2E0,-2.4405122E-2,1.43E2,9.4E1,6.5E1,1E0,NaN,NaN,NaN,5.7010606E-2,-5.1211502E-2,1.52E2,NaN,1.314776E-2,-8.200294E-2,-1.19340215E-2,6.608015E-2,1.44E2,8.8E1,-2.3622949E-2,-9.6689984E-2,3.3297643E-2,-5.729025E-2,1.8E1,NaN,2.1994056E-2,3.2E1,-1.14081755E-1,4E0,1.0220098E-1,2.2658337E-2,-7.445488E-2,7.231599E-2,8.336373E-2,-2.0906115E-2,NaN,1.77E2,2.2719104E-2,-8.773901E-2,-7.0474683E-3,8.5763484E-2,9.726293E-2,2.3562416E-2,1.09E2,3E0,4.28E-1,2.24E2,1.3454841E-2,-4.8959106E-2,2.14E-1,-7.0422664E-2,-3.694113E-2,NaN,-8.382388E-2,2.43055E-2,9.6812926E-2,-2.0468088E-2,2.44E2,2.92E2,5E0,3.98E-1,-1.0255035E-1,-2.905901E-3,3.568082E-2,-8.2057565E-2,1.0673355E-1,1.88E2,-5.5862382E-2,3.01E2,3E0,1.23E2,1.83E-1,NaN,1.061763E-1,2.0231027E-2,1E0,-5.4837238E-2,-2.3012793E-2,2.610148E-2,-2.0102067E-2,-1.0752807E-1,-1.8094677E-2,7.577202E-2,1.0593254E-1,3.0374043E-2,9.0379596E-2,2.0566262E-2,-7.06292E-2,6.5831214E-2,8.020376E-2,-3.8206965E-2,9.499849E-2,3.526452E-2,7.956124E-2,-6.169647E-3,-7.652466E-2,2.2629773E-2,-6.0583778E-2,5.049229E-3,-2.1064827E-2,-1.0427189E-1,2.1659765E-2,8.555694E-2],"split_indices":[17,22,22,21,11,20,20,0,17,13,0,13,11,12,4,8,13,0,20,13,4,17,23,12,13,11,24,20,0,0,0,17,0,0,12,19,12,3,13,19,0,3,13,0,0,17,17,20,0,13,9,0,0,0,13,24,0,13,0,20,20,12,19,21,4,0,0,4,14,0,9,0,0,0,12,12,4,0,0,22,8,13,13,0,8,0,13,13,13,14,19,21,4,0,0,13,22,0,0,0,0,13,13,0,0,0,0,17,3,0,13,0,8,0,0,0,0,0,0,19,13,0,0,0,0,0,0,13,8,20,13,0,0,20,0,0,4,0,0,0,0,13,13,23,20,0,0,0,0,0,12,0,12,8,13,20,3,0,0,14,0,0,0,0,0,0,0,0,0,0,0,0,0,0,0,0,0,0,0,0,0,0,0,0,0,0,0],"split_type":[0,1,1,1,0,0,0,0,0,0,0,0,0,0,1,0,0,0,0,0,1,0,0,0,0,0,0,0,0,0,0,0,0,0,0,1,0,1,0,1,0,1,0,0,0,0,0,0,0,0,0,0,0,0,0,0,0,0,0,0,0,0,1,1,1,0,0,1,0,0,0,0,0,0,0,0,1,0,0,1,0,0,0,0,0,0,0,0,0,0,1,1,1,0,0,0,1,0,0,0,0,0,0,0,0,0,0,0,1,0,0,0,0,0,0,0,0,0,0,1,0,0,0,0,0,0,0,0,0,0,0,0,0,0,0,0,1,0,0,0,0,0,0,0,0,0,0,0,0,0,0,0,0,0,0,0,1,0,0,0,0,0,0,0,0,0,0,0,0,0,0,0,0,0,0,0,0,0,0,0,0,0,0,0,0,0,0],"sum_hessian":[3.7566156E2,1.0570401E2,2.6995755E2,8.9692604E1,1.6011406E1,1.8942487E2,8.0532684E1,2.9230036E1,6.0462566E1,1.2632992E1,3.3784149E0,5.290342E1,1.3652144E2,5.0798897E1,2.9733791E1,5.7129322E1,3.3332438E0,1.9449846E0,1.0688007E1,3.6592262E1,1.6311157E1,1.15187195E2,2.1334248E1,1.7784138E1,3.301476E1,1.5427883E1,1.4305908E1,5.56599E1,1.4694229E0,1.4637538E0,1.8694901E0,5.2136464E0,5.4743605E0,2.399909E0,3.4192356E1,9.115619E0,7.195539E0,3.7752857E1,7.743433E1,1.9410332E1,1.9239144E0,9.931991E0,7.8521476E0,3.113925E1,1.8755074E0,1.1300972E1,4.126911E0,1.2886276E1,1.4196317E0,3.913182E1,1.6528078E1,2.4081502E0,2.8054962E0,2.3837683E0,3.1808586E1,7.672659E0,1.4429599E0,4.767478E0,2.4280608E0,2.9764883E1,7.9879746E0,5.902106E1,1.8413275E1,4.8039885E0,1.4606344E1,1.4071709E0,8.52482E0,4.5344143E0,3.3177333E0,3.3056707E0,7.995301E0,1.4001322E0,2.726779E0,1.8567474E0,1.1029529E1,4.2086983E0,3.4923122E1,1.5160586E1,1.3674916E0,1.1223982E1,2.0584604E1,4.813469E0,2.85919E0,1.4546063E0,3.3128717E0,1.4590071E0,2.8305876E1,3.3477418E0,4.6402326E0,5.280412E0,5.3740646E1,1.4165832E1,4.2474422E0,2.4275198E0,2.3764687E0,4.2400246E0,1.036632E1,1.8676392E0,2.6667747E0,1.4134371E0,1.9042963E0,3.6928337E0,4.3024673E0,1.3791795E0,9.65035E0,1.8430598E0,2.3656385E0,1.6045366E1,1.8877756E1,2.3877375E0,8.836245E0,1.681874E1,3.7658627E0,3.3932528E0,1.4202163E0,1.4390304E0,1.4201596E0,1.926044E0,1.3868278E0,1.891902E1,9.386855E0,1.389101E0,1.9586409E0,1.9059072E0,2.7343254E0,2.884602E0,2.39581E0,1.2994115E1,4.0746532E1,8.431339E0,5.7344923E0,2.3362634E0,1.911179E0,2.8314805E0,1.408544E0,1.883045E0,8.483274E0,2.3101661E0,1.3826677E0,2.8772037E0,1.4252634E0,3.732909E0,1.2312458E1,1.5146296E1,3.7314608E0,6.458175E0,2.3780694E0,1.4656594E0,2.3002033E0,8.7367735E0,1.0182247E1,2.3547626E0,7.0320926E0,1.010257E1,2.8915446E0,3.3699577E1,7.0469537E0,7.018536E0,1.4128032E0,3.3620453E0,2.3724473E0,1.3855368E0,1.4459438E0,1.4103843E0,7.0728903E0,1.8969712E0,1.8359377E0,1.0430288E1,1.8821698E0,8.217347E0,6.928949E0,2.3843E0,1.3471609E0,8.766305E0,1.4159424E0,3.7423015E0,3.2897913E0,6.725103E0,3.3774672E0,1.4577692E0,1.4337753E0,1.1373516E1,2.2326063E1,1.3978174E0,5.649136E0,1.4334143E0,1.928631E0],"tree_param":{"num_deleted":"0","num_feature":"26","num_nodes":"187","size_leaf_vector":"1"}},{"base_weights":[-3.5382542E-3,-5.961953E-1,2.7037385E-1,-6.786905E-1,-3.7973544E-1,4.747376E-1,1.602426E-2,-1.045145E-1,-5.6155617E-3,-4.4700128E-1,2.7203658E-1,6.3123204E-2,5.585217E-1,-5.6415284E-1,1.0636818E-1,-1.2007642E-1,-5.88401E-1,-2.280968E-2,8.585994E-2,3.9813462E-1,-2.259826E-1,6.197023E-1,3.5928777E-1,3.197365E-2,-6.575841E-1,3.7080777E-1,-1.8964931E-2,-3.9248723E-1,6.977541E-2,-2.701499E-1,-6.7069894E-1,1.0880821E-1,3.4688257E-2,7.657937E-2,-3.5128745E-1,6.665373E-1,4.7545174E-1,5.1355517E-1,-1.1714225E-1,-1.0654556E-1,-1.6003903E-2,7.1709937E-1,-5.116266E-2,3.5420075E-1,-1.4492492E-1,2.606766E-2,-9.4724186E-2,-4.8179615E-1,3.642485E-2,-2.8285228E-2,-1.0757828E-1,2.145175E-1,-4.1101195E-2,-1.0414972E-1,-9.664892E-2,4.9181792E-1,1.0997071E-1,1.0860922E-1,2.2923896E-1,5.63053E-1,-2.0442655E-2,4.9287282E-2,-3.5365015E-1,1.1304973E-1,3.9239682E-2,-9.111306E-2,9.836547E-2,5.429394E-1,1.3912089E-1,-5.1524425E-1,-2.2953236E-2,3.3520136E-2,-2.6910031E-2,-2.1885673E-2,-8.655155E-2,8.694317E-2,-3.5314064E-2,-3.863886E-1,5.9713926E-2,5.44729E-1,8.929457E-3,3.4593126E-1,-3.60127E-2,6.4280605E-1,2.1872821E-1,-8.5118465E-2,-1.0145728E-1,4.6388194E-1,-1.7375958E-1,-3.1390116E-2,1.0694704E-1,3.9880526E-1,-1.9612189E-1,-3.0493072E-1,-1.0391179E-1,2.6790735E-1,-3.1428662E-1,2.6906081E-3,-8.883004E-2,9.796915E-2,4.923918E-2,-3.3258125E-2,4.4880193E-1,1.1036711E-1,2.97536E-1,-2.361967E-2,7.988761E-2,1.696403E-2,-4.122474E-2,2.2693709E-2,9.569081E-2,4.0715642E-2,-3.517106E-1,9.505559E-2,-2.6836077E-2,3.938046E-2,-8.802773E-2,-5.2873933E-1,3.612373E-2,-4.1817002E-2,3.9009738E-1,-2.9444236E-2,-4.9805078E-1,3.9343465E-2,-3.327911E-2,8.4213495E-2,8.048024E-3,8.633554E-2,-1.8822208E-2,-2.088315E-2,-9.354537E-2,-9.4191946E-2,-2.0963328E-2,5.735123E-1,1.2004045E-1,-1.9365805E-1,7.491156E-2,2.6184958E-3,-5.932669E-1,7.2606795E-2,-7.6873474E-2,1.7300373E-2,9.539962E-2,5.4943953E-2,-3.673732E-2,2.32648E-2,-5.775314E-2,-5.238417E-2,-1.0575289E-1],"categories":[0,1,2,3,4,6,7,8,9,10,11,13,5,6,8,0,1,2,0,3,0,1,2,0,3,1,0,1,2,3,6,7,0,1,2,5,6,7,8,9,10,1,2,3,0,1,2,3,4,5,6,7,8,9,10,11,13,0,1,3,0,1,2,3,0,1,0,1,3,0,1,2,3,5,6,7,8,9,10,0,1,4,3,1,0,13,0,1,2,0,1,2,5,7,8,9,3,0,3,11,11,0,3,1,2,2],"categories_nodes":[2,11,13,14,16,19,21,22,25,26,27,30,32,34,36,38,41,43,47,55,58,59,66,68,69,79,83,88,92,96,100,104,120,134],"categories_segments":[0,12,15,18,20,23,25,26,32,41,44,57,60,62,64,66,69,79,81,82,83,84,85,86,87,89,96,97,99,100,101,102,103,105],"categories_sizes":[12,3,3,2,3,2,1,6,9,3,13,3,2,2,2,3,10,2,1,1,1,1,1,1,2,7,1,2,1,1,1,1,2,1],"default_left":[0,0,1,0,0,0,0,0,0,0,0,1,0,1,1,0,1,0,0,1,0,1,1,0,0,1,1,1,0,0,1,0,1,0,1,0,1,0,1,0,0,1,0,1,0,0,0,1,0,0,0,0,0,0,0,1,0,0,1,1,0,0,0,0,0,0,1,0,1,1,0,0,0,0,0,0,0,0,0,1,0,0,0,1,0,0,0,0,1,0,0,0,1,0,0,0,1,0,0,0,1,0,0,0,1,0,0,0,0,0,0,0,0,0,0,0,0,0,0,0,1,0,0,0,0,0,0,0,0,0,0,0,0,0,1,0,0,0,0,0,0,0,0,0,0,0,0,0,0],"id":7,"left_children":[1,3,5,7,9,11,13,-1,-1,15,17,19,21,23,25,27,29,-1,-1,31,33,35,37,-1,39,41,43,45,-1,47,49,-1,51,-1,53,55,57,59,61,-1,-1,63,65,67,69,71,-1,73,-1,-1,-1,75,-1,77,-1,79,-1,-1,81,83,-1,-1,85,-1,-1,-1,87,89,91,93,95,-1,-1,-1,-1,-1,-1,97,-1,99,-1,101,-1,103,105,-1,107,109,111,-1,-1,113,115,117,-1,119,121,-1,-1,-1,123,-1,125,-1,127,-1,-1,-1,-1,-1,-1,-1,129,-1,-1,-1,-1,131,-1,-1,133,135,137,-1,-1,-1,-1,-1,-1,139,-1,-1,-1,141,143,145,-1,-1,147,-1,-1,-1,-1,-1,-1,-1,-1,-1,-1],"loss_changes":[6.0683426E1,1.8521805E0,1.3281801E1,9.5067596E-1,1.6505828E0,4.8524494E0,6.084508E0,0E0,0E0,1.4081817E0,5.818275E-1,2.520708E0,1.2111778E0,1.2763844E0,3.3310292E0,1.9227582E0,3.9699602E-1,0E0,0E0,1.4006312E0,1.4814763E0,2.817726E-1,2.2662039E0,0E0,3.3694363E-1,4.756248E0,3.2943387E0,8.158307E-1,0E0,7.9123366E-1,2.4278021E-1,0E0,4.3237618E-1,0E0,8.490411E-1,3.8890266E-1,1.3770022E0,8.120179E-1,9.759784E-1,0E0,0E0,9.94215E-2,1.3482884E0,6.4305305E-1,2.350145E0,1.9684257E-1,0E0,6.712973E-2,0E0,0E0,0E0,9.2720234E-1,0E0,1.2956964E0,0E0,4.4363642E-1,0E0,0E0,8.56803E-1,4.4805908E-1,0E0,0E0,2.5571334E-1,0E0,0E0,0E0,1.3806508E0,1.3110704E0,9.155398E-1,2.7068448E-1,3.5061457E0,0E0,0E0,0E0,0E0,0E0,0E0,4.8201317E-1,0E0,9.572468E-1,0E0,7.8416085E-1,0E0,3.2324076E-1,7.3881257E-1,0E0,1.7553824E-1,2.2180033E-1,7.4666506E-1,0E0,0E0,8.935999E-1,1.026582E0,1.0672276E0,0E0,1.4946926E0,1.0654628E0,0E0,0E0,0E0,3.116424E-1,0E0,4.2631173E-1,0E0,6.9110334E-1,0E0,0E0,0E0,0E0,0E0,0E0,0E0,5.544517E-1,0E0,0E0,0E0,0E0,1.3490379E-1,0E0,0E0,7.9174805E-1,8.917785E-1,6.22947E-1,0E0,0E0,0E0,0E0,0E0,0E0,1.2112997E0,0E0,0E0,0E0,2.152934E-1,8.349302E-1,5.740329E-1,0E0,0E0,4.1864634E-2,0E0,0E0,0E0,0E0,0E0,0E0,0E0,0E0,0E0,0E0],"parents":[2147483647,0,0,1,1,2,2,3,3,4,4,5,5,6,6,9,9,10,10,11,11,12,12,13,13,14,14,15,15,16,16,19,19,20,20,21,21,22,22,24,24,25,25,26,26,27,27,29,29,30,30,32,32,34,34,35,35,36,36,37,37,38,38,41,41,42,42,43,43,44,44,45,45,47,47,51,51,53,53,55,55,58,58,59,59,62,62,66,66,67,67,68,68,69,69,70,70,77,77,79,79,81,81,83,83,84,84,86,86,87,87,88,88,91,91,92,92,93,93,95,95,96,96,100,100,102,102,104,104,112,112,117,117,120,120,121,121,122,122,129,129,133,133,134,134,135,135,138,138],"right_children":[2,4,6,8,10,12,14,-1,-1,16,18,20,22,24,26,28,30,-1,-1,32,34,36,38,-1,40,42,44,46,-1,48,50,-1,52,-1,54,56,58,60,62,-1,-1,64,66,68,70,72,-1,74,-1,-1,-1,76,-1,78,-1,80,-1,-1,82,84,-1,-1,86,-1,-1,-1,88,90,92,94,96,-1,-1,-1,-1,-1,-1,98,-1,100,-1,102,-1,104,106,-1,108,110,112,-1,-1,114,116,118,-1,120,122,-1,-1,-1,124,-1,126,-1,128,-1,-1,-1,-1,-1,-1,-1,130,-1,-1,-1,-1,132,-1,-1,134,136,138,-1,-1,-1,-1,-1,-1,140,-1,-1,-1,142,144,146,-1,-1,148,-1,-1,-1,-1,-1,-1,-1,-1,-1,-1],"split_conditions":[7.2E1,5.9E1,NaN,9E0,3E0,3E1,3E1,-1.045145E-1,-5.6155617E-3,8.1E1,6.8E1,NaN,2E0,NaN,NaN,3.5E1,NaN,-2.280968E-2,8.585994E-2,NaN,2.4E1,NaN,NaN,3.197365E-2,2.84E2,NaN,NaN,NaN,6.977541E-2,1.79E2,NaN,1.0880821E-1,NaN,7.657937E-2,NaN,7.9E1,NaN,2.56E2,NaN,-1.0654556E-1,-1.6003903E-2,NaN,6.5E1,NaN,3.4E1,6.7E1,-9.4724186E-2,NaN,3.642485E-2,-2.8285228E-2,-1.0757828E-1,2E0,-4.1101195E-2,1.94E2,-9.664892E-2,NaN,1.0997071E-1,1.0860922E-1,NaN,NaN,-2.0442655E-2,4.9287282E-2,3.5E1,1.1304973E-1,3.9239682E-2,-9.111306E-2,NaN,2E0,NaN,NaN,1.25E2,3.3520136E-2,-2.6910031E-2,-2.1885673E-2,-8.655155E-2,8.694317E-2,-3.5314064E-2,2E0,5.9713926E-2,NaN,8.929457E-3,2.6E1,-3.60127E-2,NaN,2E0,-8.5118465E-2,2E0,7.9E1,NaN,-3.1390116E-2,1.0694704E-1,3E0,NaN,1.6E1,-1.0391179E-1,3.5E1,NaN,2.6906081E-3,-8.883004E-2,9.796915E-2,NaN,-3.3258125E-2,1.63E2,1.1036711E-1,NaN,-2.361967E-2,7.988761E-2,1.696403E-2,-4.122474E-2,2.2693709E-2,9.569081E-2,4.0715642E-2,7.9E1,9.505559E-2,-2.6836077E-2,3.938046E-2,-8.802773E-2,2E0,3.612373E-2,-4.1817002E-2,NaN,3E0,3.2E1,3.9343465E-2,-3.327911E-2,8.4213495E-2,8.048024E-3,8.633554E-2,-1.8822208E-2,1.53E2,-9.354537E-2,-9.4191946E-2,-2.0963328E-2,6E1,NaN,3.5E1,7.491156E-2,2.6184958E-3,7.9E1,7.2606795E-2,-7.6873474E-2,1.7300373E-2,9.539962E-2,5.4943953E-2,-3.673732E-2,2.32648E-2,-5.775314E-2,-5.238417E-2,-1.0575289E-1],"split_indices":[10,10,21,15,8,17,17,0,0,13,13,19,24,0,1,17,0,0,0,1,13,0,19,0,13,19,3,21,0,13,1,0,0,0,0,10,1,13,1,0,0,19,13,0,13,10,0,19,0,0,0,9,0,13,0,3,0,0,4,0,0,0,17,0,0,0,21,9,1,3,13,0,0,0,0,0,0,24,0,19,0,13,0,1,8,0,9,10,4,0,0,8,21,13,0,17,21,0,0,0,0,0,13,0,3,0,0,0,0,0,0,0,10,0,0,0,0,8,0,0,4,8,17,0,0,0,0,0,0,13,0,0,0,13,0,17,0,0,10,0,0,0,0,0,0,0,0,0,0],"split_type":[0,0,1,0,0,0,0,0,0,0,0,1,0,1,1,0,1,0,0,1,0,1,1,0,0,1,1,1,0,0,1,0,1,0,1,0,1,0,1,0,0,1,0,1,0,0,0,1,0,0,0,0,0,0,0,1,0,0,1,1,0,0,0,0,0,0,1,0,1,1,0,0,0,0,0,0,0,0,0,1,0,0,0,1,0,0,0,0,1,0,0,0,1,0,0,0,1,0,0,0,1,0,0,0,1,0,0,0,0,0,0,0,0,0,0,0,0,0,0,0,1,0,0,0,0,0,0,0,0,0,0,0,0,0,1,0,0,0,0,0,0,0,0,0,0,0,0,0,0],"sum_hessian":[3.718209E2,1.1715622E2,2.5466469E2,8.328138E1,3.387484E1,1.4072725E2,1.1393743E2,8.091435E1,2.3670266E0,3.0990643E1,2.8841991E0,2.4096981E1,1.1663028E2,1.4644947E1,9.929248E1,9.915229E0,2.1075413E1,1.4004905E0,1.4837086E0,1.09875965E1,1.3109384E1,8.761508E1,2.901519E1,1.4339147E0,1.3211033E1,3.129814E1,6.799434E1,6.990682E0,2.9245467E0,5.2101235E0,1.586529E1,5.2576537E0,5.729943E0,1.4590635E0,1.165032E1,6.3407387E1,2.4207699E1,2.1859266E1,7.155924E0,1.1793078E1,1.4179544E0,1.6806456E1,1.4491685E1,1.6701857E1,5.1292484E1,2.8647685E0,4.125913E0,3.7314112E0,1.4787123E0,1.8399363E0,1.4025353E1,3.813497E0,1.916446E0,7.055441E0,4.5948796E0,1.9813513E1,4.3593872E1,1.1079523E1,1.3128176E1,2.0436205E1,1.4230614E0,2.3457687E0,4.810155E0,1.4951627E1,1.8548282E0,2.4214458E0,1.2070238E1,8.083764E0,8.618093E0,1.1909536E1,3.9382946E1,1.4163908E0,1.4483778E0,1.3834226E0,2.3479884E0,1.9461251E0,1.8673718E0,4.6647334E0,2.3907075E0,1.7421104E1,2.3924086E0,1.0724547E1,2.403629E0,1.588909E1,4.5471163E0,1.9266629E0,2.8834922E0,4.8504643E0,7.2197742E0,1.447923E0,6.635841E0,4.7494736E0,3.8686192E0,6.6949167E0,5.21462E0,1.9747702E1,1.9635244E1,1.881429E0,2.7833042E0,1.4032957E1,3.3881474E0,1.4680951E0,9.256452E0,1.1627102E1,4.2619877E0,2.2948103E0,2.252306E0,1.444104E0,1.4393883E0,2.4033918E0,2.4470725E0,1.9117112E0,5.308063E0,3.3076568E0,1.4418168E0,1.9305401E0,1.9380791E0,4.769978E0,1.9249384E0,3.373387E0,1.6374315E1,8.15495E0,1.1480295E1,1.915389E0,1.4727583E0,6.8759465E0,2.3805056E0,2.3540947E0,1.9078928E0,2.880459E0,2.427604E0,3.3111682E0,1.45881E0,9.082243E0,7.2920713E0,6.706379E0,1.4485712E0,1.9171833E0,9.563112E0,1.428564E0,1.451895E0,1.4314976E0,7.650746E0,4.351948E0,2.9401236E0,2.4431922E0,4.2631865E0,4.299372E0,5.2637396E0],"tree_param":{"num_deleted":"0","num_feature":"26","num_nodes":"149","size_leaf_vector":"1"}},{"base_weights":[2.4429543E-2,5.627574E-1,-2.2349033E-1,6.380892E-1,3.543192E-1,2.9806918E-2,-4.4869637E-1,6.4699113E-1,9.249185E-3,5.3268385E-1,8.430975E-2,1.616785E-1,-2.7789044E-1,-5.6667876E-1,-1.1672068E-1,9.961151E-2,2.5617024E-1,6.040594E-1,-1.2565014E-2,3.575548E-1,-5.104157E-1,3.948198E-1,9.59276E-2,4.2159084E-2,-5.5368876E-1,2.0209178E-2,-5.7838935E-1,-1.8283077E-1,4.2006096E-1,7.560757E-2,-1.606142E-2,1.02724746E-1,2.6253635E-1,5.2115625E-1,8.1776467E-4,-2.0510456E-2,-9.3802944E-2,4.67059E-1,-3.8781334E-2,3.3439195E-1,3.2703779E-3,3.8333368E-1,-1.9600348E-1,-1.2370938E-1,-6.594451E-1,-4.9101168E-1,-6.634529E-1,-1.1774095E-1,-8.923789E-2,1.773295E-2,7.812487E-2,-1.4116692E-2,7.481603E-2,1.2905702E-2,9.084982E-2,6.622608E-2,-5.37693E-2,5.6684816E-1,-1.2105004E-2,5.1100826E-1,-1.08007364E-1,3.5042056E-1,-4.9737725E-2,1.4305134E-2,4.9866623E-1,2.4795389E-2,-9.1696694E-2,-7.939361E-2,4.313848E-2,-1.04975075E-1,-2.1466829E-2,-2.8799397E-1,-5.797329E-1,-6.7450464E-1,-2.5328293E-2,-1.6569464E-1,7.376019E-2,2.4884969E-1,1.0413388E-1,1.0427714E-1,1.7094174E-1,6.616422E-2,-3.5630035E-1,9.502976E-2,-3.4479674E-2,6.4452E-2,-1.8505876E-1,8.758301E-2,2.292353E-2,2.6104584E-1,-1.9664092E-1,1.9090421E-1,-4.5431495E-1,-3.113844E-1,-6.141103E-1,-1.06136434E-1,-4.1872215E-1,1.0783761E-1,-2.375486E-1,-2.7790936E-2,7.80613E-2,-2.2188409E-1,8.356918E-2,-8.217968E-2,-5.2219946E-3,2.4391107E-1,-3.1330878E-1,2.582365E-1,-2.8490654E-1,8.344951E-2,-3.023451E-2,1.0373336E-2,-7.237517E-2,-2.2926219E-2,9.363498E-2,-1.2714744E-1,-1.0105612E-1,5.37323E-2,-8.883657E-2,-2.26168E-2,-6.3128686E-1,1.1698771E-2,-8.898118E-2,3.8004267E-1,-1.8626772E-1,3.530213E-2,-2.8917634E-1,2.3432234E-2,-2.9781176E-2,1.9217575E-2,-7.018996E-2,-4.4867508E-2,3.3071908E-1,-5.968883E-2,-7.167371E-2,7.858526E-2,-2.7106019E-2,-3.9339387E-1,2.0215145E-1,-5.904759E-2,3.6260176E-2,-3.0851856E-2,-9.7866185E-2,7.182028E-2,1.7459437E-2,2.5246903E-2,-6.935266E-2,-3.6763662E-1,2.7582433E-2,7.255219E-2,-1.5286304E-2,-4.0818963E-2,3.2492537E-2,1.0996386E-2,-8.640333E-2,7.131535E-2,-2.4540385E-2,-2.2219863E-2,-8.483489E-2,6.391262E-2,-3.4451567E-2],"categories":[5,12,0,1,2,9,10,0,2,1,2,1,3,0,2,3,3,4,0,1,2,3,4,5,6,7,9,2,0,3,0,1,2,4,6,7,9,10,1,3,0,1,2,0,3,0,1,0,1,2,3,4,5,6,7,8,9,10,12,13,1,3,1,0,1,2,3,1,2,1,3,11,0,1,3,1,2,3,0,3,1,2,5,0,1,2,3,1,2,12,0,2,3,0,1,2,3,0,3,0,1,2,0,2,3,1,2],"categories_nodes":[2,3,4,5,10,11,12,13,17,19,22,23,24,26,28,34,37,39,42,45,59,62,64,65,72,75,85,86,89,90,92,93,94,96,97,99,101,106,123,132,147,148],"categories_segments":[0,2,7,9,11,13,16,18,27,28,30,38,40,43,45,47,60,61,62,63,66,67,69,71,72,75,78,80,82,83,85,87,89,90,93,96,97,98,99,102,103,105],"categories_sizes":[2,5,2,2,2,3,2,9,1,2,8,2,3,2,2,13,1,1,1,3,1,2,2,1,3,3,2,2,1,2,2,2,1,3,3,1,1,1,3,1,2,2],"default_left":[0,0,1,1,1,1,0,0,0,0,1,1,1,1,0,0,0,1,0,1,0,0,1,1,1,0,1,0,1,0,0,0,0,0,1,0,0,1,0,1,0,0,1,0,0,1,0,0,0,0,0,0,0,0,0,0,0,0,0,1,0,0,1,0,1,1,0,0,0,0,0,0,1,0,0,1,0,0,0,0,0,0,0,0,0,1,1,0,0,1,1,0,1,1,1,0,1,1,0,1,0,1,0,0,0,0,1,0,0,0,0,0,0,0,0,0,0,0,0,0,0,0,0,1,0,0,0,0,0,0,0,0,1,0,0,0,0,0,0,0,0,0,0,0,0,0,0,1,1,0,0,0,0,0,0,0,0,0,0,0,0],"id":8,"left_children":[1,3,5,7,9,11,13,15,-1,17,19,21,23,25,27,-1,29,31,-1,33,35,37,39,41,43,-1,45,47,49,-1,-1,-1,51,53,55,-1,-1,57,-1,59,61,63,65,67,69,71,73,75,-1,-1,-1,-1,-1,-1,-1,-1,-1,77,-1,79,81,83,85,-1,87,89,-1,-1,-1,-1,-1,91,93,95,-1,97,-1,99,-1,-1,101,-1,103,-1,-1,105,107,-1,-1,109,111,113,115,117,119,-1,121,123,125,127,-1,129,-1,-1,-1,131,133,135,137,-1,-1,-1,-1,-1,-1,139,-1,-1,-1,-1,141,-1,-1,143,145,-1,147,-1,-1,-1,-1,-1,149,151,-1,-1,-1,153,155,-1,-1,-1,-1,-1,-1,-1,-1,157,159,-1,-1,-1,-1,-1,-1,-1,-1,-1,-1,-1,-1],"loss_changes":[4.826888E1,1.5643845E0,1.4143003E1,3.834839E-1,1.5212283E0,4.8132954E0,5.0718746E0,3.7174225E-1,0E0,9.039726E-1,2.477791E0,1.2328084E0,3.1677237E0,8.707676E-1,1.3421175E0,0E0,5.0661075E-1,3.0307007E-1,0E0,5.987216E-1,1.2315905E-1,9.6626353E-1,1.4567366E0,1.4904183E0,7.917242E-1,0E0,3.8130188E-1,8.001647E-1,6.657815E-2,0E0,0E0,0E0,4.6565542E-1,2.0663655E-1,8.278952E-1,0E0,0E0,9.4692016E-1,0E0,1.4970052E0,9.1039175E-1,2.0148897E-1,1.0164342E0,9.8997045E-1,2.1646833E-1,7.475748E-1,1.3402557E-1,9.3677497E-1,0E0,0E0,0E0,0E0,0E0,0E0,0E0,0E0,0E0,3.9719105E-1,0E0,7.1806383E-1,9.8752314E-1,1.2220912E0,6.759653E-1,0E0,6.160474E-2,4.745559E-1,0E0,0E0,0E0,0E0,0E0,1.4748864E0,1.2561703E-1,7.6179504E-2,0E0,5.735359E-1,0E0,4.338797E-1,0E0,0E0,1.0369476E0,0E0,2.732836E-1,0E0,0E0,1.7067068E0,9.555089E-1,0E0,0E0,7.054924E-1,3.9399332E-1,8.694712E-1,8.64064E-1,1.3271537E0,1.389265E-1,0E0,6.954813E-1,5.9015477E-1,6.147058E-1,1.4773425E-1,0E0,3.7856358E-1,0E0,0E0,0E0,8.939464E-1,3.1289923E-1,5.829839E-1,9.639461E-1,0E0,0E0,0E0,0E0,0E0,0E0,7.3846745E-1,0E0,0E0,0E0,0E0,1.1836624E-1,0E0,0E0,4.055798E-2,4.4877476E-1,0E0,5.229852E-1,0E0,0E0,0E0,0E0,0E0,1.0429757E0,3.150011E-1,0E0,0E0,0E0,1.2378986E0,4.4857517E-1,0E0,0E0,0E0,0E0,0E0,0E0,0E0,0E0,6.3779354E-1,6.131981E-1,0E0,0E0,0E0,0E0,0E0,0E0,0E0,0E0,0E0,0E0,0E0,0E0],"parents":[2147483647,0,0,1,1,2,2,3,3,4,4,5,5,6,6,7,7,9,9,10,10,11,11,12,12,13,13,14,14,16,16,17,17,19,19,20,20,21,21,22,22,23,23,24,24,26,26,27,27,28,28,32,32,33,33,34,34,37,37,39,39,40,40,41,41,42,42,43,43,44,44,45,45,46,46,47,47,57,57,59,59,60,60,61,61,62,62,64,64,65,65,71,71,72,72,73,73,75,75,77,77,80,80,82,82,85,85,86,86,89,89,90,90,91,91,92,92,93,93,94,94,96,96,97,97,98,98,99,99,101,101,105,105,106,106,107,107,108,108,115,115,120,120,123,123,124,124,126,126,132,132,133,133,137,137,138,138,147,147,148,148],"right_children":[2,4,6,8,10,12,14,16,-1,18,20,22,24,26,28,-1,30,32,-1,34,36,38,40,42,44,-1,46,48,50,-1,-1,-1,52,54,56,-1,-1,58,-1,60,62,64,66,68,70,72,74,76,-1,-1,-1,-1,-1,-1,-1,-1,-1,78,-1,80,82,84,86,-1,88,90,-1,-1,-1,-1,-1,92,94,96,-1,98,-1,100,-1,-1,102,-1,104,-1,-1,106,108,-1,-1,110,112,114,116,118,120,-1,122,124,126,128,-1,130,-1,-1,-1,132,134,136,138,-1,-1,-1,-1,-1,-1,140,-1,-1,-1,-1,142,-1,-1,144,146,-1,148,-1,-1,-1,-1,-1,150,152,-1,-1,-1,154,156,-1,-1,-1,-1,-1,-1,-1,-1,158,160,-1,-1,-1,-1,-1,-1,-1,-1,-1,-1,-1,-1],"split_conditions":[7.2E1,5.9E1,NaN,NaN,NaN,NaN,3E0,4E0,9.249185E-3,3E0,NaN,NaN,NaN,NaN,2E0,9.961151E-2,2E0,NaN,-1.2565014E-2,NaN,2E0,4E0,NaN,NaN,NaN,2.0209178E-2,NaN,3.22E2,NaN,7.560757E-2,-1.606142E-2,1.02724746E-1,3E0,6.5E1,NaN,-2.0510456E-2,-9.3802944E-2,NaN,-3.8781334E-2,NaN,1.52E2,1.67E2,NaN,1.7E2,4E0,NaN,2.92E2,3.14E2,-8.923789E-2,1.773295E-2,7.812487E-2,-1.4116692E-2,7.481603E-2,1.2905702E-2,9.084982E-2,6.622608E-2,-5.37693E-2,7.9E1,-1.2105004E-2,NaN,2.98E2,4E0,NaN,1.4305134E-2,NaN,NaN,-9.1696694E-2,-7.939361E-2,4.313848E-2,-1.04975075E-1,-2.1466829E-2,1.6E2,NaN,2E0,-2.5328293E-2,NaN,7.376019E-2,1.81E2,1.0413388E-1,1.0427714E-1,4E0,6.616422E-2,3.14E2,9.502976E-2,-3.4479674E-2,NaN,NaN,8.758301E-2,2.292353E-2,NaN,NaN,1.57E2,NaN,NaN,NaN,-1.06136434E-1,NaN,NaN,1.56E2,NaN,7.80613E-2,NaN,8.356918E-2,-8.217968E-2,-5.2219946E-3,1.59E2,NaN,1.79E2,1.88E2,8.344951E-2,-3.023451E-2,1.0373336E-2,-7.237517E-2,-2.2926219E-2,9.363498E-2,1.88E2,-1.0105612E-1,5.37323E-2,-8.883657E-2,-2.26168E-2,1.44E2,1.1698771E-2,-8.898118E-2,NaN,2E0,3.530213E-2,6E0,2.3432234E-2,-2.9781176E-2,1.9217575E-2,-7.018996E-2,-4.4867508E-2,NaN,1.75E2,-7.167371E-2,7.858526E-2,-2.7106019E-2,1.7E2,1.99E2,-5.904759E-2,3.6260176E-2,-3.0851856E-2,-9.7866185E-2,7.182028E-2,1.7459437E-2,2.5246903E-2,-6.935266E-2,NaN,NaN,7.255219E-2,-1.5286304E-2,-4.0818963E-2,3.2492537E-2,1.0996386E-2,-8.640333E-2,7.131535E-2,-2.4540385E-2,-2.2219863E-2,-8.483489E-2,6.391262E-2,-3.4451567E-2],"split_indices":[10,10,21,19,2,1,23,9,0,8,3,3,19,19,16,0,8,3,0,0,23,23,19,0,2,0,0,12,0,0,0,0,23,10,21,0,0,7,0,2,12,12,1,12,23,3,12,12,0,0,0,0,0,0,0,0,0,10,0,7,12,11,2,0,7,21,0,0,0,0,0,12,7,25,0,7,0,12,0,0,23,0,12,0,0,0,0,0,0,19,7,12,2,3,21,0,1,2,12,7,0,3,0,0,0,12,2,12,12,0,0,0,0,0,0,12,0,0,0,0,12,0,0,3,25,0,23,0,0,0,0,0,7,12,0,0,0,12,12,0,0,0,0,0,0,0,0,3,0,0,0,0,0,0,0,0,0,0,0,0,0],"split_type":[0,0,1,1,1,1,0,0,0,0,1,1,1,1,0,0,0,1,0,1,0,0,1,1,1,0,1,0,1,0,0,0,0,0,1,0,0,1,0,1,0,0,1,0,0,1,0,0,0,0,0,0,0,0,0,0,0,0,0,1,0,0,1,0,1,1,0,0,0,0,0,0,1,0,0,1,0,0,0,0,0,0,0,0,0,1,1,0,0,1,1,0,1,1,1,0,1,1,0,1,0,1,0,0,0,0,1,0,0,0,0,0,0,0,0,0,0,0,0,0,0,0,0,1,0,0,0,0,0,0,0,0,1,0,0,0,0,0,0,0,0,0,0,0,0,0,0,1,1,0,0,0,0,0,0,0,0,0,0,0,0],"sum_hessian":[3.597248E2,1.130281E2,2.4669669E2,8.15087E1,3.1519402E1,1.16515366E2,1.3018132E2,8.014852E1,1.3601749E0,1.8395046E1,1.3124356E1,8.189271E1,3.462266E1,9.5525185E1,3.4656128E1,7.612152E1,4.0269995E0,1.6504211E1,1.890834E0,9.265936E0,3.85842E0,1.6913956E1,6.497875E1,1.6417799E1,1.820486E1,1.3961775E0,9.412901E1,3.1443E1,3.2131286E0,2.1632E0,1.8637998E0,1.25345E1,3.9697118E0,6.036615E0,3.229321E0,1.4226898E0,2.43573E0,1.5486797E1,1.427158E0,1.7452854E1,4.7525898E1,6.4986925E0,9.9191065E0,4.022032E0,1.418283E1,4.977361E1,4.4355404E1,2.8264336E1,3.1786637E0,1.348151E0,1.8649775E0,1.8214658E0,2.148246E0,1.3099706E0,4.7266445E0,1.3475549E0,1.8817662E0,1.3070754E1,2.4160426E0,1.2362405E1,5.090449E0,5.552416E0,4.1973484E1,2.3808925E0,4.1177998E0,7.0899973E0,2.8291092E0,1.8806508E0,2.1413808E0,1.2824293E1,1.3585365E0,1.6428015E1,3.3345592E1,4.3030155E1,1.325249E0,2.6877726E1,1.3866106E0,4.582979E0,8.487775E0,7.341927E0,5.0204782E0,1.3432752E0,3.7471738E0,3.6700852E0,1.8823309E0,2.304816E1,1.8925323E1,2.751492E0,1.3663079E0,3.3437133E0,3.746284E0,4.196621E0,1.2231393E1,4.9288683E0,2.8416725E1,3.6539444E1,6.4907093E0,5.487444E0,2.1390282E1,2.7149184E0,1.868061E0,2.6997542E0,2.3207238E0,1.9068086E0,1.840365E0,1.5865444E1,7.1827154E0,3.1874897E0,1.5737834E1,1.9173034E0,1.42641E0,2.334093E0,1.4121909E0,2.7011628E0,1.4954582E0,5.543793E0,6.6876E0,1.3750861E0,3.5537825E0,1.3653407E0,2.7051384E1,1.8310943E0,4.659615E0,2.6980772E0,2.7893667E0,1.7551388E0,1.9635143E1,1.3477099E0,1.3672085E0,1.3123115E0,1.3874428E0,1.8495915E0,1.4015853E1,3.3622465E0,3.8204691E0,1.8651049E0,1.3223847E0,1.302823E1,2.7096035E0,3.1795464E0,2.3642466E0,1.7886195E0,2.5262764E1,1.369137E0,1.3289403E0,1.391975E0,1.3973917E0,1.5608373E1,4.0267706E0,1.0267584E1,3.7482688E0,1.9093606E0,1.4528857E0,3.8326232E0,9.195607E0,1.3792081E0,1.3303953E0,8.229852E0,7.3785205E0,1.322281E0,2.7044897E0],"tree_param":{"num_deleted":"0","num_feature":"26","num_nodes":"161","size_leaf_vector":"1"}},{"base_weights":[-1.3037681E-2,-5.5169886E-1,2.3469454E-1,-6.376726E-1,-3.3407286E-1,5.300755E-1,1.1707851E-1,-6.547902E-1,-1.2270147E-1,-6.7658685E-2,-5.3202176E-1,6.4911896E-1,4.2269483E-1,-3.0890825E-1,2.0418234E-1,-1.8737977E-2,-6.6338205E-1,3.6655832E-2,-6.7186415E-2,2.1658906E-1,-3.6180228E-1,-2.1173798E-1,-9.420699E-2,1.00217715E-1,2.2351027E-2,5.1778454E-1,1.2216287E-1,2.286743E-1,-4.1455752E-1,4.035474E-1,1.0078529E-1,-2.6325777E-2,-1.00942664E-1,4.0524712E-1,-6.727309E-2,-9.0354495E-2,8.011372E-2,8.177306E-2,-8.705093E-2,6.078438E-1,6.433695E-2,3.2664162E-1,-6.492762E-2,8.845056E-2,-1.2490244E-1,-5.843685E-1,3.9048795E-2,4.7653586E-1,-1.998123E-1,-4.2145443E-1,1.4591466E-1,-2.5650695E-2,5.8458585E-1,3.6042914E-2,-1.7268352E-2,1.0579232E-1,2.9756927E-1,-1.4078337E-1,6.637989E-2,4.989021E-1,-4.5647923E-2,3.1186946E-2,-6.209051E-2,-6.518514E-1,-1.2725618E-1,3.348629E-1,-7.6241076E-2,5.1228184E-1,-1.8498352E-2,6.969764E-2,-4.9438688E-1,4.024039E-4,-5.507604E-1,2.4504763E-1,-1.4877373E-2,9.969362E-2,2.7961833E-2,-5.374595E-2,5.0026095E-1,3.100213E-2,-6.2236045E-2,7.0494646E-3,8.957197E-2,-4.2289197E-2,-1.031251E-1,2.960982E-2,-6.1351035E-2,-9.317411E-3,9.337542E-2,6.1127645E-1,3.382463E-1,-8.809209E-2,-2.2808766E-2,-2.116893E-2,-9.666867E-2,3.7686568E-1,3.2011528E-2,3.0384266E-1,-1.4727803E-1,1.6515749E-2,8.773687E-2,1.0161315E-1,2.1500759E-1,-2.313483E-2,4.2351922E-1,4.6029937E-1,8.413889E-2,2.2495058E-1,-2.585601E-1,4.4756523E-1,-2.1473799E-2,9.520849E-2,-3.1235546E-1,-1.5164488E-2,7.696007E-2,6.020965E-1,1.7937616E-1,-4.854696E-3,4.9720386E-1,8.609604E-2,-2.2687177E-1,3.9063245E-1,-8.22791E-2,-4.5820287E-1,7.564594E-2,2.0838204E-1,7.939982E-2,4.6398297E-1,-2.937991E-1,-8.8623635E-2,-5.1401436E-1,1.0001628E-1,3.7835527E-2,-3.627346E-2,6.95777E-2,8.890855E-2,4.8705883E-2,6.8858735E-2,-7.749011E-2,8.166752E-2,-4.359714E-3,-2.7365273E-2,-9.801597E-2,6.9883645E-2,-2.0631837E-2,9.286417E-2,2.1565527E-2,3.54954E-2,-8.8707924E-2,2.3320576E-2,-6.4139366E-2,-2.0375036E-2,-8.602103E-2],"categories":[0,1,2,3,4,5,6,7,8,9,10,11,13,1,3,1,2,0,0,0,1,3,0,0,1,2,0,3,0,1,2,3,4,6,7,8,9,10,11,13,0,2,0,0,0,0,1,2,0,2,3,1,2,0,3,0,1,3,0,1,3,0,3,1,2,3,0,1,2,3,4,6,7,8,9,10,12,13,1,2,1,2,0,2,0,1,2,3,4,6,7,8,9,10,11,12,3,11,0,3,1,2,0,2,3,1,2,1,0,1,