{"learner":{"attributes":{"scikit_learn":"{\"_estimator_type\": \"classifier\"}"},"feature_names":["t_dp","t_vaf","t_raw_vaf","t_dp_filt","t_tr_distance","t_tr_length","t_tr_seq_unit_length","n_dp","n_vaf","n_raw_vaf","n_dp_filt","t_alt_reads","t_pass_alt_reads","t_mqual_mean","t_mqual_max","t_mqual_min","t_ref0","t_ref1","t_ref2","t_ref3","t_ref4","t_nonref0","t_nonref1","t_nonref2","t_nonref3","t_nonref4","n_alt_reads","n_pass_alt_reads","n_mqual_mean","n_mqual_max","n_mqual_min","n_ref0","n_ref1","n_ref2","n_ref3","n_ref4","n_nonref0","n_nonref1","n_nonref2","n_nonref3","n_nonref4","t_mapq_min","t_mapq_max","t_mapq_mean","n_mapq_min","n_mapq_max","n_mapq_mean","t_reverse_count","t_forward_count","n_reverse_count","n_forward_count"],"feature_types":["int","float","float","int","float","float","float","float","float","float","float","int","int","float","float","float","int","int","int","int","int","int","int","int","int","int","float","float","float","float","float","int","int","int","int","int","int","int","int","int","int","int","int","float","float","float","float","int","int","float","float"],"gradient_booster":{"model":{"gbtree_model_param":{"num_parallel_tree":"1","num_trees":"200"},"iteration_indptr":[0,1,2,3,4,5,6,7,8,9,10,11,12,13,14,15,16,17,18,19,20,21,22,23,24,25,26,27,28,29,30,31,32,33,34,35,36,37,38,39,40,41,42,43,44,45,46,47,48,49,50,51,52,53,54,55,56,57,58,59,60,61,62,63,64,65,66,67,68,69,70,71,72,73,74,75,76,77,78,79,80,81,82,83,84,85,86,87,88,89,90,91,92,93,94,95,96,97,98,99,100,101,102,103,104,105,106,107,108,109,110,111,112,113,114,115,116,117,118,119,120,121,122,123,124,125,126,127,128,129,130,131,132,133,134,135,136,137,138,139,140,141,142,143,144,145,146,147,148,149,150,151,152,153,154,155,156,157,158,159,160,161,162,163,164,165,166,167,168,169,170,171,172,173,174,175,176,177,178,179,180,181,182,183,184,185,186,187,188,189,190,191,192,193,194,195,196,197,198,199,200],"tree_info":[0,0,0,0,0,0,0,0,0,0,0,0,0,0,0,0,0,0,0,0,0,0,0,0,0,0,0,0,0,0,0,0,0,0,0,0,0,0,0,0,0,0,0,0,0,0,0,0,0,0,0,0,0,0,0,0,0,0,0,0,0,0,0,0,0,0,0,0,0,0,0,0,0,0,0,0,0,0,0,0,0,0,0,0,0,0,0,0,0,0,0,0,0,0,0,0,0,0,0,0,0,0,0,0,0,0,0,0,0,0,0,0,0,0,0,0,0,0,0,0,0,0,0,0,0,0,0,0,0,0,0,0,0,0,0,0,0,0,0,0,0,0,0,0,0,0,0,0,0,0,0,0,0,0,0,0,0,0,0,0,0,0,0,0,0,0,0,0,0,0,0,0,0,0,0,0,0,0,0,0,0,0,0,0,0,0,0,0,0,0,0,0,0,0,0,0,0,0,0,0],"trees":[{"base_weights":[-1.8097621E-1,-1.2728577E0,2.6237068E0,-7.200003E-1,-1.2879281E0,-3.2551336E-1,3.8845966E0,-1.0218354E0,3.4460611E0,-1.1062078E0,-1.29275E0,-1.0626414E0,1.0389049E0,1.7487354E0,4.169876E0,-1.1302098E0,1.431271E-1,-9.4315755E-1,4.2120986E0,-1.2530624E0,-3.5597208E-1,-1.2313989E0,-1.295495E0,-1.221341E0,-6.335344E-1,-7.9639703E-1,2.272578E0,-6.8446E-1,2.1996398E0,-1.2974338E-1,4.2583404E0,-1.272675E-1,-9.647487E-2,-1.2160017E-1,2.3938249E-1,-1.0691964E-1,2.0656459E-1,3.3757117E-2,4.2453885E-1,-1.2817286E-1,-1.13369204E-1,3.364358E-1,-1.0981504E-1,-1.2597792E-1,-3.749924E-2,-1.2705016E-1,-1.2971063E-1,-1.260171E-1,-1.0325982E-1,2.79095E-2,-1.2039832E-1,-9.590214E-2,1.3313034E-1,-1.2183078E-1,3.4885463E-1,-9.97112E-2,2.892354E-2,1.1840949E-1,2.8706384E-1,-4.284109E-3,4.2871675E-1],"categories":[],"categories_nodes":[],"categories_segments":[],"categories_sizes":[],"default_left":[0,0,0,0,0,0,0,0,0,0,0,0,0,0,0,0,0,0,0,0,0,0,0,0,0,0,0,0,0,0,0,0,0,0,0,0,0,0,0,0,0,0,0,0,0,0,0,0,0,0,0,0,0,0,0,0,0,0,0,0,0],"id":0,"left_children":[1,3,5,7,9,11,13,15,17,19,21,23,25,27,29,31,33,35,37,39,41,43,45,47,49,51,53,55,57,-1,59,-1,-1,-1,-1,-1,-1,-1,-1,-1,-1,-1,-1,-1,-1,-1,-1,-1,-1,-1,-1,-1,-1,-1,-1,-1,-1,-1,-1,-1,-1],"loss_changes":[1.302805E6,2.5503438E3,4.433017E5,1.0224027E4,2.5978125E2,3.5909766E4,5.0875625E4,9.570957E2,1.8509502E3,8.492451E2,4.73125E1,1.5778125E3,2.835735E4,1.0798824E4,3.5635625E4,1.6223633E2,1.9789779E3,3.347283E1,5.8914062E1,2.0615234E1,3.4934707E3,3.0226367E2,9.5625E0,1.22708984E2,3.2596277E3,1.743471E3,3.1796207E4,4.6891638E2,5.654492E3,0E0,8.989E3,0E0,0E0,0E0,0E0,0E0,0E0,0E0,0E0,0E0,0E0,0E0,0E0,0E0,0E0,0E0,0E0,0E0,0E0,0E0,0E0,0E0,0E0,0E0,0E0,0E0,0E0,0E0,0E0,0E0,0E0],"parents":[2147483647,0,0,1,1,2,2,3,3,4,4,5,5,6,6,7,7,8,8,9,9,10,10,11,11,12,12,13,13,14,14,15,15,16,16,17,17,18,18,19,19,20,20,21,21,22,22,23,23,24,24,25,25,26,26,27,27,28,28,30,30],"right_children":[2,4,6,8,10,12,14,16,18,20,22,24,26,28,30,32,34,36,38,40,42,44,46,48,50,52,54,56,58,-1,60,-1,-1,-1,-1,-1,-1,-1,-1,-1,-1,-1,-1,-1,-1,-1,-1,-1,-1,-1,-1,-1,-1,-1,-1,-1,-1,-1,-1,-1,-1],"split_conditions":[2.00001E0,3.84615E-2,4E0,8E0,1E0,4.6E1,5E0,5E0,1.95E1,8E0,1.2766E-1,4.49E0,2.84E0,1.3E1,2E1,2.2375E1,2.4E1,2.30769E-1,3.3E1,2.2366667E0,1.09091E-1,2.72727E-1,3.48485E-1,2.45E0,9.6E1,3E0,3.1666666E1,9E0,2E0,-1.2974338E-1,7.45E-1,-1.272675E-1,-9.647487E-2,-1.2160017E-1,2.3938249E-1,-1.0691964E-1,2.0656459E-1,3.3757117E-2,4.2453885E-1,-1.2817286E-1,-1.13369204E-1,3.364358E-1,-1.0981504E-1,-1.2597792E-1,-3.749924E-2,-1.2705016E-1,-1.2971063E-1,-1.260171E-1,-1.0325982E-1,2.79095E-2,-1.2039832E-1,-9.590214E-2,1.3313034E-1,-1.2183078E-1,3.4885463E-1,-9.97112E-2,2.892354E-2,1.1840949E-1,2.8706384E-1,-4.284109E-3,4.2871675E-1],"split_indices":[9,9,12,12,27,33,33,12,43,12,9,14,14,12,43,43,43,1,3,13,9,2,2,14,5,12,43,12,33,0,13,0,0,0,0,0,0,0,0,0,0,0,0,0,0,0,0,0,0,0,0,0,0,0,0,0,0,0,0,0,0],"split_type":[0,0,0,0,0,0,0,0,0,0,0,0,0,0,0,0,0,0,0,0,0,0,0,0,0,0,0,0,0,0,0,0,0,0,0,0,0,0,0,0,0,0,0,0,0,0,0,0,0,0,0,0,0,0,0,0,0,0,0,0,0],"sum_hessian":[4.2542012E5,3.0621078E5,1.1920931E5,8.1268735E3,2.9808394E5,3.5702332E4,8.3506984E4,7.5785547E3,5.483188E2,7.711164E3,2.9037275E5,2.3179701E4,1.252263E4,9.840348E3,7.366663E4,6.933568E3,6.449872E2,8.1442245E1,4.6687653E2,6.4482783E3,1.2628859E3,1.245482E4,2.7791794E5,1.6920156E4,6.2595444E3,5.034016E3,7.4886143E3,1.5383732E3,8.301975E3,1.1727683E3,7.249387E4,3.7220876E3,3.2114802E3,4.024309E2,2.4255624E2,7.878652E1,2.6557252E0,4.072112E0,4.628044E2,5.191766E3,1.2565122E3,2.0944821E2,1.0534377E3,1.2054868E4,3.9995224E2,1.687926E4,2.6103867E5,1.4028427E4,2.8917307E3,2.4078577E3,3.851687E3,4.6770864E3,3.5692947E2,1.9346074E3,5.554007E3,1.164447E3,3.7392612E2,3.3040764E3,4.997898E3,4.8263382E2,7.2011234E4],"tree_param":{"num_deleted":"0","num_feature":"51","num_nodes":"61","size_leaf_vector":"1"}},{"base_weights":[-1.7843533E-1,-1.2359035E0,2.0571449E0,-6.9237834E-1,-1.2512002E0,-3.037328E-1,2.8848825E0,-1.0139953E0,2.2956042E0,-1.0897422E0,-1.2569864E0,-1.0368329E0,8.5418916E-1,-1.2719375E-1,2.950673E0,-1.1310416E0,-3.933977E-1,-1.0177507E0,3.039547E0,-1.1915739E0,2.1089838E0,-1.2101307E0,-1.2592894E0,-1.1829258E0,-6.2242013E-1,-8.0466944E-1,1.7800783E0,1.3570788E0,3.1019368E0,-1.24129094E-1,-1.019383E-1,-1.1915078E-1,1.1442162E-1,-1.18248284E-1,-3.545758E-3,-3.3120688E-2,3.0836657E-1,-1.2108183E-1,-4.2247508E-2,1.1383644E-3,2.855376E-1,-1.213175E-1,3.370727E-1,-1.2277589E-1,-1.2605433E-1,-1.0463494E-1,-1.2409272E-1,-1.2413672E-1,1.2390029E-2,-9.424982E-2,9.260512E-2,-1.15034305E-1,2.6218054E-1,1.6594128E-1,-7.035592E-2,7.0961356E-2,3.12681E-1],"categories":[],"categories_nodes":[],"categories_segments":[],"categories_sizes":[],"default_left":[0,0,0,0,0,0,0,0,0,0,0,0,0,0,0,0,0,0,0,0,0,0,0,0,0,0,0,0,0,0,0,0,0,0,0,0,0,0,0,0,0,0,0,0,0,0,0,0,0,0,0,0,0,0,0,0,0],"id":1,"left_children":[1,3,5,7,9,11,13,15,17,19,21,23,25,-1,27,29,31,33,35,37,39,41,43,45,47,49,51,53,55,-1,-1,-1,-1,-1,-1,-1,-1,-1,-1,-1,-1,-1,-1,-1,-1,-1,-1,-1,-1,-1,-1,-1,-1,-1,-1,-1,-1],"loss_changes":[9.927681E5,2.3694375E3,2.6352825E5,7.5038047E3,2.57625E2,2.971782E4,2.730975E4,5.1152344E2,1.8736726E3,3.1298174E3,2.740625E1,1.2970859E3,2.0847012E4,0E0,2.3689125E4,7.172461E1,1.3756946E3,2.2595276E1,9.32207E1,1.3721289E2,4.6429492E2,1.7932812E2,8.53125E0,1.2424414E2,2.5820884E3,1.1607571E3,2.1488924E4,5.310829E3,5.3394375E3,0E0,0E0,0E0,0E0,0E0,0E0,0E0,0E0,0E0,0E0,0E0,0E0,0E0,0E0,0E0,0E0,0E0,0E0,0E0,0E0,0E0,0E0,0E0,0E0,0E0,0E0,0E0,0E0],"parents":[2147483647,0,0,1,1,2,2,3,3,4,4,5,5,6,6,7,7,8,8,9,9,10,10,11,11,12,12,14,14,15,15,16,16,17,17,18,18,19,19,20,20,21,21,22,22,23,23,24,24,25,25,26,26,27,27,28,28],"right_children":[2,4,6,8,10,12,14,16,18,20,22,24,26,-1,28,30,32,34,36,38,40,42,44,46,48,50,52,54,56,-1,-1,-1,-1,-1,-1,-1,-1,-1,-1,-1,-1,-1,-1,-1,-1,-1,-1,-1,-1,-1,-1,-1,-1,-1,-1,-1,-1],"split_conditions":[2.00001E0,3.84615E-2,4E0,7E0,8.47458E-2,4.5E1,2E1,4E0,2.15E1,2.42424E-1,2E-1,4.79E0,2.65E0,-1.2719375E-1,4E0,1.68E1,2.5727272E1,1E1,2E1,1.90476E-1,1.2E1,7.64706E-1,3.33333E-1,5.1E1,5.1733334E1,3E0,1.6E1,1E0,1E0,-1.24129094E-1,-1.019383E-1,-1.1915078E-1,1.1442162E-1,-1.18248284E-1,-3.545758E-3,-3.3120688E-2,3.0836657E-1,-1.2108183E-1,-4.2247508E-2,1.1383644E-3,2.855376E-1,-1.213175E-1,3.370727E-1,-1.2277589E-1,-1.2605433E-1,-1.0463494E-1,-1.2409272E-1,-1.2413672E-1,1.2390029E-2,-9.424982E-2,9.260512E-2,-1.15034305E-1,2.6218054E-1,1.6594128E-1,-7.035592E-2,7.0961356E-2,3.12681E-1],"split_indices":[9,9,12,12,9,33,43,12,43,2,9,14,14,0,33,43,43,43,10,2,12,2,2,18,43,12,41,38,47,0,0,0,0,0,0,0,0,0,0,0,0,0,0,0,0,0,0,0,0,0,0,0,0,0,0,0,0],"split_type":[0,0,0,0,0,0,0,0,0,0,0,0,0,0,0,0,0,0,0,0,0,0,0,0,0,0,0,0,0,0,0,0,0,0,0,0,0,0,0,0,0,0,0,0,0,0,0,0,0,0,0,0,0,0,0,0,0],"sum_hessian":[4.1994088E5,2.850892E5,1.3485169E5,7.805022E3,2.7728416E5,3.5006527E4,9.9845164E4,7.04715E3,7.578722E2,9.59986E3,2.676843E5,2.143547E4,1.3571056E4,1.5553611E3,9.8289805E4,5.9282446E3,1.1189054E3,1.3889534E2,6.1897687E2,9.304285E3,2.9557507E2,1.2564987E4,2.5511931E5,1.5847055E4,5.588416E3,4.8613696E3,8.709687E3,8.521718E3,8.9768086E4,2.9778582E3,2.9503865E3,7.367268E2,3.8217856E2,1.187731E2,2.0122234E1,7.912878E0,6.1106396E2,9.076596E3,2.2768968E2,7.783871E1,2.1773636E2,1.2557378E4,7.6100836E0,9.794987E3,2.4532433E5,4.729502E3,1.1117553E4,3.0545325E3,2.5338835E3,4.503205E3,3.581646E2,1.94342E3,6.766266E3,7.431563E3,1.0901543E3,9.240184E2,8.884406E4],"tree_param":{"num_deleted":"0","num_feature":"51","num_nodes":"57","size_leaf_vector":"1"}},{"base_weights":[-1.7236347E-1,-1.2036564E0,1.7315907E0,-6.4484614E-1,-1.2199667E0,-6.4035136E-1,2.2784865E0,-9.697413E-1,1.9245794E0,-1.0625482E0,-1.2260993E0,-1.0794917E0,2.2510917E-1,-1.2241211E0,2.3689208E0,-1.0900394E0,-3.6753082E-1,-9.2962646E-1,2.499936E0,-1.1574409E0,1.7000788E0,-1.1801562E0,-1.2280213E0,-1.1676394E0,-7.3467255E-1,-8.7009645E-1,1.0711395E0,-1.2428701E-1,8.0367856E-2,-5.9758615E-1,2.4285853E0,-1.2086681E-1,-9.6789956E-2,-1.1686768E-1,1.0434945E-1,-1.0609292E-1,8.3749056E-2,-8.1662305E-2,2.5284424E-1,-1.1783298E-1,-3.6056083E-2,2.545233E-2,2.3424093E-1,-1.1840691E-1,1.9696794E-1,-1.1978141E-1,-1.2293189E-1,-1.0384164E-1,-1.2118528E-1,-1.2195977E-1,-1.1593855E-2,-1.1131149E-1,-2.993351E-2,-1.1710484E-1,1.8254049E-1,-5.0367612E-2,1.3652268E-1,-9.1874145E-2,1.069749E-1,9.350803E-2,2.5273046E-1],"categories":[],"categories_nodes":[],"categories_segments":[],"categories_sizes":[],"default_left":[0,0,0,0,0,0,0,0,0,0,0,0,0,0,0,0,0,0,0,0,0,0,0,0,0,0,0,0,0,0,0,0,0,0,0,0,0,0,0,0,0,0,0,0,0,0,0,0,0,0,0,0,0,0,0,0,0,0,0,0,0],"id":2,"left_children":[1,3,5,7,9,11,13,15,17,19,21,23,25,27,29,31,33,35,37,39,41,43,45,47,49,51,53,-1,55,57,59,-1,-1,-1,-1,-1,-1,-1,-1,-1,-1,-1,-1,-1,-1,-1,-1,-1,-1,-1,-1,-1,-1,-1,-1,-1,-1,-1,-1,-1,-1],"loss_changes":[8.0080056E5,2.4103438E3,1.8588119E5,6.266577E3,2.4684375E2,1.0204497E4,3.6887375E4,4.8228223E2,1.386252E3,2.5306084E3,2.0375E1,5.405254E2,8.375793E3,7.179785E1,2.009275E4,7.9288086E1,1.2569805E3,3.3861786E1,6.839844E1,1.5481543E2,2.9719928E2,1.25083984E2,7.84375E0,7.977734E1,1.088692E3,5.4612646E2,8.626912E3,0E0,3.2561863E1,1.1998308E3,1.6403938E4,0E0,0E0,0E0,0E0,0E0,0E0,0E0,0E0,0E0,0E0,0E0,0E0,0E0,0E0,0E0,0E0,0E0,0E0,0E0,0E0,0E0,0E0,0E0,0E0,0E0,0E0,0E0,0E0,0E0,0E0],"parents":[2147483647,0,0,1,1,2,2,3,3,4,4,5,5,6,6,7,7,8,8,9,9,10,10,11,11,12,12,13,13,14,14,15,15,16,16,17,17,18,18,19,19,20,20,21,21,22,22,23,23,24,24,25,25,26,26,28,28,29,29,30,30],"right_children":[2,4,6,8,10,12,14,16,18,20,22,24,26,28,30,32,34,36,38,40,42,44,46,48,50,52,54,-1,56,58,60,-1,-1,-1,-1,-1,-1,-1,-1,-1,-1,-1,-1,-1,-1,-1,-1,-1,-1,-1,-1,-1,-1,-1,-1,-1,-1,-1,-1,-1,-1],"split_conditions":[2.00001E0,4E-2,3E0,7E0,9.52381E-2,4.8E1,2.075E1,4E0,2.2375E1,2.54237E-1,2E-1,3.5883334E0,1.9833333E0,2E1,9.05E-1,1.68E1,2.15E1,1.74603E-1,1E0,1.96429E-1,1.4E1,6.76471E-1,3.28125E-1,5E1,5.357143E1,9.05E-1,1.6E1,-1.2428701E-1,8E0,7E0,3E0,-1.2086681E-1,-9.6789956E-2,-1.1686768E-1,1.0434945E-1,-1.0609292E-1,8.3749056E-2,-8.1662305E-2,2.5284424E-1,-1.1783298E-1,-3.6056083E-2,2.545233E-2,2.3424093E-1,-1.1840691E-1,1.9696794E-1,-1.1978141E-1,-1.2293189E-1,-1.0384164E-1,-1.2118528E-1,-1.2195977E-1,-1.1593855E-2,-1.1131149E-1,-2.993351E-2,-1.1710484E-1,1.8254049E-1,-5.0367612E-2,1.3652268E-1,-9.1874145E-2,1.069749E-1,9.350803E-2,2.5273046E-1],"split_indices":[8,8,12,12,8,33,43,12,43,2,8,13,13,43,13,43,43,2,47,2,10,2,2,18,43,13,41,0,12,12,33,0,0,0,0,0,0,0,0,0,0,0,0,0,0,0,0,0,0,0,0,0,0,0,0,0,0,0,0,0,0],"split_type":[0,0,0,0,0,0,0,0,0,0,0,0,0,0,0,0,0,0,0,0,0,0,0,0,0,0,0,0,0,0,0,0,0,0,0,0,0,0,0,0,0,0,0,0,0,0,0,0,0,0,0,0,0,0,0,0,0,0,0,0,0],"sum_hessian":[4.078342E5,2.6454275E5,1.4329145E5,7.5035005E3,2.5703925E5,2.684815E4,1.16443305E5,6.661765E3,8.417351E2,9.644661E3,2.4739458E5,1.7810658E4,9.037493E3,2.9304832E3,1.1351282E5,5.551902E3,1.1098632E3,1.4110945E2,7.006257E2,9.324942E3,3.19719E2,9.958903E3,2.3743569E5,1.4182692E4,3.6279658E3,3.9387114E3,5.0987812E3,2.8890076E3,4.147552E1,2.2378557E3,1.1127497E5,2.8119194E3,2.7399824E3,7.080317E2,4.0183142E2,1.3172171E2,9.387738E0,5.7350516E0,6.948906E2,9.08628E3,2.386618E2,9.8789925E1,2.2092908E2,9.947171E3,1.1732516E1,9.817141E3,2.2761855E5,3.621783E3,1.0560909E4,2.0333679E3,1.594598E3,2.761831E3,1.1768805E3,1.2833231E3,3.8154583E3,2.8932148E1,1.2543373E1,1.8768027E3,3.610531E2,6.8997896E3,1.0437517E5],"tree_param":{"num_deleted":"0","num_feature":"51","num_nodes":"61","size_leaf_vector":"1"}},{"base_weights":[-1.6735187E-1,-1.1757377E0,1.5158864E0,-6.7035854E-1,-1.1944048E0,-6.093429E-1,1.9626422E0,-9.441793E-1,1.8079411E0,-1.0821279E0,-1.2002184E0,-1.0437934E0,1.8874504E-1,-1.1929142E0,2.0349443E0,-1.0399096E0,-9.369888E-2,-1.0913347E0,2.2150798E0,-1.1482214E0,3.42366E-1,-1.1738218E0,-1.2021525E0,-1.1515005E0,-7.503628E-1,-7.2572607E-1,1.0406748E0,-1.2145515E-1,1.8673034E-1,-6.965494E-1,2.080791E0,-1.1808467E-1,-9.008112E-2,1.9891645E-1,-7.690056E-2,-1.1326405E-1,5.2919615E-2,-4.572226E-2,2.2432795E-1,-1.16467945E-1,-8.216469E-2,1.8756817E-1,-5.0373163E-2,-1.1852431E-1,-1.0422182E-1,-4.6394415E-2,-1.20238416E-1,-1.1816925E-1,-1.04392245E-1,-2.0420564E-2,-1.1508602E-1,-1.0845876E-1,-1.8585077E-2,-1.140215E-1,1.7121464E-1,-6.025799E-2,1.3425241E-1,-8.549546E-2,1.2888643E-1,1.1824488E-1,2.1962264E-1],"categories":[],"categories_nodes":[],"categories_segments":[],"categories_sizes":[],"default_left":[0,0,0,0,0,0,0,0,0,0,0,0,0,0,0,0,0,0,0,0,0,0,0,0,0,0,0,0,0,0,0,0,0,0,0,0,0,0,0,0,0,0,0,0,0,0,0,0,0,0,0,0,0,0,0,0,0,0,0,0,0],"id":3,"left_children":[1,3,5,7,9,11,13,15,17,19,21,23,25,27,29,31,33,35,37,39,41,43,45,47,49,51,53,-1,55,57,59,-1,-1,-1,-1,-1,-1,-1,-1,-1,-1,-1,-1,-1,-1,-1,-1,-1,-1,-1,-1,-1,-1,-1,-1,-1,-1,-1,-1,-1,-1],"loss_changes":[6.6455956E5,2.3090312E3,1.3926878E5,5.921866E3,1.52875E2,8.834654E3,2.7655219E4,6.39563E2,1.0273984E3,1.0957578E3,1.003125E1,5.2056055E2,6.9982627E3,8.128882E1,1.4839719E4,1.3737402E2,1.1211202E3,7.8013153E0,5.8428223E1,5.8802734E1,6.7120105E2,2.1863281E1,3.51875E1,3.7958984E1,9.6936475E2,8.391875E2,6.811998E3,0E0,3.9851574E1,6.1647797E2,1.2081875E4,0E0,0E0,0E0,0E0,0E0,0E0,0E0,0E0,0E0,0E0,0E0,0E0,0E0,0E0,0E0,0E0,0E0,0E0,0E0,0E0,0E0,0E0,0E0,0E0,0E0,0E0,0E0,0E0,0E0,0E0],"parents":[2147483647,0,0,1,1,2,2,3,3,4,4,5,5,6,6,7,7,8,8,9,9,10,10,11,11,12,12,13,13,14,14,15,15,16,16,17,17,18,18,19,19,20,20,21,21,22,22,23,23,24,24,25,25,26,26,28,28,29,29,30,30],"right_children":[2,4,6,8,10,12,14,16,18,20,22,24,26,28,30,32,34,36,38,40,42,44,46,48,50,52,54,-1,56,58,60,-1,-1,-1,-1,-1,-1,-1,-1,-1,-1,-1,-1,-1,-1,-1,-1,-1,-1,-1,-1,-1,-1,-1,-1,-1,-1,-1,-1,-1,-1],"split_conditions":[2.00001E0,4.7619E-2,3E0,8E0,1.33333E-1,4.8E1,2.075E1,5E0,3.8E1,2.72727E-1,3.48485E-1,2.5625E0,3.73E0,2E1,8.2E-1,3.1E1,1E0,2.36842E-1,9.05E-1,2E-1,1.9E-1,3.4E1,3E-2,1.14E0,6E0,9.05E-1,1.7E1,-1.2145515E-1,6E0,1E1,6E0,-1.1808467E-1,-9.008112E-2,1.9891645E-1,-7.690056E-2,-1.1326405E-1,5.2919615E-2,-4.572226E-2,2.2432795E-1,-1.16467945E-1,-8.216469E-2,1.8756817E-1,-5.0373163E-2,-1.1852431E-1,-1.0422182E-1,-4.6394415E-2,-1.20238416E-1,-1.1816925E-1,-1.04392245E-1,-2.0420564E-2,-1.1508602E-1,-1.0845876E-1,-1.8585077E-2,-1.140215E-1,1.7121464E-1,-6.025799E-2,1.3425241E-1,-8.549546E-2,1.2888643E-1,1.1824488E-1,2.1962264E-1],"split_indices":[8,8,12,12,8,32,43,12,42,2,2,13,14,43,13,42,27,1,13,2,30,23,29,13,6,13,41,0,12,12,32,0,0,0,0,0,0,0,0,0,0,0,0,0,0,0,0,0,0,0,0,0,0,0,0,0,0,0,0,0,0],"split_type":[0,0,0,0,0,0,0,0,0,0,0,0,0,0,0,0,0,0,0,0,0,0,0,0,0,0,0,0,0,0,0,0,0,0,0,0,0,0,0,0,0,0,0,0,0,0,0,0,0,0,0,0,0,0,0,0,0,0,0,0,0],"sum_hessian":[3.9152478E5,2.4484473E5,1.4668005E5,8.722951E3,2.3612178E5,2.5478375E4,1.2120167E5,7.855623E3,8.673279E2,1.163328E4,2.244885E5,1.6497447E4,8.980928E3,2.7144941E3,1.1848717E5,7.060652E3,7.9497125E2,1.06592384E2,7.607355E2,1.111764E4,5.156409E2,1.5366725E4,2.0912177E5,1.2065678E4,4.43177E3,4.3315454E3,4.6493823E3,2.6726973E3,4.179673E1,1.9556825E3,1.1653149E5,3.5034253E3,3.5572263E3,1.9416333E2,6.008079E2,1.04236565E2,2.3558204E0,7.785007E0,7.529505E2,1.0581794E4,5.3584534E2,1.8292448E2,3.3271643E2,1.4132241E4,1.2344838E3,6.6227234E1,2.0905555E5,9.413711E3,2.651967E3,1.87557E3,2.5562E3,2.6013733E3,1.7301724E3,1.0943422E3,3.55504E3,2.512031E1,1.667642E1,1.8117059E3,1.439766E2,1.3270317E4,1.0326117E5],"tree_param":{"num_deleted":"0","num_feature":"51","num_nodes":"61","size_leaf_vector":"1"}},{"base_weights":[-1.6213247E-1,-1.1510375E0,1.3583814E0,-5.811877E-1,-1.168609E0,-7.6948756E-1,1.6554043E0,-8.975355E-1,1.4963412E0,-9.983536E-1,-1.1753738E0,-1.061384E0,-1.9207623E-2,-1.1730845E0,1.7767081E0,-1.1555841E0,-6.087017E-1,-9.175627E-1,1.8360238E0,-1.1059667E0,1.225198E0,-1.1273613E0,-1.1776594E0,-1.1382723E0,-7.93661E-1,-7.425731E-1,5.3323597E-1,-1.1931262E-1,3.9237734E-2,7.864374E-1,1.8634273E0,-1.1652612E-1,-1.0467714E-1,-1.0872179E-1,7.30451E-2,-1.0323433E-1,1.4694004E-1,-7.737657E-2,1.9454174E-1,-1.1328409E-1,-7.0984446E-2,-1.0105752E-1,1.5443149E-1,-1.1314847E-1,2.127991E-1,-1.1377909E-1,-1.179178E-1,-1.1734644E-1,-1.0390492E-1,-1.02819435E-1,-2.3030767E-2,-1.0695684E-1,2.5033215E-3,-4.6354197E-2,1.4727752E-1,-3.4336623E-2,1.2822819E-1,9.828153E-2,-8.546672E-2,5.899579E-2,1.9120365E-1],"categories":[],"categories_nodes":[],"categories_segments":[],"categories_sizes":[],"default_left":[0,0,0,0,0,0,0,0,0,0,0,0,0,0,0,0,0,0,0,0,0,0,0,0,0,0,0,0,0,0,0,0,0,0,0,0,0,0,0,0,0,0,0,0,0,0,0,0,0,0,0,0,0,0,0,0,0,0,0,0,0],"id":4,"left_children":[1,3,5,7,9,11,13,15,17,19,21,23,25,27,29,31,33,35,37,39,41,43,45,47,49,51,53,-1,55,57,59,-1,-1,-1,-1,-1,-1,-1,-1,-1,-1,-1,-1,-1,-1,-1,-1,-1,-1,-1,-1,-1,-1,-1,-1,-1,-1,-1,-1,-1,-1],"loss_changes":[5.604713E5,2.2608125E3,9.283906E4,4.44279E3,2.5115625E2,3.9405234E3,4.4227562E4,4.3646973E2,7.3425806E2,2.0063994E3,2.178125E1,2.6573926E2,2.0147002E3,1.2885059E2,1.06125E4,2.0410156E0,1.775678E3,3.1895393E1,2.2520288E2,8.428613E1,2.7788147E2,1.312539E2,1.0875E1,3.3913086E1,3.8205725E2,5.479817E2,2.6777124E3,0E0,4.190291E1,3.2087031E3,7.0337188E3,0E0,0E0,0E0,0E0,0E0,0E0,0E0,0E0,0E0,0E0,0E0,0E0,0E0,0E0,0E0,0E0,0E0,0E0,0E0,0E0,0E0,0E0,0E0,0E0,0E0,0E0,0E0,0E0,0E0,0E0],"parents":[2147483647,0,0,1,1,2,2,3,3,4,4,5,5,6,6,7,7,8,8,9,9,10,10,11,11,12,12,13,13,14,14,15,15,16,16,17,17,18,18,19,19,20,20,21,21,22,22,23,23,24,24,25,25,26,26,28,28,29,29,30,30],"right_children":[2,4,6,8,10,12,14,16,18,20,22,24,26,28,30,32,34,36,38,40,42,44,46,48,50,52,54,-1,56,58,60,-1,-1,-1,-1,-1,-1,-1,-1,-1,-1,-1,-1,-1,-1,-1,-1,-1,-1,-1,-1,-1,-1,-1,-1,-1,-1,-1,-1,-1,-1],"split_conditions":[2.00001E0,4E-2,3.02E0,1.27273E-1,9.52381E-2,1.65E0,2.15E1,3.3E1,1.14E0,2.36364E-1,2.04082E-1,9.8E-1,4.5977E-2,2E1,4E0,1.6E1,1.86E0,2.5E-1,3.9E1,1.6E-1,1.345E0,7.36842E-1,3.22581E-1,3.55E-1,4.6E1,5.6E1,2.7E1,-1.1931262E-1,8.44E0,1E0,3E0,-1.1652612E-1,-1.0467714E-1,-1.0872179E-1,7.30451E-2,-1.0323433E-1,1.4694004E-1,-7.737657E-2,1.9454174E-1,-1.1328409E-1,-7.0984446E-2,-1.0105752E-1,1.5443149E-1,-1.1314847E-1,2.127991E-1,-1.1377909E-1,-1.179178E-1,-1.1734644E-1,-1.0390492E-1,-1.02819435E-1,-2.3030767E-2,-1.0695684E-1,2.5033215E-3,-4.6354197E-2,1.4727752E-1,-3.4336623E-2,1.2822819E-1,9.828153E-2,-8.546672E-2,5.899579E-2,1.9120365E-1],"split_indices":[8,8,14,2,8,14,43,42,13,2,8,14,2,43,34,42,13,2,42,2,13,1,2,13,35,35,35,0,13,38,11,0,0,0,0,0,0,0,0,0,0,0,0,0,0,0,0,0,0,0,0,0,0,0,0,0,0,0,0,0,0],"split_type":[0,0,0,0,0,0,0,0,0,0,0,0,0,0,0,0,0,0,0,0,0,0,0,0,0,0,0,0,0,0,0,0,0,0,0,0,0,0,0,0,0,0,0,0,0,0,0,0,0,0,0,0,0,0,0,0,0,0,0,0,0],"sum_hessian":[3.7274006E5,2.258518E5,1.4688825E5,6.7569136E3,2.1909489E5,1.7992018E4,1.2889623E5,5.864489E3,8.924246E2,8.378375E3,2.1071652E5,1.2952451E4,5.039566E3,5.300221E3,1.2359601E5,3.095722E3,2.7687668E3,1.09879684E2,7.82545E2,7.9920854E3,3.862899E2,9.597625E3,2.0111889E5,1.0060027E4,2.8924238E3,2.1820552E3,2.8575107E3,5.21404E3,8.618076E1,9.952758E3,1.1364325E5,2.8339783E3,2.617438E2,2.0400049E3,7.287619E2,1.0537985E2,4.4998326E0,3.1237677E1,7.5130725E2,7.4825845E3,5.0950113E2,4.797865E1,3.3831125E2,9.586135E3,1.1490017E1,7.40729E3,1.937116E5,7.4181533E3,2.6418738E3,2.0416332E3,8.507906E2,1.5299241E3,6.521311E2,1.3867662E3,1.4707444E3,6.645114E1,1.9729624E1,8.889432E3,1.0633263E3,4.178833E3,1.09464414E5],"tree_param":{"num_deleted":"0","num_feature":"51","num_nodes":"61","size_leaf_vector":"1"}},{"base_weights":[-1.5688658E-1,-1.1291243E0,1.2362196E0,-6.2394863E-1,-1.149738E0,-7.9388905E-1,1.4913846E0,-8.937894E-1,1.3745294E0,-1.0262239E0,-1.1559652E0,-1.0331901E0,-1.0245027E-1,-1.1514672E0,1.597278E0,-1.1306928E0,-6.523791E-1,-7.787958E-1,1.6395054E0,-1.0991476E0,3.2075673E-1,-1.1244516E0,-1.1582931E0,-1.1268283E0,-7.9740053E-1,-7.009912E-1,5.290367E-1,-1.17172934E-1,-3.4925283E-3,7.867893E-1,1.7064904E0,-1.1404588E-1,-9.783494E-2,-1.09772146E-1,3.239994E-2,-9.23203E-2,8.9296125E-2,-8.7905996E-2,1.7507403E-1,-1.1167645E-1,-7.904858E-2,1.5079921E-1,-5.4184455E-2,-1.1377578E-1,-9.7435705E-2,-3.5114896E-2,-1.15864456E-1,-1.1537846E-1,-1.045949E-1,-1.0043182E-1,-2.7054707E-2,-1.1056741E-1,5.8288854E-2,-4.594466E-2,1.4081968E-1,-3.862093E-2,9.897982E-2,-1.0297716E-1,1.01868644E-1,2.6763666E-2,1.753932E-1],"categories":[],"categories_nodes":[],"categories_segments":[],"categories_sizes":[],"default_left":[0,0,0,0,0,0,0,0,0,0,0,0,0,0,0,0,0,0,0,0,0,0,0,0,0,0,0,0,0,0,0,0,0,0,0,0,0,0,0,0,0,0,0,0,0,0,0,0,0,0,0,0,0,0,0,0,0,0,0,0,0],"id":5,"left_children":[1,3,5,7,9,11,13,15,17,19,21,23,25,27,29,31,33,35,37,39,41,43,45,47,49,51,53,-1,55,57,59,-1,-1,-1,-1,-1,-1,-1,-1,-1,-1,-1,-1,-1,-1,-1,-1,-1,-1,-1,-1,-1,-1,-1,-1,-1,-1,-1,-1,-1,-1],"loss_changes":[4.7874534E5,2.167125E3,7.526161E4,4.4037725E3,1.526875E2,2.6841572E3,3.612197E4,4.106543E2,5.556378E2,9.442344E2,1.265625E1,2.6518945E2,1.5773169E3,1.156626E2,1.0982844E4,4.283203E0,1.5505546E3,2.6688126E1,2.4399365E2,4.8685547E1,5.070198E2,2.5121094E1,4.990625E1,1.7594727E1,3.7354736E2,1.113745E3,1.7654518E3,0E0,3.3550426E1,6.2093633E3,7.464375E3,0E0,0E0,0E0,0E0,0E0,0E0,0E0,0E0,0E0,0E0,0E0,0E0,0E0,0E0,0E0,0E0,0E0,0E0,0E0,0E0,0E0,0E0,0E0,0E0,0E0,0E0,0E0,0E0,0E0,0E0],"parents":[2147483647,0,0,1,1,2,2,3,3,4,4,5,5,6,6,7,7,8,8,9,9,10,10,11,11,12,12,13,13,14,14,15,15,16,16,17,17,18,18,19,19,20,20,21,21,22,22,23,23,24,24,25,25,26,26,28,28,29,29,30,30],"right_children":[2,4,6,8,10,12,14,16,18,20,22,24,26,28,30,32,34,36,38,40,42,44,46,48,50,52,54,-1,56,58,60,-1,-1,-1,-1,-1,-1,-1,-1,-1,-1,-1,-1,-1,-1,-1,-1,-1,-1,-1,-1,-1,-1,-1,-1,-1,-1,-1,-1,-1,-1],"split_conditions":[2.00001E0,5E-2,2.84E0,1.40625E-1,1.33333E-1,1.65E0,2.15E1,3.7E1,2.84E0,2.72727E-1,3.48485E-1,8.5E-1,3.4E1,2E1,6E0,1.9E1,3.18E0,2.42424E-1,3.8E1,1.96429E-1,5.7E-1,3.4E1,3E-2,5.3E-1,4.7E1,1.8E-1,4.22535E-2,-1.17172934E-1,5E0,5E0,1E0,-1.1404588E-1,-9.783494E-2,-1.09772146E-1,3.239994E-2,-9.23203E-2,8.9296125E-2,-8.7905996E-2,1.7507403E-1,-1.1167645E-1,-7.904858E-2,1.5079921E-1,-5.4184455E-2,-1.1377578E-1,-9.7435705E-2,-3.5114896E-2,-1.15864456E-1,-1.1537846E-1,-1.045949E-1,-1.0043182E-1,-2.7054707E-2,-1.1056741E-1,5.8288854E-2,-4.594466E-2,1.4081968E-1,-3.862093E-2,9.897982E-2,-1.0297716E-1,1.01868644E-1,2.6763666E-2,1.753932E-1],"split_indices":[8,8,14,2,8,14,43,42,14,2,2,14,33,43,33,42,14,2,42,2,28,23,28,14,33,2,2,0,47,47,47,0,0,0,0,0,0,0,0,0,0,0,0,0,0,0,0,0,0,0,0,0,0,0,0,0,0,0,0,0,0],"split_type":[0,0,0,0,0,0,0,0,0,0,0,0,0,0,0,0,0,0,0,0,0,0,0,0,0,0,0,0,0,0,0,0,0,0,0,0,0,0,0,0,0,0,0,0,0,0,0,0,0,0,0,0,0,0,0,0,0,0,0,0,0],"sum_hessian":[3.5346416E5,2.0817834E5,1.4528581E5,8.162882E3,2.0001547E5,1.622183E4,1.29063984E5,7.192307E3,9.70575E2,9.608199E3,1.9040727E5,1.2050692E4,4.171137E3,4.9717104E3,1.2409227E5,3.6281782E3,3.5641287E3,1.0613454E2,8.644404E2,9.114914E3,4.932851E2,1.3131356E4,1.772759E5,8.622641E3,3.4280525E3,2.1413735E3,2.0297637E3,4.88546E3,8.625041E1,1.4736655E4,1.0935562E5,3.4035122E3,2.2466591E2,2.4476094E3,1.1165194E3,9.810771E1,8.026828E0,3.6271954E1,8.281685E2,8.620295E3,4.9461972E2,2.0726672E2,2.8601837E2,1.2055992E4,1.0753635E3,7.7607254E1,1.771983E5,6.4572334E3,2.165407E3,2.4607178E3,9.6733484E2,1.628275E3,5.130986E2,9.557001E2,1.0740636E3,6.270229E1,2.3548128E1,1.6678843E3,1.3068771E4,3.4907627E3,1.0586486E5],"tree_param":{"num_deleted":"0","num_feature":"51","num_nodes":"61","size_leaf_vector":"1"}},{"base_weights":[-1.5200952E-1,-1.110481E0,1.13997E0,-6.0221654E-1,-1.1317462E0,-5.6319237E-1,1.4603041E0,-9.1648215E-1,9.955817E-1,-1.0077573E0,-1.1380483E0,-9.5281833E-1,2.1670075E-1,-1.1546059E-1,1.5077419E0,-1.1088568E0,-7.284733E-1,-1.0561358E0,1.5750351E0,-1.0717119E0,3.7658888E-1,-1.1046586E0,-1.1405084E0,-1.0633094E0,-5.185025E-1,-5.448096E-1,9.166417E-1,3.9039528E-1,1.5911896E0,-1.1220659E-1,-9.701095E-2,-1.0556865E-1,3.447185E-2,-1.07084356E-1,2.5377661E-2,-6.580916E-2,1.6585134E-1,-1.1030152E-1,-7.754308E-2,1.576469E-1,-4.8130948E-2,-1.1080449E-1,-8.092781E-2,-5.955831E-2,-1.1410441E-1,-7.9805344E-2,-1.1337685E-1,3.40051E-2,-9.832314E-2,-9.786745E-2,-7.2917626E-3,-1.0725116E-1,1.3842349E-1,5.973196E-2,-9.325344E-2,-7.285402E-2,1.6160737E-1],"categories":[],"categories_nodes":[],"categories_segments":[],"categories_sizes":[],"default_left":[0,0,0,0,0,0,0,0,0,0,0,0,0,0,0,0,0,0,0,0,0,0,0,0,0,0,0,0,0,0,0,0,0,0,0,0,0,0,0,0,0,0,0,0,0,0,0,0,0,0,0,0,0,0,0,0,0],"id":6,"left_children":[1,3,5,7,9,11,13,15,17,19,21,23,25,-1,27,29,31,33,35,37,39,41,43,45,47,49,51,53,55,-1,-1,-1,-1,-1,-1,-1,-1,-1,-1,-1,-1,-1,-1,-1,-1,-1,-1,-1,-1,-1,-1,-1,-1,-1,-1,-1,-1],"loss_changes":[4.1270828E5,2.0673594E3,7.7443E4,3.8602563E3,1.4234375E2,6.82856E3,1.4821984E4,2.3150586E2,1.504079E3,7.8764453E2,1.309375E1,7.1856445E2,3.9912827E3,0E0,1.0940656E4,4.7265625E0,1.1421199E3,5.6450806E0,1.8486597E2,7.797363E1,4.0570367E2,1.1129883E1,4.6828125E1,2.2234668E2,1.2137137E3,7.342245E2,3.630512E3,2.2332612E3,6.304125E3,0E0,0E0,0E0,0E0,0E0,0E0,0E0,0E0,0E0,0E0,0E0,0E0,0E0,0E0,0E0,0E0,0E0,0E0,0E0,0E0,0E0,0E0,0E0,0E0,0E0,0E0,0E0,0E0],"parents":[2147483647,0,0,1,1,2,2,3,3,4,4,5,5,6,6,7,7,8,8,9,9,10,10,11,11,12,12,14,14,15,15,16,16,17,17,18,18,19,19,20,20,21,21,22,22,23,23,24,24,25,25,26,26,27,27,28,28],"right_children":[2,4,6,8,10,12,14,16,18,20,22,24,26,-1,28,30,32,34,36,38,40,42,44,46,48,50,52,54,56,-1,-1,-1,-1,-1,-1,-1,-1,-1,-1,-1,-1,-1,-1,-1,-1,-1,-1,-1,-1,-1,-1,-1,-1,-1,-1,-1,-1],"split_conditions":[2.00001E0,5E-2,3E0,6E0,1.33333E-1,5.1E1,2E1,2.2375E1,3.8E1,3.04348E-1,3.48485E-1,3.9E1,2.9833333E0,-1.1546059E-1,3E0,1.8E1,2.0213332E0,2.36842E-1,3.6E1,8E0,6.8E-1,8.08511E-1,1E-1,4.4E1,5.6E1,3.8E-1,3.48E1,1E0,6.7E-1,-1.1220659E-1,-9.701095E-2,-1.0556865E-1,3.447185E-2,-1.07084356E-1,2.5377661E-2,-6.580916E-2,1.6585134E-1,-1.1030152E-1,-7.754308E-2,1.576469E-1,-4.8130948E-2,-1.1080449E-1,-8.092781E-2,-5.955831E-2,-1.1410441E-1,-7.9805344E-2,-1.1337685E-1,3.40051E-2,-9.832314E-2,-9.786745E-2,-7.2917626E-3,-1.0725116E-1,1.3842349E-1,5.973196E-2,-9.325344E-2,-7.285402E-2,1.6160737E-1],"split_indices":[8,8,12,12,8,33,43,43,42,2,2,33,13,0,33,42,13,1,3,12,29,9,29,18,18,15,43,38,13,0,0,0,0,0,0,0,0,0,0,0,0,0,0,0,0,0,0,0,0,0,0,0,0,0,0,0,0],"split_type":[0,0,0,0,0,0,0,0,0,0,0,0,0,0,0,0,0,0,0,0,0,0,0,0,0,0,0,0,0,0,0,0,0,0,0,0,0,0,0,0,0,0,0,0,0,0,0,0,0,0,0,0,0,0,0,0,0],"sum_hessian":[3.3327734E5,1.9133395E5,1.419434E5,7.6848994E3,1.8364905E5,2.247055E4,1.1947285E5,6.4221704E3,1.2627289E3,8.890835E3,1.7475822E5,1.4984326E4,7.486225E3,2.1283564E3,1.1734449E5,3.1718103E3,3.2503604E3,2.7790515E2,9.8482367E2,8.498446E3,3.92389E2,1.2022861E4,1.6273536E5,1.1944233E4,3.040092E3,3.5855256E3,3.9006997E3,8.1551045E3,1.0918939E5,2.8896226E3,2.8218768E2,2.4909062E3,7.594541E2,2.7499994E2,2.9052043E0,3.523982E1,9.4958386E2,7.68389E3,8.14556E2,1.6323978E2,2.2914922E2,1.188387E4,1.3899141E2,1.6094052E2,1.6257442E5,2.5094138E3,9.43482E3,1.0677563E3,1.9723356E3,1.8674701E3,1.7180555E3,7.42175E2,3.1585247E3,7.052539E3,1.1025654E3,1.1585598E3,1.0803083E5],"tree_param":{"num_deleted":"0","num_feature":"51","num_nodes":"57","size_leaf_vector":"1"}},{"base_weights":[-1.4817972E-1,-1.0932218E0,1.0637828E0,-5.8199537E-1,-1.1152045E0,-5.302157E-1,1.3565892E0,-8.9027345E-1,9.2377216E-1,-9.808351E-1,-1.1221175E0,-9.6364194E-1,1.3623813E-1,-1.1128939E0,1.3995001E0,-9.7638005E-1,-4.3765318E-1,-9.078037E-1,1.4826263E0,-1.057031E0,1.9517314E-1,-1.0849223E0,-1.1248647E0,-6.88843E-1,-1.1000085E0,-1.0897179E0,3.6802113E-1,-1.1377609E-1,6.8660304E-2,6.600932E-1,1.5262082E0,-7.4031085E-2,-1.05276816E-1,1.02106385E-1,-8.4411815E-2,-9.661379E-2,1.1141888E-1,-5.5020448E-2,1.5761909E-1,-1.0761668E-1,-7.222719E-2,1.281008E-1,-4.2782705E-2,-1.10041775E-1,-9.1423824E-2,-5.9953112E-2,-1.125409E-1,-9.019996E-2,3.811085E-2,-1.1227421E-1,-8.4057026E-2,-1.1514039E-1,-5.792522E-2,-1.3699259E-2,6.0088146E-2,-6.8358436E-2,9.74073E-2,-1.0231518E-1,9.030226E-2,1.983112E-2,1.5522614E-1],"categories":[],"categories_nodes":[],"categories_segments":[],"categories_sizes":[],"default_left":[0,0,0,0,0,0,0,0,0,0,0,0,0,0,0,0,0,0,0,0,0,0,0,0,0,0,0,0,0,0,0,0,0,0,0,0,0,0,0,0,0,0,0,0,0,0,0,0,0,0,0,0,0,0,0,0,0,0,0,0,0],"id":7,"left_children":[1,3,5,7,9,11,13,15,17,19,21,23,25,27,29,31,33,35,37,39,41,43,45,47,49,51,53,-1,55,57,59,-1,-1,-1,-1,-1,-1,-1,-1,-1,-1,-1,-1,-1,-1,-1,-1,-1,-1,-1,-1,-1,-1,-1,-1,-1,-1,-1,-1,-1,-1],"loss_changes":[3.5869772E5,1.9768594E3,6.404158E4,3.36932E3,1.55625E2,6.15108E3,1.2285125E4,2.3434814E2,1.2641218E3,7.40625E2,1.515625E1,4.8275488E2,2.3850725E3,5.8265137E1,1.067375E4,9.047217E1,5.728154E2,3.516916E1,1.8072876E2,4.893457E1,3.4124887E2,2.8253906E1,4.20625E1,9.769308E2,4.9908203E1,4.13584E1,8.301467E2,0E0,2.9110556E1,6.817592E3,3.3648281E3,0E0,0E0,0E0,0E0,0E0,0E0,0E0,0E0,0E0,0E0,0E0,0E0,0E0,0E0,0E0,0E0,0E0,0E0,0E0,0E0,0E0,0E0,0E0,0E0,0E0,0E0,0E0,0E0,0E0,0E0],"parents":[2147483647,0,0,1,1,2,2,3,3,4,4,5,5,6,6,7,7,8,8,9,9,10,10,11,11,12,12,13,13,14,14,15,15,16,16,17,17,18,18,19,19,20,20,21,21,22,22,23,23,24,24,25,25,26,26,28,28,29,29,30,30],"right_children":[2,4,6,8,10,12,14,16,18,20,22,24,26,28,30,32,34,36,38,40,42,44,46,48,50,52,54,-1,56,58,60,-1,-1,-1,-1,-1,-1,-1,-1,-1,-1,-1,-1,-1,-1,-1,-1,-1,-1,-1,-1,-1,-1,-1,-1,-1,-1,-1,-1,-1,-1],"split_conditions":[2.00001E0,5E-2,3E0,6E0,1.33333E-1,4.7E1,2.075E1,4E0,2.5727272E1,2.66667E-1,3.48485E-1,5.2E1,1.5E1,2E1,7E0,1.96078E-2,1E0,2.2449E-1,3.8E1,1.96429E-1,2.5E-1,3.4E1,1E-1,3.5E1,4.3E1,2E1,1E0,-1.1377609E-1,5E0,1.1E1,1E0,-7.4031085E-2,-1.05276816E-1,1.02106385E-1,-8.4411815E-2,-9.661379E-2,1.1141888E-1,-5.5020448E-2,1.5761909E-1,-1.0761668E-1,-7.222719E-2,1.281008E-1,-4.2782705E-2,-1.10041775E-1,-9.1423824E-2,-5.9953112E-2,-1.125409E-1,-9.019996E-2,3.811085E-2,-1.1227421E-1,-8.4057026E-2,-1.1514039E-1,-5.792522E-2,-1.3699259E-2,6.0088146E-2,-6.8358436E-2,9.74073E-2,-1.0231518E-1,9.030226E-2,1.983112E-2,1.5522614E-1],"split_indices":[8,8,12,12,8,33,43,12,43,2,2,18,41,43,33,8,27,2,3,2,28,23,29,33,33,43,48,0,12,12,47,0,0,0,0,0,0,0,0,0,0,0,0,0,0,0,0,0,0,0,0,0,0,0,0,0,0,0,0,0,0],"split_type":[0,0,0,0,0,0,0,0,0,0,0,0,0,0,0,0,0,0,0,0,0,0,0,0,0,0,0,0,0,0,0,0,0,0,0,0,0,0,0,0,0,0,0,0,0,0,0,0,0,0,0,0,0,0,0,0,0,0,0,0,0],"sum_hessian":[3.1317388E5,1.75964E5,1.3720989E5,7.255641E3,1.6870836E5,2.129298E4,1.1591691E5,6.02296E3,1.232681E3,8.261958E3,1.6044639E5,1.2901853E4,8.391128E3,1.9794001E3,1.1393751E5,5.059317E3,9.63643E2,2.880402E2,9.446408E2,7.759317E3,5.026411E2,1.1062604E4,1.493838E5,4.281015E3,8.620838E3,1.3336152E3,7.057512E3,1.9386368E3,4.076338E1,1.6669352E4,9.726816E4,1.2394911E3,3.819826E3,2.0966986E2,7.5397314E2,2.8047083E2,7.5693603E0,4.1350857E1,9.0329E2,7.337663E3,4.216539E2,1.8286581E2,3.197753E2,1.0136883E4,9.257207E2,1.5575424E2,1.4922803E5,3.5699614E3,7.1105347E2,7.923227E3,6.976107E2,1.1887123E3,1.4490298E2,2.227359E3,4.8301533E3,2.2398783E1,1.8364595E1,2.101936E3,1.4567416E4,1.8718418E3,9.539631E4],"tree_param":{"num_deleted":"0","num_feature":"51","num_nodes":"61","size_leaf_vector":"1"}},{"base_weights":[-1.4379431E-1,-1.0775766E0,9.9752796E-1,-5.80869E-1,-1.1016204E0,-5.039077E-1,1.2712556E0,-8.428023E-1,1.0270422E0,-9.7089946E-1,-1.107859E0,-9.8012775E-1,6.800908E-2,5.4786414E-1,1.4028294E0,-9.615334E-1,-3.598351E-1,-9.535815E-1,1.4378401E0,-1.0352634E0,1.5485176E-1,-1.0662315E0,-1.1101025E0,-5.8305895E-1,-1.0587306E0,-6.178435E-1,7.6981467E-1,-1.0417548E0,7.974786E-1,-1.0877385E0,1.4362003E0,-7.03063E-2,-1.037961E-1,-1.0522779E-1,4.953506E-2,-1.0337909E-1,9.477672E-3,-1.1651708E-1,1.4828347E-1,-1.0715039E-1,-8.03008E-2,1.07869856E-1,-6.2086392E-2,-1.06829144E-1,1.8808465E-1,-1.0502674E-1,-1.1112934E-1,-8.2826756E-2,3.2623604E-2,-1.08562745E-1,-8.0376044E-2,-1.0328549E-1,-2.414102E-2,-1.0566466E-1,1.1642393E-1,-1.21924244E-1,-6.779371E-2,9.227135E-2,-5.1477164E-2,-1.1158768E-1,-3.647418E-2,-7.617859E-2,1.4553273E-1],"categories":[],"categories_nodes":[],"categories_segments":[],"categories_sizes":[],"default_left":[0,0,0,0,0,0,0,0,0,0,0,0,0,0,0,0,0,0,0,0,0,0,0,0,0,0,0,0,0,0,0,0,0,0,0,0,0,0,0,0,0,0,0,0,0,0,0,0,0,0,0,0,0,0,0,0,0,0,0,0,0,0,0],"id":8,"left_children":[1,3,5,7,9,11,13,15,17,19,21,23,25,27,29,31,33,35,37,39,41,43,45,47,49,51,53,55,57,59,61,-1,-1,-1,-1,-1,-1,-1,-1,-1,-1,-1,-1,-1,-1,-1,-1,-1,-1,-1,-1,-1,-1,-1,-1,-1,-1,-1,-1,-1,-1,-1,-1],"loss_changes":[3.1266138E5,1.9264219E3,5.4257125E4,3.1394714E3,1.244375E2,5.5445664E3,1.0626906E4,3.6715674E2,8.5111304E2,5.087085E2,1.2515625E1,3.4607422E2,4.4529673E3,6.819833E3,7.853625E3,1.0087793E2,7.503405E2,1.5234161E1,1.0308142E2,5.5021484E1,2.7331476E2,4.7765625E1,8.765625E0,4.1003735E2,6.270996E1,7.307036E2,3.2952075E3,1.4980737E2,2.441502E3,2.5016602E1,3.9204062E3,0E0,0E0,0E0,0E0,0E0,0E0,0E0,0E0,0E0,0E0,0E0,0E0,0E0,0E0,0E0,0E0,0E0,0E0,0E0,0E0,0E0,0E0,0E0,0E0,0E0,0E0,0E0,0E0,0E0,0E0,0E0,0E0],"parents":[2147483647,0,0,1,1,2,2,3,3,4,4,5,5,6,6,7,7,8,8,9,9,10,10,11,11,12,12,13,13,14,14,15,15,16,16,17,17,18,18,19,19,20,20,21,21,22,22,23,23,24,24,25,25,26,26,27,27,28,28,29,29,30,30],"right_children":[2,4,6,8,10,12,14,16,18,20,22,24,26,28,30,32,34,36,38,40,42,44,46,48,50,52,54,56,58,60,62,-1,-1,-1,-1,-1,-1,-1,-1,-1,-1,-1,-1,-1,-1,-1,-1,-1,-1,-1,-1,-1,-1,-1,-1,-1,-1,-1,-1,-1,-1,-1,-1],"split_conditions":[2.00001E0,5.45455E-2,3E0,7E0,1.33333E-1,4.3E1,7E0,4E0,5.5E1,3.06452E-1,2.6E-1,4.8E1,2.9174285E0,1E1,3.9E1,1.96078E-2,5.5E1,3.8E1,1E0,7E0,6.2E-1,5E1,1.4E1,2.8E1,1.4E1,7.45E-1,1.3E1,2.77778E-1,1E0,3.3E1,6E-1,-7.03063E-2,-1.037961E-1,-1.0522779E-1,4.953506E-2,-1.0337909E-1,9.477672E-3,-1.1651708E-1,1.4828347E-1,-1.0715039E-1,-8.03008E-2,1.07869856E-1,-6.2086392E-2,-1.06829144E-1,1.8808465E-1,-1.0502674E-1,-1.1112934E-1,-8.2826756E-2,3.2623604E-2,-1.08562745E-1,-8.0376044E-2,-1.0328549E-1,-2.414102E-2,-1.0566466E-1,1.1642393E-1,-1.21924244E-1,-6.779371E-2,9.227135E-2,-5.1477164E-2,-1.1158768E-1,-3.647418E-2,-7.617859E-2,1.4553273E-1],"split_indices":[8,8,12,12,8,33,33,12,42,1,9,0,13,12,42,8,42,42,47,12,30,12,11,33,23,13,41,1,38,42,13,0,0,0,0,0,0,0,0,0,0,0,0,0,0,0,0,0,0,0,0,0,0,0,0,0,0,0,0,0,0,0,0],"split_type":[0,0,0,0,0,0,0,0,0,0,0,0,0,0,0,0,0,0,0,0,0,0,0,0,0,0,0,0,0,0,0,0,0,0,0,0,0,0,0,0,0,0,0,0,0,0,0,0,0,0,0,0,0,0,0,0,0,0,0,0,0,0,0],"sum_hessian":[2.933711E5,1.6135622E5,1.3201488E5,7.451193E3,1.5390502E5,2.0356377E4,1.116585E5,6.407817E3,1.0433757E3,7.017546E3,1.4688747E5,1.1107085E4,9.249293E3,1.7184334E4,9.4474164E4,5.142588E3,1.265229E3,1.7900392E2,8.6437177E2,6.638098E3,3.7944778E2,7.5360845E3,1.3935139E5,1.8367932E3,9.270292E3,4.6778735E3,4.5714194E3,2.3317683E3,1.4852565E4,1.2486946E3,9.322547E4,1.1759243E3,3.9666636E3,6.990105E2,5.6621844E2,1.662947E2,1.2709231E1,1.4264291E1,8.501075E2,5.7389893E3,8.9910895E2,1.730096E2,2.064382E2,7.5314575E3,4.626809E0,2.736556E3,1.3661483E5,1.4467412E3,3.90052E2,8.38274E3,8.875512E2,2.2240984E3,2.453775E3,8.115763E2,3.759843E3,1.565629E3,7.6613934E2,1.3558869E4,1.2936963E3,1.2013942E3,4.730039E1,8.039195E2,9.2421555E4],"tree_param":{"num_deleted":"0","num_feature":"51","num_nodes":"63","size_leaf_vector":"1"}},{"base_weights":[-1.405452E-1,-1.0631975E0,9.4152856E-1,-5.533519E-1,-1.0882245E0,-2.539066E-1,1.2531272E0,-8.3884233E-1,8.032522E-1,-9.483883E-1,-1.0952605E0,-9.263278E-1,3.6561942E-1,4.848414E-1,1.3631109E0,-1.0695521E0,-6.5153235E-1,-9.8070604E-1,1.2675848E0,-1.0303482E0,3.6646325E-2,-1.0528897E0,-1.0976384E0,-6.0550934E-1,-1.0967492E0,-7.641991E-1,7.764563E-1,3.089486E-1,1.517347E0,-1.1042316E-1,1.3794273E0,-1.0792128E-1,-9.08213E-2,-1.0438986E-1,1.9759314E-2,-1.0081976E-1,3.225616E-2,-9.047389E-2,1.3546813E-1,-1.04651E-1,-6.89841E-2,1.5591201E-1,-6.113265E-2,-1.0546278E-1,1.19617715E-1,-1.037653E-1,-1.099227E-1,4.552014E-3,-8.957366E-2,-1.1042637E-1,-2.1352898E-2,-1.0358901E-1,-3.797244E-2,-1.1217643E-1,1.0408832E-1,-7.588983E-2,4.3719664E-2,1.9385965E-1,-8.0570005E-2,-5.5900975E-3,1.3954532E-1],"categories":[],"categories_nodes":[],"categories_segments":[],"categories_sizes":[],"default_left":[0,0,0,0,0,0,0,0,0,0,0,0,0,0,0,0,0,0,0,0,0,0,0,0,0,0,0,0,0,0,0,0,0,0,0,0,0,0,0,0,0,0,0,0,0,0,0,0,0,0,0,0,0,0,0,0,0,0,0,0,0],"id":9,"left_children":[1,3,5,7,9,11,13,15,17,19,21,23,25,27,29,31,33,35,37,39,41,43,45,47,49,51,53,55,57,-1,59,-1,-1,-1,-1,-1,-1,-1,-1,-1,-1,-1,-1,-1,-1,-1,-1,-1,-1,-1,-1,-1,-1,-1,-1,-1,-1,-1,-1,-1,-1],"loss_changes":[2.7336616E5,1.8852188E3,4.694158E4,2.6797432E3,1.375625E2,1.0855105E4,8.446047E3,2.4628052E2,9.9786615E2,5.4548535E2,1.2359375E1,6.825049E2,6.295906E3,2.2732217E3,3.5218594E3,3.0092773E0,1.0519652E3,9.248169E0,1.8193188E2,3.3603516E1,5.138777E2,2.9216309E1,1.0953125E1,8.195182E2,5.391504E1,3.7744507E2,4.9936475E3,1.4654875E3,1.7846196E3,0E0,1.9982969E3,0E0,0E0,0E0,0E0,0E0,0E0,0E0,0E0,0E0,0E0,0E0,0E0,0E0,0E0,0E0,0E0,0E0,0E0,0E0,0E0,0E0,0E0,0E0,0E0,0E0,0E0,0E0,0E0,0E0,0E0],"parents":[2147483647,0,0,1,1,2,2,3,3,4,4,5,5,6,6,7,7,8,8,9,9,10,10,11,11,12,12,13,13,14,14,15,15,16,16,17,17,18,18,19,19,20,20,21,21,22,22,23,23,24,24,25,25,26,26,27,27,28,28,30,30],"right_children":[2,4,6,8,10,12,14,16,18,20,22,24,26,28,30,32,34,36,38,40,42,44,46,48,50,52,54,56,58,-1,60,-1,-1,-1,-1,-1,-1,-1,-1,-1,-1,-1,-1,-1,-1,-1,-1,-1,-1,-1,-1,-1,-1,-1,-1,-1,-1,-1,-1,-1,-1],"split_conditions":[2.00001E0,5.26316E-2,4E0,6E0,1.2766E-1,4.1E1,5E0,3.3E1,1.6148148E1,1.2E1,2.72727E-1,6E0,1.41E0,7.85714E-1,2E1,1.8E1,1.52375E0,2.30769E-1,9.05E-1,9E0,5.7E-1,5E1,1.6E1,4.9E1,9E0,6E-1,2E1,1.2E1,1E0,-1.1042316E-1,1E0,-1.0792128E-1,-9.08213E-2,-1.0438986E-1,1.9759314E-2,-1.0081976E-1,3.225616E-2,-9.047389E-2,1.3546813E-1,-1.04651E-1,-6.89841E-2,1.5591201E-1,-6.113265E-2,-1.0546278E-1,1.19617715E-1,-1.037653E-1,-1.099227E-1,4.552014E-3,-8.957366E-2,-1.1042637E-1,-2.1352898E-2,-1.0358901E-1,-3.797244E-2,-1.1217643E-1,1.0408832E-1,-7.588983E-2,4.3719664E-2,1.9385965E-1,-8.0570005E-2,-5.5900975E-3,1.3954532E-1],"split_indices":[9,9,12,12,9,34,31,42,43,12,9,6,13,1,43,42,13,1,13,12,28,12,11,0,48,13,43,12,38,0,47,0,0,0,0,0,0,0,0,0,0,0,0,0,0,0,0,0,0,0,0,0,0,0,0,0,0,0,0,0,0],"split_type":[0,0,0,0,0,0,0,0,0,0,0,0,0,0,0,0,0,0,0,0,0,0,0,0,0,0,0,0,0,0,0,0,0,0,0,0,0,0,0,0,0,0,0,0,0,0,0,0,0,0,0,0,0,0,0,0,0,0,0,0,0],"sum_hessian":[2.738083E5,1.4779117E5,1.2601714E5,6.9163413E3,1.4087483E5,2.6055709E4,9.996143E4,5.7141987E3,1.2021426E3,6.75517E3,1.3411966E5,1.2494228E4,1.3561481E4,1.2518611E4,8.744282E4,2.5583584E3,3.1558406E3,2.4804512E2,9.540975E2,6.236238E3,5.1893243E2,7.1503374E3,1.2696933E5,4.336088E3,8.1581396E3,3.6161255E3,9.945355E3,1.0697529E4,1.8210819E3,5.740178E2,8.6868805E4,2.4084553E3,1.4990294E2,2.1582986E3,9.97542E2,2.4314262E2,4.9025035E0,3.641682E1,9.1768066E2,5.951674E3,2.84564E2,1.5450414E2,3.6442828E2,7.1453467E3,4.9909015E0,3.2927283E3,1.236766E5,1.33725E3,2.9988381E3,8.0890674E3,6.90725E1,2.1178452E3,1.4982804E3,1.2156224E3,8.729733E3,1.1464863E3,9.551043E3,1.5416859E3,2.79396E2,9.5918427E2,8.590962E4],"tree_param":{"num_deleted":"0","num_feature":"51","num_nodes":"61","size_leaf_vector":"1"}},{"base_weights":[-1.3825482E-1,-1.0507615E0,8.9322275E-1,-5.233774E-1,-1.0731252E0,-4.7223952E-1,1.1394513E0,-9.924645E-1,2.4612428E-1,-9.535851E-1,-1.0834419E0,-7.614837E-1,4.079247E-1,4.7700185E-1,1.285248E0,-1.050858E0,-5.768787E-1,1.2229047E0,-7.878881E-1,-1.0356817E0,-6.94487E-1,-1.0265977E0,-1.0885832E0,-9.492288E-1,-2.579166E-1,-1.0435101E0,9.6058106E-1,-1.020599E0,6.959414E-1,-1.1004247E-1,1.3138295E0,-1.0842917E-1,-9.548406E-2,1.1991895E-2,-9.266542E-2,-1.3508094E-2,1.5766935E-1,-9.929648E-2,-3.1081328E-2,-1.0710831E-1,-9.403389E-2,-8.810415E-2,8.104753E-2,-1.0435951E-1,-7.423389E-2,-9.756781E-2,-1.0893692E-1,-7.541573E-2,-1.0605329E-1,-8.029042E-2,1.4744143E-2,-1.10274844E-1,-2.915578E-2,-4.583966E-2,1.273471E-1,-1.2117559E-1,-5.256092E-2,6.9159134E-3,9.490888E-2,-8.6808786E-2,1.3295709E-1],"categories":[],"categories_nodes":[],"categories_segments":[],"categories_sizes":[],"default_left":[0,0,0,0,0,0,0,0,0,0,0,0,0,0,0,0,0,0,0,0,0,0,0,0,0,0,0,0,0,0,0,0,0,0,0,0,0,0,0,0,0,0,0,0,0,0,0,0,0,0,0,0,0,0,0,0,0,0,0,0,0],"id":10,"left_children":[1,3,5,7,9,11,13,15,17,19,21,23,25,27,29,31,33,35,37,39,41,43,45,47,49,51,53,55,57,-1,59,-1,-1,-1,-1,-1,-1,-1,-1,-1,-1,-1,-1,-1,-1,-1,-1,-1,-1,-1,-1,-1,-1,-1,-1,-1,-1,-1,-1,-1,-1],"loss_changes":[2.4015461E5,1.5961719E3,4.0268227E4,1.9888971E3,1.59125E2,4.65875E3,9.799672E3,8.246094E1,2.1091628E3,2.1893457E2,3.38125E1,1.3018618E3,3.631998E3,6.0027686E3,5.6721875E3,8.595459E0,1.0343054E2,5.160886E2,9.8953125E1,2.5452148E1,6.9915784E2,4.721875E1,8.671875E0,2.1701758E2,8.2672644E2,5.530359E1,1.4563413E3,2.2032227E2,2.5340596E3,0E0,2.8237656E3,0E0,0E0,0E0,0E0,0E0,0E0,0E0,0E0,0E0,0E0,0E0,0E0,0E0,0E0,0E0,0E0,0E0,0E0,0E0,0E0,0E0,0E0,0E0,0E0,0E0,0E0,0E0,0E0,0E0,0E0],"parents":[2147483647,0,0,1,1,2,2,3,3,4,4,5,5,6,6,7,7,8,8,9,9,10,10,11,11,12,12,13,13,14,14,15,15,16,16,17,17,18,18,19,19,20,20,21,21,22,22,23,23,24,24,25,25,26,26,27,27,28,28,30,30],"right_children":[2,4,6,8,10,12,14,16,18,20,22,24,26,28,30,32,34,36,38,40,42,44,46,48,50,52,54,56,58,-1,60,-1,-1,-1,-1,-1,-1,-1,-1,-1,-1,-1,-1,-1,-1,-1,-1,-1,-1,-1,-1,-1,-1,-1,-1,-1,-1,-1,-1,-1,-1],"split_conditions":[5.36E2,1E0,3E0,2.0213332E0,2E0,5.125E0,8E0,1.345E0,4.1E-1,3.4E1,3.48485E-1,5.4E1,3.75E1,1E1,2E1,5.3499997E-1,7E-2,3E0,2.6E1,1.4E1,6E0,3.4E1,2.3E1,5.4E1,4.9E-1,2E1,3.3E1,2.72727E-1,2E0,-1.1004247E-1,4.7E-1,-1.0842917E-1,-9.548406E-2,1.1991895E-2,-9.266542E-2,-1.3508094E-2,1.5766935E-1,-9.929648E-2,-3.1081328E-2,-1.0710831E-1,-9.403389E-2,-8.810415E-2,8.104753E-2,-1.0435951E-1,-7.423389E-2,-9.756781E-2,-1.0893692E-1,-7.541573E-2,-1.0605329E-1,-8.029042E-2,1.4744143E-2,-1.10274844E-1,-2.915578E-2,-4.583966E-2,1.273471E-1,-1.2117559E-1,-5.256092E-2,6.9159134E-3,9.490888E-2,-8.6808786E-2,1.3295709E-1],"split_indices":[10,27,12,13,27,13,33,13,29,10,2,33,43,12,43,13,29,12,10,10,12,23,45,18,15,43,33,2,33,0,13,0,0,0,0,0,0,0,0,0,0,0,0,0,0,0,0,0,0,0,0,0,0,0,0,0,0,0,0,0,0],"split_type":[0,0,0,0,0,0,0,0,0,0,0,0,0,0,0,0,0,0,0,0,0,0,0,0,0,0,0,0,0,0,0,0,0,0,0,0,0,0,0,0,0,0,0,0,0,0,0,0,0,0,0,0,0,0,0,0,0,0,0,0,0],"sum_hessian":[2.5514772E5,1.353813E5,1.19766414E5,5.5082935E3,1.2987301E5,1.8297355E4,1.01469055E5,3.4219739E3,2.0863198E3,1.03253545E4,1.1954766E5,1.3771746E4,4.5256094E3,1.830443E4,8.3164625E4,2.9990518E3,4.2292197E2,1.0727568E3,1.01356305E3,7.8386426E3,2.4867117E3,9.932434E3,1.0961523E5,1.0031001E4,3.7407456E3,1.2477556E3,3.2778538E3,2.3342078E3,1.5970222E4,9.841131E2,8.2180516E4,2.2168433E3,7.8220856E2,1.4156448E2,2.8135748E2,2.2184464E2,8.509122E2,7.080971E2,3.054659E2,5.708725E3,2.129918E3,2.2128254E3,2.738864E2,9.369509E3,5.629245E2,7.664121E2,1.0884881E5,3.6470151E3,6.3839854E3,1.5951499E3,2.1455957E3,1.1562041E3,9.155151E1,5.921133E2,2.6857405E3,1.6828651E3,6.513426E2,4.5948467E3,1.1375375E4,5.882458E2,8.1592266E4],"tree_param":{"num_deleted":"0","num_feature":"51","num_nodes":"61","size_leaf_vector":"1"}},{"base_weights":[-1.3470173E-1,-1.0384173E0,8.5005397E-1,-5.146351E-1,-1.0658506E0,-2.3641266E-1,1.1351858E0,-7.35741E-1,1.050402E0,-9.079238E-1,-1.0736532E0,-9.220421E-1,3.2383236E-1,3.6806768E-1,1.2587905E0,-8.8730943E-1,-2.3588824E-1,-9.217987E-1,1.2902433E0,-9.9763435E-1,6.0610667E-2,-1.021023E0,-1.0776237E0,-4.2781377E-1,-1.0186688E0,-6.0848117E-1,7.309341E-1,2.0413862E-1,1.3633578E0,-1.0224096E0,1.2733377E0,-5.81049E-2,-9.812511E-2,-1.0003734E-1,4.9264044E-2,-9.882612E-2,4.0191263E-2,-5.94529E-2,1.320318E-1,-1.0329398E-1,-8.335466E-2,8.431028E-2,-3.9044254E-2,-1.0436753E-1,-7.7803E-2,-2.319567E-2,-1.0783098E-1,-7.235593E-2,5.603964E-2,-1.07492976E-1,-6.983221E-2,-9.3998015E-2,-1.7431142E-2,-1.0896093E-1,9.615026E-2,3.188337E-2,-8.118197E-2,-1.2462133E-1,1.7139003E-1,-1.07757665E-1,-2.9760474E-2,-3.0142004E-3,1.2912488E-1],"categories":[],"categories_nodes":[],"categories_segments":[],"categories_sizes":[],"default_left":[0,0,0,0,0,0,0,0,0,0,0,0,0,0,0,0,0,0,0,0,0,0,0,0,0,0,0,0,0,0,0,0,0,0,0,0,0,0,0,0,0,0,0,0,0,0,0,0,0,0,0,0,0,0,0,0,0,0,0,0,0,0,0],"id":11,"left_children":[1,3,5,7,9,11,13,15,17,19,21,23,25,27,29,31,33,35,37,39,41,43,45,47,49,51,53,55,57,59,61,-1,-1,-1,-1,-1,-1,-1,-1,-1,-1,-1,-1,-1,-1,-1,-1,-1,-1,-1,-1,-1,-1,-1,-1,-1,-1,-1,-1,-1,-1,-1,-1],"loss_changes":[2.1150033E5,1.7801875E3,3.523203E4,2.1357212E3,1.4410938E2,9.082138E3,8.541555E3,4.093994E2,3.626455E2,4.8233838E2,2.2359375E1,5.073086E2,4.9391274E3,2.0396268E3,2.5759766E3,1.1877588E2,7.018682E2,7.7377396E0,3.942737E1,2.8568848E1,1.6673672E2,4.2620117E1,6.0273438E1,5.0907422E2,1.5952148E2,5.691288E2,3.8030776E3,1.2512571E3,1.6193262E3,1.9359436E1,1.7999375E3,0E0,0E0,0E0,0E0,0E0,0E0,0E0,0E0,0E0,0E0,0E0,0E0,0E0,0E0,0E0,0E0,0E0,0E0,0E0,0E0,0E0,0E0,0E0,0E0,0E0,0E0,0E0,0E0,0E0,0E0,0E0,0E0],"parents":[2147483647,0,0,1,1,2,2,3,3,4,4,5,5,6,6,7,7,8,8,9,9,10,10,11,11,12,12,13,13,14,14,15,15,16,16,17,17,18,18,19,19,20,20,21,21,22,22,23,23,24,24,25,25,26,26,27,27,28,28,29,29,30,30],"right_children":[2,4,6,8,10,12,14,16,18,20,22,24,26,28,30,32,34,36,38,40,42,44,46,48,50,52,54,56,58,60,62,-1,-1,-1,-1,-1,-1,-1,-1,-1,-1,-1,-1,-1,-1,-1,-1,-1,-1,-1,-1,-1,-1,-1,-1,-1,-1,-1,-1,-1,-1,-1,-1],"split_conditions":[2.00001E0,5.45455E-2,4E0,8E0,1.33333E-1,3.9E1,5E0,4E0,3.8E1,2.5E-1,3.48485E-1,4.5E1,1.7733333E0,7.64706E-1,4E1,1.96078E-2,5.5E1,2.36842E-1,9.05E-1,6E0,1.4E-1,3.4E1,4.4999998E-2,2.5E1,3.2E1,7.45E-1,3.3E1,1E0,1E0,3.4E1,3.1E1,-5.81049E-2,-9.812511E-2,-1.0003734E-1,4.9264044E-2,-9.882612E-2,4.0191263E-2,-5.94529E-2,1.320318E-1,-1.0329398E-1,-8.335466E-2,8.431028E-2,-3.9044254E-2,-1.0436753E-1,-7.7803E-2,-2.319567E-2,-1.0783098E-1,-7.235593E-2,5.603964E-2,-1.07492976E-1,-6.983221E-2,-9.3998015E-2,-1.7431142E-2,-1.0896093E-1,9.615026E-2,3.188337E-2,-8.118197E-2,-1.2462133E-1,1.7139003E-1,-1.07757665E-1,-2.9760474E-2,-3.0142004E-3,1.2912488E-1],"split_indices":[8,8,12,12,8,33,33,12,42,2,2,0,13,2,42,8,42,1,13,12,30,23,28,33,33,13,42,38,33,42,3,0,0,0,0,0,0,0,0,0,0,0,0,0,0,0,0,0,0,0,0,0,0,0,0,0,0,0,0,0,0,0,0],"split_type":[0,0,0,0,0,0,0,0,0,0,0,0,0,0,0,0,0,0,0,0,0,0,0,0,0,0,0,0,0,0,0,0,0,0,0,0,0,0,0,0,0,0,0,0,0,0,0,0,0,0,0,0,0,0,0,0,0,0,0,0,0,0,0],"sum_hessian":[2.376551E5,1.2392678E5,1.1372832E5,6.168676E3,1.177581E5,2.3642205E4,9.008612E4,5.405522E3,7.631537E2,5.549585E3,1.1220852E5,1.063114E4,1.3011064E4,1.2501714E4,7.75844E4,4.1472056E3,1.2583163E3,8.243688E1,6.8071686E2,5.0791025E3,4.7048215E2,7.88955E3,1.0431897E5,1.739474E3,8.891666E3,3.9544312E3,9.056633E3,1.073484E4,1.7668746E3,4.911821E2,7.709322E4,9.751827E2,3.1720232E3,6.13824E2,6.444923E2,7.873698E1,3.6999018E0,1.0396579E1,6.7032025E2,4.1754175E3,9.036852E2,1.7171678E2,2.9876538E2,7.213776E3,6.7577374E2,8.483721E1,1.0423413E5,1.3390107E3,4.0046326E2,7.5613496E3,1.3303165E3,2.2416858E3,1.7127455E3,1.0176504E3,8.038983E3,9.646499E3,1.0883407E3,2.0893414E2,1.5579406E3,4.559887E2,3.51934E1,1.0449686E3,7.604825E4],"tree_param":{"num_deleted":"0","num_feature":"51","num_nodes":"63","size_leaf_vector":"1"}},{"base_weights":[-1.3135666E-1,8.002889E-1,-1.0380886E0,-2.3892337E-1,1.0853075E0,-6.4792025E-1,-1.0594087E0,-9.15218E-1,2.2458635E-1,3.824465E-1,1.2239655E0,-8.865297E-1,9.1622925E-1,-9.523166E-1,-1.0666519E0,-3.3799908E-1,-1.0039963E0,-7.8528655E-1,5.51842E-1,-6.9692713E-1,5.11237E-1,-1.0320647E0,1.2402098E0,-9.814569E-1,-6.186809E-1,-8.130975E-1,1.2115567E0,-9.614867E-1,1.6240861E0,-9.929706E-1,-1.0697243E0,-7.907895E-2,3.0737257E-2,-1.06001176E-1,-7.085807E-2,-9.9144325E-2,-4.4116907E-2,-9.834113E-2,8.594241E-2,-1.14265464E-1,-3.1544115E-2,3.616376E-2,1.3271718E-1,-7.3958755E-2,-1.0706585E-1,-1.0647452E-2,1.2565735E-1,-1.0585004E-1,-9.094038E-2,5.499369E-2,-8.8442944E-2,-9.347379E-2,6.3634284E-2,-6.1348118E-2,1.3358454E-1,-1.01647235E-1,-6.898727E-2,-8.471326E-2,1.8392813E-1,-1.0455624E-1,-8.1055835E-2,-5.3967524E-2,-1.070014E-1],"categories":[],"categories_nodes":[],"categories_segments":[],"categories_sizes":[],"default_left":[1,0,0,0,0,0,0,0,0,0,0,0,0,0,0,0,0,0,0,0,0,0,0,0,0,0,0,0,0,0,0,0,0,0,0,0,0,0,0,0,0,0,0,0,0,0,0,0,0,0,0,0,0,0,0,0,0,0,0,0,0,0,0],"id":12,"left_children":[1,3,5,7,9,11,13,15,17,19,21,23,25,27,29,31,33,35,37,39,41,43,45,47,49,51,53,55,57,59,61,-1,-1,-1,-1,-1,-1,-1,-1,-1,-1,-1,-1,-1,-1,-1,-1,-1,-1,-1,-1,-1,-1,-1,-1,-1,-1,-1,-1,-1,-1,-1,-1],"loss_changes":[1.8652392E5,3.2257477E4,9.301406E2,7.3482017E3,8.328773E3,2.1655764E3,8.127344E1,4.881543E2,4.597266E3,1.9581755E3,2.6172969E3,1.2736328E2,3.9331696E2,1.6058252E2,2.1429688E1,3.720077E2,1.3595703E2,2.4109521E2,4.961783E3,2.5499518E2,1.5354385E3,4.9746094E0,1.5619375E3,1.9656494E1,4.1032782E2,2.0456535E1,1.4974506E2,9.947461E1,1.4450741E1,3.744629E1,1.40625E1,0E0,0E0,0E0,0E0,0E0,0E0,0E0,0E0,0E0,0E0,0E0,0E0,0E0,0E0,0E0,0E0,0E0,0E0,0E0,0E0,0E0,0E0,0E0,0E0,0E0,0E0,0E0,0E0,0E0,0E0,0E0,0E0],"parents":[2147483647,0,0,1,1,2,2,3,3,4,4,5,5,6,6,7,7,8,8,9,9,10,10,11,11,12,12,13,13,14,14,15,15,16,16,17,17,18,18,19,19,20,20,21,21,22,22,23,23,24,24,25,25,26,26,27,27,28,28,29,29,30,30],"right_children":[2,4,6,8,10,12,14,16,18,20,22,24,26,28,30,32,34,36,38,40,42,44,46,48,50,52,54,56,58,60,62,-1,-1,-1,-1,-1,-1,-1,-1,-1,-1,-1,-1,-1,-1,-1,-1,-1,-1,-1,-1,-1,-1,-1,-1,-1,-1,-1,-1,-1,-1,-1,-1],"split_conditions":[1.96078E-2,4E0,7.14286E-2,3.7E1,6E0,1.6E-1,2.04082E-1,4.2E1,1.21E0,1.3E1,2E1,4E0,1.21E0,6.51515E-1,3.28125E-1,8.7E-1,3E1,6E-1,3.6208332E1,2.71429E-1,7.64706E-1,7.1E1,1E0,9.85E-1,1E0,1.1E1,5E1,2.5E-1,2E1,2.6E1,4E-2,-7.907895E-2,3.0737257E-2,-1.06001176E-1,-7.085807E-2,-9.9144325E-2,-4.4116907E-2,-9.834113E-2,8.594241E-2,-1.14265464E-1,-3.1544115E-2,3.616376E-2,1.3271718E-1,-7.3958755E-2,-1.0706585E-1,-1.0647452E-2,1.2565735E-1,-1.0585004E-1,-9.094038E-2,5.499369E-2,-8.8442944E-2,-9.347379E-2,6.3634284E-2,-6.1348118E-2,1.3358454E-1,-1.01647235E-1,-6.898727E-2,-8.471326E-2,1.8392813E-1,-1.0455624E-1,-8.1055835E-2,-5.3967524E-2,-1.070014E-1],"split_indices":[8,12,8,33,33,2,8,0,13,12,43,12,13,2,2,15,33,13,43,1,2,10,47,13,27,12,42,2,0,23,29,0,0,0,0,0,0,0,0,0,0,0,0,0,0,0,0,0,0,0,0,0,0,0,0,0,0,0,0,0,0,0,0],"split_type":[0,0,0,0,0,0,0,0,0,0,0,0,0,0,0,0,0,0,0,0,0,0,0,0,0,0,0,0,0,0,0,0,0,0,0,0,0,0,0,0,0,0,0,0,0,0,0,0,0,0,0,0,0,0,0,0,0,0,0,0,0,0,0],"sum_hessian":[2.20801E5,1.08904414E5,1.11896586E5,2.3439893E4,8.546452E4,5.799223E3,1.0609736E5,9.531606E3,1.3908286E4,1.4082704E4,7.138182E4,5.032026E3,7.671973E2,6.7297676E3,9.936759E4,1.2712163E3,8.26039E3,3.4036418E3,1.0504644E4,1.5007485E3,1.2581956E4,5.0985635E2,7.087196E4,3.7133345E3,1.3186915E3,1.11651955E2,6.5554535E2,6.706524E3,2.3243635E1,3.9906663E3,9.537693E4,7.469403E2,5.24276E2,6.941572E3,1.3188181E3,2.1273132E3,1.2763286E3,1.7529318E3,8.751712E3,6.9117993E2,8.0956854E2,1.0633732E4,1.9482231E3,6.1785797E1,4.4807056E2,8.5076373E2,7.0021195E4,1.7879061E3,1.9254282E3,2.4411906E2,1.0745724E3,1.0333495E2,8.317005E0,4.154656E1,6.139988E2,5.575147E3,1.131377E3,1.6266965E0,2.1616938E1,3.0939185E3,8.967478E2,5.3114075E1,9.532381E4],"tree_param":{"num_deleted":"0","num_feature":"51","num_nodes":"63","size_leaf_vector":"1"}},{"base_weights":[-1.2911291E-1,7.644364E-1,-1.0278108E0,-5.569151E-1,9.4589067E-1,-6.4054257E-1,-1.0509238E0,-9.1419035E-1,-9.9988095E-2,-9.095907E-1,1.0195549E0,-8.5607654E-1,9.439518E-1,-9.254319E-1,-1.0576725E0,-1.0373716E0,-6.9756263E-1,-6.8110913E-1,2.2225961E-1,-1.0613297E0,-1.2896353E-1,2.2252989E-1,1.1262364E0,-9.33337E-1,-4.0062124E-1,-7.121719E-1,1.1805701E0,-9.94773E-1,-4.190667E-1,-9.829674E-1,-1.0614041E0,-1.04295194E-1,-1.9819789E-2,-8.935886E-2,-2.5341326E-2,-9.445754E-2,-2.453026E-2,-5.7430543E-2,7.844884E-2,-9.454783E-2,-1.08001076E-1,-7.152759E-2,3.306341E-2,8.583695E-3,1.11835115E-1,-2.6383393E-3,1.17259406E-1,-1.03664815E-1,-8.4345125E-2,-9.64707E-2,1.652647E-2,-8.7123185E-2,5.246196E-2,-6.026957E-2,1.3111709E-1,-1.01913475E-1,-8.802711E-2,1.00406945E-1,-6.267518E-2,-1.03159204E-1,-7.8243606E-2,-5.2675765E-2,-1.06208146E-1],"categories":[],"categories_nodes":[],"categories_segments":[],"categories_sizes":[],"default_left":[1,0,0,0,0,0,0,0,0,0,0,0,0,0,0,0,0,0,0,0,0,0,0,0,0,0,0,0,0,0,0,0,0,0,0,0,0,0,0,0,0,0,0,0,0,0,0,0,0,0,0,0,0,0,0,0,0,0,0,0,0,0,0],"id":13,"left_children":[1,3,5,7,9,11,13,15,17,19,21,23,25,27,29,31,33,35,37,39,41,43,45,47,49,51,53,55,57,59,61,-1,-1,-1,-1,-1,-1,-1,-1,-1,-1,-1,-1,-1,-1,-1,-1,-1,-1,-1,-1,-1,-1,-1,-1,-1,-1,-1,-1,-1,-1,-1,-1],"loss_changes":[1.6474988E5,2.4666285E4,9.148828E2,2.0278013E3,1.2364359E4,1.9690603E3,8.0765625E1,1.8529688E2,1.0211183E3,4.0905322E2,7.3971953E3,1.7816504E2,2.7145526E2,1.7282227E2,2.4492188E1,2.0594727E1,2.2005566E2,2.2310175E2,1.5714803E3,5.238037E0,1.5203934E2,1.257678E3,4.0998984E3,3.9401855E1,2.3560962E2,1.7563152E1,1.4160345E2,1.1206543E1,1.7678424E2,4.18125E1,3.1023438E1,0E0,0E0,0E0,0E0,0E0,0E0,0E0,0E0,0E0,0E0,0E0,0E0,0E0,0E0,0E0,0E0,0E0,0E0,0E0,0E0,0E0,0E0,0E0,0E0,0E0,0E0,0E0,0E0,0E0,0E0,0E0,0E0],"parents":[2147483647,0,0,1,1,2,2,3,3,4,4,5,5,6,6,7,7,8,8,9,9,10,10,11,11,12,12,13,13,14,14,15,15,16,16,17,17,18,18,19,19,20,20,21,21,22,22,23,23,24,24,25,25,26,26,27,27,28,28,29,29,30,30],"right_children":[2,4,6,8,10,12,14,16,18,20,22,24,26,28,30,32,34,36,38,40,42,44,46,48,50,52,54,56,58,60,62,-1,-1,-1,-1,-1,-1,-1,-1,-1,-1,-1,-1,-1,-1,-1,-1,-1,-1,-1,-1,-1,-1,-1,-1,-1,-1,-1,-1,-1,-1,-1,-1],"split_conditions":[1.96078E-2,3.33E0,7.54717E-2,1.46E0,3.1666666E1,1.74603E-1,1.81818E-1,4.1E-1,4.05405E-2,2E1,4E0,1.11111E-1,1.28E0,2.72727E-1,3.33333E-1,2E1,3E0,5.9E1,2.4E1,2E0,2.1E1,7.64706E-1,1E0,1.4675E0,1.63E0,1.8E1,5.8E1,1.03E1,6.666667E-2,2.7E1,1E-1,-1.04295194E-1,-1.9819789E-2,-8.935886E-2,-2.5341326E-2,-9.445754E-2,-2.453026E-2,-5.7430543E-2,7.844884E-2,-9.454783E-2,-1.08001076E-1,-7.152759E-2,3.306341E-2,8.583695E-3,1.11835115E-1,-2.6383393E-3,1.17259406E-1,-1.03664815E-1,-8.4345125E-2,-9.64707E-2,1.652647E-2,-8.7123185E-2,5.246196E-2,-6.026957E-2,1.3111709E-1,-1.01913475E-1,-8.802711E-2,1.00406945E-1,-6.267518E-2,-1.03159204E-1,-7.8243606E-2,-5.2675765E-2,-1.06208146E-1],"split_indices":[8,14,8,14,43,2,8,13,2,43,33,2,13,2,2,11,11,7,33,26,33,2,47,13,13,11,42,14,28,23,29,0,0,0,0,0,0,0,0,0,0,0,0,0,0,0,0,0,0,0,0,0,0,0,0,0,0,0,0,0,0,0,0],"split_type":[0,0,0,0,0,0,0,0,0,0,0,0,0,0,0,0,0,0,0,0,0,0,0,0,0,0,0,0,0,0,0,0,0,0,0,0,0,0,0,0,0,0,0,0,0,0,0,0,0,0,0,0,0,0,0,0,0,0,0,0,0,0,0],"sum_hessian":[2.0515808E5,1.0287379E5,1.0228429E5,1.2421105E4,9.045269E4,5.762341E3,9.652195E4,6.970113E3,5.4509927E3,3.4534897E3,8.6999195E4,5.0727676E3,6.895735E2,4.9329272E3,9.158902E4,4.4410215E3,2.5290913E3,1.9440688E3,3.5069236E3,2.8911465E3,5.623432E2,1.027053E4,7.6728664E4,4.3361606E3,7.3660693E2,8.5954765E1,6.036187E2,4.3379316E3,5.949955E2,4.3698975E3,8.7219125E4,4.4114434E3,2.9578226E1,1.7539644E3,7.7512683E2,1.210871E3,7.331978E2,1.4510526E3,2.055871E3,4.0862827E2,2.482518E3,2.4686249E2,3.1548074E2,8.911781E3,1.3587488E3,2.966677E3,7.376199E4,2.0125173E3,2.3236433E3,3.685373E2,3.6806967E2,7.642194E1,9.53282E0,4.0943787E1,5.626749E2,3.5703843E3,7.6754724E2,7.528434E1,5.197111E2,3.5137449E3,8.561524E2,1.1133861E2,8.710779E4],"tree_param":{"num_deleted":"0","num_feature":"51","num_nodes":"63","size_leaf_vector":"1"}},{"base_weights":[-1.2611015E-1,7.290253E-1,-1.0187482E0,-4.3788314E-1,9.5364875E-1,-6.077758E-1,-1.042267E0,-6.8180245E-1,2.9619738E-1,3.183226E-1,1.1194711E0,-8.5077125E-1,8.0531126E-1,-9.091198E-1,-1.0505371E0,-8.838893E-1,-2.7349892E-1,-9.920798E-1,7.617325E-1,-9.633261E-1,4.8942786E-1,-1.0032444E0,1.1515298E0,-9.331691E-1,-5.2960587E-1,-2.6001576E-1,1.1840318E0,-9.7434294E-1,-3.7022498E-1,-9.695611E-1,-1.0543139E0,-6.494175E-2,-1.0076173E-1,-8.986592E-2,-1.5432277E-3,-1.0573249E-1,-4.7590002E-2,9.709395E-2,-7.873344E-2,-1.1683928E-1,-4.9553312E-2,-3.3857196E-3,7.234707E-2,-1.03770934E-1,-1.5512236E-3,-1.6567135E-2,1.1830008E-1,-9.8683566E-2,-8.0747716E-2,2.7916718E-2,-7.7687226E-2,-7.931658E-2,3.9393548E-2,-7.033459E-2,1.2765512E-1,-1.0038805E-1,-8.111767E-2,6.662398E-2,-7.788398E-2,-1.02687396E-1,-7.686005E-2,-4.332535E-2,-1.0549046E-1],"categories":[],"categories_nodes":[],"categories_segments":[],"categories_sizes":[],"default_left":[1,0,0,0,0,0,0,0,0,0,0,0,0,0,0,0,0,0,0,0,0,0,0,0,0,0,0,0,0,0,0,0,0,0,0,0,0,0,0,0,0,0,0,0,0,0,0,0,0,0,0,0,0,0,0,0,0,0,0,0,0,0,0],"id":14,"left_children":[1,3,5,7,9,11,13,15,17,19,21,23,25,27,29,31,33,35,37,39,41,43,45,47,49,51,53,55,57,59,61,-1,-1,-1,-1,-1,-1,-1,-1,-1,-1,-1,-1,-1,-1,-1,-1,-1,-1,-1,-1,-1,-1,-1,-1,-1,-1,-1,-1,-1,-1,-1,-1],"loss_changes":[1.4551208E5,2.5519867E4,9.00875E2,2.8143708E3,8.600953E3,1.7350721E3,9.61875E1,9.7317236E2,2.3520479E3,3.706621E3,4.4071484E3,1.13572754E2,2.9953287E2,1.8123291E2,2.4367188E1,2.2826611E2,6.303496E2,3.455945E1,9.342394E2,1.9039941E2,1.8261077E3,3.2794006E1,2.6441953E3,2.2333252E1,1.766786E2,6.841371E1,9.646997E1,2.1394531E1,2.3743701E2,4.1981445E1,2.865625E1,0E0,0E0,0E0,0E0,0E0,0E0,0E0,0E0,0E0,0E0,0E0,0E0,0E0,0E0,0E0,0E0,0E0,0E0,0E0,0E0,0E0,0E0,0E0,0E0,0E0,0E0,0E0,0E0,0E0,0E0,0E0,0E0],"parents":[2147483647,0,0,1,1,2,2,3,3,4,4,5,5,6,6,7,7,8,8,9,9,10,10,11,11,12,12,13,13,14,14,15,15,16,16,17,17,18,18,19,19,20,20,21,21,22,22,23,23,24,24,25,25,26,26,27,27,28,28,29,29,30,30],"right_children":[2,4,6,8,10,12,14,16,18,20,22,24,26,28,30,32,34,36,38,40,42,44,46,48,50,52,54,56,58,60,62,-1,-1,-1,-1,-1,-1,-1,-1,-1,-1,-1,-1,-1,-1,-1,-1,-1,-1,-1,-1,-1,-1,-1,-1,-1,-1,-1,-1,-1,-1,-1,-1],"split_conditions":[1.96078E-2,3E0,7.14286E-2,7.58E0,8E0,1.5493E-1,1.91489E-1,5.4E1,1.6E1,1E1,2.075E1,9.33333E-2,8E0,2.98507E-1,3.28125E-1,5.7E1,2.3E-1,2E1,7E0,2.72727E-1,2E0,1.8777779E1,3.3E1,6.34921E-2,3.125E-2,5.14E0,3.8E1,8E0,3.8E-1,2.6E1,4.4999998E-2,-6.494175E-2,-1.0076173E-1,-8.986592E-2,-1.5432277E-3,-1.0573249E-1,-4.7590002E-2,9.709395E-2,-7.873344E-2,-1.1683928E-1,-4.9553312E-2,-3.3857196E-3,7.234707E-2,-1.03770934E-1,-1.5512236E-3,-1.6567135E-2,1.1830008E-1,-9.8683566E-2,-8.0747716E-2,2.7916718E-2,-7.7687226E-2,-7.931658E-2,3.9393548E-2,-7.033459E-2,1.2765512E-1,-1.0038805E-1,-8.111767E-2,6.662398E-2,-7.788398E-2,-1.02687396E-1,-7.686005E-2,-4.332535E-2,-1.0549046E-1],"split_indices":[8,12,8,14,33,2,8,33,41,12,43,2,12,2,2,20,15,43,6,2,33,43,3,2,8,14,42,12,30,23,28,0,0,0,0,0,0,0,0,0,0,0,0,0,0,0,0,0,0,0,0,0,0,0,0,0,0,0,0,0,0,0,0],"split_type":[0,0,0,0,0,0,0,0,0,0,0,0,0,0,0,0,0,0,0,0,0,0,0,0,0,0,0,0,0,0,0,0,0,0,0,0,0,0,0,0,0,0,0,0,0,0,0,0,0,0,0,0,0,0,0,0,0,0,0,0,0,0,0],"sum_hessian":[1.9062694E5,9.7358734E4,9.3268195E4,1.571566E4,8.164308E4,5.0500186E3,8.821818E4,1.1796129E4,3.9195305E3,1.6899152E4,6.474392E4,4.3093735E3,7.406449E2,5.1654893E3,8.305269E4,7.88991E3,3.9062192E3,1.040107E3,2.8794236E3,1.9898357E3,1.4909317E4,9.628092E2,6.3781113E4,3.4279873E3,8.813862E2,1.9432611E2,5.463188E2,4.60708E3,5.584092E2,3.7124978E3,7.9340195E4,2.7274592E3,5.162451E3,1.1406177E3,2.7656016E3,9.224599E2,1.1764719E2,2.5371462E3,3.4227734E2,1.3823544E3,6.074813E2,4.6078047E3,1.0301513E4,9.3029767E2,3.25115E1,1.4882201E3,6.2292895E4,2.397485E3,1.0305022E3,2.0634201E2,6.7504425E2,1.0693324E2,8.7392876E1,2.5220608E1,5.210982E2,3.8965457E3,7.105343E2,1.577191E2,4.0069006E2,2.885468E3,8.2702985E2,7.6096054E1,7.926409E4],"tree_param":{"num_deleted":"0","num_feature":"51","num_nodes":"63","size_leaf_vector":"1"}},{"base_weights":[-1.234175E-1,6.9567305E-1,-1.0130581E0,-7.265773E-1,8.379837E-1,-6.663592E-1,-1.0381166E0,-8.27992E-1,3.3791146E-1,-8.855643E-1,9.177302E-1,-8.5086787E-1,7.882632E-1,-9.4130135E-1,-1.0451622E0,-1.0376803E0,-5.601087E-1,-3.3630764E-1,9.8650473E-1,-1.049129E0,-1.6812952E-1,2.4106275E-1,1.0370617E0,-9.148403E-1,-4.0658075E-1,-8.040381E-1,1.0147214E0,-9.4870967E-1,2.417135E0,-8.862032E-1,-1.0483483E0,-1.06053725E-1,-7.360316E-2,-9.7250216E-2,-1.830138E-2,-1.0210589E-1,1.3130806E-2,1.2762496E-1,-6.6744976E-2,-9.295508E-2,-1.0713398E-1,-6.696685E-2,2.5069892E-2,3.8434032E-2,-8.21991E-2,-4.7607594E-3,1.1080656E-1,-1.02182046E-1,-8.201514E-2,-9.2738554E-2,1.5724612E-2,-9.866456E-2,-1.1997639E-2,-4.99473E-2,1.1568701E-1,-9.9459484E-2,-8.33414E-2,-7.404993E-2,3.1188247E-1,-9.862553E-2,-4.2048927E-2,3.5190582E-2,-1.04843E-1],"categories":[],"categories_nodes":[],"categories_segments":[],"categories_sizes":[],"default_left":[1,0,0,0,0,0,0,0,0,0,0,0,0,0,0,0,0,0,0,0,0,0,0,0,0,0,0,0,0,0,0,0,0,0,0,0,0,0,0,0,0,0,0,0,0,0,0,0,0,0,0,0,0,0,0,0,0,0,0,0,0,0,0],"id":15,"left_children":[1,3,5,7,9,11,13,15,17,19,21,23,25,27,29,31,33,35,37,39,41,43,45,47,49,51,53,55,57,59,61,-1,-1,-1,-1,-1,-1,-1,-1,-1,-1,-1,-1,-1,-1,-1,-1,-1,-1,-1,-1,-1,-1,-1,-1,-1,-1,-1,-1,-1,-1,-1,-1],"loss_changes":[1.28903664E5,1.8641805E4,7.359922E2,9.047095E2,1.15083125E4,1.5354673E3,5.2960938E1,4.2910107E2,3.1931497E2,4.3435645E2,6.4612812E3,1.4387866E2,2.331164E2,1.3601416E2,3.6398438E1,2.8794922E1,5.224669E2,1.1489528E2,1.7914435E2,7.012207E0,1.4483069E2,1.8276938E3,5.2390312E3,4.4094727E1,1.8825562E2,9.971218E0,1.22071045E2,2.7545898E1,2.9144539E1,6.737097E1,8.625E0,0E0,0E0,0E0,0E0,0E0,0E0,0E0,0E0,0E0,0E0,0E0,0E0,0E0,0E0,0E0,0E0,0E0,0E0,0E0,0E0,0E0,0E0,0E0,0E0,0E0,0E0,0E0,0E0,0E0,0E0,0E0,0E0],"parents":[2147483647,0,0,1,1,2,2,3,3,4,4,5,5,6,6,7,7,8,8,9,9,10,10,11,11,12,12,13,13,14,14,15,15,16,16,17,17,18,18,19,19,20,20,21,21,22,22,23,23,24,24,25,25,26,26,27,27,28,28,29,29,30,30],"right_children":[2,4,6,8,10,12,14,16,18,20,22,24,26,28,30,32,34,36,38,40,42,44,46,48,50,52,54,56,58,60,62,-1,-1,-1,-1,-1,-1,-1,-1,-1,-1,-1,-1,-1,-1,-1,-1,-1,-1,-1,-1,-1,-1,-1,-1,-1,-1,-1,-1,-1,-1,-1,-1],"split_conditions":[2.22222E-2,1.21E0,9.52381E-2,1.4E1,3.4E1,1.96429E-1,2.5641E-1,3.6E1,1E1,2E1,5E0,1.27273E-1,1.14E0,7.36842E-1,2.85714E-1,1.85185E-1,4.7E-1,3.58209E-1,4E0,1.03E2,2.3E1,1E0,3.8961E-2,1.41E0,1.86E0,6E-2,3.5E1,2.71429E-1,2.2E1,4.30556E-1,1.52174E-1,-1.06053725E-1,-7.360316E-2,-9.7250216E-2,-1.830138E-2,-1.0210589E-1,1.3130806E-2,1.2762496E-1,-6.6744976E-2,-9.295508E-2,-1.0713398E-1,-6.696685E-2,2.5069892E-2,3.8434032E-2,-8.21991E-2,-4.7607594E-3,1.1080656E-1,-1.02182046E-1,-8.201514E-2,-9.2738554E-2,1.5724612E-2,-9.866456E-2,-1.1997639E-2,-4.99473E-2,1.1568701E-1,-9.9459484E-2,-8.33414E-2,-7.404993E-2,3.1188247E-1,-9.862553E-2,-4.2048927E-2,3.5190582E-2,-1.04843E-1],"split_indices":[8,13,8,11,43,2,8,33,31,43,33,2,13,1,2,2,13,2,38,10,33,38,2,13,13,15,3,1,11,9,9,0,0,0,0,0,0,0,0,0,0,0,0,0,0,0,0,0,0,0,0,0,0,0,0,0,0,0,0,0,0,0,0],"split_type":[0,0,0,0,0,0,0,0,0,0,0,0,0,0,0,0,0,0,0,0,0,0,0,0,0,0,0,0,0,0,0,0,0,0,0,0,0,0,0,0,0,0,0,0,0,0,0,0,0,0,0,0,0,0,0,0,0,0,0,0,0,0,0],"sum_hessian":[1.7689434E5,9.209909E4,8.479526E4,8.376855E3,8.3722234E4,5.71752E3,7.9077734E4,7.6484077E3,7.284479E2,3.7019727E3,8.0020266E4,5.0742964E3,6.43224E2,5.3735684E3,7.3704164E4,4.288594E3,3.3598135E3,3.574042E2,3.7104367E2,3.014295E3,6.8767773E2,1.1996615E4,6.802365E4,4.434691E3,6.3960535E2,7.977181E1,5.634522E2,5.362457E3,1.1111441E1,1.4537638E3,7.225041E4,3.9841843E3,3.0441E2,1.6040431E3,1.7557704E3,1.4454976E2,2.1285445E2,3.15927E2,5.511669E1,4.7889148E2,2.5354036E3,3.1266663E2,3.750111E2,1.0572324E4,1.4242914E3,4.1793584E3,6.384429E4,2.077607E3,2.3570837E3,3.321525E2,3.0745285E2,6.2614735E1,1.7157082E1,4.8140236E1,5.1531195E2,3.830412E3,1.5320449E3,2.0101893E0,9.101252E0,1.195755E3,2.5800885E2,3.9574718E0,7.2246445E4],"tree_param":{"num_deleted":"0","num_feature":"51","num_nodes":"63","size_leaf_vector":"1"}},{"base_weights":[-1.2040247E-1,-9.8784E-1,6.7639804E-1,-3.6250618E-1,-1.0181631E0,-2.2674349E-1,9.32065E-1,-9.082094E-1,3.969191E-1,-8.499706E-1,-1.0339417E0,-8.7609935E-1,2.1440446E-1,3.1720558E-1,1.1189562E0,-1.0043974E0,-5.543995E-1,1.2340655E0,-6.259263E-1,-9.587442E-1,-5.8323425E-1,-9.5353985E-1,-1.0415158E0,-3.5374317E-1,-9.9719685E-1,-3.4355104E-1,6.7591643E-1,4.515211E-1,-7.8264076E-1,-3.5586208E-1,1.1337758E0,-1.03678636E-1,-8.679123E-2,-1.2384709E-4,-8.373826E-2,-7.146131E-2,1.3683142E-1,-8.573039E-2,-6.5644034E-3,-1.0184511E-1,-8.5881665E-2,-7.639106E-2,7.1116254E-2,-9.892459E-2,-6.2322833E-2,-8.393844E-2,-1.0433739E-1,1.1116157E-2,-9.157301E-2,-1.0101227E-1,3.039556E-4,-6.537186E-2,2.3570826E-2,-1.0408922E-1,8.389347E-2,3.0483013E-2,1.3597873E-1,-8.217884E-2,2.2319129E-1,4.7796883E-2,-2.19079E-1,-1.0121059E-1,1.1437348E-1],"categories":[],"categories_nodes":[],"categories_segments":[],"categories_sizes":[],"default_left":[0,0,0,0,0,0,0,0,0,0,0,0,0,0,0,0,0,0,0,0,0,0,0,0,0,0,0,0,0,0,0,0,0,0,0,0,0,0,0,0,0,0,0,0,0,0,0,0,0,0,0,0,0,0,0,0,0,0,0,0,0,0,0],"id":16,"left_children":[1,3,5,7,9,11,13,15,17,19,21,23,25,27,29,31,33,35,37,39,41,43,45,47,49,51,53,55,57,59,61,-1,-1,-1,-1,-1,-1,-1,-1,-1,-1,-1,-1,-1,-1,-1,-1,-1,-1,-1,-1,-1,-1,-1,-1,-1,-1,-1,-1,-1,-1,-1,-1],"loss_changes":[1.1362641E5,1.492125E3,1.9785621E4,1.509571E3,1.9834375E2,5.4159956E3,7.6736914E3,7.1569336E1,1.3052042E3,1.8640576E2,4.0796875E1,4.8344678E2,2.8993462E3,2.300242E3,1.1197734E3,6.4610596E0,7.1261215E1,2.2022473E2,8.8914734E1,2.642627E1,4.3768146E2,6.920459E1,2.2671875E1,3.7657993E2,8.0270996E1,9.159911E2,1.7254824E3,1.8481931E3,2.0183167E2,7.817709E2,1.0847656E3,0E0,0E0,0E0,0E0,0E0,0E0,0E0,0E0,0E0,0E0,0E0,0E0,0E0,0E0,0E0,0E0,0E0,0E0,0E0,0E0,0E0,0E0,0E0,0E0,0E0,0E0,0E0,0E0,0E0,0E0,0E0,0E0],"parents":[2147483647,0,0,1,1,2,2,3,3,4,4,5,5,6,6,7,7,8,8,9,9,10,10,11,11,12,12,13,13,14,14,15,15,16,16,17,17,18,18,19,19,20,20,21,21,22,22,23,23,24,24,25,25,26,26,27,27,28,28,29,29,30,30],"right_children":[2,4,6,8,10,12,14,16,18,20,22,24,26,28,30,32,34,36,38,40,42,44,46,48,50,52,54,56,58,60,62,-1,-1,-1,-1,-1,-1,-1,-1,-1,-1,-1,-1,-1,-1,-1,-1,-1,-1,-1,-1,-1,-1,-1,-1,-1,-1,-1,-1,-1,-1,-1,-1],"split_conditions":[4.12E2,1E0,4E0,1.9833333E0,2E0,3.7E1,8E0,9.85E-1,3.2E-1,3.5E1,1.8E1,4.5E1,4.57E0,1E0,2.8E1,5.3499997E-1,4.4999998E-2,5.1E1,3.2E1,1E1,6E0,2.2E1,2.3E1,6E0,8E0,3E0,3.3E1,7.85714E-1,2.5E1,2E0,3.7E1,-1.03678636E-1,-8.679123E-2,-1.2384709E-4,-8.373826E-2,-7.146131E-2,1.3683142E-1,-8.573039E-2,-6.5644034E-3,-1.0184511E-1,-8.5881665E-2,-7.639106E-2,7.1116254E-2,-9.892459E-2,-6.2322833E-2,-8.393844E-2,-1.0433739E-1,1.1116157E-2,-9.157301E-2,-1.0101227E-1,3.039556E-4,-6.537186E-2,2.3570826E-2,-1.0408922E-1,8.389347E-2,3.0483013E-2,1.3597873E-1,-8.217884E-2,2.2319129E-1,4.7796883E-2,-2.19079E-1,-1.0121059E-1,1.1437348E-1],"split_indices":[26,27,12,13,27,33,33,13,28,33,11,0,14,38,3,13,28,42,33,33,12,23,45,6,48,11,42,1,38,38,42,0,0,0,0,0,0,0,0,0,0,0,0,0,0,0,0,0,0,0,0,0,0,0,0,0,0,0,0,0,0,0,0],"split_type":[0,0,0,0,0,0,0,0,0,0,0,0,0,0,0,0,0,0,0,0,0,0,0,0,0,0,0,0,0,0,0,0,0,0,0,0,0,0,0,0,0,0,0,0,0,0,0,0,0,0,0,0,0,0,0,0,0,0,0,0,0,0,0],"sum_hessian":[1.6439412E5,7.870817E4,8.568595E4,3.6407346E3,7.506744E4,1.8904848E4,6.678111E4,2.1183486E3,1.522386E3,6.442982E3,6.862445E4,7.647291E3,1.1257557E4,1.5567564E4,5.1213543E4,1.6641012E3,4.5424738E2,8.3707587E2,6.853101E2,4.5748066E3,1.8681753E3,5.919013E3,6.270544E4,1.4399524E3,6.207339E3,5.0964014E3,6.161156E3,1.3873851E4,1.6937139E3,5.0927045E2,5.0704273E4,1.3396068E3,3.2449432E2,1.5407457E2,3.0017282E2,5.3672485E1,7.834034E2,4.8464014E2,2.0067E2,2.8579714E3,1.7168354E3,1.639709E3,2.2846637E2,5.339797E3,5.792166E2,5.752504E2,6.213019E4,7.884816E2,6.5147076E2,6.128136E3,7.9202484E1,3.3190627E3,1.7773385E3,5.338272E2,5.6273286E3,1.1945853E4,1.9279979E3,1.672719E3,2.099488E1,3.506617E2,1.5860875E2,2.3376302E2,5.0470508E4],"tree_param":{"num_deleted":"0","num_feature":"51","num_nodes":"63","size_leaf_vector":"1"}},{"base_weights":[-1.18225604E-1,6.351029E-1,-9.974667E-1,-2.277574E-1,8.9496046E-1,-5.174197E-1,-1.017681E0,-8.596713E-1,1.3928647E-1,2.8824005E-1,1.0906128E0,-8.563956E-1,4.0017286E-1,-8.455719E-1,-1.0314888E0,-1.8233049E-1,-9.5352495E-1,-3.8552243E-1,5.676182E-1,-1.1043106E0,3.7580436E-1,-1.8488453E-1,1.110767E0,-9.60983E-1,-2.7812868E-1,1.133851E0,-7.906117E-1,-9.223812E-1,-6.2377423E-2,-9.426695E-1,-1.0357525E0,-9.792195E-2,2.7491374E-2,-1.0286397E-1,-6.430783E-2,-5.9523553E-2,4.198548E-2,-4.740956E-2,9.1104686E-2,-1.24881625E-1,-5.289566E-2,6.564685E-3,7.192591E-2,-1.893856E-1,9.818523E-2,-3.8644467E-2,1.1222334E-1,-1.0101888E-1,-7.790135E-2,-8.156599E-2,9.6959546E-2,-4.6500903E-2,1.2850443E-1,1.4510944E-2,-9.215476E-2,-1.0096773E-1,-8.705883E-2,9.879794E-2,-4.436807E-2,-9.995819E-2,-3.271598E-2,-9.19718E-2,-1.0374459E-1],"categories":[],"categories_nodes":[],"categories_segments":[],"categories_sizes":[],"default_left":[1,0,0,0,0,0,0,0,0,0,0,0,0,0,0,0,0,0,0,0,0,0,0,0,0,0,0,0,0,0,0,0,0,0,0,0,0,0,0,0,0,0,0,0,0,0,0,0,0,0,0,0,0,0,0,0,0,0,0,0,0,0,0],"id":17,"left_children":[1,3,5,7,9,11,13,15,17,19,21,23,25,27,29,31,33,35,37,39,41,43,45,47,49,51,53,55,57,59,61,-1,-1,-1,-1,-1,-1,-1,-1,-1,-1,-1,-1,-1,-1,-1,-1,-1,-1,-1,-1,-1,-1,-1,-1,-1,-1,-1,-1,-1,-1,-1,-1],"loss_changes":[1.0115892E5,1.8442898E4,6.833281E2,4.415898E3,7.503703E3,8.867123E2,1.5983594E2,4.445288E2,2.7076328E3,1.8801879E3,1.2289805E3,1.2560596E2,6.7310254E2,3.0240576E2,2.2726562E1,3.1092154E2,1.4260693E2,9.1450867E2,2.3730554E3,7.5186646E1,1.5450535E3,1.486131E3,8.0828906E2,1.49904785E1,2.1553084E2,1.1578473E2,3.6144836E1,1.9823242E1,1.807179E2,1.0050635E2,1.078125E1,0E0,0E0,0E0,0E0,0E0,0E0,0E0,0E0,0E0,0E0,0E0,0E0,0E0,0E0,0E0,0E0,0E0,0E0,0E0,0E0,0E0,0E0,0E0,0E0,0E0,0E0,0E0,0E0,0E0,0E0,0E0,0E0],"parents":[2147483647,0,0,1,1,2,2,3,3,4,4,5,5,6,6,7,7,8,8,9,9,10,10,11,11,12,12,13,13,14,14,15,15,16,16,17,17,18,18,19,19,20,20,21,21,22,22,23,23,24,24,25,25,26,26,27,27,28,28,29,29,30,30],"right_children":[2,4,6,8,10,12,14,16,18,20,22,24,26,28,30,32,34,36,38,40,42,44,46,48,50,52,54,56,58,60,62,-1,-1,-1,-1,-1,-1,-1,-1,-1,-1,-1,-1,-1,-1,-1,-1,-1,-1,-1,-1,-1,-1,-1,-1,-1,-1,-1,-1,-1,-1,-1,-1],"split_conditions":[2.27273E-2,4E0,1E0,3.6E1,8E0,6E0,1.52174E-1,3.9E1,3.63636E-2,2.95082E-1,1E0,3.152E0,2E-1,1.2E1,1.6E1,6E1,2.8E1,8.1784E0,2.6E-1,2.53968E-1,3E0,3.4E1,2.6E1,1.28E0,3.5E1,1.4675E0,7E-2,1.14E0,6.57895E-2,2.6E1,1.9333334E1,-9.792195E-2,2.7491374E-2,-1.0286397E-1,-6.430783E-2,-5.9523553E-2,4.198548E-2,-4.740956E-2,9.1104686E-2,-1.24881625E-1,-5.289566E-2,6.564685E-3,7.192591E-2,-1.893856E-1,9.818523E-2,-3.8644467E-2,1.1222334E-1,-1.0101888E-1,-7.790135E-2,-8.156599E-2,9.6959546E-2,-4.6500903E-2,1.2850443E-1,1.4510944E-2,-9.215476E-2,-1.0096773E-1,-8.705883E-2,9.879794E-2,-4.436807E-2,-9.995819E-2,-3.271598E-2,-9.19718E-2,-1.0374459E-1],"split_indices":[9,12,27,33,33,12,9,0,1,1,47,13,9,12,11,41,33,13,15,1,33,33,3,13,10,13,29,13,9,23,46,0,0,0,0,0,0,0,0,0,0,0,0,0,0,0,0,0,0,0,0,0,0,0,0,0,0,0,0,0,0,0,0],"split_type":[0,0,0,0,0,0,0,0,0,0,0,0,0,0,0,0,0,0,0,0,0,0,0,0,0,0,0,0,0,0,0,0,0,0,0,0,0,0,0,0,0,0,0,0,0,0,0,0,0,0,0,0,0,0,0,0,0,0,0,0,0,0,0],"sum_hessian":[1.5272364E5,8.22514E4,7.0472234E4,1.9037443E4,6.3213957E4,2.84868E3,6.7623555E4,6.994374E3,1.2043069E4,1.5414836E4,4.779912E4,2.0802595E3,7.684202E2,5.0269316E3,6.259662E4,8.51567E2,6.142807E3,5.4120776E3,6.630991E3,9.112623E2,1.4503573E4,7.4339886E2,4.7055723E4,1.7610823E3,3.191774E2,4.7549887E2,2.9292136E2,4.577801E3,4.4913116E2,2.877486E3,5.9719137E4,3.1005646E2,5.4151056E2,4.9442085E3,1.1985984E3,4.294174E3,1.117904E3,1.6439768E3,4.9870146E3,7.273988E2,1.8386354E2,7.621843E3,6.8817305E3,3.0136008E2,4.4203876E2,3.5738928E2,4.6698336E4,1.3826519E3,3.7843042E2,2.2331674E2,9.586065E1,4.0900658E1,4.345982E2,3.5943844E1,2.569775E2,1.6977618E3,2.8800388E3,1.19196236E2,3.299349E2,2.6333708E3,2.4411543E2,8.667634E2,5.885237E4],"tree_param":{"num_deleted":"0","num_feature":"51","num_nodes":"63","size_leaf_vector":"1"}},{"base_weights":[-1.1500366E-1,6.1176246E-1,-9.8600644E-1,-4.5305103E-1,7.7191335E-1,-6.017205E-1,-1.0188214E0,-8.894615E-1,-1.1601516E-1,-7.533543E-1,8.4189665E-1,-7.8398836E-1,6.62431E-1,-8.905885E-1,-1.0272548E0,-1.0199147E0,-6.878393E-1,-6.160458E-1,2.0843017E-1,-1.0319228E0,-1.4133891E-1,2.525638E-1,1.0029998E0,-9.8667055E-1,-6.1908555E-1,-1.0387168E0,8.559242E-1,-9.011457E-1,1.8689376E0,-7.990449E-1,-1.0312643E0,-1.02483705E-1,2.5960723E-2,-8.2600094E-2,-1.8040853E-2,-9.0813376E-2,-1.8266685E-2,-3.7772115E-2,7.1944095E-2,-8.632144E-2,-1.0505899E-1,-7.213484E-2,2.3400567E-2,3.8185745E-2,-7.519617E-2,-5.474081E-3,1.0576185E-1,-1.02802135E-1,-9.216963E-2,9.1534644E-2,-7.974102E-2,-1.1522341E-1,-4.4977304E-2,-7.2775684E-2,1.0011715E-1,-9.5912114E-2,-7.0765845E-2,-7.752908E-2,2.250504E-1,-9.1681466E-2,6.324093E-2,-4.939393E-2,-1.031716E-1],"categories":[],"categories_nodes":[],"categories_segments":[],"categories_sizes":[],"default_left":[1,0,0,0,0,0,0,0,0,0,0,0,0,0,0,0,0,0,0,0,0,0,0,0,0,0,0,0,0,0,0,0,0,0,0,0,0,0,0,0,0,0,0,0,0,0,0,0,0,0,0,0,0,0,0,0,0,0,0,0,0,0,0],"id":18,"left_children":[1,3,5,7,9,11,13,15,17,19,21,23,25,27,29,31,33,35,37,39,41,43,45,47,49,51,53,55,57,59,61,-1,-1,-1,-1,-1,-1,-1,-1,-1,-1,-1,-1,-1,-1,-1,-1,-1,-1,-1,-1,-1,-1,-1,-1,-1,-1,-1,-1,-1,-1,-1,-1],"loss_changes":[8.9832484E4,1.3192883E4,8.133906E2,1.487645E3,7.178883E3,1.1712262E3,6.3398438E1,1.1522534E2,9.262091E2,5.029093E2,6.104422E3,1.4782251E2,2.1181503E2,1.08815674E2,5.0226562E1,1.710669E1,1.21453186E2,2.842177E2,1.0374724E3,5.4782715E0,2.0135051E2,1.793239E3,2.9172383E3,4.400757E0,6.715121E2,3.8871536E0,1.3320142E2,4.0422607E1,1.621334E1,1.637284E2,1.2796875E1,0E0,0E0,0E0,0E0,0E0,0E0,0E0,0E0,0E0,0E0,0E0,0E0,0E0,0E0,0E0,0E0,0E0,0E0,0E0,0E0,0E0,0E0,0E0,0E0,0E0,0E0,0E0,0E0,0E0,0E0,0E0,0E0],"parents":[2147483647,0,0,1,1,2,2,3,3,4,4,5,5,6,6,7,7,8,8,9,9,10,10,11,11,12,12,13,13,14,14,15,15,16,16,17,17,18,18,19,19,20,20,21,21,22,22,23,23,24,24,25,25,26,26,27,27,28,28,29,29,30,30],"right_children":[2,4,6,8,10,12,14,16,18,20,22,24,26,28,30,32,34,36,38,40,42,44,46,48,50,52,54,56,58,60,62,-1,-1,-1,-1,-1,-1,-1,-1,-1,-1,-1,-1,-1,-1,-1,-1,-1,-1,-1,-1,-1,-1,-1,-1,-1,-1,-1,-1,-1,-1,-1,-1],"split_conditions":[2E-2,3.48E0,9.63855E-2,6.7E-1,4.16E1,1.90476E-1,2.38095E-1,3E-1,3.92157E-2,2E1,7E0,1.41E0,2E0,6.76471E-1,2.66667E-1,2.5E1,3E0,5.9E1,3.3E1,7.3E1,1.6E1,1E0,1E0,4.1E-1,6.666667E-2,1E0,4.4E1,2.72727E-1,2.4E1,3.4E1,3E-2,-1.02483705E-1,2.5960723E-2,-8.2600094E-2,-1.8040853E-2,-9.0813376E-2,-1.8266685E-2,-3.7772115E-2,7.1944095E-2,-8.632144E-2,-1.0505899E-1,-7.213484E-2,2.3400567E-2,3.8185745E-2,-7.519617E-2,-5.474081E-3,1.0576185E-1,-1.02802135E-1,-9.216963E-2,9.1534644E-2,-7.974102E-2,-1.1522341E-1,-4.4977304E-2,-7.2775684E-2,1.0011715E-1,-9.5912114E-2,-7.0765845E-2,-7.752908E-2,2.250504E-1,-9.1681466E-2,6.324093E-2,-4.939393E-2,-1.031716E-1],"split_indices":[9,14,9,13,43,2,9,13,1,43,33,13,47,2,2,11,47,7,33,10,33,38,47,13,28,47,42,2,23,23,28,0,0,0,0,0,0,0,0,0,0,0,0,0,0,0,0,0,0,0,0,0,0,0,0,0,0,0,0,0,0,0,0],"split_type":[0,0,0,0,0,0,0,0,0,0,0,0,0,0,0,0,0,0,0,0,0,0,0,0,0,0,0,0,0,0,0,0,0,0,0,0,0,0,0,0,0,0,0,0,0,0,0,0,0,0,0,0,0,0,0,0,0,0,0,0,0,0,0],"sum_hessian":[1.4191006E5,7.736058E4,6.4549492E4,1.0113821E4,6.724676E4,5.079881E3,5.946961E4,4.40647E3,5.707351E3,2.9496736E3,6.4297082E4,4.440081E3,6.3979974E2,3.6763657E3,5.5793246E4,2.6729583E3,1.7335118E3,2.2455862E3,3.461765E3,2.0265645E3,9.231092E2,1.3803809E4,5.0493273E4,1.989635E3,2.4504463E3,6.489444E1,5.749053E2,3.6630254E3,1.3340224E1,9.6677E2,5.4826477E4,2.6629133E3,1.0044988E1,1.3620338E3,3.7147797E2,1.3408124E3,9.047738E2,1.6124623E3,1.8493027E3,2.0660083E2,1.8199636E3,3.623139E2,5.607953E2,1.2230257E4,1.5735511E3,2.4793052E3,4.801397E4,1.2067906E3,7.828443E2,2.5469937E2,2.1957468E3,5.360565E1,1.1288783E1,4.7960884E1,5.269444E2,2.8154597E3,8.475657E2,1.5521401E0,1.1788084E1,8.9360974E2,7.316025E1,4.6974754E1,5.47795E4],"tree_param":{"num_deleted":"0","num_feature":"51","num_nodes":"63","size_leaf_vector":"1"}},{"base_weights":[-1.1208074E-1,5.831927E-1,-9.8141855E-1,-1.4808102E-1,8.64754E-1,-6.352595E-1,-1.0175071E0,-9.0567374E-1,2.4317701E-1,2.140644E-1,1.0685924E0,-7.9525506E-1,4.607127E-1,-9.169182E-1,-1.0234668E0,-2.613057E-1,-1.0274897E0,-3.420337E-1,6.444479E-1,9.1409266E-2,1.018846E0,-9.692531E-1,1.0783898E0,-9.6816033E-1,-6.3107157E-1,-7.8182614E-1,8.2402205E-1,-9.2134273E-1,1.8903116E0,-8.939238E-1,-1.0272446E0,2.1072047E-2,-8.6084574E-2,-9.56757E-2,-1.5716913E-1,-8.207503E-2,-1.6517192E-3,-3.5015754E-2,8.979151E-2,-2.2280145E-2,2.8081259E-2,-1.0633699E-1,1.3144243E-1,-5.3593166E-2,-1.035589E-1,-3.0930242E-2,1.0918877E-1,-1.0078781E-1,-9.105896E-2,8.5450195E-2,-7.93412E-2,-8.3873376E-2,6.0580492E-2,-1.6966341E-2,1.2196113E-1,-7.485457E-2,-9.4528265E-2,2.649095E-1,-5.4101717E-2,-9.643715E-2,-4.9149215E-2,-6.855236E-2,-1.027747E-1],"categories":[],"categories_nodes":[],"categories_segments":[],"categories_sizes":[],"default_left":[1,0,0,0,0,0,0,0,0,0,0,0,0,0,0,0,0,0,0,0,0,0,0,0,0,0,0,0,0,0,0,0,0,0,0,0,0,0,0,0,0,0,0,0,0,0,0,0,0,0,0,0,0,0,0,0,0,0,0,0,0,0,0],"id":19,"left_children":[1,3,5,7,9,11,13,15,17,19,21,23,25,27,29,31,33,35,37,39,41,43,45,47,49,51,53,55,57,59,61,-1,-1,-1,-1,-1,-1,-1,-1,-1,-1,-1,-1,-1,-1,-1,-1,-1,-1,-1,-1,-1,-1,-1,-1,-1,-1,-1,-1,-1,-1,-1,-1],"loss_changes":[7.980714E4,1.5105559E4,7.323281E2,6.045714E3,7.0253594E3,9.72187E2,3.0917969E1,5.449658E2,3.1587158E3,1.2472592E3,8.063203E2,1.3668921E2,3.1963928E2,3.8774902E1,2.3625E1,3.130974E2,2.233501E2,8.526592E2,2.0119299E3,6.5269885E2,1.0298861E3,5.0073853E0,7.5222266E2,4.4643555E0,5.996686E2,1.3173126E1,2.1532791E2,1.1609863E1,1.0693674E1,4.0033936E1,7.6640625E0,0E0,0E0,0E0,0E0,0E0,0E0,0E0,0E0,0E0,0E0,0E0,0E0,0E0,0E0,0E0,0E0,0E0,0E0,0E0,0E0,0E0,0E0,0E0,0E0,0E0,0E0,0E0,0E0,0E0,0E0,0E0,0E0],"parents":[2147483647,0,0,1,1,2,2,3,3,4,4,5,5,6,6,7,7,8,8,9,9,10,10,11,11,12,12,13,13,14,14,15,15,16,16,17,17,18,18,19,19,20,20,21,21,22,22,23,23,24,24,25,25,26,26,27,27,28,28,29,29,30,30],"right_children":[2,4,6,8,10,12,14,16,18,20,22,24,26,28,30,32,34,36,38,40,42,44,46,48,50,52,54,56,58,60,62,-1,-1,-1,-1,-1,-1,-1,-1,-1,-1,-1,-1,-1,-1,-1,-1,-1,-1,-1,-1,-1,-1,-1,-1,-1,-1,-1,-1,-1,-1,-1,-1],"split_conditions":[2.22222E-2,5E0,1.33333E-1,3.5E1,6E0,1E1,2.6E-1,4.1E1,3.77358E-2,7.85714E-1,1.8777779E1,1.52375E0,4.8E1,5E1,1.6E1,6E0,4E0,5.8E1,2.2E-1,2E0,1E0,6.4E1,1E0,4.1E-1,6.666667E-2,3.57143E-1,1.4E1,1E0,1.01E2,5.6E1,1.5E-1,2.1072047E-2,-8.6084574E-2,-9.56757E-2,-1.5716913E-1,-8.207503E-2,-1.6517192E-3,-3.5015754E-2,8.979151E-2,-2.2280145E-2,2.8081259E-2,-1.0633699E-1,1.3144243E-1,-5.3593166E-2,-1.035589E-1,-3.0930242E-2,1.0918877E-1,-1.0078781E-1,-9.105896E-2,8.5450195E-2,-7.93412E-2,-8.3873376E-2,6.0580492E-2,-1.6966341E-2,1.2196113E-1,-7.485457E-2,-9.4528265E-2,2.649095E-1,-5.4101717E-2,-9.643715E-2,-4.9149215E-2,-6.855236E-2,-1.027747E-1],"split_indices":[8,12,8,33,33,12,9,0,1,1,43,13,42,12,11,6,12,31,15,33,33,10,47,13,28,1,10,27,0,17,29,0,0,0,0,0,0,0,0,0,0,0,0,0,0,0,0,0,0,0,0,0,0,0,0,0,0,0,0,0,0,0,0],"split_type":[0,0,0,0,0,0,0,0,0,0,0,0,0,0,0,0,0,0,0,0,0,0,0,0,0,0,0,0,0,0,0,0,0,0,0,0,0,0,0,0,0,0,0,0,0,0,0,0,0,0,0,0,0,0,0,0,0,0,0,0,0,0,0],"sum_hessian":[1.3203562E5,7.336253E4,5.867309E4,2.0394422E4,5.2968113E4,5.5411553E3,5.3131934E4,6.945173E3,1.3449249E4,1.2635458E4,4.0332656E4,4.8355166E3,7.056387E2,2.980592E3,5.0151344E4,1.104716E3,5.840457E3,5.4708076E3,7.978441E3,1.0965362E4,1.6700952E3,1.9250926E2,4.0140145E4,2.3528171E3,2.4826995E3,1.5938406E2,5.462546E2,2.9765723E3,4.019626E0,1.4278348E3,4.8723508E4,6.1845013E2,4.8626578E2,5.171101E3,6.693557E2,2.2137153E3,3.2570923E3,1.6202393E3,6.3582017E3,4.123878E3,6.841485E3,2.0728288E2,1.4628124E3,2.676343E1,1.6574583E2,3.864679E2,3.9753676E4,1.3825177E3,9.702995E2,2.4415747E2,2.238542E3,1.534851E2,5.8989577E0,1.5570596E2,3.905486E2,3.661297E2,2.6104426E3,2.9952762E0,1.02435E0,1.2139335E3,2.139013E2,7.3531624E1,4.8649977E4],"tree_param":{"num_deleted":"0","num_feature":"51","num_nodes":"63","size_leaf_vector":"1"}},{"base_weights":[-1.0910949E-1,5.58319E-1,-9.733836E-1,-1.375611E-1,8.3428025E-1,-6.1327934E-1,-1.0120023E0,-8.9950615E-1,2.1254277E-1,1.9612421E-1,1.0496451E0,-7.858586E-1,3.5624084E-1,-8.9918154E-1,-1.0211874E0,-2.865316E-1,-1.009963E0,-1.4342846E-1,8.157022E-1,8.403371E-2,9.902043E-1,-9.585209E-1,1.0595164E0,-9.648915E-1,-6.316742E-1,1.0264283E0,-3.2813334E-1,-9.457903E-1,-4.6311167E-1,7.6260045E-2,-1.0231328E0,2.4097698E-2,-8.94685E-2,-9.4302334E-2,-1.4981261E-1,-7.2121955E-2,1.5876759E-2,-8.339509E-2,9.9567756E-2,1.622463E-2,-6.7972936E-2,-1.1786866E-1,1.2631439E-1,-4.6030704E-2,-1.0364672E-1,-2.8597632E-2,1.0740131E-1,-9.747607E-2,-3.576575E-2,4.5831695E-2,-8.019185E-2,-4.349647E-2,1.1905544E-1,-8.930552E-2,6.725932E-3,-9.766879E-2,-8.379128E-2,-7.114678E-2,6.072399E-1,1.8543202E-1,-6.186707E-2,-3.0111605E-2,-1.0241596E-1],"categories":[],"categories_nodes":[],"categories_segments":[],"categories_sizes":[],"default_left":[1,0,0,0,0,0,0,0,0,0,0,0,0,0,0,0,0,0,0,0,0,0,0,0,0,0,0,0,0,0,0,0,0,0,0,0,0,0,0,0,0,0,0,0,0,0,0,0,0,0,0,0,0,0,0,0,0,0,0,0,0,0,0],"id":20,"left_children":[1,3,5,7,9,11,13,15,17,19,21,23,25,27,29,31,33,35,37,39,41,43,45,47,49,51,53,55,57,59,61,-1,-1,-1,-1,-1,-1,-1,-1,-1,-1,-1,-1,-1,-1,-1,-1,-1,-1,-1,-1,-1,-1,-1,-1,-1,-1,-1,-1,-1,-1,-1,-1],"loss_changes":[7.0832586E4,1.3305801E4,7.434883E2,5.248833E3,6.818414E3,8.678252E2,4.9152344E1,4.1912988E2,2.894788E3,1.1142914E3,7.3633594E2,1.2089844E2,3.6000552E2,7.367114E1,9.546484E1,3.0408832E2,1.7009082E2,1.480619E3,1.4864517E3,6.5554736E2,9.182057E2,6.589615E0,7.203047E2,1.1846313E1,4.397705E2,9.5604126E1,8.689104E1,1.0158447E1,5.7899506E2,9.998337E1,3.275E1,0E0,0E0,0E0,0E0,0E0,0E0,0E0,0E0,0E0,0E0,0E0,0E0,0E0,0E0,0E0,0E0,0E0,0E0,0E0,0E0,0E0,0E0,0E0,0E0,0E0,0E0,0E0,0E0,0E0,0E0,0E0,0E0],"parents":[2147483647,0,0,1,1,2,2,3,3,4,4,5,5,6,6,7,7,8,8,9,9,10,10,11,11,12,12,13,13,14,14,15,15,16,16,17,17,18,18,19,19,20,20,21,21,22,22,23,23,24,24,25,25,26,26,27,27,28,28,29,29,30,30],"right_children":[2,4,6,8,10,12,14,16,18,20,22,24,26,28,30,32,34,36,38,40,42,44,46,48,50,52,54,56,58,60,62,-1,-1,-1,-1,-1,-1,-1,-1,-1,-1,-1,-1,-1,-1,-1,-1,-1,-1,-1,-1,-1,-1,-1,-1,-1,-1,-1,-1,-1,-1,-1,-1],"split_conditions":[2.22222E-2,5E0,1.33333E-1,3.3E1,6E0,9E0,3.48485E-1,3.9E1,3E0,7.64706E-1,2E1,1.345E0,1.52E0,3.4E1,1E-1,1E0,4E0,5.9E-1,1.2E1,1E0,1E0,6.2E1,1E0,3.2E1,1.5E-1,1.345E0,3.8E1,2.2E1,5.09804E-1,2.69231E-1,1.62162E-1,2.4097698E-2,-8.94685E-2,-9.4302334E-2,-1.4981261E-1,-7.2121955E-2,1.5876759E-2,-8.339509E-2,9.9567756E-2,1.622463E-2,-6.7972936E-2,-1.1786866E-1,1.2631439E-1,-4.6030704E-2,-1.0364672E-1,-2.8597632E-2,1.0740131E-1,-9.747607E-2,-3.576575E-2,4.5831695E-2,-8.019185E-2,-4.349647E-2,1.1905544E-1,-8.930552E-2,6.725932E-3,-9.766879E-2,-8.379128E-2,-7.114678E-2,6.072399E-1,1.8543202E-1,-6.186707E-2,-3.0111605E-2,-1.0241596E-1],"split_indices":[8,12,8,33,33,12,2,20,12,2,43,13,29,23,29,38,12,15,41,38,33,10,47,23,29,13,42,23,9,8,9,0,0,0,0,0,0,0,0,0,0,0,0,0,0,0,0,0,0,0,0,0,0,0,0,0,0,0,0,0,0,0,0],"split_type":[0,0,0,0,0,0,0,0,0,0,0,0,0,0,0,0,0,0,0,0,0,0,0,0,0,0,0,0,0,0,0,0,0,0,0,0,0,0,0,0,0,0,0,0,0,0,0,0,0,0,0,0,0,0,0,0,0,0,0,0,0,0,0],"sum_hessian":[1.2279199E5,6.928646E4,5.3505535E4,1.967453E4,4.961193E4,5.183978E3,4.8321555E4,6.1935938E3,1.3480935E4,1.2518821E4,3.709311E4,4.4008037E3,7.8317456E2,3.6452637E3,4.4676293E4,9.46216E2,5.2473774E3,8.478107E3,5.0028276E3,1.0971251E4,1.5475704E3,1.8097223E2,3.6912137E4,2.0338813E3,2.366922E3,3.9543597E2,3.8773862E2,3.2922112E3,3.5305252E2,7.8988556E1,4.4597305E4,5.0702734E2,4.3918866E2,4.6171753E3,6.302024E2,2.9109875E3,5.56712E3,4.9175644E2,4.511071E3,9.952827E3,1.01842413E3,1.7261128E2,1.3749591E3,2.541717E1,1.5555505E2,3.932624E2,3.6518875E4,2.0007583E3,3.312306E1,3.195173E2,2.0474049E3,3.9759933E1,3.5567603E2,1.5912634E2,2.2861227E2,2.5529553E3,7.392558E2,3.4098584E2,1.2066677E1,2.1727613E1,5.7260944E1,6.3741756E1,4.4533562E4],"tree_param":{"num_deleted":"0","num_feature":"51","num_nodes":"63","size_leaf_vector":"1"}},{"base_weights":[-1.0721294E-1,5.2938414E-1,-9.7107047E-1,-1.348833E-1,8.0179894E-1,-6.2970716E-1,-1.0068234E0,-8.864905E-1,1.7251463E-1,2.1889122E-1,1.052302E0,-7.88699E-1,3.8177186E-1,-8.8169605E-1,-1.016954E0,-2.865338E-1,-1.0053345E0,-8.935822E-1,3.564777E-1,1.0883324E-1,9.9207646E-1,-8.942308E-1,1.0619262E0,-9.500104E-1,-6.1629415E-1,1.0025032E0,-1.8555605E-1,-9.295369E-1,-3.6974773E-1,3.1712487E-2,-1.0188655E0,2.0679347E-2,-8.8209346E-2,-9.381792E-2,-1.4770277E-1,-1.02683626E-1,-3.834647E-2,-6.659204E-2,5.8887687E-2,-1.2801798E-2,3.959902E-2,-1.1309874E-1,1.2094247E-1,-4.183363E-2,-1.0227628E-1,-3.8849886E-3,1.073935E-1,-9.7288005E-2,-7.337569E-2,2.2792658E-2,-8.2220905E-2,-2.153815E-2,1.2155532E-1,8.982888E-3,-8.123571E-2,-9.531483E-2,-7.353436E-2,-7.889324E-2,2.3204444E-1,-7.803389E-2,1.3204198E-1,-6.254498E-2,-1.02035664E-1],"categories":[],"categories_nodes":[],"categories_segments":[],"categories_sizes":[],"default_left":[1,0,0,0,0,0,0,0,0,0,0,0,0,0,0,0,0,0,0,0,0,0,0,0,0,0,0,0,0,0,0,0,0,0,0,0,0,0,0,0,0,0,0,0,0,0,0,0,0,0,0,0,0,0,0,0,0,0,0,0,0,0,0],"id":21,"left_children":[1,3,5,7,9,11,13,15,17,19,21,23,25,27,29,31,33,35,37,39,41,43,45,47,49,51,53,55,57,59,61,-1,-1,-1,-1,-1,-1,-1,-1,-1,-1,-1,-1,-1,-1,-1,-1,-1,-1,-1,-1,-1,-1,-1,-1,-1,-1,-1,-1,-1,-1,-1,-1],"loss_changes":[6.277864E4,1.18933125E4,5.904883E2,4.4166196E3,6.8057344E3,7.391698E2,5.467578E1,3.9534863E2,2.661228E3,1.1921638E3,6.116797E2,1.09843506E2,2.20203E2,8.026123E1,8.13125E1,2.7013617E2,1.453081E2,1.3534851E2,2.7498687E3,8.343236E2,8.069319E2,9.416138E0,4.2886328E2,9.422119E0,3.3433838E2,7.771326E1,5.6563423E1,1.309668E1,3.2087772E2,7.925494E1,2.3113281E1,0E0,0E0,0E0,0E0,0E0,0E0,0E0,0E0,0E0,0E0,0E0,0E0,0E0,0E0,0E0,0E0,0E0,0E0,0E0,0E0,0E0,0E0,0E0,0E0,0E0,0E0,0E0,0E0,0E0,0E0,0E0,0E0],"parents":[2147483647,0,0,1,1,2,2,3,3,4,4,5,5,6,6,7,7,8,8,9,9,10,10,11,11,12,12,13,13,14,14,15,15,16,16,17,17,18,18,19,19,20,20,21,21,22,22,23,23,24,24,25,25,26,26,27,27,28,28,29,29,30,30],"right_children":[2,4,6,8,10,12,14,16,18,20,22,24,26,28,30,32,34,36,38,40,42,44,46,48,50,52,54,56,58,60,62,-1,-1,-1,-1,-1,-1,-1,-1,-1,-1,-1,-1,-1,-1,-1,-1,-1,-1,-1,-1,-1,-1,-1,-1,-1,-1,-1,-1,-1,-1,-1,-1],"split_conditions":[2.5641E-2,5E0,1.2766E-1,3.1E1,8E0,1E1,3.48485E-1,3.9E1,4.3333332E1,7.64706E-1,2E1,3.95E0,1E0,3.4E1,6.666667E-2,1E0,4E0,2E1,9.85E-1,3E0,1E0,6.4E1,1E0,1.7E1,3.2E-1,1.68E0,6.7E1,2.6E1,4.30556E-1,2.69E0,2E-1,2.0679347E-2,-8.8209346E-2,-9.381792E-2,-1.4770277E-1,-1.02683626E-1,-3.834647E-2,-6.659204E-2,5.8887687E-2,-1.2801798E-2,3.959902E-2,-1.1309874E-1,1.2094247E-1,-4.183363E-2,-1.0227628E-1,-3.8849886E-3,1.073935E-1,-9.7288005E-2,-7.337569E-2,2.2792658E-2,-8.2220905E-2,-2.153815E-2,1.2155532E-1,8.982888E-3,-8.123571E-2,-9.531483E-2,-7.353436E-2,-7.889324E-2,2.3204444E-1,-7.803389E-2,1.3204198E-1,-6.254498E-2,-1.02035664E-1],"split_indices":[9,12,9,33,33,12,2,20,43,2,43,14,28,23,28,38,12,43,13,33,33,10,47,23,28,13,18,23,9,13,9,0,0,0,0,0,0,0,0,0,0,0,0,0,0,0,0,0,0,0,0,0,0,0,0,0,0,0,0,0,0,0,0],"split_type":[0,0,0,0,0,0,0,0,0,0,0,0,0,0,0,0,0,0,0,0,0,0,0,0,0,0,0,0,0,0,0,0,0,0,0,0,0,0,0,0,0,0,0,0,0,0,0,0,0,0,0,0,0,0,0,0,0,0,0,0,0,0,0],"sum_hessian":[1.14155766E5,6.572318E4,4.8432582E4,1.9114387E4,4.6608793E4,4.5934727E3,4.383911E4,5.5477954E3,1.3566592E4,1.4010033E4,3.2598762E4,3.9697053E3,6.237675E2,3.2900557E3,4.054905E4,9.178168E2,4.6299785E3,1.9959382E3,1.1570653E4,1.2265289E4,1.7447449E3,1.5993468E2,3.2438826E4,2.048503E3,1.9212023E3,2.974983E2,3.2626926E2,3.008134E3,2.8192157E2,7.374899E1,4.0475305E4,5.0235095E2,4.1546582E2,4.0555728E3,5.7440576E2,1.5817396E3,4.1419864E2,2.142638E3,9.428015E3,6.721693E3,5.5435957E3,1.6163977E2,1.5831051E3,3.491506E1,1.25019615E2,3.5004407E2,3.2088781E4,1.8494214E3,1.9908157E2,3.7669623E2,1.5445061E3,4.4292507E1,2.5320578E2,2.272734E2,9.899586E1,2.6785483E3,3.295857E2,2.4452632E2,3.7395256E1,4.5483204E1,2.8265787E1,1.5442668E2,4.0320875E4],"tree_param":{"num_deleted":"0","num_feature":"51","num_nodes":"63","size_leaf_vector":"1"}},{"base_weights":[-1.0413151E-1,5.0738007E-1,-9.629668E-1,-1.3054538E-1,7.758687E-1,-6.012295E-1,-1.0019711E0,-8.4663177E-1,1.6482723E-1,2.0831096E-1,1.0375736E0,-7.710384E-1,2.8675747E-1,-8.701666E-1,-1.0102694E0,-2.4857949E-1,-9.9305254E-1,-1.5710297E-1,7.441897E-1,1.0608615E-1,9.4371665E-1,-9.1334665E-1,1.0471672E0,-9.329461E-1,-6.0440266E-1,-7.4071133E-1,6.396814E-1,-8.757689E-1,1.9755057E0,-7.374176E-1,-1.0137062E0,-9.9744305E-2,6.9323666E-3,-1.0140325E-1,4.4785902E-2,-3.8823094E-2,5.0326575E-2,-7.820091E-2,9.178617E-2,-1.2049369E-1,1.5975738E-2,-9.3507014E-2,1.1555355E-1,-9.442971E-2,5.4905056E-3,-5.906218E-3,1.0605698E-1,-9.526595E-2,-7.4682616E-2,4.118853E-3,-8.03623E-2,-8.477908E-2,3.3385393E-3,-1.38467625E-2,1.1670878E-1,-6.6087E-2,-9.052068E-2,2.54355E-1,-5.675785E-3,-9.1345094E-2,1.8851303E-1,-9.4536E-2,-1.01754606E-1],"categories":[],"categories_nodes":[],"categories_segments":[],"categories_sizes":[],"default_left":[1,0,0,0,0,0,0,0,0,0,0,0,0,0,0,0,0,0,0,0,0,0,0,0,0,0,0,0,0,0,0,0,0,0,0,0,0,0,0,0,0,0,0,0,0,0,0,0,0,0,0,0,0,0,0,0,0,0,0,0,0,0,0],"id":22,"left_children":[1,3,5,7,9,11,13,15,17,19,21,23,25,27,29,31,33,35,37,39,41,43,45,47,49,51,53,55,57,59,61,-1,-1,-1,-1,-1,-1,-1,-1,-1,-1,-1,-1,-1,-1,-1,-1,-1,-1,-1,-1,-1,-1,-1,-1,-1,-1,-1,-1,-1,-1,-1,-1],"loss_changes":[5.5776496E4,1.0624966E4,6.2259766E2,3.8868547E3,6.484547E3,6.488401E2,4.2726562E1,4.696731E2,2.4267502E3,1.0357922E3,5.60209E2,9.68667E1,2.5113611E2,3.949109E1,3.4421875E1,2.516525E2,1.3076465E2,1.276806E3,1.2325327E3,8.515228E2,6.702628E2,4.4496536E0,4.4091797E2,6.002075E0,2.2928766E2,1.4716087E1,2.1154268E2,1.4360962E1,5.8715477E0,2.1877116E2,8.753906E0,0E0,0E0,0E0,0E0,0E0,0E0,0E0,0E0,0E0,0E0,0E0,0E0,0E0,0E0,0E0,0E0,0E0,0E0,0E0,0E0,0E0,0E0,0E0,0E0,0E0,0E0,0E0,0E0,0E0,0E0,0E0,0E0],"parents":[2147483647,0,0,1,1,2,2,3,3,4,4,5,5,6,6,7,7,8,8,9,9,10,10,11,11,12,12,13,13,14,14,15,15,16,16,17,17,18,18,19,19,20,20,21,21,22,22,23,23,24,24,25,25,26,26,27,27,28,28,29,29,30,30],"right_children":[2,4,6,8,10,12,14,16,18,20,22,24,26,28,30,32,34,36,38,40,42,44,46,48,50,52,54,56,58,60,62,-1,-1,-1,-1,-1,-1,-1,-1,-1,-1,-1,-1,-1,-1,-1,-1,-1,-1,-1,-1,-1,-1,-1,-1,-1,-1,-1,-1,-1,-1,-1,-1],"split_conditions":[2.5641E-2,5E0,1.2766E-1,3.2E1,8E0,9E0,2.72727E-1,4.2E1,3E0,7.36842E-1,3.7E1,3.84E0,5.7E1,5E1,1.1E1,5.6454544E1,9E0,8.67E0,1.2E1,2.65625E-1,1E0,2.36842E-1,3E1,1.7E1,4.8E-1,2.77778E-1,1.7E1,1E0,1.06E2,2.6E1,2.1E1,-9.9744305E-2,6.9323666E-3,-1.0140325E-1,4.4785902E-2,-3.8823094E-2,5.0326575E-2,-7.820091E-2,9.178617E-2,-1.2049369E-1,1.5975738E-2,-9.3507014E-2,1.1555355E-1,-9.442971E-2,5.4905056E-3,-5.906218E-3,1.0605698E-1,-9.526595E-2,-7.4682616E-2,4.118853E-3,-8.03623E-2,-8.477908E-2,3.3385393E-3,-1.38467625E-2,1.1670878E-1,-6.6087E-2,-9.052068E-2,2.54355E-1,-5.675785E-3,-9.1345094E-2,1.8851303E-1,-9.4536E-2,-1.01754606E-1],"split_indices":[9,12,9,33,33,12,9,0,12,1,42,14,42,12,11,43,47,14,41,1,33,1,3,23,28,1,10,27,0,23,11,0,0,0,0,0,0,0,0,0,0,0,0,0,0,0,0,0,0,0,0,0,0,0,0,0,0,0,0,0,0,0,0],"split_type":[0,0,0,0,0,0,0,0,0,0,0,0,0,0,0,0,0,0,0,0,0,0,0,0,0,0,0,0,0,0,0,0,0,0,0,0,0,0,0,0,0,0,0,0,0,0,0,0,0,0,0,0,0,0,0,0,0,0,0,0,0,0,0],"sum_hessian":[1.0620104E5,6.203268E4,4.4168363E4,1.8374834E4,4.3657844E4,4.300525E3,3.986784E4,5.365389E3,1.3009445E4,1.3778432E4,2.9879412E4,3.610268E3,6.9025653E2,2.3676099E3,3.750023E4,1.0557795E3,4.30961E3,8.363106E3,4.646339E3,1.209791E4,1.6805216E3,1.457516E2,2.973366E4,1.828779E3,1.7814891E3,1.7619643E2,5.140601E2,2.363649E3,3.9611056E0,4.691537E2,3.7031074E4,3.139919E2,7.417876E2,4.2480537E3,6.155601E1,6.1952065E3,2.1678997E3,4.7434833E2,4.17199E3,4.7494775E2,1.1622963E4,1.6992346E2,1.5105981E3,1.4126091E2,4.490696E0,3.558871E2,2.9377773E4,1.6499066E3,1.7887245E2,4.202912E2,1.3611979E3,1.5470161E2,2.1494804E1,2.0796323E2,3.0609686E2,2.8759946E2,2.0760493E3,2.8991659E0,1.0619396E0,4.4025418E2,2.8899494E1,1.9829729E3,3.50481E4],"tree_param":{"num_deleted":"0","num_feature":"51","num_nodes":"63","size_leaf_vector":"1"}},{"base_weights":[-1.02805555E-1,4.8119763E-1,-9.576136E-1,-3.6185163E-1,6.3843405E-1,-6.0599685E-1,-9.993884E-1,-8.692397E-1,-1.0520255E-1,1.7125337E-1,8.4216213E-1,-7.6358074E-1,1.5708461E-1,-8.79444E-1,-1.0082633E0,-9.757425E-1,-6.086299E-1,-5.2228457E-1,1.8157145E-1,-1.0685354E0,2.7334616E-1,-9.6866363E-1,9.1114426E-1,-9.517154E-1,-6.110804E-1,-4.6908295E-1,5.759242E-1,-9.6539617E-1,-4.018765E-1,2.9516526E-2,-1.0102359E0,-9.870609E-2,3.9755176E-3,-8.8355735E-2,-3.852341E-2,-7.6947615E-2,-2.3534872E-2,-4.391583E-2,5.3280007E-2,1.5240948E-1,-1.1374014E-1,-1.6293835E-3,5.8331676E-2,-1.0045785E-1,-4.705597E-2,9.457172E-2,-1.2108406E-1,-9.777034E-2,-6.777863E-2,1.6293518E-2,-7.749495E-2,5.3672172E-2,-6.506961E-2,-1.002015E-1,8.2324676E-2,-1.0089206E-1,-9.38605E-2,-7.532277E-2,2.4333613E-1,-7.799681E-2,1.0774032E-1,-7.834964E-2,-1.0130016E-1],"categories":[],"categories_nodes":[],"categories_segments":[],"categories_sizes":[],"default_left":[1,0,0,0,0,0,0,0,0,0,0,0,0,0,0,0,0,0,0,0,0,0,0,0,0,0,0,0,0,0,0,0,0,0,0,0,0,0,0,0,0,0,0,0,0,0,0,0,0,0,0,0,0,0,0,0,0,0,0,0,0,0,0],"id":23,"left_children":[1,3,5,7,9,11,13,15,17,19,21,23,25,27,29,31,33,35,37,39,41,43,45,47,49,51,53,55,57,59,61,-1,-1,-1,-1,-1,-1,-1,-1,-1,-1,-1,-1,-1,-1,-1,-1,-1,-1,-1,-1,-1,-1,-1,-1,-1,-1,-1,-1,-1,-1,-1,-1],"loss_changes":[4.9429555E4,7.79808E3,5.8973047E2,1.2041334E3,4.718709E3,5.1362476E2,3.7351562E1,8.5621826E1,7.347698E2,1.9060466E3,4.313408E3,1.0097095E2,1.9218237E2,1.0151428E2,6.8484375E1,2.5364746E1,5.516916E1,1.7734119E2,7.93927E2,2.0629663E2,1.2490073E3,2.219983E1,2.4410176E3,1.0605347E1,2.4843872E2,5.402385E1,1.7211569E2,1.5057373E0,3.8073914E2,5.547878E1,2.0132812E1,0E0,0E0,0E0,0E0,0E0,0E0,0E0,0E0,0E0,0E0,0E0,0E0,0E0,0E0,0E0,0E0,0E0,0E0,0E0,0E0,0E0,0E0,0E0,0E0,0E0,0E0,0E0,0E0,0E0,0E0,0E0,0E0],"parents":[2147483647,0,0,1,1,2,2,3,3,4,4,5,5,6,6,7,7,8,8,9,9,10,10,11,11,12,12,13,13,14,14,15,15,16,16,17,17,18,18,19,19,20,20,21,21,22,22,23,23,24,24,25,25,26,26,27,27,28,28,29,29,30,30],"right_children":[2,4,6,8,10,12,14,16,18,20,22,24,26,28,30,32,34,36,38,40,42,44,46,48,50,52,54,56,58,60,62,-1,-1,-1,-1,-1,-1,-1,-1,-1,-1,-1,-1,-1,-1,-1,-1,-1,-1,-1,-1,-1,-1,-1,-1,-1,-1,-1,-1,-1,-1,-1,-1],"split_conditions":[2.77778E-2,3.84E0,1.5625E-1,6E-1,1E1,2.09677E-1,1.8E1,3.55E-1,3E0,2.83333E-1,3.7E1,1.41E0,1.4E1,2.3E1,1E-1,2E1,4.25532E-2,5.5E1,2.3E1,1.7E1,3E0,1.9E1,6E0,1.6E1,3.2E-1,4.4999998E-2,2E0,1.8175E0,4.7E1,2.69E0,2.8E1,-9.870609E-2,3.9755176E-3,-8.8355735E-2,-3.852341E-2,-7.6947615E-2,-2.3534872E-2,-4.391583E-2,5.3280007E-2,1.5240948E-1,-1.1374014E-1,-1.6293835E-3,5.8331676E-2,-1.0045785E-1,-4.705597E-2,9.457172E-2,-1.2108406E-1,-9.777034E-2,-6.777863E-2,1.6293518E-2,-7.749495E-2,5.3672172E-2,-6.506961E-2,-1.002015E-1,8.2324676E-2,-1.0089206E-1,-9.38605E-2,-7.532277E-2,2.4333613E-1,-7.799681E-2,1.0774032E-1,-7.834964E-2,-1.0130016E-1],"split_indices":[8,14,8,13,33,1,11,13,11,1,42,13,10,23,29,11,1,33,33,0,33,42,38,23,28,28,47,13,3,13,45,0,0,0,0,0,0,0,0,0,0,0,0,0,0,0,0,0,0,0,0,0,0,0,0,0,0,0,0,0,0,0,0],"split_type":[0,0,0,0,0,0,0,0,0,0,0,0,0,0,0,0,0,0,0,0,0,0,0,0,0,0,0,0,0,0,0,0,0,0,0,0,0,0,0,0,0,0,0,0,0,0,0,0,0,0,0,0,0,0,0,0,0,0,0,0,0,0,0],"sum_hessian":[9.901352E4,5.8824902E4,4.018862E4,9.246572E3,4.957833E4,4.2693335E3,3.591929E4,3.1052307E3,6.1413413E3,1.5055508E4,3.452282E4,3.5385808E3,7.307527E2,2.4815208E3,3.3437766E4,2.202426E3,9.028046E2,2.5018489E3,3.6394924E3,1.1447301E3,1.3910778E4,1.2663827E3,3.3256438E4,1.5818558E3,1.956725E3,2.928381E2,4.3791458E2,2.1021555E3,3.793653E2,6.3413277E1,3.337435E4,2.178177E3,2.424901E1,4.0339795E2,4.994067E2,1.3431022E3,1.1587468E3,1.315083E3,2.3244094E3,2.9073E1,1.1156571E3,7.1917104E3,6.7190674E3,1.1802653E3,8.611744E1,3.2723832E4,5.32606E2,1.4424408E3,1.3941513E2,3.4188388E2,1.6148411E3,4.4489918E1,2.4834818E2,5.8923866E1,3.7899072E2,7.869811E2,1.3151743E3,3.381901E2,4.1175198E1,3.5920574E1,2.7492702E1,4.055938E2,3.2968758E4],"tree_param":{"num_deleted":"0","num_feature":"51","num_nodes":"63","size_leaf_vector":"1"}},{"base_weights":[-9.9208884E-2,4.5740637E-1,-9.4933134E-1,-3.1761947E-1,6.1661655E-1,-5.614671E-1,-9.9194443E-1,-8.080593E-1,7.762984E-2,1.3664743E-1,8.778872E-1,-7.405064E-1,2.8201076E-1,-8.308982E-1,-1.0053754E0,-5.185169E-1,-9.945019E-1,-1.0113491E0,2.7492166E-1,-1.0386293E0,2.7152398E-1,9.4666785E-1,-6.809684E-1,-9.34752E-1,-5.9092605E-1,-5.9022504E-1,5.629633E-1,-9.2618394E-1,-4.8804927E-1,-2.3254152E-1,-1.0090224E0,-6.680115E-2,4.928834E-2,-1.0337738E-1,7.2844788E-3,-1.01376615E-1,3.044569E-2,-7.1569934E-2,4.8365705E-2,1.7770438E-1,-1.09636165E-1,3.666591E-2,-5.8629435E-2,-3.005359E-2,9.9823155E-2,-1.3200371E-1,4.2183734E-2,-9.696596E-2,-6.5712355E-2,2.9721558E-2,-7.326379E-2,-8.939706E-2,-1.6812276E-2,1.3842127E-1,6.517275E-3,-9.860782E-2,-8.7502025E-2,-7.5999476E-2,1.1578905E-1,1.1674481E-1,-7.489457E-2,-7.545244E-2,-1.0121169E-1],"categories":[],"categories_nodes":[],"categories_segments":[],"categories_sizes":[],"default_left":[1,0,0,0,0,0,0,0,0,0,0,0,0,0,0,0,0,0,0,0,0,0,0,0,0,0,0,0,0,0,0,0,0,0,0,0,0,0,0,0,0,0,0,0,0,0,0,0,0,0,0,0,0,0,0,0,0,0,0,0,0,0,0],"id":24,"left_children":[1,3,5,7,9,11,13,15,17,19,21,23,25,27,29,31,33,35,37,39,41,43,45,47,49,51,53,55,57,59,61,-1,-1,-1,-1,-1,-1,-1,-1,-1,-1,-1,-1,-1,-1,-1,-1,-1,-1,-1,-1,-1,-1,-1,-1,-1,-1,-1,-1,-1,-1,-1,-1],"loss_changes":[4.384259E4,6.909205E3,6.05375E2,1.8498843E3,5.824875E3,5.4860144E2,7.061133E1,2.293794E2,1.1357618E3,2.5958455E3,3.225539E3,8.6491455E1,1.5632646E2,8.280029E1,8.568359E1,2.5286108E2,1.08616455E2,2.8875122E0,9.257245E2,2.759945E2,1.1989756E3,1.8528965E3,8.9674225E2,1.1977051E1,2.1357642E2,1.9796204E1,1.9695155E2,5.244629E0,2.4990002E2,1.0532362E2,2.3128906E1,0E0,0E0,0E0,0E0,0E0,0E0,0E0,0E0,0E0,0E0,0E0,0E0,0E0,0E0,0E0,0E0,0E0,0E0,0E0,0E0,0E0,0E0,0E0,0E0,0E0,0E0,0E0,0E0,0E0,0E0,0E0,0E0],"parents":[2147483647,0,0,1,1,2,2,3,3,4,4,5,5,6,6,7,7,8,8,9,9,10,10,11,11,12,12,13,13,14,14,15,15,16,16,17,17,18,18,19,19,20,20,21,21,22,22,23,23,24,24,25,25,26,26,27,27,28,28,29,29,30,30],"right_children":[2,4,6,8,10,12,14,16,18,20,22,24,26,28,30,32,34,36,38,40,42,44,46,48,50,52,54,56,58,60,62,-1,-1,-1,-1,-1,-1,-1,-1,-1,-1,-1,-1,-1,-1,-1,-1,-1,-1,-1,-1,-1,-1,-1,-1,-1,-1,-1,-1,-1,-1,-1,-1],"split_conditions":[2.77778E-2,5.17241E-2,1.33333E-1,5.3E1,1.1E1,1.96429E-1,3.4375E-1,6.2E1,2E1,2.72727E-1,4E0,1.41E0,1.8175E0,2.6E1,4.1E-1,8.523E0,1.4E1,1.98E2,3.2E-1,1.4E1,1E0,9.85E-1,4.5E1,1.4E1,4E-2,9.05E-1,1.5E-1,1.9449999E0,4.30556E-1,2.69231E-1,1.9333334E1,-6.680115E-2,4.928834E-2,-1.0337738E-1,7.2844788E-3,-1.01376615E-1,3.044569E-2,-7.1569934E-2,4.8365705E-2,1.7770438E-1,-1.09636165E-1,3.666591E-2,-5.8629435E-2,-3.005359E-2,9.9823155E-2,-1.3200371E-1,4.2183734E-2,-9.696596E-2,-6.5712355E-2,2.9721558E-2,-7.326379E-2,-8.939706E-2,-1.6812276E-2,1.3842127E-1,6.517275E-3,-9.860782E-2,-8.7502025E-2,-7.5999476E-2,1.1578905E-1,1.1674481E-1,-7.489457E-2,-7.545244E-2,-1.0121169E-1],"split_indices":[8,2,8,34,31,2,2,0,43,2,38,13,13,23,29,13,23,0,15,0,38,13,3,23,30,13,30,13,9,8,46,0,0,0,0,0,0,0,0,0,0,0,0,0,0,0,0,0,0,0,0,0,0,0,0,0,0,0,0,0,0,0,0],"split_type":[0,0,0,0,0,0,0,0,0,0,0,0,0,0,0,0,0,0,0,0,0,0,0,0,0,0,0,0,0,0,0,0,0,0,0,0,0,0,0,0,0,0,0,0,0,0,0,0,0,0,0,0,0,0,0,0,0,0,0,0,0,0,0],"sum_hessian":[9.26511E4,5.5991375E4,3.665973E4,9.541738E3,4.6449637E4,3.6303606E3,3.302937E4,4.2576484E3,5.2840903E3,1.6373008E4,3.0076627E4,2.9947974E3,6.3556323E2,2.5473848E3,3.0481986E4,1.6691954E3,2.588453E3,8.098557E2,4.4742344E3,1.6848649E3,1.4688143E4,2.8806025E4,1.2706025E3,1.3005933E3,1.6942041E3,