{"learner":{"attributes":{"scikit_learn":"{\"_estimator_type\": \"classifier\"}"},"feature_names":["t_dp","t_vaf","t_alt_reads","t_ref_allele","t_alt_allele","t_x_qual_mean","t_x_score_mean","t_x_edist_mean","t_x_length_mean","t_x_mapq_mean","t_x_fc1_mean","t_x_fc2_mean","t_max_softclip_length_mean","t_x_flags_mean","t_ml_qual_mean","t_x_qual_max","t_x_index_max","t_x_qual_min","t_x_index_min","t_count_forward","t_count_reverse","t_count_duplicate","t_count_non_duplicate","t_x_read_count","t_x_filtered_count","t_trinuc_context_with_alt","t_hmer_context_ref","t_hmer_context_alt","t_prev_1","t_prev_2","t_prev_3","t_next_1","t_next_2","t_next_3","t_is_cycle_skip","t_pos","t_qual","t_ref","n_dp","n_vaf","n_alt_reads","n_ref_allele","n_alt_allele","n_x_qual_mean","n_x_score_mean","n_x_edist_mean","n_x_length_mean","n_x_mapq_mean","n_x_fc1_mean","n_x_fc2_mean","n_max_softclip_length_mean","n_x_flags_mean","n_ml_qual_mean","n_x_qual_max","n_x_index_max","n_x_qual_min","n_x_index_min","n_count_forward","n_count_reverse","n_count_duplicate","n_count_non_duplicate","n_x_read_count","n_x_filtered_count","n_hmer_context_alt","n_prev_1","n_prev_2","n_prev_3","n_next_1","n_next_2","n_next_3","n_is_cycle_skip","n_chrom","n_pos","n_qual","n_ref","TR_distance","TR_length","TR_seq_unit_length","t_ref_m2","t_ref_m1","t_ref_0","t_ref_1","t_ref_2","t_nonref_m2","t_nonref_m1","t_nonref_0","t_nonref_1","t_nonref_2","n_ref_m2","n_ref_m1","n_ref_0","n_ref_1","n_ref_2","n_nonref_m2","n_nonref_m1","n_nonref_0","n_nonref_1","n_nonref_2"],"feature_types":["int","float","int","int","int","float","float","float","float","float","float","float","float","float","float","float","int","float","int","int","int","int","int","int","int","int","int","int","int","int","int","int","int","int","float","int","float","int","float","float","float","int","int","float","float","float","float","float","float","float","float","float","float","float","float","float","float","float","float","float","float","float","float","float","int","int","int","int","int","int","float","int","int","float","int","int","int","int","int","int","int","int","int","int","int","int","int","int","int","int","int","int","int","int","int","int","int","int"],"gradient_booster":{"model":{"gbtree_model_param":{"num_parallel_tree":"1","num_trees":"200"},"iteration_indptr":[0,1,2,3,4,5,6,7,8,9,10,11,12,13,14,15,16,17,18,19,20,21,22,23,24,25,26,27,28,29,30,31,32,33,34,35,36,37,38,39,40,41,42,43,44,45,46,47,48,49,50,51,52,53,54,55,56,57,58,59,60,61,62,63,64,65,66,67,68,69,70,71,72,73,74,75,76,77,78,79,80,81,82,83,84,85,86,87,88,89,90,91,92,93,94,95,96,97,98,99,100,101,102,103,104,105,106,107,108,109,110,111,112,113,114,115,116,117,118,119,120,121,122,123,124,125,126,127,128,129,130,131,132,133,134,135,136,137,138,139,140,141,142,143,144,145,146,147,148,149,150,151,152,153,154,155,156,157,158,159,160,161,162,163,164,165,166,167,168,169,170,171,172,173,174,175,176,177,178,179,180,181,182,183,184,185,186,187,188,189,190,191,192,193,194,195,196,197,198,199,200],"tree_info":[0,0,0,0,0,0,0,0,0,0,0,0,0,0,0,0,0,0,0,0,0,0,0,0,0,0,0,0,0,0,0,0,0,0,0,0,0,0,0,0,0,0,0,0,0,0,0,0,0,0,0,0,0,0,0,0,0,0,0,0,0,0,0,0,0,0,0,0,0,0,0,0,0,0,0,0,0,0,0,0,0,0,0,0,0,0,0,0,0,0,0,0,0,0,0,0,0,0,0,0,0,0,0,0,0,0,0,0,0,0,0,0,0,0,0,0,0,0,0,0,0,0,0,0,0,0,0,0,0,0,0,0,0,0,0,0,0,0,0,0,0,0,0,0,0,0,0,0,0,0,0,0,0,0,0,0,0,0,0,0,0,0,0,0,0,0,0,0,0,0,0,0,0,0,0,0,0,0,0,0,0,0,0,0,0,0,0,0,0,0,0,0,0,0,0,0,0,0,0,0],"trees":[{"base_weights":[-2.7422243E-1,-1.1833797E0,4.3480268E0,-1.2191577E0,3.2965085E-1,2.9477882E-1,4.76042E0,-1.2480222E0,-8.875331E-1,-1.1117522E0,1.98952E0,1.0604198E0,-1.2102033E0,1.1380466E0,4.811399E0,-1.2487595E0,-3.8839975E-1,-1.009973E0,4.9353528E-1,-1.1289908E0,-2.853776E-2,1.8893439E-1,3.1882496E0,-4.925467E-1,2.9986336E0,-4.8478264E-2,-1.2363442E-1,3.1037378E0,2.9191536E-1,1.2838801E0,4.8525405E0,-1.2491293E-1,-5.7684113E-3,5.828769E-2,-1.0655011E-1,-1.2237232E-1,-7.1003936E-2,-1.1391162E-1,2.765132E-1,-8.703707E-2,-1.2143278E-1,1.1448125E-1,-5.5474993E-2,-7.023441E-2,3.7955162E-1,5.1096916E-2,-8.4055476E-2,-5.832658E-2,3.7642893E-1,1.02037564E-1,3.9747864E-1,-7.392134E-2,1.0443807E-1,4.0748116E-2,3.4388682E-1,4.8705465E-1,-1.07829645E-1],"categories":[],"categories_nodes":[],"categories_segments":[],"categories_sizes":[],"default_left":[0,0,0,0,0,1,0,0,0,0,0,0,0,0,0,0,0,0,0,0,0,0,0,0,0,0,0,0,0,0,0,0,0,0,0,0,0,0,0,0,0,0,0,0,0,0,0,0,0,0,0,0,0,0,0,0,0],"id":0,"left_children":[1,3,5,7,9,11,13,15,17,19,21,23,25,27,29,31,33,35,37,39,-1,41,43,45,47,-1,-1,49,51,53,55,-1,-1,-1,-1,-1,-1,-1,-1,-1,-1,-1,-1,-1,-1,-1,-1,-1,-1,-1,-1,-1,-1,-1,-1,-1,-1],"loss_changes":[6.035054E4,6.500293E2,3.944168E3,1.1111133E2,6.673444E2,2.5368793E2,3.9014844E2,6.3476562E0,1.5981616E2,1.8065948E0,2.790592E2,4.4009073E2,8.101578E-1,5.0724487E1,3.0032812E2,4.671875E0,7.652057E0,5.463611E1,2.9019708E2,2.1662445E0,0E0,3.8202614E1,1.8629126E2,2.8982246E1,1.8035114E2,0E0,0E0,1.2707413E1,1.846606E1,4.715952E1,2.2819922E2,0E0,0E0,0E0,0E0,0E0,0E0,0E0,0E0,0E0,0E0,0E0,0E0,0E0,0E0,0E0,0E0,0E0,0E0,0E0,0E0,0E0,0E0,0E0,0E0,0E0,0E0],"parents":[2147483647,0,0,1,1,2,2,3,3,4,4,5,5,6,6,7,7,8,8,9,9,10,10,11,11,12,12,13,13,14,14,15,15,16,16,17,17,18,18,19,19,21,21,22,22,23,23,24,24,27,27,28,28,29,29,30,30],"right_children":[2,4,6,8,10,12,14,16,18,20,22,24,26,28,30,32,34,36,38,40,-1,42,44,46,48,-1,-1,50,52,54,56,-1,-1,-1,-1,-1,-1,-1,-1,-1,-1,-1,-1,-1,-1,-1,-1,-1,-1,-1,-1,-1,-1,-1,-1,-1,-1],"split_conditions":[6.048E1,5.754E1,1.12E2,5.77784E0,1.12E2,8.4317E-2,2E0,5.084E1,3E0,9E0,1.44928E-2,4E0,5.6346E-1,1.38E2,4.93145E0,1.2E1,1.46E2,5.84E2,1.06E2,1.35E2,-2.853776E-2,8.88889E0,4.82704E0,1.45E2,4.66648E0,-4.8478264E-2,-1.2363442E-1,5.1E1,6.322E1,4E0,5.8E1,-1.2491293E-1,-5.7684113E-3,5.828769E-2,-1.0655011E-1,-1.2237232E-1,-7.1003936E-2,-1.1391162E-1,2.765132E-1,-8.703707E-2,-1.2143278E-1,1.1448125E-1,-5.5474993E-2,-7.023441E-2,3.7955162E-1,5.1096916E-2,-8.4055476E-2,-5.832658E-2,3.7642893E-1,1.02037564E-1,3.9747864E-1,-7.392134E-2,1.0443807E-1,4.0748116E-2,3.4388682E-1,4.8705465E-1,-1.07829645E-1],"split_indices":[15,15,38,6,38,52,22,17,22,22,1,22,52,23,6,26,0,38,38,78,0,13,6,23,6,0,0,91,15,26,85,0,0,0,0,0,0,0,0,0,0,0,0,0,0,0,0,0,0,0,0,0,0,0,0,0,0],"split_type":[0,0,0,0,0,0,0,0,0,0,0,0,0,0,0,0,0,0,0,0,0,0,0,0,0,0,0,0,0,0,0,0,0,0,0,0,0,0,0,0,0,0,0,0,0,0,0,0,0,0,0,0,0,0,0,0,0],"sum_hessian":[1.4358914E4,1.1999465E4,2.359449E3,1.1722462E4,2.7700266E2,2.1804875E2,2.1414001E3,1.0781299E4,9.41163E2,1.4843466E2,1.2856801E2,1.4471976E2,7.332899E1,3.0042273E1,2.111358E3,1.0771608E4,9.691055E0,8.647652E2,7.639782E1,1.450428E2,3.3918693E0,5.1847145E1,7.6720856E1,8.07588E1,6.3960964E1,3.230352E0,7.009863E1,8.237397E0,2.1804874E1,2.471219E1,2.0866458E3,1.0768216E4,3.3918693E0,4.0379395E0,5.6531157E0,5.031273E2,3.6163788E2,4.474037E1,3.1657448E1,3.876422E1,1.0627857E2,2.2450945E1,2.9396202E1,1.0337126E1,6.638373E1,2.0674252E1,6.0084545E1,1.13062315E1,5.2654736E1,3.0688343E0,5.168563E0,9.206503E0,1.2598372E1,1.8413006E1,6.299186E0,2.080508E3,6.1376686E0],"tree_param":{"num_deleted":"0","num_feature":"98","num_nodes":"57","size_leaf_vector":"1"}},{"base_weights":[-2.726413E-1,-1.1484504E0,3.0686426E0,-1.1902493E0,1.9250853E-1,2.2735342E-1,3.299761E0,-1.2102176E0,-7.435562E-1,-1.0635386E0,1.4883646E0,8.3804214E-1,-1.1488438E0,7.859906E-1,3.329014E0,-1.2207397E0,-1.0633571E0,-1.174182E0,4.733334E-2,-7.797566E-1,-1.1299073E0,-6.5592337E-1,2.1098168E0,-3.6067614E-1,2.0949597E0,-3.5780784E-2,-1.1754563E-1,-2.7036548E-1,1.7549355E0,3.52697E-1,3.3504624E0,-1.22124575E-1,1.7492022E-2,-1.1151057E-1,-4.075914E-2,-8.012041E-2,-1.1955879E-1,1.7808114E-1,-3.7144568E-2,1.2004055E-1,-1.0104388E-1,-1.149895E-1,-8.74031E-3,-8.939631E-2,2.1318081E-1,-7.927606E-2,2.787966E-1,5.794887E-2,-7.028386E-2,-3.125962E-2,2.892705E-1,3.2630175E-2,-9.6286036E-2,2.85477E-1,5.5527966E-2,-1.2075713E-2,2.4388193E-1,3.3615103E-1,-7.291326E-2],"categories":[],"categories_nodes":[],"categories_segments":[],"categories_sizes":[],"default_left":[0,0,0,0,0,1,0,0,0,0,0,0,0,0,0,0,0,0,0,0,0,0,0,0,0,0,0,0,0,0,0,0,0,0,0,0,0,0,0,0,0,0,0,0,0,0,0,0,0,0,0,0,0,0,0,0,0,0,0],"id":1,"left_children":[1,3,5,7,9,11,13,15,17,19,21,23,25,27,29,31,33,35,37,39,41,43,45,47,49,-1,-1,51,53,55,57,-1,-1,-1,-1,-1,-1,-1,-1,-1,-1,-1,-1,-1,-1,-1,-1,-1,-1,-1,-1,-1,-1,-1,-1,-1,-1,-1,-1],"loss_changes":[4.1280176E4,6.266846E2,1.9230859E3,9.578027E1,5.528943E2,1.8707973E2,1.9660547E2,1.4732422E1,1.588964E2,2.3694153E0,2.2409976E2,2.3273584E2,1.0211792E0,3.371318E1,1.6975781E2,7.0429688E0,2.3343933E1,1.4533081E0,1.20717064E2,1.7629349E1,2.7676086E0,2.7332497E1,2.5773633E2,2.6033382E1,1.4553772E2,0E0,0E0,7.091592E0,2.0938976E1,2.032102E1,1.2226758E2,0E0,0E0,0E0,0E0,0E0,0E0,0E0,0E0,0E0,0E0,0E0,0E0,0E0,0E0,0E0,0E0,0E0,0E0,0E0,0E0,0E0,0E0,0E0,0E0,0E0,0E0,0E0,0E0],"parents":[2147483647,0,0,1,1,2,2,3,3,4,4,5,5,6,6,7,7,8,8,9,9,10,10,11,11,12,12,13,13,14,14,15,15,16,16,17,17,18,18,19,19,20,20,21,21,22,22,23,23,24,24,27,27,28,28,29,29,30,30],"right_children":[2,4,6,8,10,12,14,16,18,20,22,24,26,28,30,32,34,36,38,40,42,44,46,48,50,-1,-1,52,54,56,58,-1,-1,-1,-1,-1,-1,-1,-1,-1,-1,-1,-1,-1,-1,-1,-1,-1,-1,-1,-1,-1,-1,-1,-1,-1,-1,-1,-1],"split_conditions":[6.048E1,5.703E1,1.04E2,5.412E1,1.04E2,1.08628E-1,2E0,5.66698E0,1.19E2,1.42E2,5.44353E0,4E0,5.6346E-1,6.391E1,4.44213E0,1.2E1,3E0,9E0,1.37E2,1.66667E-2,9E0,5E0,2E0,1.45E2,4.4875E0,-3.5780784E-2,-1.1754563E-1,1E0,1.5E2,3.79747E-2,4.9E1,-1.22124575E-1,1.7492022E-2,-1.1151057E-1,-4.075914E-2,-8.012041E-2,-1.1955879E-1,1.7808114E-1,-3.7144568E-2,1.2004055E-1,-1.0104388E-1,-1.149895E-1,-8.74031E-3,-8.939631E-2,2.1318081E-1,-7.927606E-2,2.787966E-1,5.794887E-2,-7.028386E-2,-3.125962E-2,2.892705E-1,3.2630175E-2,-9.6286036E-2,2.85477E-1,5.5527966E-2,-1.2075713E-2,2.4388193E-1,3.3615103E-1,-7.291326E-2],"split_indices":[15,15,38,15,38,52,22,6,38,23,6,22,52,15,6,26,22,18,23,39,22,26,22,23,14,0,0,84,23,1,85,0,0,0,0,0,0,0,0,0,0,0,0,0,0,0,0,0,0,0,0,0,0,0,0,0,0,0,0],"split_type":[0,0,0,0,0,0,0,0,0,0,0,0,0,0,0,0,0,0,0,0,0,0,0,0,0,0,0,0,0,0,0,0,0,0,0,0,0,0,0,0,0,0,0,0,0,0,0,0,0,0,0,0,0,0,0,0,0,0,0],"sum_hessian":[1.4104277E4,1.117561E4,2.928667E3,1.08378955E4,3.377149E2,2.2045493E2,2.7082122E3,1.0372509E4,4.6538684E2,1.7158261E2,1.6613228E2,1.5296681E2,6.748811E1,3.1473925E1,2.6767383E3,9.672209E3,7.002998E2,3.0100833E2,1.6437852E2,3.4938793E1,1.3664381E2,3.7316887E1,1.288154E2,7.866106E1,7.4305756E1,2.6667366E0,6.482138E1,1.5402687E1,1.6071238E1,1.9276253E1,2.657462E3,9.668829E3,3.380231E0,6.4842975E2,5.1870056E1,1.8423525E1,2.825848E2,3.1351385E1,1.3302713E2,3.206935E0,3.173186E1,1.3397218E2,2.671634E0,3.500702E1,2.3098686E0,2.4364174E1,1.04451225E2,2.0803995E1,5.785706E1,1.8644806E1,5.566095E1,8.557864E0,6.8448224E0,7.6646714E0,8.406566E0,1.6478502E1,2.7977505E0,2.6504604E3,7.00154E0],"tree_param":{"num_deleted":"0","num_feature":"98","num_nodes":"59","size_leaf_vector":"1"}},{"base_weights":[-2.5437367E-1,-1.1221852E0,2.4777012E0,-1.1694088E0,-4.1550394E-2,2.6542586E-1,2.6397808E0,-1.1910644E0,-8.666912E-1,-1.0713137E0,1.028154E0,7.838928E-1,-1.1320342E0,4.5206735E-1,2.6626866E0,-1.191801E0,3.9869976E-1,-9.728165E-1,4.8718342E-1,-7.654638E-1,-1.1342552E0,-8.9662766E-1,1.4960916E0,-6.709454E-1,1.6191984E0,-4.868171E-2,-1.16244294E-1,-5.337283E-1,1.2622156E0,2.6709883E0,-6.576262E-1,-1.1921167E-1,1.2602754E-2,-8.2952425E-2,1.4966537E-1,-5.013875E-2,-1.0914607E-1,-9.704664E-2,1.9877897E-1,5.3658277E-2,-1.053134E-1,-1.14921235E-1,-2.3744456E-2,-1.0007272E-1,6.0892165E-2,-7.201008E-2,2.074199E-1,3.8302667E-2,-8.558931E-2,-2.2037398E-2,2.244867E-1,3.2695595E-2,-7.484935E-2,2.1481295E-1,2.0850383E-2,7.096835E-2,2.6843315E-1,-1.057414E-1,3.480566E-2],"categories":[],"categories_nodes":[],"categories_segments":[],"categories_sizes":[],"default_left":[0,0,0,0,0,1,0,0,0,0,0,0,0,0,0,0,0,0,0,0,0,0,0,0,0,0,0,0,0,0,0,0,0,0,0,0,0,0,0,0,0,0,0,0,0,0,0,0,0,0,0,0,0,0,0,0,0,0,0],"id":2,"left_children":[1,3,5,7,9,11,13,15,17,19,21,23,25,27,29,31,33,35,37,39,41,43,45,47,49,-1,-1,51,53,55,57,-1,-1,-1,-1,-1,-1,-1,-1,-1,-1,-1,-1,-1,-1,-1,-1,-1,-1,-1,-1,-1,-1,-1,-1,-1,-1,-1,-1],"loss_changes":[3.2286023E4,5.2733887E2,1.176375E3,6.3879883E1,4.7889096E2,1.6405334E2,1.5206445E2,1.1291992E1,9.598248E1,3.3955536E0,1.9341759E2,2.0141779E2,6.378021E-1,2.6946104E1,8.518164E1,3.991211E0,8.021232E0,3.394861E1,1.090758E2,1.5875971E1,2.1632385E0,7.2438354E0,2.2176468E2,1.2186247E1,1.2136377E2,0E0,0E0,3.1176515E0,1.668559E1,7.711328E1,3.7255967E0,0E0,0E0,0E0,0E0,0E0,0E0,0E0,0E0,0E0,0E0,0E0,0E0,0E0,0E0,0E0,0E0,0E0,0E0,0E0,0E0,0E0,0E0,0E0,0E0,0E0,0E0,0E0,0E0],"parents":[2147483647,0,0,1,1,2,2,3,3,4,4,5,5,6,6,7,7,8,8,9,9,10,10,11,11,12,12,13,13,14,14,15,15,16,16,17,17,18,18,19,19,20,20,21,21,22,22,23,23,24,24,27,27,28,28,29,29,30,30],"right_children":[2,4,6,8,10,12,14,16,18,20,22,24,26,28,30,32,34,36,38,40,42,44,46,48,50,-1,-1,52,54,56,58,-1,-1,-1,-1,-1,-1,-1,-1,-1,-1,-1,-1,-1,-1,-1,-1,-1,-1,-1,-1,-1,-1,-1,-1,-1,-1,-1,-1],"split_conditions":[6.048E1,5.621E1,1.12E2,6.29501E0,1.12E2,4.604E1,2E0,1.1E1,3E0,1.42E2,5.04045E0,3E0,1.18E2,6.391E1,1.6E1,5.319E1,4.769E1,8.88889E0,9.5E1,1.75439E-2,9E0,3.52113E-2,2E0,1.38E2,4.75738E0,-4.868171E-2,-1.16244294E-1,1.37E2,1.5E2,4.69318E0,7E1,-1.1921167E-1,1.2602754E-2,-8.2952425E-2,1.4966537E-1,-5.013875E-2,-1.0914607E-1,-9.704664E-2,1.9877897E-1,5.3658277E-2,-1.053134E-1,-1.14921235E-1,-2.3744456E-2,-1.0007272E-1,6.0892165E-2,-7.201008E-2,2.074199E-1,3.8302667E-2,-8.558931E-2,-2.2037398E-2,2.244867E-1,3.2695595E-2,-7.484935E-2,2.1481295E-1,2.0850383E-2,7.096835E-2,2.6843315E-1,-1.057414E-1,3.480566E-2],"split_indices":[15,15,38,6,38,53,22,26,22,23,6,22,23,15,95,17,15,13,38,39,22,1,22,23,14,0,0,23,23,6,80,0,0,0,0,0,0,0,0,0,0,0,0,0,0,0,0,0,0,0,0,0,0,0,0,0,0,0,0],"split_type":[0,0,0,0,0,0,0,0,0,0,0,0,0,0,0,0,0,0,0,0,0,0,0,0,0,0,0,0,0,0,0,0,0,0,0,0,0,0,0,0,0,0,0,0,0,0,0,0,0,0,0,0,0,0,0,0,0,0,0],"sum_hessian":[1.3615299E4,1.0333556E4,3.2817437E3,9.90081E3,4.327459E2,2.2420035E2,3.0575435E3,9.23708E3,6.637289E2,2.2048854E2,2.1225735E2,1.6384998E2,6.035037E1,3.1896427E1,3.025647E3,9.233053E3,4.0274773E0,6.157443E2,4.798452E1,3.9876976E1,1.8061157E2,4.133143E1,1.7092593E2,5.9834305E1,1.0401567E2,3.4818132E0,5.6868557E1,1.4542356E1,1.7354073E1,3.0182961E3,7.350894E0,9.2309375E3,2.1154017E0,2.016361E0,2.0111163E0,1.2485651E2,4.9088782E2,2.4519855E1,2.3464664E1,7.059435E0,3.281754E1,1.7737189E2,3.239676E0,3.897206E1,2.3593702E0,3.531173E1,1.356142E2,8.772271E0,5.1062035E1,2.6563173E1,7.74525E1,2.79976E0,1.1742595E1,8.863449E0,8.490623E0,2.0761555E1,2.9975344E3,5.223117E0,2.1277773E0],"tree_param":{"num_deleted":"0","num_feature":"98","num_nodes":"59","size_leaf_vector":"1"}},{"base_weights":[-2.517196E-1,-1.1057911E0,2.0853386E0,-1.151473E0,-2.1800636E-1,9.497299E-2,2.2345343E0,-1.1665441E0,-8.643629E-1,-1.0483105E0,7.101124E-1,5.40103E-1,-1.1181512E0,1.2774005E0,2.273355E0,-1.1670893E0,1.7973803E-2,-1.374982E-1,-1.0683714E0,-7.737473E-1,-1.1129801E0,1.8967822E-2,1.9460303E0,-4.421535E-1,1.5135233E0,-2.1959795E-2,-1.1452638E-1,-2.1464747E-1,1.6107143E0,2.2830625E0,-8.199995E-1,-1.1732755E-1,-1.0632982E-1,8.826008E-2,-5.7317015E-2,-1.134296E-1,-7.227745E-2,8.672236E-2,-8.741827E-2,-1.1224885E-1,-1.3854399E-2,7.428214E-2,-7.1505606E-2,-4.8887637E-2,2.4960022E-1,-5.837673E-2,1.24500446E-1,-5.2854825E-2,1.9927588E-1,-9.2457466E-2,8.326275E-2,1.8059796E-1,7.355654E-3,2.289645E-1,-4.7617536E-2,-1.1447399E-1,3.462557E-2],"categories":[],"categories_nodes":[],"categories_segments":[],"categories_sizes":[],"default_left":[0,0,0,0,0,1,0,0,0,0,0,0,0,0,0,0,0,0,0,0,0,0,0,0,0,0,0,0,0,0,0,0,0,0,0,0,0,0,0,0,0,0,0,0,0,0,0,0,0,0,0,0,0,0,0,0,0],"id":3,"left_children":[1,3,5,7,9,11,13,15,17,19,21,23,25,27,29,31,-1,33,35,37,39,41,43,45,47,-1,-1,49,51,53,55,-1,-1,-1,-1,-1,-1,-1,-1,-1,-1,-1,-1,-1,-1,-1,-1,-1,-1,-1,-1,-1,-1,-1,-1,-1,-1],"loss_changes":[2.602896E4,3.870625E2,1.0362119E3,3.8291992E1,3.6185583E2,1.3259091E2,1.177334E2,6.541992E0,6.759674E1,3.5375977E0,1.8947711E2,1.7228339E2,1.3548431E0,6.441838E1,9.553027E1,4.2890625E0,0E0,4.5512524E1,7.3041077E0,9.082411E0,1.6811218E0,7.667046E1,1.07763275E2,2.2256516E1,8.949625E1,0E0,0E0,1.8916908E1,3.1511658E1,5.756543E1,4.3703723E0,0E0,0E0,0E0,0E0,0E0,0E0,0E0,0E0,0E0,0E0,0E0,0E0,0E0,0E0,0E0,0E0,0E0,0E0,0E0,0E0,0E0,0E0,0E0,0E0,0E0,0E0],"parents":[2147483647,0,0,1,1,2,2,3,3,4,4,5,5,6,6,7,7,8,8,9,9,10,10,11,11,12,12,13,13,14,14,15,15,17,17,18,18,19,19,20,20,21,21,22,22,23,23,24,24,27,27,28,28,29,29,30,30],"right_children":[2,4,6,8,10,12,14,16,18,20,22,24,26,28,30,32,-1,34,36,38,40,42,44,46,48,-1,-1,50,52,54,56,-1,-1,-1,-1,-1,-1,-1,-1,-1,-1,-1,-1,-1,-1,-1,-1,-1,-1,-1,-1,-1,-1,-1,-1,-1,-1],"split_conditions":[5.983E1,5.552E1,1.12E2,5.298E1,1E2,8.4317E-2,1.30719E-2,1.2E1,1E0,1.42E2,3E0,4E0,4.604E1,6.7112E0,1.5E1,5.115E1,1.7973803E-2,1.45E2,1.06E2,1.53846E-2,1.93E2,1.57E2,5.25096E0,1.59739E1,5.10009E0,-2.1959795E-2,-1.1452638E-1,6.479E1,1.024E2,5.7E1,5.6E1,-1.1732755E-1,-1.0632982E-1,8.826008E-2,-5.7317015E-2,-1.134296E-1,-7.227745E-2,8.672236E-2,-8.741827E-2,-1.1224885E-1,-1.3854399E-2,7.428214E-2,-7.1505606E-2,-4.8887637E-2,2.4960022E-1,-5.837673E-2,1.24500446E-1,-5.2854825E-2,1.9927588E-1,-9.2457466E-2,8.326275E-2,1.8059796E-1,7.355654E-3,2.289645E-1,-4.7617536E-2,-1.1447399E-1,3.462557E-2],"split_indices":[15,15,38,15,38,52,1,26,95,23,22,22,53,6,95,15,0,23,38,39,82,23,6,14,6,0,0,15,13,84,90,0,0,0,0,0,0,0,0,0,0,0,0,0,0,0,0,0,0,0,0,0,0,0,0,0,0],"split_type":[0,0,0,0,0,0,0,0,0,0,0,0,0,0,0,0,0,0,0,0,0,0,0,0,0,0,0,0,0,0,0,0,0,0,0,0,0,0,0,0,0,0,0,0,0,0,0,0,0,0,0,0,0,0,0,0,0],"sum_hessian":[1.3038312E4,9.549134E3,3.4891777E3,9.081535E3,4.67598E2,2.4342128E2,3.2457563E3,8.625692E3,4.5584296E2,2.4673601E2,2.2086197E2,1.7848486E2,6.4936424E1,1.27835724E2,3.1179207E3,8.622334E3,3.358892E0,1.00268585E2,3.5557437E2,4.9507984E1,1.9722803E2,1.423006E2,7.856137E1,8.911086E1,8.937399E1,2.168498E0,6.276793E1,2.3408005E1,1.0442771E2,3.1084277E3,9.49296E0,8.127605E3,4.9472885E2,2.9700605E1,7.056798E1,2.9669583E2,5.8878548E1,2.4150403E0,4.7092945E1,1.9517165E2,2.0563703E0,7.164062E1,7.065999E1,1.4495615E1,6.406576E1,8.2813774E1,6.2970877E0,1.6968134E1,7.240586E1,1.4020764E1,9.387241E0,9.2502266E1,1.1925448E1,3.1011997E3,7.2280903E0,7.4398146E0,2.0531456E0],"tree_param":{"num_deleted":"0","num_feature":"98","num_nodes":"57","size_leaf_vector":"1"}},{"base_weights":[-2.3896034E-1,-1.0846645E0,1.8398019E0,-1.1302826E0,-2.2508962E-1,2.206079E-2,1.9699947E0,-1.1499153E0,-8.7852967E-1,-1.0439427E0,6.1517787E-1,-6.952403E-1,6.648102E-1,1.889792E-1,1.9910454E0,-1.151144E0,-5.819967E-2,-1.1289444E0,-5.282919E-1,-7.8720546E-1,-1.0913725E0,-7.1702224E-1,1.0813661E0,1.2954886E-1,-8.493534E-1,1.6261785E0,-5.2851295E-1,-4.6361142E-1,1.2356962E0,1.9986315E0,-9.298439E-1,-1.1516322E-1,-3.536814E-2,-9.7793765E-2,9.6716516E-2,-9.058579E-2,-1.153199E-1,-7.17957E-2,1.4173906E-1,-8.704313E-2,4.87901E-2,-1.10114075E-1,-1.7158879E-2,-1.0201984E-1,6.221625E-2,-8.233639E-2,1.6393863E-1,-6.3868806E-2,2.5087142E-1,-1.0396657E-1,-4.870617E-2,1.8034309E-1,-1.3096035E-1,1.40936E-2,-1.0379145E-1,-7.934928E-2,1.19965866E-1,-6.7388855E-2,1.6143677E-1,6.857852E-2,2.0127665E-1,-1.0907221E-1,-2.3494948E-2],"categories":[],"categories_nodes":[],"categories_segments":[],"categories_sizes":[],"default_left":[0,0,0,0,0,0,0,0,0,0,0,0,0,0,0,0,0,0,0,0,0,0,0,0,0,0,1,0,0,0,0,0,0,0,0,0,0,0,0,0,0,0,0,0,0,0,0,0,0,0,0,0,0,0,0,0,0,0,0,0,0,0,0],"id":4,"left_children":[1,3,5,7,9,11,13,15,17,19,21,23,25,27,29,31,33,35,37,39,41,43,45,47,49,51,53,55,57,59,61,-1,-1,-1,-1,-1,-1,-1,-1,-1,-1,-1,-1,-1,-1,-1,-1,-1,-1,-1,-1,-1,-1,-1,-1,-1,-1,-1,-1,-1,-1,-1,-1],"loss_changes":[2.1783832E4,3.4511328E2,8.4797754E2,4.0328125E1,3.069094E2,1.1134747E2,1.2498926E2,1.0334961E1,5.284015E1,1.8904572E0,1.3760425E2,1.46199E1,1.4696667E2,2.8009066E1,7.5083984E1,2.6083984E0,1.0161273E1,8.728943E-1,9.5448296E1,4.5420322E0,1.5002136E0,2.4066702E1,1.752404E2,3.6035553E1,6.1342163E0,3.9193344E1,1.9781527E1,1.4925648E1,1.2439013E1,5.9791016E1,7.770424E-1,0E0,0E0,0E0,0E0,0E0,0E0,0E0,0E0,0E0,0E0,0E0,0E0,0E0,0E0,0E0,0E0,0E0,0E0,0E0,0E0,0E0,0E0,0E0,0E0,0E0,0E0,0E0,0E0,0E0,0E0,0E0,0E0],"parents":[2147483647,0,0,1,1,2,2,3,3,4,4,5,5,6,6,7,7,8,8,9,9,10,10,11,11,12,12,13,13,14,14,15,15,16,16,17,17,18,18,19,19,20,20,21,21,22,22,23,23,24,24,25,25,26,26,27,27,28,28,29,29,30,30],"right_children":[2,4,6,8,10,12,14,16,18,20,22,24,26,28,30,32,34,36,38,40,42,44,46,48,50,52,54,56,58,60,62,-1,-1,-1,-1,-1,-1,-1,-1,-1,-1,-1,-1,-1,-1,-1,-1,-1,-1,-1,-1,-1,-1,-1,-1,-1,-1,-1,-1,-1,-1,-1,-1],"split_conditions":[5.983E1,5.552E1,1.12E2,5.93979E0,1.01E2,4E0,4.98991E0,9E0,5.84E2,1.4E2,5.66698E0,1.38E2,2.40964E-2,3.17233E1,5.3E1,5.131E1,8.7E1,1.35E2,3E0,6.3E1,1.92E2,3.0615E1,2E0,6.2E1,6.449E1,3.9E1,1.08628E-1,3.27869E-2,1E0,2E0,1.58E2,-1.1516322E-1,-3.536814E-2,-9.7793765E-2,9.6716516E-2,-9.058579E-2,-1.153199E-1,-7.17957E-2,1.4173906E-1,-8.704313E-2,4.87901E-2,-1.10114075E-1,-1.7158879E-2,-1.0201984E-1,6.221625E-2,-8.233639E-2,1.6393863E-1,-6.3868806E-2,2.5087142E-1,-1.0396657E-1,-4.870617E-2,1.8034309E-1,-1.3096035E-1,1.40936E-2,-1.0379145E-1,-7.934928E-2,1.19965866E-1,-6.7388855E-2,1.6143677E-1,6.857852E-2,2.0127665E-1,-1.0907221E-1,-2.3494948E-2],"split_indices":[15,15,38,6,38,22,6,26,38,23,6,23,39,5,85,17,38,23,22,90,78,5,22,38,15,85,52,1,20,22,78,0,0,0,0,0,0,0,0,0,0,0,0,0,0,0,0,0,0,0,0,0,0,0,0,0,0,0,0,0,0,0,0],"split_type":[0,0,0,0,0,0,0,0,0,0,0,0,0,0,0,0,0,0,0,0,0,0,0,0,0,0,0,0,0,0,0,0,0,0,0,0,0,0,0,0,0,0,0,0,0,0,0,0,0,0,0,0,0,0,0,0,0,0,0,0,0,0,0],"sum_hessian":[1.2388997E4,8.806658E3,3.5823396E3,8.362538E3,4.4411978E2,2.3950862E2,3.342831E3,7.75426E3,6.0827795E2,2.2480328E2,2.1931651E2,1.1315134E2,1.26357285E2,3.916554E1,3.3036655E3,7.7454883E3,8.771785E0,3.5338776E2,2.5489023E2,3.7798336E1,1.8700494E2,5.6712967E1,1.6260355E2,1.7839025E1,9.531231E1,6.9779E1,5.657828E1,2.4467812E1,1.4697725E1,3.2954224E3,8.243012E0,7.7403066E3,5.1815677E0,4.6484466E0,4.1233377E0,3.8414093E1,3.1497366E2,2.3282541E2,2.2064817E1,3.578033E1,2.018005E0,1.8484471E2,2.1602373E0,4.6438107E1,1.0274862E1,3.6735653E1,1.258679E2,1.4037757E1,3.8012683E0,6.1261745E1,3.4050564E1,6.616962E1,3.6093867E0,2.4761013E1,3.181727E1,2.085459E1,3.6132221E0,2.303235E0,1.239449E1,3.562999E1,3.2597925E3,6.230856E0,2.0121565E0],"tree_param":{"num_deleted":"0","num_feature":"98","num_nodes":"63","size_leaf_vector":"1"}},{"base_weights":[-2.3562045E-1,-1.0623235E0,1.6672068E0,-1.1179085E0,-3.0718595E-1,3.4365572E-2,1.7792892E0,-1.1350839E0,-9.1366065E-1,-1.0338997E0,4.52882E-1,3.754663E-1,-1.0712377E0,4.1361412E-1,1.7984304E0,-1.1358687E0,8.8806294E-2,-1.1273097E-1,-6.2498605E-1,-6.901183E-1,-1.0870977E-1,-6.835042E-1,9.116172E-1,-6.853028E-1,9.3345356E-1,-3.2430496E-2,-1.1060549E-1,-2.2986573E-1,1.3712901E0,1.8052311E0,-1.0923834E-1,-1.13628484E-1,-1.38744535E-2,-8.461913E-2,1.00511014E-1,-8.276965E-2,2.4840496E-2,1.4786611E-1,-8.421509E-2,-9.25428E-2,3.134378E-2,-7.285615E-2,1.4151147E-1,2.2274535E-2,-8.9315705E-2,-5.1760416E-2,1.4291327E-1,-7.763129E-2,6.0306042E-2,2.2277107E-2,1.7254667E-1,5.391205E-2,1.817679E-1],"categories":[],"categories_nodes":[],"categories_segments":[],"categories_sizes":[],"default_left":[0,0,0,0,0,1,0,0,0,0,0,0,0,0,0,0,0,0,0,0,0,0,0,0,0,0,0,0,0,0,0,0,0,0,0,0,0,0,0,0,0,0,0,0,0,0,0,0,0,0,0,0,0],"id":5,"left_children":[1,3,5,7,9,11,13,15,17,19,21,23,25,27,29,31,33,-1,35,37,-1,39,41,43,45,-1,-1,47,49,51,-1,-1,-1,-1,-1,-1,-1,-1,-1,-1,-1,-1,-1,-1,-1,-1,-1,-1,-1,-1,-1,-1,-1],"loss_changes":[1.8317238E4,3.40375E2,6.4538477E2,2.5486328E1,3.0863776E2,8.6219025E1,8.552734E1,6.794922E0,3.5780975E1,4.4715576E0,1.4314583E2,1.040111E2,1.043354E0,2.922636E1,6.594922E1,2.7324219E0,5.4714127E0,0E0,4.5149376E1,1.4764177E1,0E0,1.9391155E1,1.6223323E2,1.1670074E1,8.33594E1,0E0,0E0,1.3629753E1,7.343586E0,5.0194336E1,0E0,0E0,0E0,0E0,0E0,0E0,0E0,0E0,0E0,0E0,0E0,0E0,0E0,0E0,0E0,0E0,0E0,0E0,0E0,0E0,0E0,0E0,0E0],"parents":[2147483647,0,0,1,1,2,2,3,3,4,4,5,5,6,6,7,7,8,8,9,9,10,10,11,11,12,12,13,13,14,14,15,15,16,16,18,18,19,19,21,21,22,22,23,23,24,24,27,27,28,28,29,29],"right_children":[2,4,6,8,10,12,14,16,18,20,22,24,26,28,30,32,34,-1,36,38,-1,40,42,44,46,-1,-1,48,50,52,-1,-1,-1,-1,-1,-1,-1,-1,-1,-1,-1,-1,-1,-1,-1,-1,-1,-1,-1,-1,-1,-1,-1],"split_conditions":[5.983E1,5.465E1,1.12E2,5.53324E0,1E2,8.4317E-2,5.18294E0,1.1E1,5.84E2,1.38E2,5.77784E0,3E0,2.660009E6,2.42424E-2,5.8E1,5.093E1,4.732E1,-1.1273097E-1,1.62602E-2,1.66667E-2,-1.0870977E-1,3.17233E1,2E0,1.38E2,2.733E1,-3.2430496E-2,-1.1060549E-1,7.10955E0,2.3265E1,2E0,-1.0923834E-1,-1.13628484E-1,-1.38744535E-2,-8.461913E-2,1.00511014E-1,-8.276965E-2,2.4840496E-2,1.4786611E-1,-8.421509E-2,-9.25428E-2,3.134378E-2,-7.285615E-2,1.4151147E-1,2.2274535E-2,-8.9315705E-2,-5.1760416E-2,1.4291327E-1,-7.763129E-2,6.0306042E-2,2.2277107E-2,1.7254667E-1,5.391205E-2,1.817679E-1],"split_indices":[15,15,38,6,38,52,6,26,38,23,6,22,35,1,85,17,15,0,1,39,0,5,22,23,5,0,0,14,5,22,0,0,0,0,0,0,0,0,0,0,0,0,0,0,0,0,0,0,0,0,0,0,0],"split_type":[0,0,0,0,0,0,0,0,0,0,0,0,0,0,0,0,0,0,0,0,0,0,0,0,0,0,0,0,0,0,0,0,0,0,0,0,0,0,0,0,0,0,0,0,0,0,0,0,0,0,0,0,0],"sum_hessian":[1.1642114E4,8.1163315E3,3.5257825E3,7.559409E3,5.569225E2,2.2655711E2,3.2992253E3,6.9688325E3,5.905765E2,2.8452402E2,2.7239847E2,1.7364467E2,5.2912457E1,4.591501E1,3.2533103E3,6.964439E3,4.39357E0,3.3772208E2,2.5285442E2,4.0000587E1,2.4452342E2,7.819718E1,1.942013E2,5.9776875E1,1.1386779E2,2.8159685E0,5.0096485E1,2.7917028E1,1.7997982E1,3.2460496E3,7.2608333E0,6.9613945E3,3.0447247E0,2.2124748E0,2.1810954E0,2.0526547E2,4.7588943E1,2.0487492E0,3.7951836E1,6.2984688E1,1.5212498E1,4.550817E1,1.4869312E2,1.1121031E1,4.865584E1,2.8981812E1,8.488598E1,1.689857E1,1.1018458E1,4.6259594E0,1.3372023E1,3.2034576E1,3.214015E3],"tree_param":{"num_deleted":"0","num_feature":"98","num_nodes":"53","size_leaf_vector":"1"}},{"base_weights":[-2.2798964E-1,-1.0525523E0,1.5167564E0,-1.106066E0,-3.933887E-1,8.016365E-3,1.6302166E0,-1.1202143E0,-9.29214E-1,-1.0228926E0,3.1191218E-1,-6.50102E-1,6.265553E-1,2.2107896E-1,1.6528978E0,-1.1210598E0,3.5414077E-2,-9.7939914E-1,-3.6232003E-3,-6.959156E-1,-1.0609329E0,-1.0534417E-1,1.4772695E0,-1.7286853E-1,-9.268243E-1,1.3798012E0,-4.3428883E-1,-4.0301174E-1,1.1237774E0,2.5703108E-1,1.6702304E0,-1.1213557E-1,-2.7714062E-2,-8.6829446E-2,1.0584638E-1,-1.1148395E-1,-7.962604E-2,2.0352302E-1,-6.8882346E-2,1.5880312E-1,-9.7125046E-2,-1.07164636E-1,-7.4059316E-3,3.7763152E-2,-6.8287365E-2,-8.190722E-2,1.7915808E-1,8.843875E-2,-6.30818E-2,-1.09032966E-1,-5.2901473E-2,1.529368E-1,-1.3346241E-1,4.0739264E-2,-8.572034E-2,2.749963E-2,-9.41708E-2,-4.666266E-3,1.5522954E-1,-5.4356415E-2,8.6131066E-2,1.6774483E-1,-9.4013415E-2],"categories":[],"categories_nodes":[],"categories_segments":[],"categories_sizes":[],"default_left":[0,0,0,0,0,0,0,0,0,0,0,0,0,0,0,0,0,0,0,0,0,0,0,0,0,0,0,0,0,0,0,0,0,0,0,0,0,0,0,0,0,0,0,0,0,0,0,0,0,0,0,0,0,0,0,0,0,0,0,0,0,0,0],"id":6,"left_children":[1,3,5,7,9,11,13,15,17,19,21,23,25,27,29,31,33,35,37,39,41,43,45,47,49,51,53,55,57,59,61,-1,-1,-1,-1,-1,-1,-1,-1,-1,-1,-1,-1,-1,-1,-1,-1,-1,-1,-1,-1,-1,-1,-1,-1,-1,-1,-1,-1,-1,-1,-1,-1],"loss_changes":[1.5739336E4,2.616211E2,6.010249E2,1.615039E1,2.4868289E2,1.0078286E2,1.0400391E2,6.2495117E0,2.3910004E1,2.9410706E0,1.2880803E2,1.5681595E1,1.02578316E2,3.0245527E1,7.732129E1,1.2758789E0,6.11156E0,1.1225098E1,3.9793602E1,2.275635E1,2.702118E0,5.4860725E1,5.1863266E1,2.247006E1,4.3470993E0,3.2437347E1,1.9482544E1,1.194766E1,1.1046722E1,2.0108067E1,6.138086E1,0E0,0E0,0E0,0E0,0E0,0E0,0E0,0E0,0E0,0E0,0E0,0E0,0E0,0E0,0E0,0E0,0E0,0E0,0E0,0E0,0E0,0E0,0E0,0E0,0E0,0E0,0E0,0E0,0E0,0E0,0E0,0E0],"parents":[2147483647,0,0,1,1,2,2,3,3,4,4,5,5,6,6,7,7,8,8,9,9,10,10,11,11,12,12,13,13,14,14,15,15,16,16,17,17,18,18,19,19,20,20,21,21,22,22,23,23,24,24,25,25,26,26,27,27,28,28,29,29,30,30],"right_children":[2,4,6,8,10,12,14,16,18,20,22,24,26,28,30,32,34,36,38,40,42,44,46,48,50,52,54,56,58,60,62,-1,-1,-1,-1,-1,-1,-1,-1,-1,-1,-1,-1,-1,-1,-1,-1,-1,-1,-1,-1,-1,-1,-1,-1,-1,-1,-1,-1,-1,-1,-1,-1],"split_conditions":[5.922E1,5.412E1,1.12E2,5.53324E0,1.04E2,4E0,5.18294E0,1.1E1,2.45399E-2,1.36E2,2.18978E-2,1E0,2.40964E-2,2.15827E-2,2E0,5.089E1,4.732E1,5.84E2,1E0,1.75439E-2,5.771E1,1.6E2,4.02969E0,1.46E2,6.506E1,2.1E1,1E0,1E0,2.2685E1,6.282E1,1.5E1,-1.1213557E-1,-2.7714062E-2,-8.6829446E-2,1.0584638E-1,-1.1148395E-1,-7.962604E-2,2.0352302E-1,-6.8882346E-2,1.5880312E-1,-9.7125046E-2,-1.07164636E-1,-7.4059316E-3,3.7763152E-2,-6.8287365E-2,-8.190722E-2,1.7915808E-1,8.843875E-2,-6.30818E-2,-1.09032966E-1,-5.2901473E-2,1.529368E-1,-1.3346241E-1,4.0739264E-2,-8.572034E-2,2.749963E-2,-9.41708E-2,-4.666266E-3,1.5522954E-1,-5.4356415E-2,8.6131066E-2,1.6774483E-1,-9.4013415E-2],"split_indices":[15,15,38,6,38,22,6,26,1,23,1,84,39,1,22,17,15,38,95,39,17,23,6,23,15,95,84,84,5,15,95,0,0,0,0,0,0,0,0,0,0,0,0,0,0,0,0,0,0,0,0,0,0,0,0,0,0,0,0,0,0,0,0],"split_type":[0,0,0,0,0,0,0,0,0,0,0,0,0,0,0,0,0,0,0,0,0,0,0,0,0,0,0,0,0,0,0,0,0,0,0,0,0,0,0,0,0,0,0,0,0,0,0,0,0,0,0,0,0,0,0,0,0,0,0,0,0,0,0],"sum_hessian":[1.0938223E4,7.428112E3,3.5101106E3,6.869721E3,5.58391E2,2.4557939E2,3.2645312E3,6.3559077E3,5.138133E2,2.9481168E2,2.6357928E2,1.18958206E2,1.2662119E2,5.188329E1,3.212648E3,6.3512915E3,4.6163163E0,4.873322E2,2.6481077E1,3.273453E1,2.6207715E2,1.9475636E2,6.882294E1,4.4257202E1,7.4701004E1,7.386977E1,5.275143E1,3.100274E1,2.0880547E1,3.959645E1,3.1730515E3,6.348737E3,2.5547466E0,2.5314417E0,2.0848746E0,2.7722385E2,2.1010837E2,6.1653748E0,2.0315702E1,3.0087597E0,2.972577E1,2.591776E2,2.8995335E0,1.0624883E2,8.850752E1,8.092635E0,6.07303E1,1.3094676E1,3.1162527E1,5.17076E1,2.2993399E1,7.042583E1,3.443937E0,1.7653755E1,3.5097675E1,1.3943209E1,1.7059532E1,5.834766E0,1.5045781E1,1.7074862E1,2.252159E1,3.1646582E3,8.393177E0],"tree_param":{"num_deleted":"0","num_feature":"98","num_nodes":"63","size_leaf_vector":"1"}},{"base_weights":[-2.2689722E-1,-1.0461329E0,1.3947887E0,-1.0933051E0,-5.108684E-1,-5.378485E-2,1.5117959E0,-1.1056848E0,-9.331195E-1,-1.0466876E0,1.1561332E-1,-6.320576E-1,6.31268E-1,4.156741E-1,1.5456274E0,-1.1067605E0,-3.214015E-1,-9.852972E-1,-3.6586607E-1,-7.4942327E-1,-1.0750681E0,-9.5945346E-1,4.5490852E-1,-1.0236138E0,-2.459731E-1,1.0290151E0,-1.21462286E-1,-1.2748796E-1,1.1359177E0,1.5531859E0,-8.150905E-1,-1.10708855E-1,-1.5435958E-2,-9.747793E-2,7.739014E-2,-1.0894759E-1,-8.4700674E-2,1.21268086E-1,-7.6985E-2,6.756788E-2,-8.9632265E-2,-1.0783704E-1,-4.2435136E-2,-1.04671076E-1,9.374887E-3,-8.651959E-2,9.956024E-2,-1.0752356E-1,2.8174562E-2,3.7401512E-2,-9.36027E-2,1.3314846E-1,-9.706718E-2,-9.772878E-2,2.4249887E-2,1.2706512E-1,-7.464735E-2,5.788808E-3,1.5639877E-1,-1.193318E-1,4.0555432E-2],"categories":[],"categories_nodes":[],"categories_segments":[],"categories_sizes":[],"default_left":[0,0,0,0,0,0,0,0,0,0,0,0,0,0,0,0,0,0,0,0,0,0,0,0,0,1,0,0,0,0,0,0,0,0,0,0,0,0,0,0,0,0,0,0,0,0,0,0,0,0,0,0,0,0,0,0,0,0,0,0,0],"id":7,"left_children":[1,3,5,7,9,11,13,15,17,19,21,23,25,27,29,31,33,35,37,39,41,43,45,47,49,51,-1,53,55,57,59,-1,-1,-1,-1,-1,-1,-1,-1,-1,-1,-1,-1,-1,-1,-1,-1,-1,-1,-1,-1,-1,-1,-1,-1,-1,-1,-1,-1,-1,-1],"loss_changes":[1.3588237E4,1.710127E2,5.819214E2,1.1350098E1,1.8548813E2,1.02416756E2,1.1714502E2,4.529785E0,1.3086792E1,1.7062073E0,9.362283E1,2.093452E1,8.816366E1,3.7883873E1,5.623828E1,1.6357422E0,7.4391184E0,5.0628357E0,2.6353367E1,6.729025E0,1.2149048E-1,5.7597733E0,1.3994897E2,4.9702606E0,3.110305E1,6.052761E1,0E0,1.7810743E1,1.1492615E1,4.951758E1,5.3263235E0,0E0,0E0,0E0,0E0,0E0,0E0,0E0,0E0,0E0,0E0,0E0,0E0,0E0,0E0,0E0,0E0,0E0,0E0,0E0,0E0,0E0,0E0,0E0,0E0,0E0,0E0,0E0,0E0,0E0,0E0],"parents":[2147483647,0,0,1,1,2,2,3,3,4,4,5,5,6,6,7,7,8,8,9,9,10,10,11,11,12,12,13,13,14,14,15,15,16,16,17,17,18,18,19,19,20,20,21,21,22,22,23,23,24,24,25,25,27,27,28,28,29,29,30,30],"right_children":[2,4,6,8,10,12,14,16,18,20,22,24,26,28,30,32,34,36,38,40,42,44,46,48,50,52,-1,54,56,58,60,-1,-1,-1,-1,-1,-1,-1,-1,-1,-1,-1,-1,-1,-1,-1,-1,-1,-1,-1,-1,-1,-1,-1,-1,-1,-1,-1,-1,-1,-1],"split_conditions":[5.859E1,5.362E1,1.12E2,5.53324E0,1.19E2,6.449E1,1.25E-2,9E0,3E0,1.33E2,4.77843E0,5.93979E0,4.2E1,6.126E1,1.5E1,5.07E1,4.89E1,5.84E2,1.375E0,1.75439E-2,2.13E2,5E0,2E0,5E0,7.86472E0,5.368E1,-1.21462286E-1,6.49125E0,1.74E2,4.44213E0,5.3E1,-1.10708855E-1,-1.5435958E-2,-9.747793E-2,7.739014E-2,-1.0894759E-1,-8.4700674E-2,1.21268086E-1,-7.6985E-2,6.756788E-2,-8.9632265E-2,-1.0783704E-1,-4.2435136E-2,-1.04671076E-1,9.374887E-3,-8.651959E-2,9.956024E-2,-1.0752356E-1,2.8174562E-2,3.7401512E-2,-9.36027E-2,1.3314846E-1,-9.706718E-2,-9.772878E-2,2.4249887E-2,1.2706512E-1,-7.464735E-2,5.788808E-3,1.5639877E-1,-1.193318E-1,4.0555432E-2],"split_indices":[15,15,38,6,38,15,1,26,22,23,6,6,85,5,95,17,36,38,10,39,0,2,22,26,6,53,0,6,25,6,90,0,0,0,0,0,0,0,0,0,0,0,0,0,0,0,0,0,0,0,0,0,0,0,0,0,0,0,0,0,0],"split_type":[0,0,0,0,0,0,0,0,0,0,0,0,0,0,0,0,0,0,0,0,0,0,0,0,0,0,0,0,0,0,0,0,0,0,0,0,0,0,0,0,0,0,0,0,0,0,0,0,0,0,0,0,0,0,0,0,0,0,0,0,0],"sum_hessian":[1.0225826E4,6.794013E3,3.431813E3,6.2428013E3,5.512121E2,2.565247E2,3.1752883E3,5.78947E3,4.5333124E2,2.967425E2,2.5446959E2,1.3914542E2,1.1737928E2,9.546776E1,3.0798206E3,5.781129E3,8.340834E0,4.1447003E2,3.886119E1,2.8250048E1,2.6849246E2,6.060694E1,1.9386266E2,6.826336E1,7.0882065E1,9.693463E1,2.0444647E1,5.4893528E1,4.0574226E1,3.070332E3,9.488547E0,5.778976E3,2.1531146E0,5.293284E0,3.0475497E0,2.3246695E2,1.8200308E2,7.510905E0,3.1350286E1,2.3035197E0,2.5946527E1,2.6648288E2,2.00959E0,5.5975563E1,4.631378E0,5.615646E1,1.3770619E2,6.583609E1,2.427266E0,3.757779E1,3.330428E1,8.44891E1,1.2445531E1,1.6152481E1,3.8741047E1,3.816735E1,2.4068768E0,2.2066067E1,3.0482659E3,7.2610383E0,2.2275093E0],"tree_param":{"num_deleted":"0","num_feature":"98","num_nodes":"61","size_leaf_vector":"1"}},{"base_weights":[-2.1238397E-1,-1.027869E0,1.31016E0,-1.0617363E0,-1.2032278E-1,-4.7885943E-2,1.4194589E0,-1.0893798E0,-7.440357E-1,7.3511106E-1,-9.3472666E-1,-5.827672E-1,5.4757553E-1,2.3143135E-1,1.4516687E0,-1.0913585E0,6.8865575E-2,-8.8433677E-1,4.422673E-1,3.4189696E0,4.1255647E-1,4.4198465E-2,-9.737509E-1,-9.6798843E-1,-2.572532E-1,8.713428E-1,-1.1759017E-1,-3.576549E-1,9.951458E-1,1.9005243E-1,1.4703408E0,-1.0953116E-1,-9.712255E-2,-6.340096E-2,1.5568227E-1,-9.871277E-2,-4.742406E-2,-9.0925656E-2,1.602615E-1,4.13282E-1,1.891133E-1,-8.198844E-2,8.8078044E-2,-1.0070193E-1,2.7859975E-2,-1.0088322E-1,-1.403283E-3,-7.7762574E-2,4.925541E-2,1.148568E-1,-8.984386E-2,-1.2649661E-1,-1.4757653E-3,-7.4830465E-2,1.1253436E-1,-4.2644788E-2,8.882893E-2,1.476718E-1,-9.1662645E-2],"categories":[],"categories_nodes":[],"categories_segments":[],"categories_sizes":[],"default_left":[0,0,0,0,0,0,0,0,0,0,0,0,0,0,0,0,0,0,0,0,0,0,0,0,0,1,0,0,0,0,0,0,0,0,0,0,0,0,0,0,0,0,0,0,0,0,0,0,0,0,0,0,0,0,0,0,0,0,0],"id":8,"left_children":[1,3,5,7,9,11,13,15,17,19,21,23,25,27,29,31,33,35,37,39,41,-1,43,45,47,49,-1,51,53,55,57,-1,-1,-1,-1,-1,-1,-1,-1,-1,-1,-1,-1,-1,-1,-1,-1,-1,-1,-1,-1,-1,-1,-1,-1,-1,-1,-1,-1],"loss_changes":[1.1869875E4,1.9121777E2,4.9502197E2,5.1895508E1,1.5749887E2,7.973677E1,1.17760254E2,1.2723633E1,8.087103E1,9.410846E1,6.6490326E0,1.6283092E1,6.71526E1,3.7541286E1,7.049805E1,1.5527344E0,1.1814687E1,1.7773376E1,8.270042E1,4.9457855E0,5.8218834E1,0E0,4.983185E0,2.3244286E0,2.8795837E1,5.026175E1,0E0,1.4727287E1,9.0720825E0,1.9735573E1,4.6419434E1,0E0,0E0,0E0,0E0,0E0,0E0,0E0,0E0,0E0,0E0,0E0,0E0,0E0,0E0,0E0,0E0,0E0,0E0,0E0,0E0,0E0,0E0,0E0,0E0,0E0,0E0,0E0,0E0],"parents":[2147483647,0,0,1,1,2,2,3,3,4,4,5,5,6,6,7,7,8,8,9,9,10,10,11,11,12,12,13,13,14,14,15,15,16,16,17,17,18,18,19,19,20,20,22,22,23,23,24,24,25,25,27,27,28,28,29,29,30,30],"right_children":[2,4,6,8,10,12,14,16,18,20,22,24,26,28,30,32,34,36,38,40,42,-1,44,46,48,50,-1,52,54,56,58,-1,-1,-1,-1,-1,-1,-1,-1,-1,-1,-1,-1,-1,-1,-1,-1,-1,-1,-1,-1,-1,-1,-1,-1,-1,-1,-1,-1],"split_conditions":[5.859E1,5.2385E1,1E2,5.53324E0,3.53778E2,6.449E1,1.23457E-2,9E0,2.36686E-2,2.61767E0,2.61767E0,5.44353E0,4.2E1,6.557E1,5.18294E0,5.444E1,5.075E1,5.298E1,1.06E2,3E0,9.3E1,4.4198465E-2,2.75229E-2,5E0,3E0,4.604E1,-1.1759017E-1,6.49125E0,5.18294E0,3.17233E1,4.2E1,-1.0953116E-1,-9.712255E-2,-6.340096E-2,1.5568227E-1,-9.871277E-2,-4.742406E-2,-9.0925656E-2,1.602615E-1,4.13282E-1,1.891133E-1,-8.198844E-2,8.8078044E-2,-1.0070193E-1,2.7859975E-2,-1.0088322E-1,-1.403283E-3,-7.7762574E-2,4.925541E-2,1.148568E-1,-8.984386E-2,-1.2649661E-1,-1.4757653E-3,-7.4830465E-2,1.1253436E-1,-4.2644788E-2,8.882893E-2,1.476718E-1,-9.1662645E-2],"split_indices":[15,5,38,6,13,15,1,26,1,14,14,6,85,15,6,36,15,15,38,22,38,0,1,77,22,53,0,6,6,5,85,0,0,0,0,0,0,0,0,0,0,0,0,0,0,0,0,0,0,0,0,0,0,0,0,0,0,0,0],"split_type":[0,0,0,0,0,0,0,0,0,0,0,0,0,0,0,0,0,0,0,0,0,0,0,0,0,0,0,0,0,0,0,0,0,0,0,0,0,0,0,0,0,0,0,0,0,0,0,0,0,0,0,0,0,0,0,0,0,0,0],"sum_hessian":[9.557968E3,6.22444E3,3.3335278E3,6.000352E3,2.24088E2,2.4834811E2,3.0851797E3,5.5178135E3,4.8253864E2,1.09338425E2,1.14749565E2,1.3084035E2,1.17507774E2,8.165369E1,3.0035261E3,5.5084604E3,9.3529825E0,4.3173322E2,5.0805435E1,1.0700855E1,9.8637566E1,2.8783996E0,1.1187117E2,5.9020412E1,7.181992E1,9.934041E1,1.8167364E1,4.6397194E1,3.525649E1,4.396728E1,2.9595588E3,5.325117E3,1.8334306E2,6.7420883E0,2.6108947E0,3.440818E2,8.765143E1,2.3569304E1,2.7236132E1,6.1311746E0,4.569681E0,2.694994E1,7.168763E1,1.0916707E2,2.7040992E0,5.654203E1,2.4783835E0,4.237454E1,2.9445387E1,8.6190254E1,1.3150158E1,1.1987922E1,3.440927E1,2.1200395E0,3.3136448E1,2.355708E1,2.0410204E1,2.9520532E3,7.5056076E0],"tree_param":{"num_deleted":"0","num_feature":"98","num_nodes":"59","size_leaf_vector":"1"}},{"base_weights":[-2.1125047E-1,-1.0041518E0,1.2568465E0,-1.0756924E0,-4.6536127E-1,2.4326239E-2,1.3528663E0,-1.0779748E0,-3.4926824E-2,-1.0175384E0,-2.5401923E-3,2.90143E-1,-1.0391717E0,9.059008E-1,1.4296066E0,-1.0800349E0,-6.596739E-1,-5.5026287E-1,1.7073683E-1,-1.0494851E0,-3.6929977E-1,-3.422953E-1,1.2812517E0,-6.295964E-1,7.241984E-1,-5.784924E-1,-1.08017564E-1,-1.2453902E-1,1.1144638E0,-4.189039E-1,1.4342315E0,-6.2422555E-2,-1.08094886E-1,-9.997623E-2,1.6427338E-3,-9.864279E-2,5.0720423E-2,-8.1292436E-2,-1.0768782E-1,8.099044E-2,-7.135468E-2,-8.7104075E-2,1.051007E-2,-8.855824E-2,1.5080552E-1,-9.707067E-3,-9.835719E-2,-6.2952965E-2,1.1306105E-1,-8.213965E-2,-7.307086E-3,-7.206034E-2,6.009555E-2,1.8709596E-2,1.2254951E-1,3.9642956E-2,-9.8257296E-2,1.4370774E-1,-6.6354774E-2],"categories":[],"categories_nodes":[],"categories_segments":[],"categories_sizes":[],"default_left":[0,0,0,0,0,1,0,0,0,0,0,0,0,0,0,0,0,0,0,0,0,0,0,0,0,0,0,0,0,0,0,0,0,0,0,0,0,0,0,0,0,0,0,0,0,0,0,0,0,0,0,0,0,0,0,0,0,0,0],"id":9,"left_children":[1,3,5,7,9,11,13,15,17,19,21,23,25,27,29,31,33,35,-1,37,39,41,43,45,47,49,-1,51,53,55,57,-1,-1,-1,-1,-1,-1,-1,-1,-1,-1,-1,-1,-1,-1,-1,-1,-1,-1,-1,-1,-1,-1,-1,-1,-1,-1,-1,-1],"loss_changes":[1.0344047E4,2.2189844E2,3.6877393E2,1.205957E1,1.7328555E2,6.4261475E1,9.786963E1,3.666504E0,1.1873392E1,6.015381E0,1.6177397E2,7.302969E1,2.3386002E-1,9.177057E1,2.168164E1,1.4306641E0,6.333291E0,5.183732E0,0E0,1.0305481E0,7.099176E0,6.94673E1,3.9479553E1,1.09922695E1,6.891609E1,6.604762E-1,0E0,3.1858946E1,3.629297E1,3.5734222E0,1.5638672E1,0E0,0E0,0E0,0E0,0E0,0E0,0E0,0E0,0E0,0E0,0E0,0E0,0E0,0E0,0E0,0E0,0E0,0E0,0E0,0E0,0E0,0E0,0E0,0E0,0E0,0E0,0E0,0E0],"parents":[2147483647,0,0,1,1,2,2,3,3,4,4,5,5,6,6,7,7,8,8,9,9,10,10,11,11,12,12,13,13,14,14,15,15,16,16,17,17,19,19,20,20,21,21,22,22,23,23,24,24,25,25,27,27,28,28,29,29,30,30],"right_children":[2,4,6,8,10,12,14,16,18,20,22,24,26,28,30,32,34,36,-1,38,40,42,44,46,48,50,-1,52,54,56,58,-1,-1,-1,-1,-1,-1,-1,-1,-1,-1,-1,-1,-1,-1,-1,-1,-1,-1,-1,-1,-1,-1,-1,-1,-1,-1,-1,-1],"split_conditions":[5.922E1,5.66698E0,1.12E2,8E0,1.09E2,5.6346E-1,3E0,4.537E1,4.08904E0,5.801E1,3E0,3E0,1.16667E0,5.6165E1,3.51538E0,9.2E1,1.44928E-2,3.7037E-2,1.7073683E-1,1.35E2,1.38E2,2E0,5.075E1,1E0,5.18294E0,1.755E2,-1.08017564E-1,6.83067E0,2E0,1.375E0,5.9E1,-6.2422555E-2,-1.08094886E-1,-9.997623E-2,1.6427338E-3,-9.864279E-2,5.0720423E-2,-8.1292436E-2,-1.0768782E-1,8.099044E-2,-7.135468E-2,-8.7104075E-2,1.051007E-2,-8.855824E-2,1.5080552E-1,-9.707067E-3,-9.835719E-2,-6.2952965E-2,1.1306105E-1,-8.213965E-2,-7.307086E-3,-7.206034E-2,6.009555E-2,1.8709596E-2,1.2254951E-1,3.9642956E-2,-9.8257296E-2,1.4370774E-1,-6.6354774E-2],"split_indices":[15,6,38,26,38,52,22,17,6,15,22,22,45,5,6,23,1,1,0,23,23,22,15,84,6,8,0,6,22,10,84,0,0,0,0,0,0,0,0,0,0,0,0,0,0,0,0,0,0,0,0,0,0,0,0,0,0,0,0],"split_type":[0,0,0,0,0,0,0,0,0,0,0,0,0,0,0,0,0,0,0,0,0,0,0,0,0,0,0,0,0,0,0,0,0,0,0,0,0,0,0,0,0,0,0,0,0,0,0,0,0,0,0,0,0,0,0,0,0,0,0],"sum_hessian":[8.884126E3,5.768789E3,3.115337E3,5.091715E3,6.770742E2,2.2525032E2,2.8900864E3,5.0805376E3,1.1177622E1,3.0818723E2,3.68887E2,1.8078984E2,4.4460472E1,4.2536972E2,2.4647168E3,5.054065E3,2.6472506E1,9.154174E0,2.023448E0,2.9312253E2,1.5064715E1,2.9227097E2,7.661604E1,5.7820625E1,1.22969215E2,4.8687167E0,3.9591755E1,7.1670876E1,3.5369885E2,5.927876E0,2.4587888E3,1.1482515E1,5.0425825E3,1.7294443E1,9.1780615E0,6.528567E0,2.6256073E0,3.3603745E1,2.5951877E2,3.0984423E0,1.1966272E1,1.3352289E2,1.5874808E2,6.984348E0,6.963169E1,2.3596281E1,3.4224346E1,2.8266535E1,9.470268E1,2.8661041E0,2.0026124E0,3.9348774E1,3.2322105E1,3.810653E1,3.1559232E2,2.5443027E0,3.3835733E0,2.4557722E3,3.0165372E0],"tree_param":{"num_deleted":"0","num_feature":"98","num_nodes":"59","size_leaf_vector":"1"}},{"base_weights":[-2.0905459E-1,-1.008058E0,1.164176E0,-1.0636201E0,-5.0802696E-1,-8.268344E-2,1.2746819E0,-1.065509E0,4.591378E-2,-1.013351E0,-6.984329E-2,-6.722484E-1,4.1673934E-1,7.7415025E-1,1.3685606E0,-1.0730474E0,-7.9897004E-1,-6.5654504E-1,1.3494173E-1,-6.573203E-1,-1.0581245E0,-9.274823E-1,4.8420835E-1,-9.385764E-1,-3.3163407E-1,7.1487623E-1,-1.20668866E-1,-4.0679505E-1,9.718862E-1,-1.6510737E-1,1.3756243E0,-1.0740421E-1,-3.524281E-2,-9.939315E-2,-2.509557E-2,-8.821023E-2,-1.024675E-2,-8.3953775E-2,1.17083244E-1,-7.008123E-2,-1.0713152E-1,-9.700765E-2,-3.741762E-2,-9.350543E-2,8.327322E-2,-9.924001E-2,2.1670675E-2,-7.988273E-2,3.564645E-2,9.4464056E-2,-8.902349E-2,-7.058781E-2,7.116316E-2,1.1828285E-1,2.6652155E-2,-7.093704E-2,1.1735989E-1,1.3790208E-1,-9.801471E-2],"categories":[],"categories_nodes":[],"categories_segments":[],"categories_sizes":[],"default_left":[0,0,0,0,0,0,0,0,0,0,0,0,0,0,0,0,0,0,0,0,0,0,0,0,0,1,0,0,0,0,0,0,0,0,0,0,0,0,0,0,0,0,0,0,0,0,0,0,0,0,0,0,0,0,0,0,0,0,0],"id":10,"left_children":[1,3,5,7,9,11,13,15,17,19,21,23,25,27,29,31,33,35,-1,37,39,41,43,45,47,49,-1,51,53,55,57,-1,-1,-1,-1,-1,-1,-1,-1,-1,-1,-1,-1,-1,-1,-1,-1,-1,-1,-1,-1,-1,-1,-1,-1,-1,-1,-1,-1],"loss_changes":[9.027916E3,1.4396924E2,4.1711865E2,9.856934E0,1.1553082E2,7.310645E1,1.2958057E2,8.53125E0,9.047106E0,3.1683655E0,1.3382642E2,1.0013401E1,6.597195E1,1.0346835E2,2.5575684E1,2.8764648E0,1.3899498E1,7.175131E-1,0E0,1.0882417E1,2.5630188E-1,2.2413864E0,8.545408E1,4.1527634E0,1.6836979E1,4.2986637E1,0E0,2.1914444E1,5.5985107E1,9.299108E0,1.998877E1,0E0,0E0,0E0,0E0,0E0,0E0,0E0,0E0,0E0,0E0,0E0,0E0,0E0,0E0,0E0,0E0,0E0,0E0,0E0,0E0,0E0,0E0,0E0,0E0,0E0,0E0,0E0,0E0],"parents":[2147483647,0,0,1,1,2,2,3,3,4,4,5,5,6,6,7,7,8,8,9,9,10,10,11,11,12,12,13,13,14,14,15,15,16,16,17,17,19,19,20,20,21,21,22,22,23,23,24,24,25,25,27,27,28,28,29,29,30,30],"right_children":[2,4,6,8,10,12,14,16,18,20,22,24,26,28,30,32,34,36,-1,38,40,42,44,46,48,50,-1,52,54,56,58,-1,-1,-1,-1,-1,-1,-1,-1,-1,-1,-1,-1,-1,-1,-1,-1,-1,-1,-1,-1,-1,-1,-1,-1,-1,-1,-1,-1],"split_conditions":[5.801E1,6.05731E0,1.12E2,9E0,5.84E2,6.322E1,3E0,5.492E1,5.075E1,1.35E2,2E0,6.29501E0,3.4E1,6.59618E0,4.01079E0,5.1235E1,4.82704E0,4E0,1.3494173E-1,6E1,9E0,5.75E0,5.092E1,5E0,3E0,6.22165E-1,-1.20668866E-1,5.7135E1,1.61E2,3.65854E-2,5.8E1,-1.0740421E-1,-3.524281E-2,-9.939315E-2,-2.509557E-2,-8.821023E-2,-1.024675E-2,-8.3953775E-2,1.17083244E-1,-7.008123E-2,-1.0713152E-1,-9.700765E-2,-3.741762E-2,-9.350543E-2,8.327322E-2,-9.924001E-2,2.1670675E-2,-7.988273E-2,3.564645E-2,9.4464056E-2,-8.902349E-2,-7.058781E-2,7.116316E-2,1.1828285E-1,2.6652155E-2,-7.093704E-2,1.1735989E-1,1.3790208E-1,-9.801471E-2],"split_indices":[15,6,38,26,38,15,22,15,15,23,22,6,85,6,6,5,6,2,0,88,18,7,36,26,22,52,0,5,23,1,85,0,0,0,0,0,0,0,0,0,0,0,0,0,0,0,0,0,0,0,0,0,0,0,0,0,0,0,0],"split_type":[0,0,0,0,0,0,0,0,0,0,0,0,0,0,0,0,0,0,0,0,0,0,0,0,0,0,0,0,0,0,0,0,0,0,0,0,0,0,0,0,0,0,0,0,0,0,0,0,0,0,0,0,0,0,0,0,0,0,0],"sum_hessian":[8.225951E3,5.2004033E3,3.0255476E3,4.6793223E3,5.2108075E2,2.463365E2,2.7792112E3,4.6714097E3,7.9128885E0,2.4139061E2,2.7969016E2,1.1281416E2,1.3352234E2,4.4039694E2,2.3388142E3,4.5399805E3,1.3142911E2,5.4644275E0,2.4484608E0,2.8717285E1,2.1267332E2,1.0950654E2,1.7018362E2,6.2325787E1,5.0488373E1,1.1327875E2,2.0243595E1,6.3011856E1,3.7738507E2,1.0620224E1,2.328194E3,4.5332324E3,6.747934E0,9.634113E1,3.5087986E1,3.4627645E0,2.0016632E0,2.6606144E1,2.1111405E0,9.498726E0,2.031746E2,1.0097977E2,8.526772E0,3.3220367E1,1.3696326E2,5.968605E1,2.639738E0,2.9975325E1,2.0513048E1,9.9453865E1,1.3824885E1,5.0007904E1,1.3003951E1,2.899865E2,8.739857E1,7.8847256E0,2.7354982E0,2.325256E3,2.9379058E0],"tree_param":{"num_deleted":"0","num_feature":"98","num_nodes":"59","size_leaf_vector":"1"}},{"base_weights":[-2.0323603E-1,-9.7843313E-1,1.1424592E0,-1.0410817E0,-2.9231754E-1,-9.956339E-4,1.2366626E0,-1.0643001E0,-7.918461E-1,-9.3374765E-1,2.2071245E-1,6.47911E-1,-3.731213E-1,7.854946E-1,1.3172407E0,-1.066218E0,-8.2183294E-2,-1.0330287E0,-5.2487385E-1,-4.5546472E-1,-1.0137439E0,-5.192657E-1,6.677044E-1,1.1927874E-1,1.6023304E0,-6.506783E-1,4.1288683E-1,7.550695E-2,1.031706E0,-9.6194796E-2,1.3237731E0,-5.689743E-2,-1.0669448E-1,-8.9965E-2,7.918031E-2,-7.849962E-2,-1.060215E-1,-8.7447934E-2,-3.181176E-3,1.0638938E-1,-7.5096466E-2,-5.9776116E-2,-1.0248675E-1,4.2595815E-2,-6.252114E-2,-6.3089624E-2,9.2855975E-2,-8.006011E-2,5.2645426E-2,5.691889E-3,1.7403217E-1,-4.1311312E-2,-1.0525855E-1,1.0060864E-1,-7.088092E-2,-7.003093E-2,4.307315E-2,1.0922966E-1,-4.8984896E-2,-6.479084E-2,1.3213824E-1,1.3272373E-1,-6.328618E-2],"categories":[],"categories_nodes":[],"categories_segments":[],"categories_sizes":[],"default_left":[0,0,0,0,0,0,0,0,0,0,0,0,0,0,0,0,0,0,0,0,0,0,0,0,0,0,0,0,0,0,0,0,0,0,0,0,0,0,0,0,0,0,0,0,0,0,0,0,0,0,0,0,0,0,0,0,0,0,0,0,0,0,0],"id":11,"left_children":[1,3,5,7,9,11,13,15,17,19,21,23,25,27,29,31,33,35,37,39,41,43,45,47,49,51,53,55,57,59,61,-1,-1,-1,-1,-1,-1,-1,-1,-1,-1,-1,-1,-1,-1,-1,-1,-1,-1,-1,-1,-1,-1,-1,-1,-1,-1,-1,-1,-1,-1,-1,-1],"loss_changes":[7.95597E3,2.0769336E2,3.0028003E2,2.4813965E1,1.3389537E2,5.171919E1,9.259473E1,7.5463867E0,2.4037735E1,6.4531097E0,7.527519E1,3.919344E1,2.9964544E1,6.8577805E1,2.029004E1,8.5546875E-1,7.13024E0,5.131836E-1,3.1554546E1,1.324109E1,1.0003662E-1,8.865561E0,4.8573093E1,1.964222E1,5.8174973E0,9.207031E0,2.4756592E1,2.8469147E1,2.7412964E1,9.442202E0,1.5573486E1,0E0,0E0,0E0,0E0,0E0,0E0,0E0,0E0,0E0,0E0,0E0,0E0,0E0,0E0,0E0,0E0,0E0,0E0,0E0,0E0,0E0,0E0,0E0,0E0,0E0,0E0,0E0,0E0,0E0,0E0,0E0,0E0],"parents":[2147483647,0,0,1,1,2,2,3,3,4,4,5,5,6,6,7,7,8,8,9,9,10,10,11,11,12,12,13,13,14,14,15,15,16,16,17,17,18,18,19,19,20,20,21,21,22,22,23,23,24,24,25,25,26,26,27,27,28,28,29,29,30,30],"right_children":[2,4,6,8,10,12,14,16,18,20,22,24,26,28,30,32,34,36,38,40,42,44,46,48,50,52,54,56,58,60,62,-1,-1,-1,-1,-1,-1,-1,-1,-1,-1,-1,-1,-1,-1,-1,-1,-1,-1,-1,-1,-1,-1,-1,-1,-1,-1,-1,-1,-1,-1,-1,-1],"split_conditions":[5.922E1,5.438E1,1.12E2,5.53324E0,1.04E2,1.46E2,3E0,9E0,5.84E2,1.38E2,1.36054E-2,5.9E1,6E0,6.282E1,4.19683E0,8.9E1,4.787E1,1.35E2,1.36054E-2,1.75439E-2,1.23457E-2,5.5E1,4.77843E0,3E0,1.47059E-2,7E0,3.22581E-2,7.24693E0,8E0,6E0,5.9E1,-5.689743E-2,-1.0669448E-1,-8.9965E-2,7.918031E-2,-7.849962E-2,-1.060215E-1,-8.7447934E-2,-3.181176E-3,1.0638938E-1,-7.5096466E-2,-5.9776116E-2,-1.0248675E-1,4.2595815E-2,-6.252114E-2,-6.3089624E-2,9.2855975E-2,-8.006011E-2,5.2645426E-2,5.691889E-3,1.7403217E-1,-4.1311312E-2,-1.0525855E-1,1.0060864E-1,-7.088092E-2,-7.003093E-2,4.307315E-2,1.0922966E-1,-4.8984896E-2,-6.479084E-2,1.3213824E-1,1.3272373E-1,-6.328618E-2],"split_indices":[15,15,38,6,38,23,22,26,38,23,1,90,22,15,6,23,15,23,1,39,39,92,6,22,1,85,39,6,85,26,84,0,0,0,0,0,0,0,0,0,0,0,0,0,0,0,0,0,0,0,0,0,0,0,0,0,0,0,0,0,0,0,0],"split_type":[0,0,0,0,0,0,0,0,0,0,0,0,0,0,0,0,0,0,0,0,0,0,0,0,0,0,0,0,0,0,0,0,0,0,0,0,0,0,0,0,0,0,0,0,0,0,0,0,0,0,0,0,0,0,0,0,0,0,0,0,0,0,0],"sum_hessian":[7.6245874E3,4.8379346E3,2.786653E3,4.432674E3,4.0526038E2,2.1217932E2,2.5744736E3,4.0519326E3,3.8074127E2,1.7972905E2,2.2553134E2,7.7060814E1,1.351185E2,3.9175128E2,2.1827224E3,4.0439497E3,7.9829264E0,1.9852469E2,1.822166E2,2.671262E1,1.5301642E2,8.4870224E1,1.4066112E2,5.0316544E1,2.6744272E1,9.998407E1,3.5134426E1,1.01208374E2,2.905429E2,9.978267E0,2.1727441E3,7.0464625E0,4.0369033E3,4.109665E0,3.8732615E0,2.2561413E1,1.7596327E2,1.06166046E2,7.605056E1,3.9260268E0,2.2786594E1,5.41081E0,1.4760562E2,8.249496E0,7.662073E1,2.329156E1,1.1736956E2,1.5141976E1,3.517457E1,2.3080533E0,2.4436218E1,6.411433E1,3.5869747E1,2.3048492E1,1.2085935E1,3.1481283E1,6.972709E1,2.7968744E2,1.0855459E1,7.573606E0,2.404661E0,2.1692253E3,3.5188365E0],"tree_param":{"num_deleted":"0","num_feature":"98","num_nodes":"63","size_leaf_vector":"1"}},{"base_weights":[-1.9924176E-1,-9.8377055E-1,1.0619094E0,-1.0442591E0,-4.612465E-1,-5.2396946E-2,1.1680186E0,-1.0589502E0,-8.5424197E-1,-9.915495E-1,5.43348E-2,-7.3882824E-1,3.085813E-1,6.570635E-1,1.271524E0,-1.0594066E-1,-2.3821501E-2,-1.0404892E0,-5.2031356E-1,-6.7442334E-1,-1.02065146E-1,6.850981E-1,-3.0391654E-1,-8.0849457E-1,3.153923E-1,-5.9964687E-1,7.746676E-1,8.5226916E-2,9.6835333E-1,-2.4821815E-1,1.2794502E0,-1.0456355E-1,-4.191409E-2,8.504488E-2,-7.615053E-2,-9.5014386E-2,1.1025618E-2,1.3664439E-2,1.5742019E-1,1.2273545E-2,-6.555572E-2,-5.4115124E-2,-1.0003755E-1,9.994181E-2,-5.1944107E-2,-7.1364425E-2,8.1201784E-2,1.1871921E-1,-1.1669375E-1,-6.636253E-2,4.3500286E-2,9.995826E-2,-1.4903052E-1,3.0297076E-2,-1.0100602E-1,1.283947E-1,-7.382238E-2],"categories":[],"categories_nodes":[],"categories_segments":[],"categories_sizes":[],"default_left":[0,0,0,0,0,0,0,0,0,0,0,0,0,0,0,0,0,0,0,0,0,0,0,0,0,0,0,0,0,0,0,0,0,0,0,0,0,0,0,0,0,0,0,0,0,0,0,0,0,0,0,0,0,0,0,0,0],"id":12,"left_children":[1,3,5,7,9,11,13,15,17,19,21,23,25,27,29,-1,-1,31,33,35,-1,37,39,41,43,45,47,49,51,53,55,-1,-1,-1,-1,-1,-1,-1,-1,-1,-1,-1,-1,-1,-1,-1,-1,-1,-1,-1,-1,-1,-1,-1,-1,-1,-1],"loss_changes":[7.0240815E3,1.378457E2,3.2198608E2,1.0042969E1,1.2469352E2,5.912212E1,1.3064062E2,1.1101074E0,1.7284058E1,1.3861084E0,5.2653603E1,6.2927017E0,6.670113E1,7.482884E1,2.5206543E1,0E0,0E0,1.4686584E-1,3.523719E1,4.8301735E0,0E0,4.0929714E1,2.2391376E1,3.4287758E0,3.8399153E0,9.209917E0,8.455884E1,3.9430176E1,2.2405075E1,5.1593585E0,1.95979E1,0E0,0E0,0E0,0E0,0E0,0E0,0E0,0E0,0E0,0E0,0E0,0E0,0E0,0E0,0E0,0E0,0E0,0E0,0E0,0E0,0E0,0E0,0E0,0E0,0E0,0E0],"parents":[2147483647,0,0,1,1,2,2,3,3,4,4,5,5,6,6,7,7,8,8,9,9,10,10,11,11,12,12,13,13,14,14,17,17,18,18,19,19,21,21,22,22,23,23,24,24,25,25,26,26,27,27,28,28,29,29,30,30],"right_children":[2,4,6,8,10,12,14,16,18,20,22,24,26,28,30,-1,-1,32,34,36,-1,38,40,42,44,46,48,50,52,54,56,-1,-1,-1,-1,-1,-1,-1,-1,-1,-1,-1,-1,-1,-1,-1,-1,-1,-1,-1,-1,-1,-1,-1,-1,-1,-1],"split_conditions":[5.801E1,5.298E1,1.12E2,5.088E1,1.19E2,3E0,3E0,1.1E1,5.84E2,1.33E2,1.46E2,1.65082E1,3.0615E1,6.322E1,4.01079E0,-1.0594066E-1,-2.3821501E-2,3.7E0,7.89969E-1,5.2E1,-1.02065146E-1,5.8E1,1.33333E1,1E0,1.024E2,5.62584E0,9E0,7.24693E0,4.4E1,1.62E2,5.9E1,-1.0456355E-1,-4.191409E-2,8.504488E-2,-7.615053E-2,-9.5014386E-2,1.1025618E-2,1.3664439E-2,1.5742019E-1,1.2273545E-2,-6.555572E-2,-5.4115124E-2,-1.0003755E-1,9.994181E-2,-5.1944107E-2,-7.1364425E-2,8.1201784E-2,1.1871921E-1,-1.1669375E-1,-6.636253E-2,4.3500286E-2,9.995826E-2,-1.4903052E-1,3.0297076E-2,-1.0100602E-1,1.283947E-1,-7.382238E-2],"split_indices":[15,15,38,15,38,22,22,26,38,23,23,14,5,15,6,0,0,11,14,90,0,90,13,84,13,14,95,6,84,23,84,0,0,0,0,0,0,0,0,0,0,0,0,0,0,0,0,0,0,0,0,0,0,0,0,0,0],"split_type":[0,0,0,0,0,0,0,0,0,0,0,0,0,0,0,0,0,0,0,0,0,0,0,0,0,0,0,0,0,0,0,0,0,0,0,0,0,0,0,0,0,0,0,0,0,0,0,0,0,0,0,0,0,0,0,0,0],"sum_hessian":[7.0972104E3,4.3755293E3,2.7216812E3,3.9206658E3,4.5486368E2,2.3668071E2,2.4850002E3,3.635052E3,2.8561377E2,2.2377547E2,2.3108823E2,8.120867E1,1.5547205E2,4.1983398E2,2.0651663E3,3.6327407E3,2.3113446E0,1.8199234E2,1.0362143E2,2.0841301E1,2.0293416E2,8.337675E1,1.4771149E2,7.639343E1,4.8152366E0,5.2629753E1,1.02842285E2,1.4843466E2,2.7139932E2,1.0557804E1,2.0546086E3,1.7982016E2,2.1721883E0,1.5126592E1,8.849484E1,1.5266199E1,5.575103E0,5.228057E1,3.1096172E1,6.7031685E1,8.0679794E1,3.3516254E1,4.287718E1,2.5383103E0,2.2769265E0,4.915478E1,3.4749713E0,8.514125E1,1.7701042E1,4.6972237E1,1.0146242E2,2.685813E2,2.8180099E0,6.4752855E0,4.0825186E0,2.0504026E3,4.2059913E0],"tree_param":{"num_deleted":"0","num_feature":"98","num_nodes":"57","size_leaf_vector":"1"}},{"base_weights":[-1.9011323E-1,-9.683667E-1,1.0254267E0,-1.0397804E0,-4.3892884E-1,-6.4853616E-2,1.130463E0,-1.0437819E0,-4.3157765E-1,-9.805257E-1,-4.2640686E-2,-6.09939E-1,3.6460665E-1,4.1000694E-1,1.2024391E0,-1.0503439E0,-8.0881655E-1,-7.7520186E-1,6.505654E-1,-6.116897E-1,-1.0290707E0,3.874265E-1,-8.436263E-1,-1.3688724E-1,-8.0218214E-1,5.878867E-1,-1.1386639E-1,-1.374994E-1,8.267093E-1,1.2137069E0,-1.121163E0,-5.579363E-2,-1.0514679E-1,-9.6907064E-2,-3.2785855E-2,-9.834223E-2,-2.9941559E-2,1.4199443E-1,-7.1708776E-2,-7.784804E-2,9.193163E-2,-3.8794525E-2,-1.03436664E-1,-8.756406E-2,6.8377286E-2,2.3246832E-2,-8.9566454E-2,8.547189E-2,-5.639208E-2,-8.721335E-2,-6.0622795E-3,-2.714145E-2,8.924054E-2,3.337455E-2,-6.885182E-2,-4.2343635E-2,9.5254034E-2,-3.9674467E-3,1.22498296E-1,2.5592385E-2,-1.766143E-1],"categories":[],"categories_nodes":[],"categories_segments":[],"categories_sizes":[],"default_left":[0,0,0,0,0,0,0,0,0,0,0,0,0,0,0,0,0,0,1,0,0,0,0,0,0,0,0,0,0,0,0,0,0,0,0,0,0,0,0,0,0,0,0,0,0,0,0,0,0,0,0,0,0,0,0,0,0,0,0,0,0],"id":13,"left_children":[1,3,5,7,9,11,13,15,17,19,21,23,25,27,29,31,33,35,37,39,41,43,45,47,49,51,-1,53,55,57,59,-1,-1,-1,-1,-1,-1,-1,-1,-1,-1,-1,-1,-1,-1,-1,-1,-1,-1,-1,-1,-1,-1,-1,-1,-1,-1,-1,-1,-1,-1],"loss_changes":[6.210235E3,1.5086108E2,2.935332E2,8.130371E0,1.0242235E2,5.315643E1,1.2071533E2,4.5498047E0,9.70751E0,2.9815063E0,9.5653885E1,8.98629E0,4.3331352E1,4.889696E1,5.6986816E1,1.2971191E0,7.3507996E0,1.6117306E0,7.866894E0,7.3350143E0,1.9885254E-1,6.825048E1,5.63945E0,1.3231223E1,3.6256561E0,2.9372944E1,0E0,2.4447601E1,1.9525291E1,2.9938232E1,1.0020419E1,0E0,0E0,0E0,0E0,0E0,0E0,0E0,0E0,0E0,0E0,0E0,0E0,0E0,0E0,0E0,0E0,0E0,0E0,0E0,0E0,0E0,0E0,0E0,0E0,0E0,0E0,0E0,0E0,0E0,0E0],"parents":[2147483647,0,0,1,1,2,2,3,3,4,4,5,5,6,6,7,7,8,8,9,9,10,10,11,11,12,12,13,13,14,14,15,15,16,16,17,17,18,18,19,19,20,20,21,21,22,22,23,23,24,24,25,25,27,27,28,28,29,29,30,30],"right_children":[2,4,6,8,10,12,14,16,18,20,22,24,26,28,30,32,34,36,38,40,42,44,46,48,50,52,-1,54,56,58,60,-1,-1,-1,-1,-1,-1,-1,-1,-1,-1,-1,-1,-1,-1,-1,-1,-1,-1,-1,-1,-1,-1,-1,-1,-1,-1,-1,-1,-1,-1],"split_conditions":[5.801E1,5.77784E0,1.12E2,4.528E1,5.84E2,6.322E1,1.42857E-2,5.492E1,1.66667E-2,1.35E2,4.52571E2,1.46E2,4.2E1,6.357E1,5.7E1,9.3E1,4.66648E0,5.1235E1,2.17391E-2,6.2E1,1.0976E6,5.092E1,4.079E1,1.75439E-2,8E0,3.444E1,-1.1386639E-1,1.63E2,5.77784E0,4.52639E0,2.28571E0,-5.579363E-2,-1.0514679E-1,-9.6907064E-2,-3.2785855E-2,-9.834223E-2,-2.9941559E-2,1.4199443E-1,-7.1708776E-2,-7.784804E-2,9.193163E-2,-3.8794525E-2,-1.03436664E-1,-8.756406E-2,6.8377286E-2,2.3246832E-2,-8.9566454E-2,8.547189E-2,-5.639208E-2,-8.721335E-2,-6.0622795E-3,-2.714145E-2,8.924054E-2,3.337455E-2,-6.885182E-2,-4.2343635E-2,9.5254034E-2,-3.9674467E-3,1.22498296E-1,2.5592385E-2,-1.766143E-1],"split_indices":[15,6,38,17,38,15,1,15,1,23,13,23,85,15,84,23,6,5,39,38,35,36,5,39,2,5,0,23,6,6,7,0,0,0,0,0,0,0,0,0,0,0,0,0,0,0,0,0,0,0,0,0,0,0,0,0,0,0,0,0,0],"split_type":[0,0,0,0,0,0,0,0,0,0,0,0,0,0,0,0,0,0,0,0,0,0,0,0,0,0,0,0,0,0,0,0,0,0,0,0,0,0,0,0,0,0,0,0,0,0,0,0,0,0,0,0,0,0,0,0,0,0,0,0,0],"sum_hessian":[6.562693E3,4.0011482E3,2.561545E3,3.5247456E3,4.7640253E2,2.2512445E2,2.3364204E3,3.5009958E3,2.3749704E1,2.0067326E2,2.7572928E2,9.9022064E1,1.2610238E2,2.1282376E2,2.1235967E3,3.4025022E3,9.849365E1,1.8241068E1,5.5086355E0,2.4921871E1,1.7575139E2,1.7973944E2,9.598983E1,2.9108057E1,6.991401E1,1.1032482E2,1.5777563E1,9.226567E1,1.2055808E2,2.1138237E3,9.772904E0,8.8819065E0,3.3936204E3,7.311652E1,2.5377127E1,1.1946102E1,6.294966E0,3.5009358E0,2.0077E0,2.2916796E1,2.0050757E0,2.0482137E0,1.7370317E2,3.3785675E1,1.4595377E2,4.2678547E0,9.172198E1,8.460521E0,2.0647535E1,6.3726593E1,6.187419E0,2.8895432E1,8.142939E1,4.9945423E1,4.232025E1,1.0808572E1,1.0974951E2,1.8825178E1,2.0949985E3,3.3096747E0,6.46323E0],"tree_param":{"num_deleted":"0","num_feature":"98","num_nodes":"61","size_leaf_vector":"1"}},{"base_weights":[-1.8929546E-1,-9.2496496E-1,1.0357572E0,-1.0273649E0,-3.076495E-1,5.6251436E-2,1.1210182E0,-1.0308161E0,3.3630234E-1,-9.23997E-1,6.642023E-2,6.776466E-1,-3.289005E-1,6.741678E-1,1.205881E0,-1.0421158E0,-7.9507065E-1,-7.104688E-2,1.502573E-1,-9.648307E-1,-1.4871149E-1,-7.8280145E-1,4.2391297E-1,-5.473519E-1,1.073512E0,-6.048311E-1,3.5085177E-1,8.956154E-1,9.353564E-2,1.2094245E0,-8.931362E-2,-4.7309592E-2,-1.0430495E-1,-9.597868E-2,-3.2014843E-2,-7.086553E-2,-1.030977E-1,-9.0266764E-2,6.308054E-2,-4.195782E-2,-8.95794E-2,8.2092516E-2,-3.3379234E-2,6.6232043E-3,-8.8414386E-2,1.2269878E-1,-6.749206E-2,-3.6048688E-2,-9.636852E-2,-7.75202E-2,8.2581125E-2,1.8201223E-2,1.0430954E-1,-1.6483615E-1,2.1919077E-2,5.4923166E-3,1.2155687E-1],"categories":[],"categories_nodes":[],"categories_segments":[],"categories_sizes":[],"default_left":[0,0,0,0,0,0,0,0,0,0,0,0,0,0,0,0,0,0,0,0,0,0,0,0,1,0,0,0,0,0,0,0,0,0,0,0,0,0,0,0,0,0,0,0,0,0,0,0,0,0,0,0,0,0,0,0,0],"id":14,"left_children":[1,3,5,7,9,11,13,15,17,19,21,23,25,27,29,31,33,-1,-1,35,37,39,41,43,45,47,49,51,53,55,-1,-1,-1,-1,-1,-1,-1,-1,-1,-1,-1,-1,-1,-1,-1,-1,-1,-1,-1,-1,-1,-1,-1,-1,-1,-1,-1],"loss_changes":[5.481696E3,2.3990283E2,1.9053345E2,1.5684814E1,1.2504768E2,4.4212353E1,7.879932E1,7.831787E0,1.2032235E1,6.3405E0,1.0303396E2,3.485198E1,2.1621502E1,4.3291412E1,1.41936035E1,1.1533203E0,1.1655273E1,0E0,0E0,2.5632477E0,7.2870135E0,3.7517395E0,7.208545E1,3.761549E0,1.5248455E1,6.803623E0,1.8604645E1,2.5498413E1,2.0991394E1,1.2421387E1,0E0,0E0,0E0,0E0,0E0,0E0,0E0,0E0,0E0,0E0,0E0,0E0,0E0,0E0,0E0,0E0,0E0,0E0,0E0,0E0,0E0,0E0,0E0,0E0,0E0,0E0,0E0],"parents":[2147483647,0,0,1,1,2,2,3,3,4,4,5,5,6,6,7,7,8,8,9,9,10,10,11,11,12,12,13,13,14,14,15,15,16,16,19,19,20,20,21,21,22,22,23,23,24,24,25,25,26,26,27,27,28,28,29,29],"right_children":[2,4,6,8,10,12,14,16,18,20,22,24,26,28,30,32,34,-1,-1,36,38,40,42,44,46,48,50,52,54,56,-1,-1,-1,-1,-1,-1,-1,-1,-1,-1,-1,-1,-1,-1,-1,-1,-1,-1,-1,-1,-1,-1,-1,-1,-1,-1,-1],"split_conditions":[5.983E1,5.77784E0,1.12E2,8E0,1.09E2,1.46E2,3E0,5.444E1,5.105E1,4E0,2E0,4.6E1,6E0,1.6E2,5.8E1,8.9E1,4.82704E0,-7.104688E-2,1.502573E-1,1.44E2,1E1,1E0,1.61E2,1E0,5.462E1,2E0,3.68002E0,5.7135E1,1.235E2,4.06995E0,-8.931362E-2,-4.7309592E-2,-1.0430495E-1,-9.597868E-2,-3.2014843E-2,-7.086553E-2,-1.030977E-1,-9.0266764E-2,6.308054E-2,-4.195782E-2,-8.95794E-2,8.2092516E-2,-3.3379234E-2,6.6232043E-3,-8.8414386E-2,1.2269878E-1,-6.749206E-2,-3.6048688E-2,-9.636852E-2,-7.75202E-2,8.2581125E-2,1.8201223E-2,1.0430954E-1,-1.6483615E-1,2.1919077E-2,5.4923166E-3,1.2155687E-1],"split_indices":[15,6,38,26,38,23,22,36,36,22,22,90,22,23,85,23,6,0,0,23,40,29,23,84,53,84,14,5,8,6,0,0,0,0,0,0,0,0,0,0,0,0,0,0,0,0,0,0,0,0,0,0,0,0,0,0,0],"split_type":[0,0,0,0,0,0,0,0,0,0,0,0,0,0,0,0,0,0,0,0,0,0,0,0,0,0,0,0,0,0,0,0,0,0,0,0,0,0,0,0,0,0,0,0,0,0,0,0,0,0,0,0,0,0,0,0,0],"sum_hessian":[6.080371E3,3.7991484E3,2.2812224E3,3.2580425E3,5.4110614E2,1.8280142E2,2.0984211E3,3.250061E3,7.9814363E0,2.0381459E2,3.372915E2,6.9657776E1,1.13143654E2,3.3634097E2,1.7620801E3,3.0981406E3,1.5192026E2,4.41217E0,3.5692663E0,1.9338467E2,1.0429913E1,9.957117E1,2.3772035E2,1.6919134E1,5.273864E1,8.055452E1,3.2589134E1,2.4308728E2,9.325368E1,1.7595336E3,2.5465252E0,5.9068313E0,3.092234E3,1.12040565E2,3.98797E1,4.2089912E1,1.5129477E2,5.2215734E0,5.208339E0,2.4743765E1,7.48274E1,1.5593317E2,8.1787186E1,6.28045E0,1.0638685E1,4.8757027E1,3.9816122E0,4.9115948E1,3.143857E1,9.480418E0,2.3108717E1,4.201683E1,2.0107045E2,5.4590693E0,8.779461E1,9.367242E0,1.7501664E3],"tree_param":{"num_deleted":"0","num_feature":"98","num_nodes":"57","size_leaf_vector":"1"}},{"base_weights":[-1.8926267E-1,-8.8458484E-1,1.0416182E0,-1.0195234E0,-2.1868503E-1,1.1074661E0,1.8626899E-3,-1.0236789E0,2.3370792E-1,-4.7958946E-1,6.9402415E-1,6.0079455E-1,1.1718152E0,2.784071E-1,-9.6866524E-1,-1.0371903E0,-7.821959E-1,-8.538521E-2,9.30959E-1,2.316248E-2,-7.32628E-1,9.461726E-1,-7.6497877E-1,-2.2993849E-1,8.048679E-1,1.1775554E0,-8.6435415E-2,8.286613E-1,-2.5077957E-1,-3.1069417E-2,-1.03627406E-1,-1.0381726E-1,5.1458823E-3,-9.875668E-2,-4.0678155E-2,1.6496988E-1,-4.510128E-2,-6.1244007E-2,1.0051554E-1,-2.1142296E-2,-8.388052E-2,1.2167426E-1,7.2748945E-3,4.947945E-3,-1.03897884E-1,3.3640634E-2,-8.826116E-2,9.573781E-2,-1.4197652E-2,1.1818957E-1,-5.1585343E-2,-6.656004E-2,1.1147618E-1,-1.05328046E-1,2.2367109E-3],"categories":[],"categories_nodes":[],"categories_segments":[],"categories_sizes":[],"default_left":[0,0,1,0,0,0,1,0,0,0,1,0,0,0,0,0,0,0,1,0,0,0,0,0,0,0,0,0,0,0,0,0,0,0,0,0,0,0,0,0,0,0,0,0,0,0,0,0,0,0,0,0,0,0,0],"id":15,"left_children":[1,3,5,7,9,11,13,15,17,19,21,23,25,27,29,31,33,-1,35,37,39,41,43,45,47,49,-1,51,53,-1,-1,-1,-1,-1,-1,-1,-1,-1,-1,-1,-1,-1,-1,-1,-1,-1,-1,-1,-1,-1,-1,-1,-1,-1,-1],"loss_changes":[4.791776E3,3.2124316E2,1.3837549E2,1.5729492E1,1.4418346E2,6.1267822E1,3.2846416E1,8.862793E0,8.866588E0,5.985701E1,5.0278633E1,3.6846046E1,2.0718506E1,2.7939724E1,8.853073E-1,3.0524902E0,1.2024109E1,0E0,7.6617093E0,9.951546E1,1.7140182E1,2.7159393E1,4.6043663E0,1.6348188E1,2.5236938E1,1.2966309E1,0E0,2.080141E1,1.0833597E1,0E0,0E0,0E0,0E0,0E0,0E0,0E0,0E0,0E0,0E0,0E0,0E0,0E0,0E0,0E0,0E0,0E0,0E0,0E0,0E0,0E0,0E0,0E0,0E0,0E0,0E0],"parents":[2147483647,0,0,1,1,2,2,3,3,4,4,5,5,6,6,7,7,8,8,9,9,10,10,11,11,12,12,13,13,14,14,15,15,16,16,18,18,19,19,20,20,21,21,22,22,23,23,24,24,25,25,27,27,28,28],"right_children":[2,4,6,8,10,12,14,16,18,20,22,24,26,28,30,32,34,-1,36,38,40,42,44,46,48,50,-1,52,54,-1,-1,-1,-1,-1,-1,-1,-1,-1,-1,-1,-1,-1,-1,-1,-1,-1,-1,-1,-1,-1,-1,-1,-1,-1,-1],"split_conditions":[6.116E1,5.66698E0,1.47059E-2,8E0,3E0,1.5873E-2,4.604E1,5.444E1,4.749E1,8.88889E0,1.92308E-2,5.66437E1,2.3E1,1E0,1.16667E0,5.093E1,4.52639E0,-8.538521E-2,1.44928E-2,1.6E0,1.38E2,4.66667E0,1.37E2,1E0,1.024E2,5.7E1,-8.6435415E-2,5.44353E0,2.00001E0,-3.1069417E-2,-1.03627406E-1,-1.0381726E-1,5.1458823E-3,-9.875668E-2,-4.0678155E-2,1.6496988E-1,-4.510128E-2,-6.1244007E-2,1.0051554E-1,-2.1142296E-2,-8.388052E-2,1.2167426E-1,7.2748945E-3,4.947945E-3,-1.03897884E-1,3.3640634E-2,-8.826116E-2,9.573781E-2,-1.4197652E-2,1.1818957E-1,-5.1585343E-2,-6.656004E-2,1.1147618E-1,-1.05328046E-1,2.2367109E-3],"split_indices":[15,6,39,26,22,1,53,36,15,13,39,5,95,84,45,17,6,0,39,13,23,7,23,84,13,84,0,6,34,0,0,0,0,0,0,0,0,0,0,0,0,0,0,0,0,0,0,0,0,0,0,0,0,0,0],"split_type":[0,0,0,0,0,0,0,0,0,0,0,0,0,0,0,0,0,0,0,0,0,0,0,0,0,0,0,0,0,0,0,0,0,0,0,0,0,0,0,0,0,0,0,0,0,0,0,0,0,0,0,0,0,0,0],"sum_hessian":[5.596716E3,3.576589E3,2.0201267E3,2.9735044E3,6.0308466E2,1.8997502E3,1.2037649E2,2.96386E3,9.644418E0,4.6938278E2,1.3370187E2,2.1525003E2,1.6845002E3,9.423741E1,2.613908E1,2.803693E3,1.6016696E2,3.6799295E0,5.964488E0,1.5745345E2,3.1192932E2,1.1429979E2,1.9402075E1,4.24243E1,1.7282573E2,1.6801852E3,4.3150682E0,4.592165E1,4.831576E1,2.956993E0,2.3182087E1,2.801212E3,2.4812043E0,1.0247649E2,5.769047E1,3.7963455E0,2.1681423E0,9.5813644E1,6.16398E1,5.3296673E1,2.5863266E2,8.696624E1,2.7333555E1,5.0904026E0,1.4311673E1,2.2973793E1,1.9450508E1,1.4884056E2,2.3985163E1,1.676191E3,3.9941406E0,7.1663537E0,3.8755295E1,1.1543889E1,3.6771873E1],"tree_param":{"num_deleted":"0","num_feature":"98","num_nodes":"55","size_leaf_vector":"1"}},{"base_weights":[-1.8546274E-1,-9.298871E-1,9.1653615E-1,-1.0223382E0,-3.9637783E-1,-1.0167106E-1,1.0259168E0,-1.0247076E0,2.697238E-1,-9.43922E-1,-2.4400923E-2,1.1657712E-1,-9.7454476E-1,5.097453E-1,1.1466768E0,-1.026636E0,7.924524E-3,1.0340692E-1,-5.8014233E-2,-4.9879143E-1,-9.99968E-1,-4.089197E-1,7.259187E-1,-5.64235E-1,4.8633832E-1,-1.3313979E-2,-1.01943016E-1,-3.117419E-1,7.044405E-1,-1.2244464E-1,1.1559002E0,-1.03408925E-1,-8.0967695E-2,6.445956E-2,-7.78826E-2,-9.182417E-2,2.2004664E-2,-6.062249E-2,-1.01647235E-1,-9.460885E-2,-1.6402325E-2,1.0074528E-1,-4.46103E-2,-6.75245E-2,5.5302273E-2,1.3485482E-1,6.308055E-3,-6.955105E-2,1.6768554E-2,-1.8820204E-2,8.690777E-2,-6.25909E-2,1.04158476E-1,1.1605163E-1,-8.749776E-2],"categories":[],"categories_nodes":[],"categories_segments":[],"categories_sizes":[],"default_left":[0,0,0,0,0,1,0,0,0,0,0,0,0,0,0,0,0,0,0,0,0,0,0,0,0,0,0,0,0,0,0,0,0,0,0,0,0,0,0,0,0,0,0,0,0,0,0,0,0,0,0,0,0,0,0],"id":16,"left_children":[1,3,5,7,9,11,13,15,17,19,21,23,25,27,29,31,33,-1,-1,35,37,39,41,43,45,-1,-1,47,49,51,53,-1,-1,-1,-1,-1,-1,-1,-1,-1,-1,-1,-1,-1,-1,-1,-1,-1,-1,-1,-1,-1,-1,-1,-1],"loss_changes":[4.245437E3,1.5193237E2,2.324873E2,8.333008E0,9.321764E1,3.88454E1,1.1686511E2,5.23999E0,4.2433023E0,4.1207123E0,7.9241714E1,4.1443447E1,1.404171E0,5.764496E1,1.8006836E1,3.4033203E0,3.452151E0,0E0,0E0,7.047151E0,4.4604492E-1,2.3728354E1,3.11605E1,7.569763E0,3.8786865E1,0E0,0E0,1.2900963E1,4.2864883E1,7.635218E0,1.5220093E1,0E0,0E0,0E0,0E0,0E0,0E0,0E0,0E0,0E0,0E0,0E0,0E0,0E0,0E0,0E0,0E0,0E0,0E0,0E0,0E0,0E0,0E0,0E0,0E0],"parents":[2147483647,0,0,1,1,2,2,3,3,4,4,5,5,6,6,7,7,8,8,9,9,10,10,11,11,12,12,13,13,14,14,15,15,16,16,19,19,20,20,21,21,22,22,23,23,24,24,27,27,28,28,29,29,30,30],"right_children":[2,4,6,8,10,12,14,16,18,20,22,24,26,28,30,32,34,-1,-1,36,38,40,42,44,46,-1,-1,48,50,52,54,-1,-1,-1,-1,-1,-1,-1,-1,-1,-1,-1,-1,-1,-1,-1,-1,-1,-1,-1,-1,-1,-1,-1,-1],"split_conditions":[5.801E1,5.44353E0,1.12E2,1E1,5.84E2,6.52145E-2,3E0,5.162E1,2.8E0,1.33E2,1.5873E-2,3E0,2.660009E6,5.476E1,4.01079E0,5.444E1,3.20418E0,1.0340692E-1,-5.8014233E-2,5.1E1,9E0,5.119E1,3.48444E2,1.59739E1,2.25E0,-1.3313979E-2,-1.01943016E-1,6.282E1,2E0,3.79747E-2,5.3E1,-1.03408925E-1,-8.0967695E-2,6.445956E-2,-7.78826E-2,-9.182417E-2,2.2004664E-2,-6.062249E-2,-1.01647235E-1,-9.460885E-2,-1.6402325E-2,1.0074528E-1,-4.46103E-2,-6.75245E-2,5.5302273E-2,1.3485482E-1,6.308055E-3,-6.955105E-2,1.6768554E-2,-1.8820204E-2,8.690777E-2,-6.25909E-2,1.04158476E-1,1.1605163E-1,-8.749776E-2],"split_indices":[15,6,38,26,38,52,22,5,7,23,1,22,35,5,6,36,14,0,0,90,18,36,13,14,7,0,0,15,22,1,85,0,0,0,0,0,0,0,0,0,0,0,0,0,0,0,0,0,0,0,0,0,0,0,0],"split_type":[0,0,0,0,0,0,0,0,0,0,0,0,0,0,0,0,0,0,0,0,0,0,0,0,0,0,0,0,0,0,0,0,0,0,0,0,0,0,0,0,0,0,0,0,0,0,0,0,0,0,0,0,0,0,0],"sum_hessian":[5.173084E3,3.0875396E3,2.0855444E3,2.6307454E3,4.567942E2,2.023132E2,1.8832312E3,2.6261365E3,4.608751E0,1.8416646E2,2.7262772E2,1.6253929E2,3.977392E1,3.5804413E2,1.5251871E3,2.6212468E3,4.8896294E0,2.3123477E0,2.2964034E0,2.17022E1,1.6246426E2,1.8055376E2,9.207397E1,5.7022438E1,1.05516846E2,2.2151804E0,3.755874E1,6.848417E1,2.8955997E2,1.0915899E1,1.5142711E3,2.5305483E3,9.069853E1,2.8024538E0,2.0871756E0,1.3529932E1,8.172267E0,8.053929E0,1.5441034E2,5.564213E1,1.2491162E2,7.43537E1,1.772027E1,5.2228653E1,4.793783E0,3.4023056E1,7.149379E1,3.778644E1,3.069773E1,4.506734E1,2.4449263E2,7.942787E0,2.9731123E0,1.5112648E3,3.0063474E0],"tree_param":{"num_deleted":"0","num_feature":"98","num_nodes":"55","size_leaf_vector":"1"}},{"base_weights":[-1.7762375E-1,-9.172254E-1,8.891496E-1,-1.0145032E0,-3.6925617E-1,-9.1135494E-2,9.982871E-1,-1.0181075E0,-1.8328E-2,-9.179348E-1,-3.746668E-2,1.08361974E-1,-1.0073128E0,4.8734882E-1,1.124539E0,-1.0281858E0,-7.5045377E-1,-8.907168E-2,7.788089E-1,-3.859735E-1,-9.87928E-1,-7.9561365E-1,2.7245086E-1,-6.129731E-1,3.950485E-1,-4.04296E-2,-1.0318079E-1,1.8279774E-2,8.141978E-1,2.308694E-1,1.1373429E0,-4.6920914E-2,-1.0290191E-1,-9.641577E-2,-3.605148E-2,-2.0586144E-2,1.5242067E-1,-8.271689E-2,3.942324E-2,-1.0139902E-1,-5.6218304E-2,5.65122E-3,-8.460071E-2,-8.2694426E-2,5.3099364E-2,-7.420293E-2,9.617231E-2,-6.611164E-2,8.216839E-2,-7.481986E-2,3.0884419E-2,8.9899085E-2,-9.52367E-2,-2.4056833E-2,1.0775244E-1,1.1418535E-1,-5.8379035E-2],"categories":[],"categories_nodes":[],"categories_segments":[],"categories_sizes":[],"default_left":[0,0,0,0,0,1,0,0,0,0,0,0,0,0,0,0,0,0,0,0,0,0,0,0,0,0,0,0,0,0,0,0,0,0,0,0,0,0,0,0,0,0,0,0,0,0,0,0,0,0,0,0,0,0,0,0,0],"id":17,"left_children":[1,3,5,7,9,11,13,15,17,19,21,23,25,27,29,31,33,-1,35,37,39,41,43,45,47,-1,-1,49,51,53,55,-1,-1,-1,-1,-1,-1,-1,-1,-1,-1,-1,-1,-1,-1,-1,-1,-1,-1,-1,-1,-1,-1,-1,-1,-1,-1],"loss_changes":[3.783102E3,1.5056152E2,2.1013647E2,8.613525E0,7.79646E1,3.6225178E1,1.1341638E2,5.6899414E0,7.4290047E0,5.628769E0,6.319708E1,3.3984795E1,1.0618973E-1,5.392375E1,1.5938721E1,5.9106445E-1,7.2043953E0,0E0,4.4199443E0,7.351675E0,1.0056152E0,3.3986473E0,5.4732166E1,1.022406E1,5.3429924E1,0E0,0E0,3.263529E1,3.1910812E1,8.742687E0,1.1501343E1,0E0,0E0,0E0,0E0,0E0,0E0,0E0,0E0,0E0,0E0,0E0,0E0,0E0,0E0,0E0,0E0,0E0,0E0,0E0,0E0,0E0,0E0,0E0,0E0,0E0,0E0],"parents":[2147483647,0,0,1,1,2,2,3,3,4,4,5,5,6,6,7,7,8,8,9,9,10,10,11,11,12,12,13,13,14,14,15,15,16,16,18,18,19,19,20,20,21,21,22,22,23,23,24,24,27,27,28,28,29,29,30,30],"right_children":[2,4,6,8,10,12,14,16,18,20,22,24,26,28,30,32,34,-1,36,38,40,42,44,46,48,-1,-1,50,52,54,56,-1,-1,-1,-1,-1,-1,-1,-1,-1,-1,-1,-1,-1,-1,-1,-1,-1,-1,-1,-1,-1,-1,-1,-1,-1,-1],"split_conditions":[5.801E1,5.53324E0,1.12E2,8E0,5.84E2,5.6346E-1,3E0,5.444E1,8.7E1,1.33E2,2E0,5.44353E0,1.11E2,6.357E1,4.93145E0,8.8E1,4.41642E0,-8.907168E-2,5.02E1,5.1E1,4E0,4.079E1,5.088E1,5E0,2.00001E0,-4.04296E-2,-1.0318079E-1,7.09754E0,8E0,3.27869E-2,1.5E1,-4.6920914E-2,-1.0290191E-1,-9.641577E-2,-3.605148E-2,-2.0586144E-2,1.5242067E-1,-8.271689E-2,3.942324E-2,-1.0139902E-1,-5.6218304E-2,5.65122E-3,-8.460071E-2,-8.2694426E-2,5.3099364E-2,-7.420293E-2,9.617231E-2,-6.611164E-2,8.216839E-2,-7.481986E-2,3.0884419E-2,8.9899085E-2,-9.52367E-2,-2.4056833E-2,1.0775244E-1,1.1418535E-1,-5.8379035E-2],"split_indices":[15,6,38,26,38,52,22,36,38,23,22,6,23,15,6,23,6,0,15,90,27,5,15,26,34,0,0,6,85,1,95,0,0,0,0,0,0,0,0,0,0,0,0,0,0,0,0,0,0,0,0,0,0,0,0,0,0],"split_type":[0,0,0,0,0,0,0,0,0,0,0,0,0,0,0,0,0,0,0,0,0,0,0,0,0,0,0,0,0,0,0,0,0,0,0,0,0,0,0,0,0,0,0,0,0,0,0,0,0,0,0,0,0,0,0,0,0],"sum_hessian":[4.792849E3,2.830549E3,1.9623E3,2.403091E3,4.2745813E2,1.9659822E2,1.7657018E3,2.3944055E3,8.685328E0,1.6041464E2,2.670435E2,1.6216791E2,3.4430313E1,3.508164E2,1.4148854E3,2.3047798E3,8.962586E1,4.0908713E0,4.594456E0,1.9409946E1,1.4100468E2,7.7032585E1,1.9001091E2,4.5797695E1,1.1637021E2,2.027314E0,3.2402996E1,1.4449867E2,2.0631772E2,2.0254093E1,1.3946313E3,4.270756E0,2.300509E3,5.694492E1,3.2680943E1,2.2913744E0,2.303082E0,1.2360222E1,7.049724E0,1.3156894E2,9.435748E0,4.2944417E0,7.2738144E1,3.5758297E1,1.5425261E2,4.2817326E1,2.9803684E0,3.3324226E1,8.304598E1,3.9287468E1,1.05211205E2,1.9733688E2,8.98084E0,1.3469702E1,6.784391E0,1.3913217E3,3.3096666E0],"tree_param":{"num_deleted":"0","num_feature":"98","num_nodes":"57","size_leaf_vector":"1"}},{"base_weights":[-1.7601776E-1,-8.4277326E-1,9.5739144E-1,-9.961416E-1,-1.767026E-1,8.9215435E-2,1.036398E0,-1.0024467E0,4.200199E-1,-8.196187E-1,1.2034175E-1,2.6267272E-1,-1.123891E-1,6.1487484E-1,1.1226078E0,-1.0093472E0,-2.7329314E-1,1.0542927E0,-8.390448E-2,-5.666583E-1,-9.242683E-1,7.4196196E-1,-2.4012674E-1,-6.1531615E-1,5.294635E-1,7.4870545E-1,-2.9741457E-1,-6.69258E-2,1.1264813E0,-1.0229536E-1,-7.803505E-2,1.09324954E-1,-5.3358413E-2,-4.422278E-2,1.7284845E-1,-7.238717E-2,2.184191E-1,-9.39314E-2,-5.331964E-3,2.311213E-2,1.5379696E-1,1.6276194E-2,-6.905387E-2,-7.839719E-2,7.474562E-2,-3.6662526E-2,8.677908E-2,8.286801E-2,-3.8589846E-2,1.1372191E-1,-5.670282E-2,1.0673715E-2,1.1330718E-1],"categories":[],"categories_nodes":[],"categories_segments":[],"categories_sizes":[],"default_left":[0,0,0,0,0,0,0,0,1,0,0,0,0,0,0,0,0,0,0,0,0,0,0,0,0,0,0,0,0,0,0,0,0,0,0,0,0,0,0,0,0,0,0,0,0,0,0,0,0,0,0,0,0],"id":18,"left_children":[1,3,5,7,9,11,13,15,17,19,21,23,-1,25,27,29,31,33,-1,35,37,39,41,43,45,47,49,-1,51,-1,-1,-1,-1,-1,-1,-1,-1,-1,-1,-1,-1,-1,-1,-1,-1,-1,-1,-1,-1,-1,-1,-1,-1],"loss_changes":[3.3409458E3,2.8415552E2,1.12228516E2,2.0620117E1,9.981714E1,2.9267057E1,5.384973E1,1.1057617E1,9.454997E0,3.8478546E0,8.040071E1,2.8732185E1,0E0,3.1605904E1,9.393555E0,6.1533203E0,8.58234E0,8.412008E0,0E0,2.3598179E1,1.4598694E0,5.3178658E1,4.1371414E1,7.1880436E0,2.8678665E1,2.0685883E1,1.3641056E1,0E0,8.229492E0,0E0,0E0,0E0,0E0,0E0,0E0,0E0,0E0,0E0,0E0,0E0,0E0,0E0,0E0,0E0,0E0,0E0,0E0,0E0,0E0,0E0,0E0,0E0,0E0],"parents":[2147483647,0,0,1,1,2,2,3,3,4,4,5,5,6,6,7,7,8,8,9,9,10,10,11,11,13,13,14,14,15,15,16,16,17,17,19,19,20,20,21,21,22,22,23,23,24,24,25,25,26,26,28,28],"right_children":[2,4,6,8,10,12,14,16,18,20,22,24,-1,26,28,30,32,34,-1,36,38,40,42,44,46,48,50,-1,52,-1,-1,-1,-1,-1,-1,-1,-1,-1,-1,-1,-1,-1,-1,-1,-1,-1,-1,-1,-1,-1,-1,-1,-1],"split_conditions":[6.119E1,5.77784E0,8.6E1,8E0,2E0,4.2E1,3E0,4.528E1,1.5625E-2,1.48E2,1.44E2,5.33688E0,-1.123891E-1,1.73E2,1.5873E-2,5.444E1,1.32E2,4.873E1,-8.390448E-2,6.8E1,1.89E2,5.9E1,3.33333E0,5E0,3E0,6E0,5.9E1,-6.69258E-2,4.19683E0,-1.0229536E-1,-7.803505E-2,1.09324954E-1,-5.3358413E-2,-4.422278E-2,1.7284845E-1,-7.238717E-2,2.184191E-1,-9.39314E-2,-5.331964E-3,2.311213E-2,1.5379696E-1,1.6276194E-2,-6.905387E-2,-7.839719E-2,7.474562E-2,-3.6662526E-2,8.677908E-2,8.286801E-2,-3.8589846E-2,1.1372191E-1,-5.670282E-2,1.0673715E-2,1.1330718E-1],"split_indices":[36,6,38,26,22,85,22,17,39,23,23,6,0,23,1,36,23,15,0,91,78,90,7,26,22,85,91,0,6,0,0,0,0,0,0,0,0,0,0,0,0,0,0,0,0,0,0,0,0,0,0,0,0],"split_type":[0,0,0,0,0,0,0,0,0,0,0,0,0,0,0,0,0,0,0,0,0,0,0,0,0,0,0,0,0,0,0,0,0,0,0,0,0,0,0,0,0,0,0,0,0,0,0,0,0,0,0,0,0],"sum_hessian":[4.418887E3,2.7823557E3,1.6365319E3,2.2611997E3,5.2115594E2,1.3668439E2,1.4998474E3,2.2514678E3,9.731907E0,1.6413867E2,3.5701727E2,1.2027081E2,1.6413576E1,2.5604532E2,1.2438021E3,2.2299797E3,2.148813E1,6.579848E0,3.1520588E0,4.991012E1,1.1422855E2,1.3065213E2,2.2636514E2,2.7724657E1,9.254616E1,2.2344571E2,3.2599613E1,2.3123403E0,1.2414897E3,2.1016384E3,1.2834108E2,2.926057E0,1.8562075E1,2.1504664E0,4.4293814E0,4.790894E1,2.0011797E0,1.1221159E2,2.0169606E0,8.0366806E1,5.0285328E1,1.19823204E2,1.0654193E2,2.5049295E1,2.6753604E0,2.5342016E1,6.720414E1,2.0898466E2,1.4461042E1,4.6482077E0,2.7951406E1,8.082609E0,1.2334072E3],"tree_param":{"num_deleted":"0","num_feature":"98","num_nodes":"53","size_leaf_vector":"1"}},{"base_weights":[-1.7083153E-1,-8.929497E-1,8.36549E-1,-1.0038241E0,-3.3385056E-1,-2.4550107E-1,9.308041E-1,-1.0170722E0,-6.728249E-1,-9.074599E-1,-1.9493595E-2,-6.1098427E-1,4.1886932E-1,-4.1987258E-1,9.8939586E-1,-1.0194588E0,-1.7311819E-1,-8.908617E-1,-9.474276E-2,-5.7766366E-1,-1.0088885E0,-5.6943554E-1,3.2313958E-1,-7.0774865E-1,1.0071989E0,7.5327474E-1,-3.6524817E-1,1.0488695E-2,-6.6506755E-1,1.025624E0,-1.0903159E0,-2.3759795E-2,-1.0209922E-1,5.7810247E-2,-6.9907755E-2,-9.52373E-2,-3.6064822E-3,-8.264497E-2,3.6970105E-2,6.1824944E-2,-7.354428E-2,-1.0177908E-1,-3.6624264E-2,3.5866443E-2,-6.816941E-2,-4.416778E-2,1.21582024E-1,-4.7029022E-2,-9.468561E-2,1.894291E-2,1.4305769E-1,-4.467264E-2,9.370213E-2,-7.308333E-2,8.251348E-2,-3.3966128E-2,1.3417442E-1,-1.280337E-2,-8.784525E-2,1.04087345E-1,-1.2420931E-1,-1.8471364E-2,-1.1801807E-1],"categories":[],"categories_nodes":[],"categories_segments":[],"categories_sizes":[],"default_left":[0,0,0,0,0,0,0,0,0,0,0,0,0,0,0,0,0,0,0,0,0,0,0,0,0,0,0,0,0,0,0,0,0,0,0,0,0,0,0,0,0,0,0,0,0,0,0,0,0,0,0,0,0,0,0,0,0,0,0,0,0,0,0],"id":19,"left_children":[1,3,5,7,9,11,13,15,17,19,21,23,25,27,29,31,33,35,37,39,41,43,45,47,49,51,53,55,57,59,61,-1,-1,-1,-1,-1,-1,-1,-1,-1,-1,-1,-1,-1,-1,-1,-1,-1,-1,-1,-1,-1,-1,-1,-1,-1,-1,-1,-1,-1,-1,-1,-1],"loss_changes":[2.9780647E3,1.4747534E2,1.7456763E2,8.0390625E0,7.1406204E1,3.370675E1,1.2487146E2,3.6723633E0,9.9375725E0,4.10717E0,4.8590244E1,1.4692303E1,1.3250328E1,6.980525E0,1.14703125E2,2.0413818E0,3.0090508E0,2.9951248E0,8.086237E0,7.118697E0,2.3303223E-1,1.0556557E1,1.0903655E2,4.3710938E0,1.6159902E0,8.139452E0,7.3342943E0,1.2095485E1,4.7137394E0,5.255127E1,1.922039E0,0E0,0E0,0E0,0E0,0E0,0E0,0E0,0E0,0E0,0E0,0E0,0E0,0E0,0E0,0E0,0E0,0E0,0E0,0E0,0E0,0E0,0E0,0E0,0E0,0E0,0E0,0E0,0E0,0E0,0E0,0E0,0E0],"parents":[2147483647,0,0,1,1,2,2,3,3,4,4,5,5,6,6,7,7,8,8,9,9,10,10,11,11,12,12,13,13,14,14,15,15,16,16,17,17,18,18,19,19,20,20,21,21,22,22,23,23,24,24,25,25,26,26,27,27,28,28,29,29,30,30],"right_children":[2,4,6,8,10,12,14,16,18,20,22,24,26,28,30,32,34,36,38,40,42,44,46,48,50,52,54,56,58,60,62,-1,-1,-1,-1,-1,-1,-1,-1,-1,-1,-1,-1,-1,-1,-1,-1,-1,-1,-1,-1,-1,-1,-1,-1,-1,-1,-1,-1,-1,-1,-1,-1],"split_conditions":[5.801E1,5.53324E0,5.93979E0,5.444E1,7.89474E-2,3.444E1,2E0,9E0,4.69318E0,1.44E2,1E0,6E0,3.5E0,1.48E2,3.1E1,8.9E1,5.8E1,3.17233E1,3E0,1.3E1,1.9E2,1.28E2,1E0,1.58E2,8E0,1E0,3E0,6.4E1,8.1783E0,5.4E1,1.8E0,-2.3759795E-2,-1.0209922E-1,5.7810247E-2,-6.9907755E-2,-9.52373E-2,-3.6064822E-3,-8.264497E-2,3.6970105E-2,6.1824944E-2,-7.354428E-2,-1.0177908E-1,-3.6624264E-2,3.5866443E-2,-6.816941E-2,-4.416778E-2,1.21582024E-1,-4.7029022E-2,-9.468561E-2,1.894291E-2,1.4305769E-1,-4.467264E-2,9.370213E-2,-7.308333E-2,8.251348E-2,-3.3966128E-2,1.3417442E-1,-1.280337E-2,-8.784525E-2,1.04087345E-1,-1.2420931E-1,-1.8471364E-2,-1.1801807E-1],"split_indices":[15,6,6,36,39,5,22,26,6,23,20,26,7,23,85,23,89,5,65,18,81,23,19,23,26,19,4,91,14,84,7,0,0,0,0,0,0,0,0,0,0,0,0,0,0,0,0,0,0,0,0,0,0,0,0,0,0,0,0,0,0,0,0],"split_type":[0,0,0,0,0,0,0,0,0,0,0,0,0,0,0,0,0,0,0,0,0,0,0,0,0,0,0,0,0,0,0,0,0,0,0,0,0,0,0,0,0,0,0,0,0,0,0,0,0,0,0,0,0,0,0,0,0,0,0,0,0,0,0],"sum_hessian":[4.0918267E3,2.3834312E3,1.7083958E3,1.9883315E3,3.950995E2,1.3676192E2,1.5716338E3,1.9098193E3,7.851226E1,1.392048E2,2.5589468E2,8.827853E1,4.848339E1,6.5085945E1,1.5065479E3,1.9042264E3,5.5928535E0,5.661686E1,2.1895395E1,3.4317226E1,1.04887566E2,9.79763E1,1.5791838E2,8.382837E1,4.4501557E0,3.4015858E1,1.4467532E1,2.3970547E1,4.11154E1,1.4812516E3,2.5296267E1,4.0324955E0,1.900194E3,2.262383E0,3.3304706E0,5.2709717E1,3.9071448E0,8.198945E0,1.369645E1,3.6596727E0,3.0657555E1,1.0287868E2,2.0088904E0,1.0335158E1,8.764114E1,8.532239E1,7.2596E1,4.3547775E1,4.0280594E1,2.0117702E0,2.4383855E0,4.3268847E0,2.9688974E1,1.1363635E1,3.103897E0,1.956846E1,4.4020863E0,1.21463175E1,2.896908E1,1.4718948E3,9.356851E0,2.5594234E0,2.2736843E1],"tree_param":{"num_deleted":"0","num_feature":"98","num_nodes":"63","size_leaf_vector":"1"}},{"base_weights":[-1.708495E-1,-8.2116055E-1,9.053216E-1,-9.903006E-1,-1.6391224E-1,1.0185372E-1,9.865294E-1,-1.0149652E0,-6.740973E-1,3.7204105E-1,-5.5541295E-1,6.0823023E-1,-3.570786E-1,3.8998622E-1,1.0649011E0,-1.0157361E0,-3.5054054E-2,-9.809232E-1,-2.8871423E-1,6.412494E-1,-5.306093E-1,-1.0732832E-1,-7.6713806E-1,-7.030955E-1,7.991447E-1,-6.591265E-1,1.067361E-1,-1.0911665E0,4.800278E-1,1.0760152E0,-5.0968534E-1,-3.800752E-2,-1.01624966E-1,-9.928008E-2,-3.8514834E-2,1.17279015E-1,-6.325334E-2,-4.309269E-2,8.316959E-2,4.8275728E-2,-7.8690365E-2,-4.2303015E-2,9.834878E-2,-9.595955E-2,-4.977341E-2,-4.66869E-3,-9.9324234E-2,9.4625704E-2,-8.645407E-2,-1.1005992E-1,-4.3929942E-2,5.5133905E-2,-7.634134E-2,-1.6319005E-1,4.982714E-2,-2.5222538E-2,6.803001E-2,7.2085983E-3,1.0900358E-1,6.2457383E-2,-1.1913039E-1],"categories":[],"categories_nodes":[],"categories_segments":[],"categories_sizes":[],"default_left":[0,0,0,0,0,0,0,0,0,0,0,0,0,0,0,0,0,0,0,0,0,0,0,0,1,0,0,0,0,0,0,0,0,0,0,0,0,0,0,0,0,0,0,0,0,0,0,0,0,0,0,0,0,0,0,0,0,0,0,0,0],"id":20,"left_children":[1,3,5,7,9,11,13,15,17,19,21,23,25,27,29,31,-1,33,35,37,39,41,43,45,47,49,51,53,55,57,59,-1,-1,-1,-1,-1,-1,-1,-1,-1,-1,-1,-1,-1,-1,-1,-1,-1,-1,-1,-1,-1,-1,-1,-1,-1,-1,-1,-1,-1,-1],"loss_changes":[2.6552866E3,2.6273047E2,9.3151245E1,1.3982788E1,1.0201855E2,3.0964184E1,6.0263794E1,5.366211E-1,1.6159523E1,5.025804E1,2.655722E1,1.6402E1,9.881801E0,2.0833939E1,2.0614014E1,1.8188477E-1,0E0,1.6252136E-1,3.2426285E1,3.2760384E1,1.2778494E1,3.1846079E1,9.401176E0,1.5863881E0,1.4450268E1,3.646185E0,1.1439575E1,8.576566E0,2.1326843E1,1.5951904E1,7.4819155E0,0E0,0E0,0E0,0E0,0E0,0E0,0E0,0E0,0E0,0E0,0E0,0E0,0E0,0E0,0E0,0E0,0E0,0E0,0E0,0E0,0E0,0E0,0E0,0E0,0E0,0E0,0E0,0E0,0E0,0E0],"parents":[2147483647,0,0,1,1,2,2,3,3,4,4,5,5,6,6,7,7,8,8,9,9,10,10,11,11,12,12,13,13,14,14,15,15,17,17,18,18,19,19,20,20,21,21,22,22,23,23,24,24,25,25,26,26,27,27,28,28,29,29,30,30],"right_children":[2,4,6,8,10,12,14,16,18,20,22,24,26,28,30,32,-1,34,36,38,40,42,44,46,48,50,52,54,56,58,60,-1,-1,-1,-1,-1,-1,-1,-1,-1,-1,-1,-1,-1,-1,-1,-1,-1,-1,-1,-1,-1,-1,-1,-1,-1,-1,-1,-1,-1,-1],"split_conditions":[6.119E1,5.298E1,8.8E1,5.115E1,1E0,1E0,1.50376E-2,1.1E1,1.09E2,1.67E2,1.46E2,5.25096E0,3E0,1.235E2,3.3E1,8.1E1,-3.5054054E-2,1.82E2,8.9535E-1,2E0,6.1E1,6.1E1,4E0,1.4E2,4.4027E0,2.00001E0,3.27869E-2,8.6E1,5.66437E1,4.93145E0,1E0,-3.800752E-2,-1.01624966E-1,-9.928008E-2,-3.8514834E-2,1.17279015E-1,-6.325334E-2,-4.309269E-2,8.316959E-2,4.8275728E-2,-7.8690365E-2,-4.2303015E-2,9.834878E-2,-9.595955E-2,-4.977341E-2,-4.66869E-3,-9.9324234E-2,9.4625704E-2,-8.645407E-2,-1.1005992E-1,-4.3929942E-2,5.5133905E-2,-7.634134E-2,-1.6319005E-1,4.982714E-2,-2.5222538E-2,6.803001E-2,7.2085983E-3,1.0900358E-1,6.2457383E-2,-1.1913039E-1],"split_indices":[36,15,38,15,95,84,1,26,38,23,23,6,20,8,84,23,0,78,14,22,92,90,63,16,52,34,39,16,5,6,4,0,0,0,0,0,0,0,0,0,0,0,0,0,0,0,0,0,0,0,0,0,0,0,0,0,0,0,0,0,0],"split_type":[0,0,0,0,0,0,0,0,0,0,0,0,0,0,0,0,0,0,0,0,0,0,0,0,0,0,0,0,0,0,0,0,0,0,0,0,0,0,0,0,0,0,0,0,0,0,0,0,0,0,0,0,0,0,0,0,0,0,0,0,0],"sum_hessian":[3.792039E3,2.363846E3,1.4281931E3,1.8796256E3,4.8422046E2,1.313063E2,1.2968868E3,1.7415697E3,1.3805592E2,2.0442212E2,2.7979834E2,6.2271683E1,6.903462E1,1.5128963E2,1.1455972E3,1.7390232E3,2.5464613E0,7.600144E1,6.2054485E1,1.5768376E2,4.6738354E1,9.026752E1,1.895308E2,7.5729437E0,5.469874E1,4.1553093E1,2.7481527E1,8.032888E0,1.4325674E2,1.1378822E3,7.715018E0,2.0023003E0,1.7370209E3,7.386247E1,2.1389658E0,1.1358935E1,5.0695553E1,2.359361E1,1.3409015E2,9.256262E0,3.7482094E1,7.048118E1,1.9786333E1,1.0905904E2,8.047178E1,2.67718E0,4.8957634E0,5.0651115E1,4.0476255E0,1.2481062E1,2.907203E1,1.843073E1,9.050797E0,5.9738436E0,2.0590446E0,3.0710585E1,1.1254616E2,1.5757011E1,1.1221251E3,2.9273686E0,4.787649E0],"tree_param":{"num_deleted":"0","num_feature":"98","num_nodes":"61","size_leaf_vector":"1"}},{"base_weights":[-1.6308586E-1,-7.952731E-1,8.8703984E-1,-9.821868E-1,-1.6901581E-1,3.7051836E-1,1.0127645E0,-9.894048E-1,3.3154404E-1,-7.976139E-1,1.0098667E-1,4.752321E-1,-8.224096E-1,1.036423E0,-9.791463E-1,-1.0155101E0,-7.574178E-1,8.8267016E-1,-8.004188E-2,-3.8325685E-1,-9.5694035E-1,4.2527515E-1,-4.815658E-1,-3.3467084E-1,6.4917535E-1,-1.0076982E0,1.1693071E-2,-2.9018405E-1,1.0653527E0,-3.385779E-2,-1.1112382E-1,-1.0161521E-1,-3.7259657E-2,-8.569613E-2,7.8715505E-3,-4.193191E-2,1.8042062E-1,-5.9957404E-2,1.0250489E-1,-9.733911E-2,-9.745678E-3,2.0659855E-2,1.483116E-1,-5.9739232E-2,9.080623E-2,-6.390635E-2,3.2507945E-2,-1.9852936E-3,8.306137E-2,-6.5649E-2,-1.6146378E-1,-5.7864595E-2,1.0992745E-1,1.07801154E-1,-8.095383E-2],"categories":[],"categories_nodes":[],"categories_segments":[],"categories_sizes":[],"default_left":[0,0,0,0,0,0,0,0,1,0,0,0,0,0,0,0,0,0,0,0,0,0,0,0,0,0,0,0,1,0,0,0,0,0,0,0,0,0,0,0,0,0,0,0,0,0,0,0,0,0,0,0,0,0,0],"id":21,"left_children":[1,3,5,7,9,11,13,15,17,19,21,23,25,27,29,31,33,35,-1,37,39,41,43,45,47,49,-1,51,53,-1,-1,-1,-1,-1,-1,-1,-1,-1,-1,-1,-1,-1,-1,-1,-1,-1,-1,-1,-1,-1,-1,-1,-1,-1,-1],"loss_changes":[2.3297295E3,2.5623523E2,8.5267456E1,1.6322388E1,8.573829E1,3.283697E1,5.0970947E1,9.391357E0,6.923647E0,9.651947E0,6.706833E1,3.3945698E1,3.8296642E0,4.0533936E1,7.20109E-1,2.4267578E-1,1.4519409E1,9.368919E0,0E0,1.3962366E1,1.4454727E0,5.241201E1,2.0989765E1,8.840859E0,2.3981842E1,2.7591686E0,0E0,9.916585E0,2.5222656E1,0E0,0E0,0E0,0E0,0E0,0E0,0E0,0E0,0E0,0E0,0E0,0E0,0E0,0E0,0E0,0E0,0E0,0E0,0E0,0E0,0E0,0E0,0E0,0E0,0E0,0E0],"parents":[2147483647,0,0,1,1,2,2,3,3,4,4,5,5,6,6,7,7,8,8,9,9,10,10,11,11,12,12,13,13,14,14,15,15,16,16,17,17,19,19,20,20,21,21,22,22,23,23,24,24,25,25,27,27,28,28],"right_children":[2,4,6,8,10,12,14,16,18,20,22,24,26,28,30,32,34,36,-1,38,40,42,44,46,48,50,-1,52,54,-1,-1,-1,-1,-1,-1,-1,-1,-1,-1,-1,-1,-1,-1,-1,-1,-1,-1,-1,-1,-1,-1,-1,-1,-1,-1],"split_conditions":[6.116E1,5.44353E0,3E0,8E0,5.84E2,7E0,3.6E1,4.41642E0,1.5625E-2,1.44E2,1.61E2,2E0,6.50775E1,4.56416E0,1E0,4.426E1,2.54237E-2,2.13904E-2,-8.004188E-2,6.6E1,1.91E2,6.7E1,4E0,6.7E1,7.09754E0,2.375E0,1.1693071E-2,6E0,5.393E1,-3.385779E-2,-1.1112382E-1,-1.0161521E-1,-3.7259657E-2,-8.569613E-2,7.8715505E-3,-4.193191E-2,1.8042062E-1,-5.9957404E-2,1.0250489E-1,-9.733911E-2,-9.745678E-3,2.0659855E-2,1.483116E-1,-5.9739232E-2,9.080623E-2,-6.390635E-2,3.2507945E-2,-1.9852936E-3,8.306137E-2,-6.5649E-2,-1.6146378E-1,-5.7864595E-2,1.0992745E-1,1.07801154E-1,-8.095383E-2],"split_indices":[15,6,22,26,38,85,85,6,39,23,23,22,5,6,4,17,1,1,0,38,78,89,22,89,6,10,0,26,53,0,0,0,0,0,0,0,0,0,0,0,0,0,0,0,0,0,0,0,0,0,0,0,0,0,0],"split_type":[0,0,0,0,0,0,0,0,0,0,0,0,0,0,0,0,0,0,0,0,0,0,0,0,0,0,0,0,0,0,0,0,0,0,0,0,0,0,0,0,0,0,0,0,0,0,0,0,0,0,0,0,0,0,0],"sum_hessian":[3.507221E3,2.189413E3,1.3178081E3,1.6857217E3,5.0369125E2,2.587437E2,1.0590643E3,1.676756E3,8.965694E0,1.5075694E2,3.5293433E2,2.3841736E2,2.0326357E1,1.0471073E3,1.1957105E1,1.5041207E3,1.7263527E2,6.1780014E0,2.7876935E0,4.2814804E1,1.0794214E2,2.268976E2,1.2603672E2,4.1988636E1,1.9642873E2,1.6916698E1,3.4096577E0,2.2154589E1,1.0249526E3,2.6533089E0,9.303796E0,1.5020403E3,2.0805004E0,1.5424692E2,1.8388348E1,2.7863266E0,3.3916745E0,3.7611847E1,5.2029586E0,1.0578487E2,2.1572747E0,1.8901895E2,3.787865E1,1.1686596E2,9.170757E0,2.8753727E1,1.323491E1,4.2096054E1,1.5433267E2,1.2034517E1,4.8821816E0,1.8829077E1,3.3255105E0,1.018501E3,6.4516606E0],"tree_param":{"num_deleted":"0","num_feature":"98","num_nodes":"55","size_leaf_vector":"1"}},{"base_weights":[-1.6988778E-1,-8.711439E-1,7.401982E-1,-9.918964E-1,-3.332814E-1,1.6911408E-1,9.353672E-1,-9.9735E-1,1.5369631E-1,-8.585752E-1,-6.9227576E-2,-1.6802791E-1,5.603243E-1,1.007211E0,-3.5846782E-1,-1.0009907E0,-3.026032E-1,-7.943606E-2,8.2227194E-1,-2.415759E-1,-9.5686036E-1,-3.6443564E-1,4.838094E-1,-1.0038885E-2,-1.0118183E0,6.549573E-1,-7.538363E-1,-1.9903023E-2,1.0372996E0,1.758914E-1,-6.830359E-1,-1.0886557E-2,-1.002957E-1,-8.6681E-2,5.3013057E-2,1.3134299E-1,7.526265E-3,-5.1121045E-2,1.15364075E-1,-4.0651307E-2,-9.84993E-2,3.750375E-3,-6.529138E-2,6.483115E-2,-1.421119E-1,-6.721686E-2,2.4368066E-2,-4.621731E-2,-1.2245654E-1,8.054652E-2,-5.233555E-3,-1.083882E-1,1.6963542E-2,-4.287382E-2,1.2160688E-1,1.0519302E-1,-8.1099845E-2,-8.452973E-2,5.8244605E-2,-2.0183088E-2,-9.5686786E-2],"categories":[],"categories_nodes":[],"categories_segments":[],"categories_sizes":[],"default_left":[0,0,0,0,0,0,1,0,0,0,0,0,0,0,0,0,0,0,0,0,0,0,0,0,0,0,0,0,0,0,0,0,0,0,0,0,0,0,0,0,0,0,0,0,0,0,0,0,0,0,0,0,0,0,0,0,0,0,0,0,0],"id":22,"left_children":[1,3,5,7,9,11,13,15,17,19,21,23,25,27,29,31,33,-1,35,37,39,41,43,45,47,49,51,53,55,57,59,-1,-1,-1,-1,-1,-1,-1,-1,-1,-1,-1,-1,-1,-1,-1,-1,-1,-1,-1,-1,-1,-1,-1,-1,-1,-1,-1,-1,-1,-1],"loss_changes":[2.0597773E3,1.1805444E2,1.5640582E2,9.450195E0,4.6503613E1,4.7444393E1,9.765497E1,3.4436035E0,5.6712627E0,6.573471E0,3.682619E1,2.5798096E1,2.1188652E1,3.067456E1,9.797916E0,2.4743652E0,4.7607045E0,0E0,1.7848556E0,6.8934054E0,1.0929565E0,1.706119E1,2.5537964E1,2.772754E1,3.003111E0,1.662378E1,3.732513E0,1.5281935E1,2.6912598E1,9.576575E0,4.408188E0,0E0,0E0,0E0,0E0,0E0,0E0,0E0,0E0,0E0,0E0,0E0,0E0,0E0,0E0,0E0,0E0,0E0,0E0,0E0,0E0,0E0,0E0,0E0,0E0,0E0,0E0,0E0,0E0,0E0,0E0],"parents":[2147483647,0,0,1,1,2,2,3,3,4,4,5,5,6,6,7,7,8,8,9,9,10,10,11,11,12,12,13,13,14,14,15,15,16,16,18,18,19,19,20,20,21,21,22,22,23,23,24,24,25,25,26,26,27,27,28,28,29,29,30,30],"right_children":[2,4,6,8,10,12,14,16,18,20,22,24,26,28,30,32,34,-1,36,38,40,42,44,46,48,50,52,54,56,58,60,-1,-1,-1,-1,-1,-1,-1,-1,-1,-1,-1,-1,-1,-1,-1,-1,-1,-1,-1,-1,-1,-1,-1,-1,-1,-1,-1,-1,-1,-1],"split_conditions":[5.76E1,5.44353E0,3E0,8E0,5.84E2,6.421E1,2.04082E-2,4.785E1,9E1,1.33E2,1.5873E-2,3E0,8E0,4.98991E0,1E0,8.9E1,1.43885E-2,-7.943606E-2,3.326456E7,6E1,9E0,8.88889E0,9E0,8.1E1,1E0,3.84E2,6.289E1,5E0,1.6E1,4.98991E0,3.16667E0,-1.0886557E-2,-1.002957E-1,-8.6681E-2,5.3013057E-2,1.3134299E-1,7.526265E-3,-5.1121045E-2,1.15364075E-1,-4.0651307E-2,-9.84993E-2,3.750375E-3,-6.529138E-2,6.483115E-2,-1.421119E-1,-6.721686E-2,2.4368066E-2,-4.621731E-2,-1.2245654E-1,8.054652E-2,-5.233555E-3,-1.083882E-1,1.6963542E-2,-4.287382E-2,1.2160688E-1,1.0519302E-1,-8.1099845E-2,-8.452973E-2,5.8244605E-2,-2.0183088E-2,-9.5686786E-2],"split_indices":[36,6,22,26,38,15,39,5,38,23,1,84,85,6,84,23,1,0,35,89,18,13,84,16,4,13,17,26,95,6,7,0,0,0,0,0,0,0,0,0,0,0,0,0,0,0,0,0,0,0,0,0,0,0,0,0,0,0,0,0,0],"split_type":[0,0,0,0,0,0,0,0,0,0,0,0,0,0,0,0,0,0,0,0,0,0,0,0,0,0,0,0,0,0,0,0,0,0,0,0,0,0,0,0,0,0,0,0,0,0,0,0,0,0,0,0,0,0,0,0,0,0,0,0,0],"sum_hessian":[3.225452E3,1.8217594E3,1.4036925E3,1.487063E3,3.3469638E2,3.5800385E2,1.0456887E3,1.4801461E3,6.916858E0,1.11209984E2,2.234864E2,1.9259631E2,1.6540753E2,9.908884E2,5.4800285E1,1.4719915E3,8.154681E0,2.782734E0,4.1341243E0,1.575618E1,9.5453804E1,1.4593053E2,7.755588E1,1.6307457E2,2.9521742E1,1.5476453E2,1.064301E1,2.8210974E1,9.626774E2,2.0880814E1,3.391947E1,3.361107E0,1.4686304E3,4.836714E0,3.3179677E0,2.0367272E0,2.097397E0,1.3735335E1,2.020844E0,5.3934617E0,9.006034E1,6.1337875E1,8.459265E1,7.199807E1,5.5578017E0,4.471998E1,1.1835459E2,9.123367E0,2.0398376E1,1.2749543E2,2.726909E1,7.712784E0,2.9302268E0,2.1689596E1,6.521376E0,9.555445E2,7.1329484E0,5.6385827E0,1.524223E1,1.2931682E1,2.0987791E1],"tree_param":{"num_deleted":"0","num_feature":"98","num_nodes":"61","size_leaf_vector":"1"}},{"base_weights":[-1.5483294E-1,-8.8967514E-1,6.7450655E-1,-9.995565E-1,-3.917767E-1,1.01108395E-1,8.9455026E-1,-1.0076808E0,-6.9879824E-1,-8.912509E-1,-2.5469672E-2,3.6098608E-1,-4.9857166E-1,-7.1933144E-1,9.304864E-1,-3.8345493E-2,-1.0084019E-1,2.3816314E-1,-8.815563E-1,1.4905553E-1,-9.34656E-1,1.0959841E0,-1.8619983E-1,-4.2890963E-1,5.709848E-1,-7.2993404E-1,2.3721544E-1,-8.3273554E-1,2.8144145E-2,4.9048194E-1,1.0291991E0,-8.2570784E-2,1.8266234E-1,-9.3378E-2,-2.411461E-2,1.2278304E-1,-7.5611904E-2,-9.537754E-2,-6.155731E-2,1.5393968E-1,-3.877126E-2,-6.990858E-2,1.2220984E-2,-8.6961195E-2,-5.023503E-3,6.4011164E-2,-1.477706E-1,-5.4216523E-2,-1.4079234E-1,7.428528E-2,-8.2053386E-2,-4.7025096E-2,-1.12002246E-1,7.738385E-2,4.3179765E-3,1.0417026E-1,-8.812659E-2],"categories":[],"categories_nodes":[],"categories_segments":[],"categories_sizes":[],"default_left":[0,0,0,0,0,0,0,0,0,0,0,0,0,0,0,0,0,0,0,0,0,0,0,0,0,0,1,0,0,0,1,0,0,0,0,0,0,0,0,0,0,0,0,0,0,0,0,0,0,0,0,0,0,0,0,0,0],"id":23,"left_children":[1,3,5,7,9,11,13,15,17,19,21,23,25,27,29,-1,-1,31,33,35,37,39,41,43,45,47,49,51,-1,53,55,-1,-1,-1,-1,-1,-1,-1,-1,-1,-1,-1,-1,-1,-1,-1,-1,-1,-1,-1,-1,-1,-1,-1,-1,-1,-1],"loss_changes":[1.8335582E3,8.68761E1,1.7825952E2,2.4871826E0,5.304062E1,6.144851E1,5.9906982E1,1.8469238E-1,6.651066E0,5.6788177E0,3.054882E1,4.58378E1,2.0478924E1,2.8233309E0,4.2911316E1,0E0,0E0,1.3213897E1,8.3462524E-1,6.5685506E0,1.32164E-1,1.457608E1,2.351146E1,9.685127E0,3.1756958E1,1.0820488E1,1.6274637E1,1.6333895E0,0E0,2.342363E1,2.0398499E1,0E0,0E0,0E0,0E0,0E0,0E0,0E0,0E0,0E0,0E0,0E0,0E0,0E0,0E0,0E0,0E0,0E0,0E0,0E0,0E0,0E0,0E0,0E0,0E0,0E0,0E0],"parents":[2147483647,0,0,1,1,2,2,3,3,4,4,5,5,6,6,7,7,8,8,9,9,10,10,11,11,12,12,13,13,14,14,17,17,18,18,19,19,20,20,21,21,22,22,23,23,24,24,25,25,26,26,27,27,29,29,30,30],"right_children":[2,4,6,8,10,12,14,16,18,20,22,24,26,28,30,-1,-1,32,34,36,38,40,42,44,46,48,50,52,-1,54,56,-1,-1,-1,-1,-1,-1,-1,-1,-1,-1,-1,-1,-1,-1,-1,-1,-1,-1,-1,-1,-1,-1,-1,-1,-1,-1],"split_conditions":[5.592E1,5.101E1,6.322E1,4.546E1,5E0,1.63E2,2.00001E0,7.5E1,6.22945E-1,4.46667E1,1.27E2,7.8E1,4E0,7.6E1,3E0,-3.8345493E-2,-1.0084019E-1,1.27E3,5.092E1,2.66667E0,5.281E1,4.24E2,1E0,5.66698E0,1.1E1,3E0,1.72414E-2,7E0,2.8144145E-2,1E0,5.393E1,-8.2570784E-2,1.8266234E-1,-9.3378E-2,-2.411461E-2,1.2278304E-1,-7.5611904E-2,-9.537754E-2,-6.155731E-2,1.5393968E-1,-3.877126E-2,-6.990858E-2,1.2220984E-2,-8.6961195E-2,-5.023503E-3,6.4011164E-2,-1.477706E-1,-5.4216523E-2,-1.4079234E-1,7.428528E-2,-8.2053386E-2,-4.7025096E-2,-1.12002246E-1,7.738385E-2,4.3179765E-3,1.0417026E-1,-8.812659E-2],"split_indices":[36,15,15,17,63,23,70,81,14,9,23,38,22,90,22,0,0,75,36,12,17,13,20,6,95,84,39,85,0,84,53,0,0,0,0,0,0,0,0,0,0,0,0,0,0,0,0,0,0,0,0,0,0,0,0,0,0],"split_type":[0,0,0,0,0,0,0,0,0,0,0,0,0,0,0,0,0,0,0,0,0,0,0,0,0,0,0,0,0,0,0,0,0,0,0,0,0,0,0,0,0,0,0,0,0,0,0,0,0,0,0,0,0,0,0,0,0],"sum_hessian":[3.0066416E3,1.5941028E3,1.412539E3,1.3050774E3,2.8902542E2,3.9214148E2,1.0203974E3,1.2684622E3,3.661513E1,1.2167866E2,1.6734677E2,2.7385956E2,1.18281906E2,2.1811926E1,9.985855E2,2.078282E0,1.2663839E3,5.926756E0,3.0688375E1,4.776019E0,1.1690264E2,2.0248592E1,1.4709818E2,5.729729E1,2.1656227E2,8.999245E1,2.8289455E1,1.9742664E1,2.0692625E0,1.8407126E2,8.145142E2,3.8370652E0,2.0896904E0,2.7950954E1,2.7374213E0,2.01642E0,2.7595992E0,1.08417206E2,8.485436E0,1.5560648E1,4.687945E0,5.4762035E1,9.233614E1,2.5880753E1,3.1416538E1,2.1015866E2,6.4036136E0,7.18839E1,1.810855E1,1.9341375E1,8.94808E0,9.894781E0,9.847883E0,1.1223973E2,7.183153E1,8.096699E2,4.8443213E0],"tree_param":{"num_deleted":"0","num_feature":"98","num_nodes":"57","size_leaf_vector":"1"}},{"base_weights":[-1.647035E-1,-7.58855E-1,8.048067E-1,-9.6211916E-1,-1.300636E-1,-6.4783074E-2,8.9500004E-1,-9.9704105E-1,-6.008285E-1,-7.0336634E-1,1.24912806E-1,-4.3325162E-1,3.8919327E-1,-7.396361E-1,9.3033E-1,-1.0059172E0,-6.860425E-1,-9.5595074E-1,-2.3573059E-1,-2.3220088E-1,-8.5605097E-1,3.995053E-1,-4.0838796E-1,-6.73632E-1,2.3776878E-1,-6.1179143E-1,6.3882816E-1,2.1414263E-2,-8.698505E-1,-1.701533E-1,9.69405E-1,-1.00675546E-1,-4.125695E-2,-9.263619E-2,-2.6967752E-4,-3.6432978E-2,-9.7042866E-2,3.786297E-2,-8.932538E-2,8.054228E-2,-6.35448E-2,-8.9736566E-2,-2.1052103E-2,2.2039872E-2,1.5872417E-1,-5.6616645E-2,7.6975904E-2,-8.634028E-2,9.437914E-3,4.9494438E-2,-6.805291E-2,4.7699E-2,-1.0701261E-1,-6.8704784E-2,7.487311E-2,-9.6223824E-2,-8.027143E-3,7.0543014E-3,-1.2432271E-1,9.869348E-2,-1.0254214E-1],"categories":[],"categories_nodes":[],"categories_segments":[],"categories_sizes":[],"default_left":[0,0,0,0,0,0,0,0,0,0,0,0,0,0,0,1,0,0,0,0,0,0,0,0,0,0,0,0,0,0,0,0,0,0,0,0,0,0,0,0,0,0,0,0,0,0,0,0,0,0,0,0,0,0,0,0,0,0,0,0,0],"id":24,"left_children":[1,3,5,7,9,11,13,15,17,19,21,23,25,27,29,31,33,35,37,39,41,43,45,47,49,51,53,-1,55,57,59,-1,-1,-1,-1,-1,-1,-1,-1,-1,-1,-1,-1,-1,-1,-1,-1,-1,-1,-1,-1,-1,-1,-1,-1,-1,-1,-1,-1,-1,-1],"loss_changes":[1.6102158E3,2.2137598E2,8.337073E1,1.5923096E1,6.21441E1,1.7022343E1,5.6273132E1,2.6020508E0,1.5065613E1,9.213486E0,4.331733E1,9.207139E0,1.1801931E1,2.7843847E0,4.0696655E1,1.6015625E-1,5.948408E0,1.5572739E-1,2.4364994E1,1.4484324E1,2.4365234E0,4.1139748E1,1.91462E1,6.138056E0,4.004962E0,5.31416E0,5.9117947E0,0E0,1.2798853E0,8.655252E0,3.2847595E1,0E0,0E0,0E0,0E0,0E0,0E0,0E0,0E0,0E0,0E0,0E0,0E0,0E0,0E0,0E0,0E0,0E0,0E0,0E0,0E0,0E0,0E0,0E0,0E0,0E0,0E0,0E0,0E0,0E0,0E0],"parents":[2147483647,0,0,1,1,2,2,3,3,4,4,5,5,6,6,7,7,8,8,9,9,10,10,11,11,12,12,13,13,14,14,15,15,16,16,17,17,18,18,19,19,20,20,21,21,22,22,23,23,24,24,25,25,26,26,28,28,29,29,30,30],"right_children":[2,4,6,8,10,12,14,16,18,20,22,24,26,28,30,32,34,36,38,40,42,44,46,48,50,52,54,-1,56,58,60,-1,-1,-1,-1,-1,-1,-1,-1,-1,-1,-1,-1,-1,-1,-1,-1,-1,-1,-1,-1,-1,-1,-1,-1,-1,-1,-1,-1,-1,-1],"split_conditions":[6.119E1,5.298E1,3.673E1,5.105E1,1.12E2,6.05731E0,2.00001E0,4.546E1,5.84E2,1.42E2,1.6E2,3E0,1.61E2,5.75556E1,2E0,4.986E1,1.577E3,4.43333E1,1.32625E0,1.75439E-2,8E0,6.9E1,4E0,3E0,1.65E2,1.3E0,9.9E1,2.1414263E-2,6.63914E1,2E0,4.5E1,-1.00675546E-1,-4.125695E-2,-9.263619E-2,-2.6967752E-4,-3.6432978E-2,-9.7042866E-2,3.786297E-2,-8.932538E-2,8.054228E-2,-6.35448E-2,-8.9736566E-2,-2.1052103E-2,2.2039872E-2,1.5872417E-1,-5.6616645E-2,7.6975904E-2,-8.634028E-2,9.437914E-3,4.9494438E-2,-6.805291E-2,4.7699E-2,-1.0701261E-1,-6.8704784E-2,7.487311E-2,-9.6223824E-2,-8.027143E-3,7.0543014E-3,-1.2432271E-1,9.869348E-2,-1.0254214E-1],"split_indices":[36,15,5,36,38,6,70,17,38,23,23,26,8,9,22,53,75,9,14,39,2,90,22,20,23,10,79,0,5,87,84,0,0,0,0,0,0,0,0,0,0,0,0,0,0,0,0,0,0,0,0,0,0,0,0,0,0,0,0,0,0],"split_type":[0,0,0,0,0,0,0,0,0,0,0,0,0,0,0,0,0,0,0,0,0,0,0,0,0,0,0,0,0,0,0,0,0,0,0,0,0,0,0,0,0,0,0,0,0,0,0,0,0,0,0,0,0,0,0,0,0,0,0,0,0],"sum_hessian":[2.793279E3,1.7320391E3,1.0612399E3,1.3085159E3,4.2352316E2,9.975399E1,9.614859E2,1.1915796E3,1.169363E2,1.2983548E2,2.9368768E2,5.5087795E1,4.466619E1,1.9919514E1,9.415664E2,1.1563424E3,3.5237133E1,5.845761E1,5.8478687E1,3.2393623E1,9.744186E1,1.9403265E2,9.9655045E1,4.055562E1,1.4532178E1,8.62619E0,3.604E1,2.3154013E0,1.7604113E1,3.2170933E1,9.093955E2,1.1540153E3,2.3272476E0,2.5806028E1,9.431107E0,2.0213718E0,5.643624E1,3.0450893E1,2.8027796E1,8.786674E0,2.3606949E1,9.1213936E1,6.227922E0,1.6963747E2,2.4395185E1,8.834346E1,1.1311588E1,3.2420506E1,8.13511E0,1.1712916E1,2.819262E0,2.5434587E0,6.0827317E0,2.3567388E0,3.368326E1,1.55642805E1,2.0398316E0,2.703998E1,5.1309543E0,9.019745E2,7.4209666E0],"tree_param":{"num_deleted":"0","num_feature":"98","num_nodes":"61","size_leaf_vector":"1"}},{"base_weights":[-1.5028177E-1,-8.4471655E-1,6.433222E-1,-9.887606E-1,-3.2761228E-1,9.017994E-2,8.7676835E-1,-9.976548E-1,-6.723211E-1,2.067545E-1,-6.828998E-1,3.959137E-1,-3.4475133E-1,9.526523E-1,-5.1331884E-1,-1.0113495E-1,-8.977598E-1,3.113425E-1,-8.8450897E-1,7.0960766E-1,-2.2642678E-1,-8.784182E-1,-3.4804824E-1,6.569193E-1,-1.5621902E-1,-5.2611065E-1,4.932265E-1,3.840882E-1,1.0290569E0,-7.500052E-1,-4.060936E-2,-5.11233E-2,-9.753962E-2,-7.9040155E-2,1.6040938E-1,-4.5658783E-3,-9.4971105E-2,3.7524417E-2,2.0173612E-1,-6.3640065E-2,5.3337095E-3,-4.331442E-3,-9.149888E-2,-4.9559593E-2,6.2203057E-2,2.0253953E-2,8.5020855E-2,1.2031593E-1,-3.177353E-2,-7.166696E-3,-6.935006E-2,-9.2460185E-2,6.5830976E-2,-6.420762E-2,6.149732E-2,1.0442468E-1,-9.78299E-2,-2.8537853E-2,-9.676222E-2,4.580653E-2,-1.01317875E-1],"categories":[],"categories_nodes":[],"categories_segments":[],"categories_sizes":[],"default_left":[0,0,0,0,0,0,1,0,0,0,0,0,0,0,0,0,0,0,0,0,0,0,0,0,0,0,0,0,0,0,0,0,0,0,0,0,0,0,0,0,0,0,0,0,0,0,0,0,0,0,0,0,0,0,0,0,0,0,0,0,0],"id":25,"left_children":[1,3,5,7,9,11,13,15,17,19,21,23,25,27,29,-1,31,33,35,37,39,41,43,45,47,49,51,53,55,57,59,-1,-1,-1,-1,-1,-1,-1,-1,-1,-1,-1,-1,-1,-1,-1,-1,-1,-1,-1,-1,-1,-1,-1,-1,-1,-1,-1,-1,-1,-1],"loss_changes":[1.4276697E3,1.0257861E2,1.5604565E2,2.3688965E0,5.7568832E1,4.7999317E1,9.016394E1,5.263672E-1,7.0782404E0,2.6640923E1,1.1604355E1,3.0629456E1,2.2920956E1,3.4638245E1,4.9657183E0,0E0,3.5616302E0,1.0558229E1,1.4372292E0,2.3948692E1,7.6113524E0,3.4480133E0,1.0144273E1,1.2477318E1,1.5488658E1,9.311905E0,6.9390903E0,2.3407757E1,2.2680542E1,2.7267303E0,8.202772E0,0E0,0E0,0E0,0E0,0E0,0E0,0E0,0E0,0E0,0E0,0E0,0E0,0E0,0E0,0E0,0E0,0E0,0E0,0E0,0E0,0E0,0E0,0E0,0E0,0E0,0E0,0E0,0E0,0E0,0E0],"parents":[2147483647,0,0,1,1,2,2,3,3,4,4,5,5,6,6,7,7,8,8,9,9,10,10,11,11,12,12,13,13,14,14,16,16,17,17,18,18,19,19,20,20,21,21,22,22,23,23,24,24,25,25,26,26,27,27,28,28,29,29,30,30],"right_children":[2,4,6,8,10,12,14,16,18,20,22,24,26,28,30,-1,32,34,36,38,40,42,44,46,48,50,52,54,56,58,60,-1,-1,-1,-1,-1,-1,-1,-1,-1,-1,-1,-1,-1,-1,-1,-1,-1,-1,-1,-1,-1,-1,-1,-1,-1,-1,-1,-1,-1,-1],"split_conditions":[5.667E1,5.101E1,3E0,4.546E1,1E0,1E0,2.32558E-2,4.695E1,6.22945E-1,1.49E2,5E0,1.6E2,6.39867E1,4.4175E1,5.94551E0,-1.0113495E-1,1E0,1.505E3,1.15E2,6.4E1,1E0,4.46667E1,2.96296E-2,1E0,5.6E1,1.41E2,8.2E1,2.0979E-2,1.6E1,1E0,1E1,-5.11233E-2,-9.753962E-2,-7.9040155E-2,1.6040938E-1,-4.5658783E-3,-9.4971105E-2,3.7524417E-2,2.0173612E-1,-6.3640065E-2,5.3337095E-3,-4.331442E-3,-9.149888E-2,-4.9559593E-2,6.2203057E-2,2.0253953E-2,8.5020855E-2,1.2031593E-1,-3.177353E-2,-7.166696E-3,-6.935006E-2,-9.2460185E-2,6.5830976E-2,-6.420762E-2,6.149732E-2,1.0442468E-1,-9.78299E-2,-2.8537853E-2,-9.676222E-2,4.580653E-2,-1.01317875E-1],"split_indices":[36,15,22,17,95,84,39,36,14,23,63,23,5,5,14,0,95,75,79,88,20,9,1,20,89,23,80,1,95,84,84,0,0,0,0,0,0,0,0,0,0,0,0,0,0,0,0,0,0,0,0,0,0,0,0,0,0,0,0,0,0],