{"learner":{"attributes":{"scikit_learn":"{\"_estimator_type\": \"classifier\"}"},"feature_names":["dp","vaf","pos","qual","ref","alt_reads","ref_allele","alt_allele","x_qual_mean","x_score_mean","x_edist_mean","x_length_mean","x_mapq_mean","x_fc1_mean","x_fc2_mean","max_softclip_length_mean","x_flags_mean","ml_qual_mean","x_qual_max","x_index_max","x_qual_min","x_index_min","count_forward","count_reverse","count_duplicate","count_non_duplicate","st_minus","st_mixed","st_plus","st_undetermined","et_minus","et_mixed","et_plus","et_undetermined","num_mixed_reads"],"feature_types":["int","float","int","float","int","int","int","int","float","float","float","float","float","float","float","float","float","float","float","int","float","int","int","int","int","int","int","int","int","int","int","int","int","int","int"],"gradient_booster":{"model":{"gbtree_model_param":{"num_parallel_tree":"1","num_trees":"1000"},"iteration_indptr":[0,1,2,3,4,5,6,7,8,9,10,11,12,13,14,15,16,17,18,19,20,21,22,23,24,25,26,27,28,29,30,31,32,33,34,35,36,37,38,39,40,41,42,43,44,45,46,47,48,49,50,51,52,53,54,55,56,57,58,59,60,61,62,63,64,65,66,67,68,69,70,71,72,73,74,75,76,77,78,79,80,81,82,83,84,85,86,87,88,89,90,91,92,93,94,95,96,97,98,99,100,101,102,103,104,105,106,107,108,109,110,111,112,113,114,115,116,117,118,119,120,121,122,123,124,125,126,127,128,129,130,131,132,133,134,135,136,137,138,139,140,141,142,143,144,145,146,147,148,149,150,151,152,153,154,155,156,157,158,159,160,161,162,163,164,165,166,167,168,169,170,171,172,173,174,175,176,177,178,179,180,181,182,183,184,185,186,187,188,189,190,191,192,193,194,195,196,197,198,199,200,201,202,203,204,205,206,207,208,209,210,211,212,213,214,215,216,217,218,219,220,221,222,223,224,225,226,227,228,229,230,231,232,233,234,235,236,237,238,239,240,241,242,243,244,245,246,247,248,249,250,251,252,253,254,255,256,257,258,259,260,261,262,263,264,265,266,267,268,269,270,271,272,273,274,275,276,277,278,279,280,281,282,283,284,285,286,287,288,289,290,291,292,293,294,295,296,297,298,299,300,301,302,303,304,305,306,307,308,309,310,311,312,313,314,315,316,317,318,319,320,321,322,323,324,325,326,327,328,329,330,331,332,333,334,335,336,337,338,339,340,341,342,343,344,345,346,347,348,349,350,351,352,353,354,355,356,357,358,359,360,361,362,363,364,365,366,367,368,369,370,371,372,373,374,375,376,377,378,379,380,381,382,383,384,385,386,387,388,389,390,391,392,393,394,395,396,397,398,399,400,401,402,403,404,405,406,407,408,409,410,411,412,413,414,415,416,417,418,419,420,421,422,423,424,425,426,427,428,429,430,431,432,433,434,435,436,437,438,439,440,441,442,443,444,445,446,447,448,449,450,451,452,453,454,455,456,457,458,459,460,461,462,463,464,465,466,467,468,469,470,471,472,473,474,475,476,477,478,479,480,481,482,483,484,485,486,487,488,489,490,491,492,493,494,495,496,497,498,499,500,501,502,503,504,505,506,507,508,509,510,511,512,513,514,515,516,517,518,519,520,521,522,523,524,525,526,527,528,529,530,531,532,533,534,535,536,537,538,539,540,541,542,543,544,545,546,547,548,549,550,551,552,553,554,555,556,557,558,559,560,561,562,563,564,565,566,567,568,569,570,571,572,573,574,575,576,577,578,579,580,581,582,583,584,585,586,587,588,589,590,591,592,593,594,595,596,597,598,599,600,601,602,603,604,605,606,607,608,609,610,611,612,613,614,615,616,617,618,619,620,621,622,623,624,625,626,627,628,629,630,631,632,633,634,635,636,637,638,639,640,641,642,643,644,645,646,647,648,649,650,651,652,653,654,655,656,657,658,659,660,661,662,663,664,665,666,667,668,669,670,671,672,673,674,675,676,677,678,679,680,681,682,683,684,685,686,687,688,689,690,691,692,693,694,695,696,697,698,699,700,701,702,703,704,705,706,707,708,709,710,711,712,713,714,715,716,717,718,719,720,721,722,723,724,725,726,727,728,729,730,731,732,733,734,735,736,737,738,739,740,741,742,743,744,745,746,747,748,749,750,751,752,753,754,755,756,757,758,759,760,761,762,763,764,765,766,767,768,769,770,771,772,773,774,775,776,777,778,779,780,781,782,783,784,785,786,787,788,789,790,791,792,793,794,795,796,797,798,799,800,801,802,803,804,805,806,807,808,809,810,811,812,813,814,815,816,817,818,819,820,821,822,823,824,825,826,827,828,829,830,831,832,833,834,835,836,837,838,839,840,841,842,843,844,845,846,847,848,849,850,851,852,853,854,855,856,857,858,859,860,861,862,863,864,865,866,867,868,869,870,871,872,873,874,875,876,877,878,879,880,881,882,883,884,885,886,887,888,889,890,891,892,893,894,895,896,897,898,899,900,901,902,903,904,905,906,907,908,909,910,911,912,913,914,915,916,917,918,919,920,921,922,923,924,925,926,927,928,929,930,931,932,933,934,935,936,937,938,939,940,941,942,943,944,945,946,947,948,949,950,951,952,953,954,955,956,957,958,959,960,961,962,963,964,965,966,967,968,969,970,971,972,973,974,975,976,977,978,979,980,981,982,983,984,985,986,987,988,989,990,991,992,993,994,995,996,997,998,999,1000],"tree_info":[0,0,0,0,0,0,0,0,0,0,0,0,0,0,0,0,0,0,0,0,0,0,0,0,0,0,0,0,0,0,0,0,0,0,0,0,0,0,0,0,0,0,0,0,0,0,0,0,0,0,0,0,0,0,0,0,0,0,0,0,0,0,0,0,0,0,0,0,0,0,0,0,0,0,0,0,0,0,0,0,0,0,0,0,0,0,0,0,0,0,0,0,0,0,0,0,0,0,0,0,0,0,0,0,0,0,0,0,0,0,0,0,0,0,0,0,0,0,0,0,0,0,0,0,0,0,0,0,0,0,0,0,0,0,0,0,0,0,0,0,0,0,0,0,0,0,0,0,0,0,0,0,0,0,0,0,0,0,0,0,0,0,0,0,0,0,0,0,0,0,0,0,0,0,0,0,0,0,0,0,0,0,0,0,0,0,0,0,0,0,0,0,0,0,0,0,0,0,0,0,0,0,0,0,0,0,0,0,0,0,0,0,0,0,0,0,0,0,0,0,0,0,0,0,0,0,0,0,0,0,0,0,0,0,0,0,0,0,0,0,0,0,0,0,0,0,0,0,0,0,0,0,0,0,0,0,0,0,0,0,0,0,0,0,0,0,0,0,0,0,0,0,0,0,0,0,0,0,0,0,0,0,0,0,0,0,0,0,0,0,0,0,0,0,0,0,0,0,0,0,0,0,0,0,0,0,0,0,0,0,0,0,0,0,0,0,0,0,0,0,0,0,0,0,0,0,0,0,0,0,0,0,0,0,0,0,0,0,0,0,0,0,0,0,0,0,0,0,0,0,0,0,0,0,0,0,0,0,0,0,0,0,0,0,0,0,0,0,0,0,0,0,0,0,0,0,0,0,0,0,0,0,0,0,0,0,0,0,0,0,0,0,0,0,0,0,0,0,0,0,0,0,0,0,0,0,0,0,0,0,0,0,0,0,0,0,0,0,0,0,0,0,0,0,0,0,0,0,0,0,0,0,0,0,0,0,0,0,0,0,0,0,0,0,0,0,0,0,0,0,0,0,0,0,0,0,0,0,0,0,0,0,0,0,0,0,0,0,0,0,0,0,0,0,0,0,0,0,0,0,0,0,0,0,0,0,0,0,0,0,0,0,0,0,0,0,0,0,0,0,0,0,0,0,0,0,0,0,0,0,0,0,0,0,0,0,0,0,0,0,0,0,0,0,0,0,0,0,0,0,0,0,0,0,0,0,0,0,0,0,0,0,0,0,0,0,0,0,0,0,0,0,0,0,0,0,0,0,0,0,0,0,0,0,0,0,0,0,0,0,0,0,0,0,0,0,0,0,0,0,0,0,0,0,0,0,0,0,0,0,0,0,0,0,0,0,0,0,0,0,0,0,0,0,0,0,0,0,0,0,0,0,0,0,0,0,0,0,0,0,0,0,0,0,0,0,0,0,0,0,0,0,0,0,0,0,0,0,0,0,0,0,0,0,0,0,0,0,0,0,0,0,0,0,0,0,0,0,0,0,0,0,0,0,0,0,0,0,0,0,0,0,0,0,0,0,0,0,0,0,0,0,0,0,0,0,0,0,0,0,0,0,0,0,0,0,0,0,0,0,0,0,0,0,0,0,0,0,0,0,0,0,0,0,0,0,0,0,0,0,0,0,0,0,0,0,0,0,0,0,0,0,0,0,0,0,0,0,0,0,0,0,0,0,0,0,0,0,0,0,0,0,0,0,0,0,0,0,0,0,0,0,0,0,0,0,0,0,0,0,0,0,0,0,0,0,0,0,0,0,0,0,0,0,0,0,0,0,0,0,0,0,0,0,0,0,0,0,0,0,0,0,0,0,0,0,0,0,0,0,0,0,0,0,0,0,0,0,0,0,0,0,0,0,0,0,0,0,0,0,0,0,0,0,0,0,0,0,0,0,0,0,0,0,0,0,0,0,0,0,0,0,0,0,0,0,0,0,0,0,0,0,0,0,0,0,0,0,0,0,0,0,0,0,0,0,0,0,0,0,0,0,0,0,0,0,0,0,0,0,0,0,0,0,0,0,0,0,0,0,0,0,0,0,0,0,0,0,0,0,0,0,0,0,0,0,0,0,0,0,0,0,0,0,0,0,0,0,0,0,0,0,0,0,0,0,0,0,0,0,0,0,0,0,0,0,0,0,0,0,0,0,0,0,0,0,0,0,0,0,0,0,0,0,0,0,0,0,0,0,0,0,0,0,0,0,0,0,0,0,0,0,0,0,0,0,0,0,0,0,0,0,0,0,0,0,0,0,0,0],"trees":[{"base_weights":[-2.866106E-5,-1.8452417E0,1.9355397E0,-1.9056842E0,6.247394E-1,-5.649017E-1,1.9989583E0,-1.9113158E-1,-6.2383473E-2,1.01037696E-1,-9.205517E-2,-1.4347897E-1,1.1047449E-1,1.2826979E-1,2.0155764E-1],"categories":[],"categories_nodes":[],"categories_segments":[],"categories_sizes":[],"default_left":[0,0,0,0,0,0,0,0,0,0,0,0,0,0,0],"id":0,"left_children":[1,3,5,7,9,11,13,-1,-1,-1,-1,-1,-1,-1,-1],"loss_changes":[1.2608992E5,2.6994805E3,2.733414E3,1.2616797E2,2.586503E2,6.217324E2,1.9742188E2,0E0,0E0,0E0,0E0,0E0,0E0,0E0,0E0],"parents":[2147483647,0,0,1,1,2,2,3,3,4,4,5,5,6,6],"right_children":[2,4,6,8,10,12,14,-1,-1,-1,-1,-1,-1,-1,-1],"split_conditions":[2.33432E0,7.0245E0,5.34875E0,5.08267E1,3.75E0,3.269E1,3.4166E1,-1.9113158E-1,-6.2383473E-2,1.01037696E-1,-9.205517E-2,-1.4347897E-1,1.1047449E-1,1.2826979E-1,2.0155764E-1],"split_indices":[17,9,9,8,15,8,8,0,0,0,0,0,0,0,0],"split_type":[0,0,0,0,0,0,0,0,0,0,0,0,0,0,0],"sum_hessian":[3.5302117E4,1.8072918E4,1.72292E4,1.7641445E4,4.314728E2,4.2597952E2,1.6803219E4,1.756379E4,7.765512E1,3.4557776E2,8.589505E1,2.8015768E2,1.4582182E2,3.827823E2,1.6420438E4],"tree_param":{"num_deleted":"0","num_feature":"35","num_nodes":"15","size_leaf_vector":"1"}},{"base_weights":[-6.5418833E-4,-1.6875963E0,1.747394E0,-1.7435098E0,5.6232375E-1,-5.121676E-1,1.8045119E0,-1.7522176E-1,-9.242282E-2,-3.102125E-2,1.2019234E-1,-1.3055459E-1,9.941231E-2,1.5670483E-1,1.8468164E-1],"categories":[],"categories_nodes":[],"categories_segments":[],"categories_sizes":[],"default_left":[0,0,0,0,0,0,0,0,0,0,0,0,0,0,0],"id":1,"left_children":[1,3,5,7,9,11,13,-1,-1,-1,-1,-1,-1,-1,-1],"loss_changes":[1.0313769E5,2.240086E3,2.2177695E3,1.2228125E2,2.4165868E2,5.083267E2,1.6540234E2,0E0,0E0,0E0,0E0,0E0,0E0,0E0,0E0],"parents":[2147483647,0,0,1,1,2,2,3,3,4,4,5,5,6,6],"right_children":[2,4,6,8,10,12,14,-1,-1,-1,-1,-1,-1,-1,-1],"split_conditions":[2.33432E0,7.0245E0,5.34875E0,6.3107E0,1.63934E-2,3.269E1,3E0,-1.7522176E-1,-9.242282E-2,-3.102125E-2,1.2019234E-1,-1.3055459E-1,9.941231E-2,1.5670483E-1,1.8468164E-1],"split_indices":[17,9,9,9,1,8,5,0,0,0,0,0,0,0,0],"split_type":[0,0,0,0,0,0,0,0,0,0,0,0,0,0,0],"sum_hessian":[3.4973492E4,1.779784E4,1.7175652E4,1.7366486E4,4.3135468E2,4.232713E2,1.675238E4,1.7182719E4,1.8376765E2,1.8267119E2,2.4868349E2,2.773314E2,1.4593993E2,2.538928E3,1.4213453E4],"tree_param":{"num_deleted":"0","num_feature":"35","num_nodes":"15","size_leaf_vector":"1"}},{"base_weights":[-1.0638208E-3,-1.5787529E0,1.5929807E0,-1.6212995E0,5.033102E-1,-6.3722235E-1,1.6536168E0,-1.6266064E-1,-3.8589995E-2,1.00383796E-1,-5.4320265E-2,-1.03966095E-1,1.4690466E-1,8.707606E-2,1.6704755E-1],"categories":[],"categories_nodes":[],"categories_segments":[],"categories_sizes":[],"default_left":[0,0,0,0,0,0,0,0,0,0,0,0,0,0,0],"id":2,"left_children":[1,3,5,7,9,11,13,-1,-1,-1,-1,-1,-1,-1,-1],"loss_changes":[8.582635E4,1.5201797E3,2.2966719E3,1.0957422E2,1.8085757E2,3.830065E2,2.1665625E2,0E0,0E0,0E0,0E0,0E0,0E0,0E0,0E0],"parents":[2147483647,0,0,1,1,2,2,3,3,4,4,5,5,6,6],"right_children":[2,4,6,8,10,12,14,-1,-1,-1,-1,-1,-1,-1,-1],"split_conditions":[2.0712E0,7.27199E0,5.26709E0,5.08267E1,8.75E-1,3.919E1,3.269E1,-1.6266064E-1,-3.8589995E-2,1.00383796E-1,-5.4320265E-2,-1.03966095E-1,1.4690466E-1,8.707606E-2,1.6704755E-1],"split_indices":[17,9,9,8,15,8,8,0,0,0,0,0,0,0,0],"split_type":[0,0,0,0,0,0,0,0,0,0,0,0,0,0,0],"sum_hessian":[3.4125055E4,1.7150518E4,1.6974537E4,1.6807285E4,3.4323312E2,4.4904645E2,1.652549E4,1.673508E4,7.220432E1,2.3221147E2,1.1102166E2,3.7743704E2,7.160939E1,3.4948166E2,1.6176009E4],"tree_param":{"num_deleted":"0","num_feature":"35","num_nodes":"15","size_leaf_vector":"1"}},{"base_weights":[-1.3517913E-3,-1.4707391E0,1.4942919E0,-1.52581E0,3.417451E-1,-3.8235524E-1,1.545678E0,-1.5392189E-1,-1.1944564E-1,-1.2030504E-1,6.8519674E-2,-1.12880185E-1,8.834051E-2,1.02554515E-1,1.5641935E-1],"categories":[],"categories_nodes":[],"categories_segments":[],"categories_sizes":[],"default_left":[0,0,0,0,0,0,0,0,0,0,0,0,0,0,0],"id":3,"left_children":[1,3,5,7,9,11,13,-1,-1,-1,-1,-1,-1,-1,-1],"loss_changes":[7.235599E4,1.6582227E3,1.5740156E3,6.977344E1,2.610907E2,4.1261954E2,1.5134375E2,0E0,0E0,0E0,0E0,0E0,0E0,0E0,0E0],"parents":[2147483647,0,0,1,1,2,2,3,3,4,4,5,5,6,6],"right_children":[2,4,6,8,10,12,14,-1,-1,-1,-1,-1,-1,-1,-1],"split_conditions":[2.33432E0,6.79273E0,5.44419E0,1.02148E0,5.143E1,3.269E1,6.056E1,-1.5392189E-1,-1.1944564E-1,-1.2030504E-1,6.8519674E-2,-1.12880185E-1,8.834051E-2,1.02554515E-1,1.5641935E-1],"split_indices":[17,9,9,17,3,8,3,0,0,0,0,0,0,0,0],"split_type":[0,0,0,0,0,0,0,0,0,0,0,0,0,0,0],"sum_hessian":[3.2921812E4,1.6606682E4,1.6315131E4,1.6117133E4,4.8954794E2,4.3466107E2,1.588047E4,1.5486786E4,6.3034656E2,8.858822E1,4.0095972E2,2.7348764E2,1.6117343E2,5.478126E2,1.5332657E4],"tree_param":{"num_deleted":"0","num_feature":"35","num_nodes":"15","size_leaf_vector":"1"}},{"base_weights":[-1.5860841E-3,-1.4041998E0,1.3930649E0,-1.4497199E0,2.197528E-1,-4.4102052E-1,1.4506967E0,-1.4543448E-1,-6.383084E-2,1.1492117E-1,-3.762741E-2,-1.0720537E-1,7.6663814E-2,1.2028929E-1,1.495745E-1],"categories":[],"categories_nodes":[],"categories_segments":[],"categories_sizes":[],"default_left":[0,0,0,0,0,0,0,0,0,0,0,0,0,0,0],"id":4,"left_children":[1,3,5,7,9,11,13,-1,-1,-1,-1,-1,-1,-1,-1],"loss_changes":[6.1589918E4,1.1607363E3,1.6693945E3,5.6375E1,2.3802731E2,3.6793954E2,1.6907227E2,0E0,0E0,0E0,0E0,0E0,0E0,0E0,0E0],"parents":[2147483647,0,0,1,1,2,2,3,3,4,4,5,5,6,6],"right_children":[2,4,6,8,10,12,14,-1,-1,-1,-1,-1,-1,-1,-1],"split_conditions":[2.0712E0,6.79273E0,5.44419E0,5.0035E1,2E0,3.269E1,3E0,-1.4543448E-1,-6.383084E-2,1.1492117E-1,-3.762741E-2,-1.0720537E-1,7.6663814E-2,1.2028929E-1,1.495745E-1],"split_indices":[17,9,9,8,10,8,5,0,0,0,0,0,0,0,0],"split_type":[0,0,0,0,0,0,0,0,0,0,0,0,0,0,0],"sum_hessian":[3.1483168E4,1.569677E4,1.5786398E4,1.5268884E4,4.2788528E2,4.8073578E2,1.5305663E4,1.5181558E4,8.7325836E1,1.6681766E2,2.6106763E2,3.1582254E2,1.6491322E2,2.35867E3,1.2946993E4],"tree_param":{"num_deleted":"0","num_feature":"35","num_nodes":"15","size_leaf_vector":"1"}},{"base_weights":[-1.7731213E-3,-1.3283278E0,1.3304204E0,-1.3818048E0,2.7578565E-1,-1.0478916E-1,1.3851539E0,-1.3922465E-1,-9.108244E-2,-5.0781656E-2,9.146636E-2,-9.9140495E-2,8.5589044E-2,1.17958836E-1,1.4221673E-1],"categories":[],"categories_nodes":[],"categories_segments":[],"categories_sizes":[],"default_left":[0,0,0,0,0,0,0,0,0,0,0,0,0,0,0],"id":5,"left_children":[1,3,5,7,9,11,13,-1,-1,-1,-1,-1,-1,-1,-1],"loss_changes":[5.2844188E4,1.2856602E3,1.1721328E3,7.003711E1,2.4287256E2,4.684619E2,1.0766992E2,0E0,0E0,0E0,0E0,0E0,0E0,0E0,0E0],"parents":[2147483647,0,0,1,1,2,2,3,3,4,4,5,5,6,6],"right_children":[2,4,6,8,10,12,14,-1,-1,-1,-1,-1,-1,-1,-1],"split_conditions":[2.33432E0,6.79273E0,3.269E1,5.78113E0,1.63934E-2,6.12487E0,3E0,-1.3922465E-1,-9.108244E-2,-5.0781656E-2,9.146636E-2,-9.9140495E-2,8.5589044E-2,1.17958836E-1,1.4221673E-1],"split_indices":[17,9,8,9,1,9,5,0,0,0,0,0,0,0,0],"split_type":[0,0,0,0,0,0,0,0,0,0,0,0,0,0,0],"sum_hessian":[2.9900314E4,1.4981865E4,1.4918448E4,1.4498655E4,4.832098E2,5.4800073E2,1.4370447E4,1.4182278E4,3.1637772E2,2.1711597E2,2.6609387E2,2.8496927E2,2.6303146E2,2.1976992E3,1.2172748E4],"tree_param":{"num_deleted":"0","num_feature":"35","num_nodes":"15","size_leaf_vector":"1"}},{"base_weights":[-1.9217848E-3,-1.2849941E0,1.2571051E0,-1.3255785E0,3.6617944E-1,-3.9698282E-1,1.3114493E0,-1.3398191E-1,-8.2864486E-2,8.0434114E-2,-5.3076297E-2,-7.868643E-2,1.12050295E-1,7.549354E-2,1.3345353E-1],"categories":[],"categories_nodes":[],"categories_segments":[],"categories_sizes":[],"default_left":[0,0,0,0,0,0,0,0,0,0,0,0,0,0,0],"id":6,"left_children":[1,3,5,7,9,11,13,-1,-1,-1,-1,-1,-1,-1,-1],"loss_changes":[4.562428E4,9.3783594E2,1.2819043E3,9.550781E1,1.3261253E2,2.696112E2,1.763164E2,0E0,0E0,0E0,0E0,0E0,0E0,0E0,0E0],"parents":[2147483647,0,0,1,1,2,2,3,3,4,4,5,5,6,6],"right_children":[2,4,6,8,10,12,14,-1,-1,-1,-1,-1,-1,-1,-1],"split_conditions":[2.0712E0,7.27199E0,5.44419E0,5.78113E0,8.75E-1,3.919E1,6.056E1,-1.3398191E-1,-8.2864486E-2,8.0434114E-2,-5.3076297E-2,-7.868643E-2,1.12050295E-1,7.549354E-2,1.3345353E-1],"split_indices":[17,9,9,9,15,8,3,0,0,0,0,0,0,0,0],"split_type":[0,0,0,0,0,0,0,0,0,0,0,0,0,0,0],"sum_hessian":[2.8240938E4,1.3986895E4,1.4254043E4,1.365155E4,3.3534515E2,4.532115E2,1.3800832E4,1.3269587E4,3.8196286E2,2.2535913E2,1.0998604E2,3.609544E2,9.225708E1,5.5104297E2,1.3249789E4],"tree_param":{"num_deleted":"0","num_feature":"35","num_nodes":"15","size_leaf_vector":"1"}},{"base_weights":[-2.0560082E-3,-1.2075553E0,1.234495E0,-1.2850516E0,2.128251E-1,7.1591996E-2,1.2786255E0,-1.2988725E-1,-9.958007E-2,-3.984052E-2,9.967764E-2,-6.687569E-2,8.035947E-2,1.0946404E-1,1.31112E-1],"categories":[],"categories_nodes":[],"categories_segments":[],"categories_sizes":[],"default_left":[0,0,0,0,0,0,0,0,0,0,0,0,0,0,0],"id":7,"left_children":[1,3,5,7,9,11,13,-1,-1,-1,-1,-1,-1,-1,-1],"loss_changes":[3.9590223E4,1.4805801E3,6.727344E2,4.9689453E1,3.3420792E2,2.6088147E2,7.408203E1,0E0,0E0,0E0,0E0,0E0,0E0,0E0,0E0],"parents":[2147483647,0,0,1,1,2,2,3,3,4,4,5,5,6,6],"right_children":[2,4,6,8,10,12,14,-1,-1,-1,-1,-1,-1,-1,-1],"split_conditions":[2.8365E0,6.3107E0,3.4166E1,1.02148E0,1.96078E-2,1.78571E-2,3E0,-1.2988725E-1,-9.958007E-2,-3.984052E-2,9.967764E-2,-6.687569E-2,8.035947E-2,1.0946404E-1,1.31112E-1],"split_indices":[17,9,8,17,1,1,5,0,0,0,0,0,0,0,0],"split_type":[0,0,0,0,0,0,0,0,0,0,0,0,0,0,0],"sum_hessian":[2.6556832E4,1.3447269E4,1.3109563E4,1.2751632E4,6.9563684E2,4.7939514E2,1.2630168E4,1.2166794E4,5.848377E2,3.9115405E2,3.044828E2,2.3838177E2,2.4101335E2,1.9010474E3,1.0729121E4],"tree_param":{"num_deleted":"0","num_feature":"35","num_nodes":"15","size_leaf_vector":"1"}},{"base_weights":[-2.1597124E-3,-1.210511E0,1.1448925E0,-1.2449832E0,2.395664E-1,-3.061633E-1,1.2130939E0,-1.2500738E-1,-1.0606733E-2,9.7681455E-2,-3.2204177E-2,-7.386055E-2,9.571641E-2,9.491431E-2,1.2641409E-1],"categories":[],"categories_nodes":[],"categories_segments":[],"categories_sizes":[],"default_left":[0,0,0,0,0,0,0,0,0,0,0,0,0,0,0],"id":8,"left_children":[1,3,5,7,9,11,13,-1,-1,-1,-1,-1,-1,-1,-1],"loss_changes":[3.450329E4,6.062832E2,1.2642051E3,6.851953E1,1.17214714E2,3.143409E2,1.6314844E2,0E0,0E0,0E0,0E0,0E0,0E0,0E0,0E0],"parents":[2147483647,0,0,1,1,2,2,3,3,4,4,5,5,6,6],"right_children":[2,4,6,8,10,12,14,-1,-1,-1,-1,-1,-1,-1,-1],"split_conditions":[1.81862E0,7.27199E0,5.78113E0,5.08267E1,2E0,3.919E1,3E0,-1.2500738E-1,-1.0606733E-2,9.7681455E-2,-3.2204177E-2,-7.386055E-2,9.571641E-2,9.491431E-2,1.2641409E-1],"split_indices":[17,9,9,8,10,8,5,0,0,0,0,0,0,0,0],"split_type":[0,0,0,0,0,0,0,0,0,0,0,0,0,0,0],"sum_hessian":[2.4891395E4,1.2121772E4,1.2769622E4,1.1840436E4,2.813371E2,5.730888E2,1.2196533E4,1.1787651E4,5.2783756E1,1.2132675E2,1.6001035E2,4.272535E2,1.458353E2,1.9796832E3,1.0216851E4],"tree_param":{"num_deleted":"0","num_feature":"35","num_nodes":"15","size_leaf_vector":"1"}},{"base_weights":[-2.2685868E-3,-1.1321926E0,1.1460681E0,-1.2115854E0,1.7568287E-1,3.753849E-2,1.1916182E0,-1.229315E-1,-9.3524E-2,-1.1160486E-1,4.82258E-2,-4.610769E-2,9.2207454E-2,9.950692E-2,1.22764945E-1],"categories":[],"categories_nodes":[],"categories_segments":[],"categories_sizes":[],"default_left":[0,0,0,0,0,0,0,0,0,0,0,0,0,0,0],"id":9,"left_children":[1,3,5,7,9,11,13,-1,-1,-1,-1,-1,-1,-1,-1],"loss_changes":[3.0179576E4,1.21754E3,5.8243164E2,5.3003906E1,2.665832E2,2.0168622E2,7.724805E1,0E0,0E0,0E0,0E0,0E0,0E0,0E0,0E0],"parents":[2147483647,0,0,1,1,2,2,3,3,4,4,5,5,6,6],"right_children":[2,4,6,8,10,12,14,-1,-1,-1,-1,-1,-1,-1,-1],"split_conditions":[2.8365E0,6.3107E0,3.4166E1,8.2367E-1,5.143E1,4E0,3E0,-1.229315E-1,-9.3524E-2,-1.1160486E-1,4.82258E-2,-4.610769E-2,9.2207454E-2,9.950692E-2,1.22764945E-1],"split_indices":[17,9,8,17,3,5,5,0,0,0,0,0,0,0,0],"split_type":[0,0,0,0,0,0,0,0,0,0,0,0,0,0,0],"sum_hessian":[2.3257195E4,1.1722585E4,1.1534609E4,1.1051776E4,6.708091E2,4.5532953E2,1.1079279E4,1.0382227E4,6.695495E2,1.2816309E2,5.42646E2,2.914929E2,1.6383662E2,1.7208315E3,9.358448E3],"tree_param":{"num_deleted":"0","num_feature":"35","num_nodes":"15","size_leaf_vector":"1"}},{"base_weights":[-2.3783436E-3,-1.1361032E0,1.0742527E0,-1.1787288E0,5.9405196E-1,-1.6238387E-1,1.1495444E0,-1.2002164E-1,-8.5612565E-2,5.816993E-3,1.0803979E-1,1.0531267E-1,-4.749289E-2,3.0685026E-2,1.16264105E-1],"categories":[],"categories_nodes":[],"categories_segments":[],"categories_sizes":[],"default_left":[0,0,0,0,0,0,0,0,0,0,0,0,0,0,0],"id":10,"left_children":[1,3,5,7,9,11,13,-1,-1,-1,-1,-1,-1,-1,-1],"loss_changes":[2.646789E4,7.7964355E2,1.0357568E3,7.042969E1,6.629864E1,2.4332556E2,1.1534961E2,0E0,0E0,0E0,0E0,0E0,0E0,0E0,0E0],"parents":[2147483647,0,0,1,1,2,2,3,3,4,4,5,5,6,6],"right_children":[2,4,6,8,10,12,14,-1,-1,-1,-1,-1,-1,-1,-1],"split_conditions":[5.99683E0,6.329E1,5.747E1,1.02148E0,3.919E1,1.42857E0,3.95E1,-1.2002164E-1,-8.5612565E-2,5.816993E-3,1.0803979E-1,1.0531267E-1,-4.749289E-2,3.0685026E-2,1.16264105E-1],"split_indices":[9,3,3,17,8,10,12,0,0,0,0,0,0,0,0],"split_type":[0,0,0,0,0,0,0,0,0,0,0,0,0,0,0],"sum_hessian":[2.168227E4,1.056108E4,1.1121189E4,1.0307455E4,2.5362535E2,6.381794E2,1.048301E4,9.66123E3,6.462245E2,1.2120013E2,1.3242522E2,1.3004712E2,5.0813226E2,1.6080165E2,1.0322208E4],"tree_param":{"num_deleted":"0","num_feature":"35","num_nodes":"15","size_leaf_vector":"1"}},{"base_weights":[-2.452626E-3,-1.1161987E0,1.0313504E0,-1.1545478E0,2.0198089E-1,-2.3807393E-1,1.1057924E0,-1.1699311E-1,-6.8226956E-2,6.2301118E-2,-5.9903115E-2,-6.950389E-2,6.541719E-2,8.247824E-2,1.1627853E-1],"categories":[],"categories_nodes":[],"categories_segments":[],"categories_sizes":[],"default_left":[0,0,0,0,0,0,0,0,0,0,0,0,0,0,0],"id":11,"left_children":[1,3,5,7,9,11,13,-1,-1,-1,-1,-1,-1,-1,-1],"loss_changes":[2.323464E4,4.9129492E2,9.892256E2,6.77832E1,9.327607E1,2.3715599E2,1.5736914E2,0E0,0E0,0E0,0E0,0E0,0E0,0E0,0E0],"parents":[2147483647,0,0,1,1,2,2,3,3,4,4,5,5,6,6],"right_children":[2,4,6,8,10,12,14,-1,-1,-1,-1,-1,-1,-1,-1],"split_conditions":[1.81862E0,7.27199E0,3.269E1,5.78113E0,8.75E-1,4E0,3E0,-1.1699311E-1,-6.8226956E-2,6.2301118E-2,-5.9903115E-2,-6.950389E-2,6.541719E-2,8.247824E-2,1.1627853E-1],"split_indices":[17,9,8,9,15,5,5,0,0,0,0,0,0,0,0],"split_type":[0,0,0,0,0,0,0,0,0,0,0,0,0,0,0],"sum_hessian":[2.0177574E4,9.713191E3,1.0464383E4,9.43872E3,2.744715E2,5.795414E2,9.884842E3,9.139545E3,2.9917502E2,1.8005348E2,9.441802E1,3.8340237E2,1.9613902E2,1.6693558E3,8.215485E3],"tree_param":{"num_deleted":"0","num_feature":"35","num_nodes":"15","size_leaf_vector":"1"}},{"base_weights":[-2.5740063E-3,-1.0857259E0,1.0075878E0,-1.1329403E0,3.7920317E-1,-2.9640462E-2,1.0963819E0,-1.1555038E-1,-8.5178666E-2,-4.4566255E-2,9.355725E-2,-7.192058E-2,4.5163848E-2,2.6461596E-2,1.1094787E-1],"categories":[],"categories_nodes":[],"categories_segments":[],"categories_sizes":[],"default_left":[0,0,0,0,0,0,0,0,0,0,0,0,0,0,0],"id":12,"left_children":[1,3,5,7,9,11,13,-1,-1,-1,-1,-1,-1,-1,-1],"loss_changes":[2.051959E4,6.26374E2,8.937529E2,5.4634766E1,1.3044061E2,2.5460077E2,9.7081055E1,0E0,0E0,0E0,0E0,0E0,0E0,0E0,0E0],"parents":[2147483647,0,0,1,1,2,2,3,3,4,4,5,5,6,6],"right_children":[2,4,6,8,10,12,14,-1,-1,-1,-1,-1,-1,-1,-1],"split_conditions":[5.99683E0,3.79465E0,5.911E1,8.2367E-1,1.7094E-2,1E0,3.95E1,-1.1555038E-1,-8.5178666E-2,-4.4566255E-2,9.355725E-2,-7.192058E-2,4.5163848E-2,2.6461596E-2,1.1094787E-1],"split_indices":[9,17,3,17,1,30,12,0,0,0,0,0,0,0,0],"split_type":[0,0,0,0,0,0,0,0,0,0,0,0,0,0,0],"sum_hessian":[1.8751764E4,9.048925E3,9.702838E3,8.766605E3,2.8231918E2,7.6518384E2,8.937654E3,8.1124463E3,6.5415936E2,1.1379993E2,1.6851927E2,3.1432782E2,4.5085602E2,1.388785E2,8.798775E3],"tree_param":{"num_deleted":"0","num_feature":"35","num_nodes":"15","size_leaf_vector":"1"}},{"base_weights":[-2.6680876E-3,-1.0403105E0,9.987387E-1,-1.100584E0,5.8736765E-1,4.2845376E-2,1.0698608E0,-1.13174535E-1,-7.105779E-2,5.7931705E-3,9.442315E-2,4.4949133E-2,-8.14696E-2,2.0977447E-2,1.0848763E-1],"categories":[],"categories_nodes":[],"categories_segments":[],"categories_sizes":[],"default_left":[0,0,0,0,0,0,0,0,0,0,0,0,0,0,0],"id":13,"left_children":[1,3,5,7,9,11,13,-1,-1,-1,-1,-1,-1,-1,-1],"loss_changes":[1.8088576E4,8.393799E2,6.02209E2,9.938965E1,5.7746666E1,2.1465642E2,1.0625488E2,0E0,0E0,0E0,0E0,0E0,0E0,0E0,0E0],"parents":[2147483647,0,0,1,1,2,2,3,3,4,4,5,5,6,6],"right_children":[2,4,6,8,10,12,14,-1,-1,-1,-1,-1,-1,-1,-1],"split_conditions":[6.3107E0,6.329E1,5.856E1,1.02148E0,3.919E1,8.57143E-1,3.95E1,-1.13174535E-1,-7.105779E-2,5.7931705E-3,9.442315E-2,4.4949133E-2,-8.14696E-2,2.0977447E-2,1.0848763E-1],"split_indices":[9,3,3,17,8,15,12,0,0,0,0,0,0,0,0],"split_type":[0,0,0,0,0,0,0,0,0,0,0,0,0,0,0],"sum_hessian":[1.7405889E4,8.548267E3,8.857622E3,8.243336E3,3.0493005E2,6.1351263E2,8.244109E3,7.6316694E3,6.116665E2,1.2324647E2,1.816836E2,4.1648932E2,1.9702332E2,1.4171378E2,8.1023955E3],"tree_param":{"num_deleted":"0","num_feature":"35","num_nodes":"15","size_leaf_vector":"1"}},{"base_weights":[-2.751366E-3,-1.0181948E0,9.6964645E-1,-1.0834478E0,4.610799E-1,3.8925868E-2,1.0435891E0,-1.1170713E-1,-7.248269E-2,-3.0819057E-2,9.521174E-2,5.778147E-2,-5.3992E-2,1.9087592E-2,1.0595226E-1],"categories":[],"categories_nodes":[],"categories_segments":[],"categories_sizes":[],"default_left":[0,0,0,0,0,0,0,0,0,0,0,0,0,0,0],"id":14,"left_children":[1,3,5,7,9,11,13,-1,-1,-1,-1,-1,-1,-1,-1],"loss_changes":[1.5939544E4,7.6273145E2,5.67458E2,9.038965E1,1.26577576E2,1.8995178E2,1.0358887E2,0E0,0E0,0E0,0E0,0E0,0E0,0E0,0E0],"parents":[2147483647,0,0,1,1,2,2,3,3,4,4,5,5,6,6],"right_children":[2,4,6,8,10,12,14,-1,-1,-1,-1,-1,-1,-1,-1],"split_conditions":[6.3107E0,4.01721E0,5.856E1,8.2367E-1,3E0,2.5E0,3.95E1,-1.1170713E-1,-7.248269E-2,-3.0819057E-2,9.521174E-2,5.778147E-2,-5.3992E-2,1.9087592E-2,1.0595226E-1],"split_indices":[9,17,3,17,5,10,12,0,0,0,0,0,0,0,0],"split_type":[0,0,0,0,0,0,0,0,0,0,0,0,0,0,0],"sum_hessian":[1.61407E4,7.8955684E3,8.245133E3,7.562254E3,3.3331445E2,6.0694934E2,7.638183E3,6.912077E3,6.501765E2,1.3001007E2,2.0330438E2,3.1432428E2,2.926251E2,1.4034453E2,7.4978384E3],"tree_param":{"num_deleted":"0","num_feature":"35","num_nodes":"15","size_leaf_vector":"1"}},{"base_weights":[-2.8320586E-3,-1.027777E0,9.1543335E-1,-1.0770489E0,2.525722E-1,2.3099221E-2,1.023091E0,-1.10442735E-1,-7.582965E-2,-1.9222293E-2,1.0912824E-1,-3.9829765E-2,8.1428625E-2,1.0464779E-1,4.4083178E-2],"categories":[],"categories_nodes":[],"categories_segments":[],"categories_sizes":[],"default_left":[0,0,0,0,0,0,0,0,0,0,0,0,0,0,0],"id":15,"left_children":[1,3,5,7,9,11,13,-1,-1,-1,-1,-1,-1,-1,-1],"loss_changes":[1.4080347E4,4.462583E2,7.5802637E2,5.8573242E1,9.824391E1,2.8389883E2,9.5421875E1,0E0,0E0,0E0,0E0,0E0,0E0,0E0,0E0],"parents":[2147483647,0,0,1,1,2,2,3,3,4,4,5,5,6,6],"right_children":[2,4,6,8,10,12,14,-1,-1,-1,-1,-1,-1,-1,-1],"split_conditions":[5.9148E0,3.55363E0,6.007E1,8.2367E-1,4E0,3E0,4.5E0,-1.10442735E-1,-7.582965E-2,-1.9222293E-2,1.0912824E-1,-3.9829765E-2,8.1428625E-2,1.0464779E-1,4.4083178E-2],"split_indices":[9,17,3,17,5,5,10,0,0,0,0,0,0,0,0],"split_type":[0,0,0,0,0,0,0,0,0,0,0,0,0,0,0],"sum_hessian":[1.4958449E4,7.0685693E3,7.88988E3,6.8067812E3,2.6178796E2,8.4954395E2,7.040336E3,6.2661055E3,5.4067615E2,1.7156976E2,9.0218185E1,5.5463464E2,2.9490927E2,6.7677085E3,2.7262766E2],"tree_param":{"num_deleted":"0","num_feature":"35","num_nodes":"15","size_leaf_vector":"1"}},{"base_weights":[-2.9113623E-3,-1.0340099E0,8.6949474E-1,-1.0715767E0,-1.4304613E-1,-1.3619767E-1,9.826103E-1,-1.0941005E-1,-7.9533465E-2,-5.915132E-2,5.7229143E-2,-5.3157058E-2,5.686648E-2,6.089976E-2,1.0658266E-1],"categories":[],"categories_nodes":[],"categories_segments":[],"categories_sizes":[],"default_left":[0,0,0,0,0,0,0,0,0,0,0,0,0,0,0],"id":16,"left_children":[1,3,5,7,9,11,13,-1,-1,-1,-1,-1,-1,-1,-1],"loss_changes":[1.2476215E4,2.1260791E2,8.548032E2,3.708008E1,8.321336E1,2.1223119E2,2.0932129E2,0E0,0E0,0E0,0E0,0E0,0E0,0E0,0E0],"parents":[2147483647,0,0,1,1,2,2,3,3,4,4,5,5,6,6],"right_children":[2,4,6,8,10,12,14,-1,-1,-1,-1,-1,-1,-1,-1],"split_conditions":[1.42012E0,6.79273E0,3.919E1,4.90847E-1,1.94805E-2,2.4E-2,3E0,-1.0941005E-1,-7.9533465E-2,-5.915132E-2,5.7229143E-2,-5.3157058E-2,5.686648E-2,6.089976E-2,1.0658266E-1],"split_indices":[17,9,8,17,1,1,5,0,0,0,0,0,0,0,0],"split_type":[0,0,0,0,0,0,0,0,0,0,0,0,0,0,0],"sum_hessian":[1.3867603E4,6.3556553E3,7.511947E3,6.098322E3,2.573337E2,7.594645E2,6.7524824E3,5.635835E3,4.6248654E2,1.5827766E2,9.905603E1,4.867061E2,2.7275836E2,1.2315521E3,5.52093E3],"tree_param":{"num_deleted":"0","num_feature":"35","num_nodes":"15","size_leaf_vector":"1"}},{"base_weights":[-3.0111675E-3,-9.6357435E-1,8.905222E-1,-1.0250177E0,5.1985866E-1,1.3171983E-1,9.8838085E-1,-1.0745608E-1,-6.0623713E-2,-2.7047535E-2,8.7174706E-2,4.7396343E-2,-6.828157E-2,2.1696812E-2,1.0064181E-1],"categories":[],"categories_nodes":[],"categories_segments":[],"categories_sizes":[],"default_left":[0,0,0,0,0,0,0,0,0,0,0,0,0,0,0],"id":17,"left_children":[1,3,5,7,9,11,13,-1,-1,-1,-1,-1,-1,-1,-1],"loss_changes":[1.1035556E4,5.65312E2,4.9449854E2,1.22802246E2,6.8958565E1,2.1276779E2,8.187598E1,0E0,0E0,0E0,0E0,0E0,0E0,0E0,0E0],"parents":[2147483647,0,0,1,1,2,2,3,3,4,4,5,5,6,6],"right_children":[2,4,6,8,10,12,14,-1,-1,-1,-1,-1,-1,-1,-1],"split_conditions":[6.3107E0,4.8124E0,6.056E1,8.2367E-1,1.5748E-2,8.75E-1,4.28333E1,-1.0745608E-1,-6.0623713E-2,-2.7047535E-2,8.7174706E-2,4.7396343E-2,-6.828157E-2,2.1696812E-2,1.0064181E-1],"split_indices":[9,17,3,17,1,15,12,0,0,0,0,0,0,0,0],"split_type":[0,0,0,0,0,0,0,0,0,0,0,0,0,0,0],"sum_hessian":[1.2855528E4,6.1953477E3,6.66018E3,5.9492407E3,2.46107E2,7.610781E2,5.899102E3,5.318483E3,6.307581E2,7.58903E1,1.7021669E2,5.362007E2,2.2487743E2,1.3507948E2,5.764023E3],"tree_param":{"num_deleted":"0","num_feature":"35","num_nodes":"15","size_leaf_vector":"1"}},{"base_weights":[-3.095265E-3,-1.0011047E0,8.1797963E-1,-1.0568942E0,-3.106853E-1,-1.22486085E-1,9.358501E-1,-1.0731466E-1,-8.455735E-2,-6.507002E-2,5.618006E-2,-4.7704313E-2,5.1637586E-2,5.274802E-2,1.0325525E-1],"categories":[],"categories_nodes":[],"categories_segments":[],"categories_sizes":[],"default_left":[0,0,0,0,0,0,0,0,0,0,0,0,0,0,0],"id":18,"left_children":[1,3,5,7,9,11,13,-1,-1,-1,-1,-1,-1,-1,-1],"loss_changes":[9.764428E3,2.0684082E2,7.248164E2,1.6182617E1,1.2007677E2,1.6537138E2,2.28875E2,0E0,0E0,0E0,0E0,0E0,0E0,0E0,0E0],"parents":[2147483647,0,0,1,1,2,2,3,3,4,4,5,5,6,6],"right_children":[2,4,6,8,10,12,14,-1,-1,-1,-1,-1,-1,-1,-1],"split_conditions":[1.42012E0,5.78113E0,3.919E1,4.90847E-1,2.12766E-2,2.4E-2,3E0,-1.0731466E-1,-8.455735E-2,-6.507002E-2,5.618006E-2,-4.7704313E-2,5.1637586E-2,5.274802E-2,1.0325525E-1],"split_indices":[17,9,8,17,1,1,5,0,0,0,0,0,0,0,0],"split_type":[0,0,0,0,0,0,0,0,0,0,0,0,0,0,0],"sum_hessian":[1.1913971E4,5.377476E3,6.5364946E3,4.9749434E3,4.0253244E2,7.2798706E2,5.8085073E3,4.6158643E3,3.5907904E2,2.8983542E2,1.12697014E2,4.6832712E2,2.5965994E2,1.1133473E3,4.69516E3],"tree_param":{"num_deleted":"0","num_feature":"35","num_nodes":"15","size_leaf_vector":"1"}},{"base_weights":[-3.2062437E-3,-9.6971565E-1,8.0651677E-1,-1.0239345E0,1.4223517E-1,1.5259462E-2,9.3816096E-1,-1.0596545E-1,-7.091965E-2,-1.9796243E-2,9.771084E-2,5.2801948E-2,-5.0706215E-2,9.675075E-2,2.7106E-2],"categories":[],"categories_nodes":[],"categories_segments":[],"categories_sizes":[],"default_left":[0,0,0,0,0,0,0,0,0,0,0,0,0,0,0],"id":19,"left_children":[1,3,5,7,9,11,13,-1,-1,-1,-1,-1,-1,-1,-1],"loss_changes":[8.65027E3,3.0392578E2,6.264741E2,5.326367E1,6.697989E1,2.303093E2,1.0068701E2,0E0,0E0,0E0,0E0,0E0,0E0,0E0,0E0],"parents":[2147483647,0,0,1,1,2,2,3,3,4,4,5,5,6,6],"right_children":[2,4,6,8,10,12,14,-1,-1,-1,-1,-1,-1,-1,-1],"split_conditions":[5.78113E0,3.32732E0,6.056E1,6.68122E-1,4E0,2.5E0,4.5E0,-1.0596545E-1,-7.091965E-2,-1.9796243E-2,9.771084E-2,5.2801948E-2,-5.0706215E-2,9.675075E-2,2.7106E-2],"split_indices":[9,17,3,17,5,10,10,0,0,0,0,0,0,0,0],"split_type":[0,0,0,0,0,0,0,0,0,0,0,0,0,0,0],"sum_hessian":[1.1051175E4,5.037759E3,6.013416E3,4.8036133E3,2.3414546E2,8.5792285E2,5.155493E3,4.3118857E3,4.9172778E2,1.6689946E2,6.7246E1,4.3291846E2,4.250044E2,4.9378228E3,2.176704E2],"tree_param":{"num_deleted":"0","num_feature":"35","num_nodes":"15","size_leaf_vector":"1"}},{"base_weights":[-3.3154027E-3,-9.826874E-1,7.592624E-1,-1.0378911E0,-3.4861064E-1,-1.2734002E-1,8.883199E-1,-1.0540797E-1,-8.1473745E-2,-9.1258295E-2,1.131362E-2,-3.94579E-2,5.4815363E-2,4.3866836E-2,1.0039411E-1],"categories":[],"categories_nodes":[],"categories_segments":[],"categories_sizes":[],"default_left":[0,0,0,0,0,0,0,0,0,0,0,0,0,0,0],"id":20,"left_children":[1,3,5,7,9,11,13,-1,-1,-1,-1,-1,-1,-1,-1],"loss_changes":[7.6583403E3,1.5676953E2,6.5978394E2,1.4057129E1,9.41189E1,1.3261667E2,2.6120898E2,0E0,0E0,0E0,0E0,0E0,0E0,0E0,0E0],"parents":[2147483647,0,0,1,1,2,2,3,3,4,4,5,5,6,6],"right_children":[2,4,6,8,10,12,14,-1,-1,-1,-1,-1,-1,-1,-1],"split_conditions":[1.27302E0,5.78113E0,3.919E1,4.90847E-1,5.143E1,2.82486E-2,3E0,-1.0540797E-1,-8.1473745E-2,-9.1258295E-2,1.131362E-2,-3.94579E-2,5.4815363E-2,4.3866836E-2,1.0039411E-1],"split_indices":[17,9,8,17,3,1,5,0,0,0,0,0,0,0,0],"split_type":[0,0,0,0,0,0,0,0,0,0,0,0,0,0,0],"sum_hessian":[1.0252226E4,4.4880166E3,5.764209E3,4.12799E3,3.6002603E2,7.32446E2,5.0317627E3,3.845311E3,2.826794E2,1.61633E2,1.9839305E2,5.2511554E2,2.0733047E2,1.0301802E3,4.0015828E3],"tree_param":{"num_deleted":"0","num_feature":"35","num_nodes":"15","size_leaf_vector":"1"}},{"base_weights":[-3.440014E-3,-9.009526E-1,7.918676E-1,-9.8670506E-1,1.0874435E-1,8.03816E-2,9.075944E-1,-1.0406244E-1,-6.2083777E-2,5.6252517E-2,-4.384768E-2,3.905306E-2,-6.357091E-2,9.3840376E-2,2.4721984E-2],"categories":[],"categories_nodes":[],"categories_segments":[],"categories_sizes":[],"default_left":[0,0,0,0,0,0,0,0,0,0,0,0,0,0,0],"id":21,"left_children":[1,3,5,7,9,11,13,-1,-1,-1,-1,-1,-1,-1,-1],"loss_changes":[6.7980806E3,3.8751904E2,4.156853E2,8.071411E1,8.744611E1,1.5738206E2,8.812744E1,0E0,0E0,0E0,0E0,0E0,0E0,0E0,0E0],"parents":[2147483647,0,0,1,1,2,2,3,3,4,4,5,5,6,6],"right_children":[2,4,6,8,10,12,14,-1,-1,-1,-1,-1,-1,-1,-1],"split_conditions":[6.3107E0,6.056E1,6.056E1,5.44075E-1,2.66667E0,8.75E-1,4.5E0,-1.0406244E-1,-6.2083777E-2,5.6252517E-2,-4.384768E-2,3.905306E-2,-6.357091E-2,9.3840376E-2,2.4721984E-2],"split_indices":[9,3,3,17,10,15,10,0,0,0,0,0,0,0,0],"split_type":[0,0,0,0,0,0,0,0,0,0,0,0,0,0,0],"sum_hessian":[9.521809E3,4.4734E3,5.048409E3,4.12324E3,3.5015985E2,7.0650775E2,4.3419014E3,3.5920254E3,5.3121466E2,1.9140779E2,1.5875204E2,4.9330502E2,2.1320273E2,4.14796E3,1.9394118E2],"tree_param":{"num_deleted":"0","num_feature":"35","num_nodes":"15","size_leaf_vector":"1"}},{"base_weights":[-3.563321E-3,-9.6717066E-1,6.98866E-1,-1.0218666E0,-3.7621385E-1,-1.4309612E-1,8.4201247E-1,-1.03784524E-1,-7.830748E-2,-6.555455E-2,5.0862312E-2,5.4031976E-2,-3.9071336E-2,3.6080174E-2,9.769475E-2],"categories":[],"categories_nodes":[],"categories_segments":[],"categories_sizes":[],"default_left":[0,0,0,0,0,0,0,0,0,0,0,0,0,0,0],"id":22,"left_children":[1,3,5,7,9,11,13,-1,-1,-1,-1,-1,-1,-1,-1],"loss_changes":[5.9905796E3,1.20228516E2,6.170781E2,1.2216797E1,7.885553E1,1.2623219E2,2.8374316E2,0E0,0E0,0E0,0E0,0E0,0E0,0E0,0E0],"parents":[2147483647,0,0,1,1,2,2,3,3,4,4,5,5,6,6],"right_children":[2,4,6,8,10,12,14,-1,-1,-1,-1,-1,-1,-1,-1],"split_conditions":[1.13778E0,5.78113E0,3.919E1,4.90847E-1,2.34375E-2,2E0,3E0,-1.03784524E-1,-7.830748E-2,-6.555455E-2,5.0862312E-2,5.4031976E-2,-3.9071336E-2,3.6080174E-2,9.769475E-2],"split_indices":[17,9,8,17,1,10,5,0,0,0,0,0,0,0,0],"split_type":[0,0,0,0,0,0,0,0,0,0,0,0,0,0,0],"sum_hessian":[8.848467E3,3.730505E3,5.1179624E3,3.4138113E3,3.1669366E2,7.43693E2,4.374269E3,3.1965667E3,2.1724463E2,2.4090286E2,7.57908E1,1.9747794E2,5.46215E2,9.587629E2,3.4155063E3],"tree_param":{"num_deleted":"0","num_feature":"35","num_nodes":"15","size_leaf_vector":"1"}},{"base_weights":[-3.6552649E-3,-8.686517E-1,7.4269843E-1,-1.0078796E0,-2.0953907E-1,2.3349251E-1,9.168657E-1,1.0145767E-1,-1.01036325E-1,-5.5729825E-2,5.8293324E-2,4.3884944E-2,-7.641185E-2,-8.5531585E-2,9.424266E-2],"categories":[],"categories_nodes":[],"categories_segments":[],"categories_sizes":[],"default_left":[0,0,0,0,0,0,0,0,0,0,0,0,0,0,0],"id":23,"left_children":[1,3,5,7,9,11,13,-1,-1,-1,-1,-1,-1,-1,-1],"loss_changes":[5.3195693E3,3.5002246E2,3.9207153E2,1.6851562E1,1.8410376E2,2.3156203E2,1.500918E2,0E0,0E0,0E0,0E0,0E0,0E0,0E0,0E0],"parents":[2147483647,0,0,1,1,2,2,3,3,4,4,5,5,6,6],"right_children":[2,4,6,8,10,12,14,-1,-1,-1,-1,-1,-1,-1,-1],"split_conditions":[6.3107E0,1.02148E0,3E0,6.2E1,2.43902E-2,2.5E-1,2.35E1,1.0145767E-1,-1.01036325E-1,-5.5729825E-2,5.8293324E-2,4.3884944E-2,-7.641185E-2,-8.5531585E-2,9.424266E-2],"split_indices":[9,17,5,0,1,15,12,0,0,0,0,0,0,0,0],"split_type":[0,0,0,0,0,0,0,0,0,0,0,0,0,0,0],"sum_hessian":[8.237815E3,3.815559E3,4.4222563E3,3.149702E3,6.6585736E2,1.127671E3,3.2945854E3,3.3634472E0,3.1463384E3,4.629838E2,2.0287358E2,9.3563245E2,1.920386E2,4.6382023E1,3.2482034E3],"tree_param":{"num_deleted":"0","num_feature":"35","num_nodes":"15","size_leaf_vector":"1"}},{"base_weights":[-3.7494714E-3,-7.788373E-1,7.914081E-1,-9.9296165E-1,-1.1830627E-1,3.712953E-1,9.1966265E-1,-1.0272651E-1,-7.471041E-2,-5.3519394E-2,5.9836574E-2,6.0907602E-2,-3.5495725E-2,4.8354883E-2,9.501611E-2],"categories":[],"categories_nodes":[],"categories_segments":[],"categories_sizes":[],"default_left":[0,0,0,0,0,0,0,0,0,0,0,0,0,0,0],"id":24,"left_children":[1,3,5,7,9,11,13,-1,-1,-1,-1,-1,-1,-1,-1],"loss_changes":[4.7322383E3,5.4981226E2,2.0387231E2,2.3995605E1,2.8505075E2,1.5358342E2,3.815161E1,0E0,0E0,0E0,0E0,0E0,0E0,0E0,0E0],"parents":[2147483647,0,0,1,1,2,2,3,3,4,4,5,5,6,6],"right_children":[2,4,6,8,10,12,14,-1,-1,-1,-1,-1,-1,-1,-1],"split_conditions":[3.55363E0,4.92518E0,3E0,5.44075E-1,1.98676E-2,2.57143E0,4.42E1,-1.0272651E-1,-7.471041E-2,-5.3519394E-2,5.9836574E-2,6.0907602E-2,-3.5495725E-2,4.8354883E-2,9.501611E-2],"split_indices":[17,9,5,17,1,10,8,0,0,0,0,0,0,0,0],"split_type":[0,0,0,0,0,0,0,0,0,0,0,0,0,0,0],"sum_hessian":[7.676254E3,3.8871934E3,3.7890603E3,2.9351897E3,9.520036E2,8.87113E2,2.9019473E3,2.5730103E3,3.621794E2,6.020467E2,3.4995694E2,6.6842633E2,2.1868661E2,1.9077652E2,2.711171E3],"tree_param":{"num_deleted":"0","num_feature":"35","num_nodes":"15","size_leaf_vector":"1"}},{"base_weights":[-3.7758942E-3,-9.445651E-1,6.155732E-1,-1.0024656E0,-4.0006268E-1,3.1043496E-2,8.299695E-1,-1.0062736E-1,3.0836979E-2,-8.3088316E-2,-3.367216E-3,4.8285533E-2,-4.528868E-2,4.862781E-2,9.309358E-2],"categories":[],"categories_nodes":[],"categories_segments":[],"categories_sizes":[],"default_left":[0,0,0,0,0,0,0,0,0,0,0,0,0,0,0],"id":25,"left_children":[1,3,5,7,9,11,13,-1,-1,-1,-1,-1,-1,-1,-1],"loss_changes":[4.1717485E3,8.92063E1,5.41032E2,1.3130859E1,4.3356564E1,2.5376659E2,1.0915967E2,0E0,0E0,0E0,0E0,0E0,0E0,0E0,0E0],"parents":[2147483647,0,0,1,1,2,2,3,3,4,4,5,5,6,6],"right_children":[2,4,6,8,10,12,14,-1,-1,-1,-1,-1,-1,-1,-1],"split_conditions":[1.02148E0,4.90847E-1,5.30215E0,6.4E-2,4.92518E0,2.5E0,3E0,-1.0062736E-1,3.0836979E-2,-8.3088316E-2,-3.367216E-3,4.8285533E-2,-4.528868E-2,4.862781E-2,9.309358E-2],"split_indices":[17,17,17,1,9,10,5,0,0,0,0,0,0,0,0],"split_type":[0,0,0,0,0,0,0,0,0,0,0,0,0,0,0],"sum_hessian":[7.1576265E3,2.8412507E3,4.3163755E3,2.5674016E3,2.738492E2,1.1586306E3,3.1577449E3,2.5601965E3,7.2051916E0,1.2527581E2,1.4857338E2,5.9920087E2,5.5942975E2,7.183346E2,2.4394102E3],"tree_param":{"num_deleted":"0","num_feature":"35","num_nodes":"15","size_leaf_vector":"1"}},{"base_weights":[-3.8836754E-3,-8.658509E-1,6.3610476E-1,-9.993915E-1,-2.9859656E-1,1.0300735E-1,8.626222E-1,6.256244E-2,-1.0015025E-1,-6.0467478E-2,2.5488457E-2,-6.736818E-2,4.1264564E-2,-7.052447E-2,8.941576E-2],"categories":[],"categories_nodes":[],"categories_segments":[],"categories_sizes":[],"default_left":[0,0,0,0,0,0,0,0,0,0,0,0,0,0,0],"id":26,"left_children":[1,3,5,7,9,11,13,-1,-1,-1,-1,-1,-1,-1,-1],"loss_changes":[3.6933013E3,2.1580298E2,4.6388586E2,8.546387E0,9.2488205E1,2.7609836E2,1.3394702E2,0E0,0E0,0E0,0E0,0E0,0E0,0E0,0E0],"parents":[2147483647,0,0,1,1,2,2,3,3,4,4,5,5,6,6],"right_children":[2,4,6,8,10,12,14,-1,-1,-1,-1,-1,-1,-1,-1],"split_conditions":[5.78113E0,8.2367E-1,3E0,6.2E1,3.159E1,4.901E1,2.475E1,6.256244E-2,-1.0015025E-1,-6.0467478E-2,2.5488457E-2,-6.736818E-2,4.1264564E-2,-7.052447E-2,8.941576E-2],"split_indices":[9,17,5,0,8,20,12,0,0,0,0,0,0,0,0],"split_type":[0,0,0,0,0,0,0,0,0,0,0,0,0,0,0],"sum_hessian":[6.693022E3,2.851769E3,3.841253E3,2.307731E3,5.44038E2,1.1458971E3,2.6953557E3,2.6107047E0,2.3051204E3,3.502534E2,1.937846E2,3.262824E2,8.196146E2,5.272305E1,2.6426328E3],"tree_param":{"num_deleted":"0","num_feature":"35","num_nodes":"15","size_leaf_vector":"1"}},{"base_weights":[-4.0047048E-3,-9.469826E-1,5.4822725E-1,-1.0108697E0,-5.733321E-1,2.0077622E-3,7.861061E-1,7.077923E-2,-1.0140866E-1,-8.642443E-2,-1.9538159E-2,-5.1393915E-2,3.859968E-2,4.3490775E-2,9.0036966E-2],"categories":[],"categories_nodes":[],"categories_segments":[],"categories_sizes":[],"default_left":[0,0,0,0,0,0,0,0,0,0,0,0,0,0,0],"id":27,"left_children":[1,3,5,7,9,11,13,-1,-1,-1,-1,-1,-1,-1,-1],"loss_changes":[3.255633E3,5.454077E1,5.123113E2,1.1612183E1,3.7155502E1,2.3738234E2,1.0983057E2,0E0,0E0,0E0,0E0,0E0,0E0,0E0,0E0],"parents":[2147483647,0,0,1,1,2,2,3,3,4,4,5,5,6,6],"right_children":[2,4,6,8,10,12,14,-1,-1,-1,-1,-1,-1,-1,-1],"split_conditions":[8.2367E-1,4.961E1,5.30215E0,6.2E1,4.92518E0,1E0,3E0,7.077923E-2,-1.0140866E-1,-8.642443E-2,-1.9538159E-2,-5.1393915E-2,3.859968E-2,4.3490775E-2,9.0036966E-2],"split_indices":[17,3,17,0,9,30,5,0,0,0,0,0,0,0,0],"split_type":[0,0,0,0,0,0,0,0,0,0,0,0,0,0,0],"sum_hessian":[6.249908E3,2.30804E3,3.9418684E3,1.9695748E3,3.3846524E2,1.1961855E3,2.7456829E3,3.2703717E0,1.9663044E3,1.905276E2,1.4793764E2,5.1024982E2,6.8593567E2,6.752016E2,2.0704812E3],"tree_param":{"num_deleted":"0","num_feature":"35","num_nodes":"15","size_leaf_vector":"1"}},{"base_weights":[-4.145688E-3,-8.344533E-1,5.8756185E-1,-9.847396E-1,-2.810734E-1,8.0692016E-2,8.245748E-1,3.857604E-3,-9.892133E-2,-4.5565054E-2,5.6557454E-2,-6.030644E-2,3.6111046E-2,-3.4478694E-4,8.8511474E-2],"categories":[],"categories_nodes":[],"categories_segments":[],"categories_sizes":[],"default_left":[0,0,0,0,0,0,0,0,0,0,0,0,0,0,0],"id":28,"left_children":[1,3,5,7,9,11,13,-1,-1,-1,-1,-1,-1,-1,-1],"loss_changes":[2.880282E3,2.0260083E2,4.111709E2,8.819214E0,7.7472305E1,2.0955234E2,1.169209E2,0E0,0E0,0E0,0E0,0E0,0E0,0E0,0E0],"parents":[2147483647,0,0,1,1,2,2,3,3,4,4,5,5,6,6],"right_children":[2,4,6,8,10,12,14,-1,-1,-1,-1,-1,-1,-1,-1],"split_conditions":[5.78113E0,8.2367E-1,3E0,8.2E1,3.125E-2,4.901E1,4.28333E1,3.857604E-3,-9.892133E-2,-4.5565054E-2,5.6557454E-2,-6.030644E-2,3.6111046E-2,-3.4478694E-4,8.8511474E-2],"split_indices":[9,17,5,0,1,20,12,0,0,0,0,0,0,0,0],"split_type":[0,0,0,0,0,0,0,0,0,0,0,0,0,0,0],"sum_hessian":[5.860584E3,2.4384473E3,3.4221365E3,1.9170402E3,5.214072E2,1.0907745E3,2.331362E3,8.311259E0,1.9087289E3,4.3265616E2,8.8751045E1,3.1690375E2,7.738707E2,1.5890564E2,2.1724563E3],"tree_param":{"num_deleted":"0","num_feature":"35","num_nodes":"15","size_leaf_vector":"1"}},{"base_weights":[-4.183261E-3,-8.8281125E-1,5.212118E-1,-9.8091084E-1,-3.7597188E-1,1.0936108E-2,7.9124665E-1,-9.852337E-2,6.393712E-2,-4.6749737E-2,7.38598E-2,3.2082226E-2,-5.8300983E-2,8.683088E-2,6.4652534E-3],"categories":[],"categories_nodes":[],"categories_segments":[],"categories_sizes":[],"default_left":[0,0,0,0,0,0,0,0,0,0,0,0,0,0,0],"id":29,"left_children":[1,3,5,7,9,11,13,-1,-1,-1,-1,-1,-1,-1,-1],"loss_changes":[2.5370828E3,1.0188794E2,4.7390558E2,1.2694824E1,3.4532703E1,2.194404E2,1.2587756E2,0E0,0E0,0E0,0E0,0E0,0E0,0E0,0E0],"parents":[2147483647,0,0,1,1,2,2,3,3,4,4,5,5,6,6],"right_children":[2,4,6,8,10,12,14,-1,-1,-1,-1,-1,-1,-1,-1],"split_conditions":[5.03611E0,5.506E1,3E0,4.91843E1,2E0,2.57143E0,4E0,-9.852337E-2,6.393712E-2,-4.6749737E-2,7.38598E-2,3.2082226E-2,-5.8300983E-2,8.683088E-2,6.4652534E-3],"split_indices":[9,3,5,8,30,10,10,0,0,0,0,0,0,0,0],"split_type":[0,0,0,0,0,0,0,0,0,0,0,0,0,0,0],"sum_hessian":[5.4939634E3,2.0556243E3,3.4383389E3,1.7214915E3,3.3413287E2,1.1902341E3,2.2481047E3,1.7173016E3,4.1897945E0,3.0931345E2,2.481942E1,7.8245496E2,4.0777924E2,2.0323591E3,2.1574573E2],"tree_param":{"num_deleted":"0","num_feature":"35","num_nodes":"15","size_leaf_vector":"1"}},{"base_weights":[-4.2142924E-3,-9.136207E-1,4.7714478E-1,-9.935259E-1,-4.9522203E-1,-6.480666E-3,7.333823E-1,7.277013E-2,-9.9772036E-2,5.039516E-2,-6.0451824E-2,3.94958E-2,-4.1339178E-2,4.810696E-2,9.01398E-2],"categories":[],"categories_nodes":[],"categories_segments":[],"categories_sizes":[],"default_left":[0,0,0,0,0,0,0,0,0,0,0,0,0,0,0],"id":30,"left_children":[1,3,5,7,9,11,13,-1,-1,-1,-1,-1,-1,-1,-1],"loss_changes":[2.2657466E3,5.9399414E1,4.1941693E2,1.1578247E1,3.1893188E1,1.9179451E2,9.335217E1,0E0,0E0,0E0,0E0,0E0,0E0,0E0,0E0],"parents":[2147483647,0,0,1,1,2,2,3,3,4,4,5,5,6,6],"right_children":[2,4,6,8,10,12,14,-1,-1,-1,-1,-1,-1,-1,-1],"split_conditions":[8.2367E-1,4.961E1,5.59625E0,6.2E1,1.42857E0,2.5E0,4E0,7.277013E-2,-9.9772036E-2,5.039516E-2,-6.0451824E-2,3.94958E-2,-4.1339178E-2,4.810696E-2,9.01398E-2],"split_indices":[17,3,17,0,10,10,5,0,0,0,0,0,0,0,0],"split_type":[0,0,0,0,0,0,0,0,0,0,0,0,0,0,0],"sum_hessian":[5.173884E3,1.7904266E3,3.3834573E3,1.5021698E3,2.882568E2,1.1721339E3,2.2113232E3,3.2324204E0,1.4989374E3,2.8066364E1,2.6019046E2,5.900494E2,5.8208453E2,8.854649E2,1.3258583E3],"tree_param":{"num_deleted":"0","num_feature":"35","num_nodes":"15","size_leaf_vector":"1"}},{"base_weights":[-4.27169E-3,-8.618077E-1,4.7114673E-1,-9.85842E-1,-4.3487516E-1,-9.620735E-2,7.0744926E-1,-7.3953033E-3,-9.893634E-2,-5.650979E-2,2.9970556E-2,-4.384726E-2,4.6839025E-2,7.910203E-2,-3.8921123E-3],"categories":[],"categories_nodes":[],"categories_segments":[],"categories_sizes":[],"default_left":[0,0,0,0,0,0,0,0,0,0,0,0,0,0,0],"id":31,"left_children":[1,3,5,7,9,11,13,-1,-1,-1,-1,-1,-1,-1,-1],"loss_changes":[1.9900347E3,9.176343E1,4.2107837E2,4.2562256E0,3.783223E1,1.7880626E2,1.3831958E2,0E0,0E0,0E0,0E0,0E0,0E0,0E0,0E0],"parents":[2147483647,0,0,1,1,2,2,3,3,4,4,5,5,6,6],"right_children":[2,4,6,8,10,12,14,-1,-1,-1,-1,-1,-1,-1,-1],"split_conditions":[4.98991E0,5.44075E-1,1.63934E-2,7.9E1,3.22581E-2,5.8875E1,2.66667E0,-7.3953033E-3,-9.893634E-2,-5.650979E-2,2.9970556E-2,-4.384726E-2,4.6839025E-2,7.910203E-2,-3.8921123E-3],"split_indices":[9,17,1,0,1,8,15,0,0,0,0,0,0,0,0],"split_type":[0,0,0,0,0,0,0,0,0,0,0,0,0,0,0],"sum_hessian":[4.8792676E3,1.739975E3,3.1392927E3,1.3472554E3,3.9271964E2,9.2323376E2,2.216059E3,5.2672076E0,1.3419882E3,3.337796E2,5.894003E1,5.7492896E2,3.483048E2,1.9928591E3,2.2319997E2],"tree_param":{"num_deleted":"0","num_feature":"35","num_nodes":"15","size_leaf_vector":"1"}},{"base_weights":[-4.3188646E-3,-8.883313E-1,4.310502E-1,-9.815522E-1,-4.465908E-1,9.674555E-2,7.889899E-1,6.208789E-2,-9.8644845E-2,-7.7117994E-2,-1.3566464E-2,2.7951678E-2,-6.766851E-2,3.3706557E-3,8.795066E-2],"categories":[],"categories_nodes":[],"categories_segments":[],"categories_sizes":[],"default_left":[0,0,0,0,0,0,0,0,0,0,0,0,0,0,0],"id":32,"left_children":[1,3,5,7,9,11,13,-1,-1,-1,-1,-1,-1,-1,-1],"loss_changes":[1.7733767E3,6.217285E1,3.693487E2,1.0456543E1,2.6820076E1,2.260098E2,1.0188928E2,0E0,0E0,0E0,0E0,0E0,0E0,0E0,0E0],"parents":[2147483647,0,0,1,1,2,2,3,3,4,4,5,5,6,6],"right_children":[2,4,6,8,10,12,14,-1,-1,-1,-1,-1,-1,-1,-1],"split_conditions":[8.2367E-1,4.961E1,4E0,6.2E1,4.92518E0,7.14286E-1,3.159E1,6.208789E-2,-9.8644845E-2,-7.7117994E-2,-1.3566464E-2,2.7951678E-2,-6.766851E-2,3.3706557E-3,8.795066E-2],"split_indices":[17,3,5,0,9,15,8,0,0,0,0,0,0,0,0],"split_type":[0,0,0,0,0,0,0,0,0,0,0,0,0,0,0],"sum_hessian":[4.6057144E3,1.5194487E3,3.0862656E3,1.2536648E3,2.657839E2,1.5964762E3,1.4897894E3,3.4357164E0,1.2502291E3,1.2931068E2,1.364732E2,1.2918375E3,3.046386E2,1.5958267E2,1.3302068E3],"tree_param":{"num_deleted":"0","num_feature":"35","num_nodes":"15","size_leaf_vector":"1"}},{"base_weights":[-4.3727537E-3,-8.394615E-1,4.2271063E-1,-9.757352E-1,-4.233434E-1,-1.9283744E-2,7.0397776E-1,-4.1379463E-3,-9.79966E-2,-5.314935E-2,4.0619414E-2,-4.844978E-2,2.7627094E-2,8.212129E-2,1.0299181E-2],"categories":[],"categories_nodes":[],"categories_segments":[],"categories_sizes":[],"default_left":[0,0,0,0,0,0,0,0,0,0,0,0,0,0,0],"id":33,"left_children":[1,3,5,7,9,11,13,-1,-1,-1,-1,-1,-1,-1,-1],"loss_changes":[1.5578225E3,8.339685E1,3.592857E2,4.357544E0,3.3085365E1,1.5479384E2,1.24349E2,0E0,0E0,0E0,0E0,0E0,0E0,0E0,0E0],"parents":[2147483647,0,0,1,1,2,2,3,3,4,4,5,5,6,6],"right_children":[2,4,6,8,10,12,14,-1,-1,-1,-1,-1,-1,-1,-1],"split_conditions":[4.92518E0,5.44075E-1,3E0,7.9E1,6.26996E0,4.966E1,3.33333E0,-4.1379463E-3,-9.79966E-2,-5.314935E-2,4.0619414E-2,-4.844978E-2,2.7627094E-2,8.212129E-2,1.0299181E-2],"split_indices":[9,17,5,0,17,20,10,0,0,0,0,0,0,0,0],"split_type":[0,0,0,0,0,0,0,0,0,0,0,0,0,0,0],"sum_hessian":[4.3659053E3,1.4769722E3,2.8889329E3,1.1115938E3,3.6537836E2,1.1238312E3,1.7651017E3,5.0592628E0,1.1065345E3,3.2355457E2,4.1823803E1,4.363542E2,6.8747705E2,1.4766777E3,2.8842398E2],"tree_param":{"num_deleted":"0","num_feature":"35","num_nodes":"15","size_leaf_vector":"1"}},{"base_weights":[-4.4112457E-3,-8.8770777E-1,3.7370718E-1,-9.6863717E-1,-4.4109708E-1,6.564483E-2,7.437711E-1,-1.0867226E-2,-9.803614E-2,-5.7349056E-2,4.4032708E-2,3.626936E-2,-3.4368377E-2,2.4815458E-3,8.467856E-2],"categories":[],"categories_nodes":[],"categories_segments":[],"categories_sizes":[],"default_left":[0,0,0,0,0,0,0,0,0,0,0,0,0,0,0],"id":34,"left_children":[1,3,5,7,9,11,13,-1,-1,-1,-1,-1,-1,-1,-1],"loss_changes":[1.380267E3,4.4347473E1,3.2986E2,1.0459106E1,2.2643684E1,1.9227716E2,9.733783E1,0E0,0E0,0E0,0E0,0E0,0E0,0E0,0E0],"parents":[2147483647,0,0,1,1,2,2,3,3,4,4,5,5,6,6],"right_children":[2,4,6,8,10,12,14,-1,-1,-1,-1,-1,-1,-1,-1],"split_conditions":[6.68122E-1,4.961E1,4E0,9.4E1,2E0,2.4E0,3.159E1,-1.0867226E-2,-9.803614E-2,-5.7349056E-2,4.4032708E-2,3.626936E-2,-3.4368377E-2,2.4815458E-3,8.467856E-2],"split_indices":[17,3,5,0,30,10,8,0,0,0,0,0,0,0,0],"split_type":[0,0,0,0,0,0,0,0,0,0,0,0,0,0,0],"sum_hessian":[4.130658E3,1.2377913E3,2.892867E3,1.0469135E3,1.9087788E2,1.5793243E3,1.3135426E3,1.4219158E1,1.0326942E3,1.6625505E2,2.4622826E1,9.1524634E2,6.64078E2,1.6477705E2,1.1487655E3],"tree_param":{"num_deleted":"0","num_feature":"35","num_nodes":"15","size_leaf_vector":"1"}},{"base_weights":[-4.370587E-3,-8.084462E-1,3.8147077E-1,-9.637687E-1,-3.964696E-1,8.206249E-2,7.5013274E-1,-2.6399933E-3,-9.688046E-2,-8.299643E-2,-1.9750092E-2,2.4258612E-2,-8.21278E-2,7.782998E-2,-1.565579E-1],"categories":[],"categories_nodes":[],"categories_segments":[],"categories_sizes":[],"default_left":[0,0,0,0,0,0,0,0,0,0,0,0,0,0,0],"id":35,"left_children":[1,3,5,7,9,11,13,-1,-1,-1,-1,-1,-1,-1,-1],"loss_changes":[1.2200424E3,8.121356E1,2.9325922E2,4.342407E0,3.009542E1,2.1300319E2,7.889197E1,0E0,0E0,0E0,0E0,0E0,0E0,0E0,0E0],"parents":[2147483647,0,0,1,1,2,2,3,3,4,4,5,5,6,6],"right_children":[2,4,6,8,10,12,14,-1,-1,-1,-1,-1,-1,-1,-1],"split_conditions":[4.92518E0,5.44075E-1,4E0,7.9E1,3.2E0,2.4E0,5.75E0,-2.6399933E-3,-9.688046E-2,-8.299643E-2,-1.9750092E-2,2.4258612E-2,-8.21278E-2,7.782998E-2,-1.565579E-1],"split_indices":[9,17,5,0,16,15,13,0,0,0,0,0,0,0,0],"split_type":[0,0,0,0,0,0,0,0,0,0,0,0,0,0,0],"sum_hessian":[3.93051E3,1.2741483E3,2.6563618E3,9.2432294E2,3.4982538E2,1.4665378E3,1.189824E3,4.9725623E0,9.1935034E2,1.09055016E2,2.4077037E2,1.245877E3,2.206609E2,1.1761815E3,1.3642519E1],"tree_param":{"num_deleted":"0","num_feature":"35","num_nodes":"15","size_leaf_vector":"1"}},{"base_weights":[-4.533124E-3,-9.0335363E-1,3.166843E-1,-9.7403836E-1,-5.8417875E-1,-7.223599E-2,6.1058694E-1,9.589826E-3,-9.808783E-2,-6.619809E-2,7.236033E-2,-5.7604183E-2,1.7814359E-2,3.880016E-2,8.098333E-2],"categories":[],"categories_nodes":[],"categories_segments":[],"categories_sizes":[],"default_left":[0,0,0,0,0,0,0,0,0,0,0,0,0,0,0],"id":36,"left_children":[1,3,5,7,9,11,13,-1,-1,-1,-1,-1,-1,-1,-1],"loss_changes":[1.0819762E3,2.1690979E1,3.1562524E2,5.994629E0,1.8935047E1,1.5011638E2,6.943115E1,0E0,0E0,0E0,0E0,0E0,0E0,0E0,0E0],"parents":[2147483647,0,0,1,1,2,2,3,3,4,4,5,5,6,6],"right_children":[2,4,6,8,10,12,14,-1,-1,-1,-1,-1,-1,-1,-1],"split_conditions":[4.90847E-1,4.809E1,5.74264E0,7.9E1,5.16129E-2,1E0,4E0,9.589826E-3,-9.808783E-2,-6.619809E-2,7.236033E-2,-5.7604183E-2,1.7814359E-2,3.880016E-2,8.098333E-2],"split_indices":[17,3,17,0,1,26,5,0,0,0,0,0,0,0,0],"split_type":[0,0,0,0,0,0,0,0,0,0,0,0,0,0,0],"sum_hessian":[3.745544E3,9.8566754E2,2.7598762E3,8.052782E2,1.8038936E2,1.1882386E3,1.5716376E3,5.0325775E0,8.002456E2,1.7072638E2,9.662978E0,3.940477E2,7.94191E2,7.4373334E2,8.279043E2],"tree_param":{"num_deleted":"0","num_feature":"35","num_nodes":"15","size_leaf_vector":"1"}},{"base_weights":[-4.569163E-3,-8.898713E-1,2.9596022E-1,-9.678122E-1,-5.5361116E-1,5.0631845E-1,-2.1177883E-1,8.725554E-3,-9.7527586E-2,-6.1925244E-2,8.4425665E-2,2.5691355E-2,7.981117E-2,-4.1203126E-3,-8.032607E-2],"categories":[],"categories_nodes":[],"categories_segments":[],"categories_sizes":[],"default_left":[0,0,0,0,0,0,0,0,0,0,0,0,0,0,0],"id":37,"left_children":[1,3,5,7,9,11,13,-1,-1,-1,-1,-1,-1,-1,-1],"loss_changes":[9.510661E2,2.3207275E1,2.8514514E2,5.866089E0,1.6379227E1,1.3713837E2,7.891269E1,0E0,0E0,0E0,0E0,0E0,0E0,0E0,0E0],"parents":[2147483647,0,0,1,1,2,2,3,3,4,4,5,5,6,6],"right_children":[2,4,6,8,10,12,14,-1,-1,-1,-1,-1,-1,-1,-1],"split_conditions":[4.90847E-1,4.809E1,3E0,7.9E1,5.46875E-2,4E0,1.6E1,8.725554E-3,-9.7527586E-2,-6.1925244E-2,8.4425665E-2,2.5691355E-2,7.981117E-2,-4.1203126E-3,-8.032607E-2],"split_indices":[17,3,10,0,1,5,16,0,0,0,0,0,0,0,0],"split_type":[0,0,0,0,0,0,0,0,0,0,0,0,0,0,0],"sum_hessian":[3.5726494E3,9.0493195E2,2.6677175E3,7.331247E2,1.7180724E2,1.8862428E3,7.8147473E2,5.0746894E0,7.2805E2,1.6463336E2,7.173876E0,1.01800354E3,8.682393E2,6.0738306E2,1.7409174E2],"tree_param":{"num_deleted":"0","num_feature":"35","num_nodes":"15","size_leaf_vector":"1"}},{"base_weights":[-4.610007E-3,-7.59598E-1,3.244153E-1,-9.438864E-1,-3.721474E-1,-1.05906844E-1,5.545748E-1,-2.0338489E-2,-9.528854E-2,-8.01621E-2,-1.8150443E-2,3.2095388E-2,-4.0471017E-2,6.529996E-2,-1.6785285E-2],"categories":[],"categories_nodes":[],"categories_segments":[],"categories_sizes":[],"default_left":[0,0,0,0,0,0,0,0,0,0,0,0,0,0,0],"id":38,"left_children":[1,3,5,7,9,11,13,-1,-1,-1,-1,-1,-1,-1,-1],"loss_changes":[8.524581E2,7.402112E1,2.3677794E2,4.505493E0,2.7478428E1,1.0646786E2,1.10845276E2,0E0,0E0,0E0,0E0,0E0,0E0,0E0,0E0],"parents":[2147483647,0,0,1,1,2,2,3,3,4,4,5,5,6,6],"right_children":[2,4,6,8,10,12,14,-1,-1,-1,-1,-1,-1,-1,-1],"split_conditions":[4.92518E0,5.44075E-1,1.63934E-2,9.2E1,3.2E0,1.71429E0,2.6E0,-2.0338489E-2,-9.528854E-2,-8.01621E-2,-1.8150443E-2,3.2095388E-2,-4.0471017E-2,6.529996E-2,-1.6785285E-2],"split_indices":[9,17,1,0,16,10,15,0,0,0,0,0,0,0,0],"split_type":[0,0,0,0,0,0,0,0,0,0,0,0,0,0,0],"sum_hessian":[3.4296636E3,1.0405919E3,2.3890715E3,7.042052E2,3.3638675E2,8.327132E2,1.5563584E3,8.738529E0,6.954667E2,1.0243041E2,2.3395634E2,3.4285196E2,4.8986127E2,1.3698269E3,1.8653148E2],"tree_param":{"num_deleted":"0","num_feature":"35","num_nodes":"15","size_leaf_vector":"1"}},{"base_weights":[-4.614336E-3,-4.6134156E-1,4.981204E-1,-9.316119E-1,-1.5793824E-1,2.7066043E-1,7.428307E-1,8.874638E-5,-9.49049E-2,-6.1957844E-2,6.8742647E-3,3.6761403E-2,-9.405063E-2,-3.1466972E-2,7.6875225E-2],"categories":[],"categories_nodes":[],"categories_segments":[],"categories_sizes":[],"default_left":[0,0,0,0,0,0,0,0,0,0,0,0,0,0,0],"id":39,"left_children":[1,3,5,7,9,11,13,-1,-1,-1,-1,-1,-1,-1,-1],"loss_changes":[7.550346E2,2.4569073E2,8.6927124E1,1.0984192E1,1.097632E2,9.579317E1,2.0896606E1,0E0,0E0,0E0,0E0,0E0,0E0,0E0,0E0],"parents":[2147483647,0,0,1,1,2,2,3,3,4,4,5,5,6,6],"right_children":[2,4,6,8,10,12,14,-1,-1,-1,-1,-1,-1,-1,-1],"split_conditions":[4.43198E0,4.961E1,4E0,9.4E1,1E0,3.66667E0,4.66667E1,8.874638E-5,-9.49049E-2,-6.1957844E-2,6.8742647E-3,3.6761403E-2,-9.405063E-2,-3.1466972E-2,7.6875225E-2],"split_indices":[17,3,5,0,26,15,12,0,0,0,0,0,0,0,0],"split_type":[0,0,0,0,0,0,0,0,0,0,0,0,0,0,0],"sum_hessian":[3.2862964E3,1.7219825E3,1.5643138E3,6.7447943E2,1.047503E3,8.118238E2,7.5249005E2,1.2398188E1,6.6208124E2,3.443975E2,7.031056E2,7.5229895E2,5.9524857E1,1.7737286E1,7.3475275E2],"tree_param":{"num_deleted":"0","num_feature":"35","num_nodes":"15","size_leaf_vector":"1"}},{"base_weights":[-4.533796E-3,-7.2057164E-1,2.8750664E-1,-9.2880124E-1,-3.383914E-1,4.8628053E-1,-1.7288144E-1,-1.8710375E-2,-9.393819E-2,-7.634374E-2,-1.5866578E-2,1.6989632E-2,7.0681155E-2,5.519422E-3,-6.78656E-2],"categories":[],"categories_nodes":[],"categories_segments":[],"categories_sizes":[],"default_left":[0,0,0,0,0,0,0,0,0,0,0,0,0,0,0],"id":40,"left_children":[1,3,5,7,9,11,13,-1,-1,-1,-1,-1,-1,-1,-1],"loss_changes":[6.5924713E2,7.236789E1,2.0500989E2,4.459198E0,2.460566E1,1.09024536E2,7.801877E1,0E0,0E0,0E0,0E0,0E0,0E0,0E0,0E0],"parents":[2147483647,0,0,1,1,2,2,3,3,4,4,5,5,6,6],"right_children":[2,4,6,8,10,12,14,-1,-1,-1,-1,-1,-1,-1,-1],"split_conditions":[4.92518E0,5.44075E-1,3E0,9.2E1,3.2E0,3E0,1.52E2,-1.8710375E-2,-9.393819E-2,-7.634374E-2,-1.5866578E-2,1.6989632E-2,7.0681155E-2,5.519422E-3,-6.78656E-2],"split_indices":[9,17,10,0,16,5,0,0,0,0,0,0,0,0,0],"split_type":[0,0,0,0,0,0,0,0,0,0,0,0,0,0,0],"sum_hessian":[3.1506123E3,9.1230774E2,2.2383047E3,5.896233E2,3.2268445E2,1.5632922E3,6.7501227E2,8.555684E0,5.810676E2,9.4929985E1,2.2775447E2,6.4282935E2,9.2046295E2,4.6583707E2,2.0917523E2],"tree_param":{"num_deleted":"0","num_feature":"35","num_nodes":"15","size_leaf_vector":"1"}},{"base_weights":[-4.4830767E-3,-8.389112E-1,2.2725664E-1,-9.432134E-1,-4.5732507E-1,-8.6535014E-2,5.0331235E-1,9.081881E-3,-9.535561E-2,-6.2754184E-2,1.186583E-2,-6.3087866E-2,8.279226E-3,-1.2789817E-1,5.31316E-2],"categories":[],"categories_nodes":[],"categories_segments":[],"categories_sizes":[],"default_left":[0,0,0,0,0,0,0,0,0,0,0,0,0,0,0],"id":41,"left_children":[1,3,5,7,9,11,13,-1,-1,-1,-1,-1,-1,-1,-1],"loss_changes":[5.8675586E2,2.5818604E1,2.0576154E2,5.6159363E0,1.4145493E1,1.02576004E2,6.3743378E1,0E0,0E0,0E0,0E0,0E0,0E0,0E0,0E0],"parents":[2147483647,0,0,1,1,2,2,3,3,4,4,5,5,6,6],"right_children":[2,4,6,8,10,12,14,-1,-1,-1,-1,-1,-1,-1,-1],"split_conditions":[4.90847E-1,4.809E1,5.74264E0,7.9E1,3.14465E-2,2E0,7.8E1,9.081881E-3,-9.535561E-2,-6.2754184E-2,1.186583E-2,-6.3087866E-2,8.279226E-3,-1.2789817E-1,5.31316E-2],"split_indices":[17,3,17,0,1,16,0,0,0,0,0,0,0,0,0],"split_type":[0,0,0,0,0,0,0,0,0,0,0,0,0,0,0],"sum_hessian":[3.0323806E3,6.5854156E2,2.3738389E3,5.160212E2,1.4252037E2,1.1113066E3,1.2625322E3,5.033201E0,5.1098798E2,1.0994075E2,3.2579624E1,2.6302457E2,8.482821E2,1.8839193E1,1.2436931E3],"tree_param":{"num_deleted":"0","num_feature":"35","num_nodes":"15","size_leaf_vector":"1"}},{"base_weights":[-4.549364E-3,-9.0319353E-1,1.90907E-1,4.310681E-2,-9.2522633E-1,4.3760788E-1,-1.553071E-1,-4.46969E-2,1.2240137E-1,-9.308055E-2,5.3749096E-2,2.0486452E-2,7.568667E-2,-3.4323752E-2,2.4944553E-2],"categories":[],"categories_nodes":[],"categories_segments":[],"categories_sizes":[],"default_left":[0,0,0,0,0,0,0,0,0,0,0,0,0,0,0],"id":42,"left_children":[1,3,5,7,9,11,13,-1,-1,-1,-1,-1,-1,-1,-1],"loss_changes":[5.137943E2,1.0935211E1,2.0527925E2,7.981308E0,4.668213E0,1.0411014E2,7.61833E1,0E0,0E0,0E0,0E0,0E0,0E0,0E0,0E0],"parents":[2147483647,0,0,1,1,2,2,3,3,4,4,5,5,6,6],"right_children":[2,4,6,8,10,12,14,-1,-1,-1,-1,-1,-1,-1,-1],"split_conditions":[4.961E1,9.4E1,2.5E0,2.3895E1,4E0,4E0,6.62645E0,-4.46969E-2,1.2240137E-1,-9.308055E-2,5.3749096E-2,2.0486452E-2,7.568667E-2,-3.4323752E-2,2.4944553E-2],"split_indices":[3,0,10,8,26,5,17,0,0,0,0,0,0,0,0],"split_type":[0,0,0,0,0,0,0,0,0,0,0,0,0,0,0],"sum_hessian":[2.9231926E3,5.215689E2,2.4016238E3,1.184565E1,5.097233E2,1.4021986E3,9.9942505E2,8.810712E0,3.0349376E0,5.081487E2,1.5745672E0,8.1193225E2,5.9026636E2,6.8262695E2,3.167981E2],"tree_param":{"num_deleted":"0","num_feature":"35","num_nodes":"15","size_leaf_vector":"1"}},{"base_weights":[-4.4058803E-3,-6.6463643E-1,2.4097641E-1,-9.0271354E-1,-3.1334862E-1,3.5670716E-1,-4.3820626E-1,-9.539705E-2,-6.596646E-2,-4.0224247E-2,5.4677468E-2,6.4513795E-3,6.077339E-2,-1.0899692E-1,-1.6994236E-2],"categories":[],"categories_nodes":[],"categories_segments":[],"categories_sizes":[],"default_left":[0,0,0,0,0,0,0,0,0,0,0,0,0,0,0],"id":43,"left_children":[1,3,5,7,9,11,13,-1,-1,-1,-1,-1,-1,-1,-1],"loss_changes":[4.5806342E2,6.378897E1,1.6217981E2,5.052765E0,2.3999086E1,1.2918256E2,5.236471E1,0E0,0E0,0E0,0E0,0E0,0E0,0E0,0E0],"parents":[2147483647,0,0,1,1,2,2,3,3,4,4,5,5,6,6],"right_children":[2,4,6,8,10,12,14,-1,-1,-1,-1,-1,-1,-1,-1],"split_conditions":[4.92518E0,5.44075E-1,2.5E0,4.774E1,3.96825E-2,3E0,1.815E2,-9.539705E-2,-6.596646E-2,-4.0224247E-2,5.4677468E-2,6.4513795E-3,6.077339E-2,-1.0899692E-1,-1.6994236E-2],"split_indices":[9,17,15,3,1,5,11,0,0,0,0,0,0,0,0],"split_type":[0,0,0,0,0,0,0,0,0,0,0,0,0,0,0],"sum_hessian":[2.8254082E3,7.651017E2,2.0603066E3,4.550991E2,3.100026E2,1.760754E3,2.9955255E2,3.734226E2,8.167648E1,2.8144733E2,2.8555264E1,8.1424066E2,9.465134E2,8.645121E1,2.1310135E2],"tree_param":{"num_deleted":"0","num_feature":"35","num_nodes":"15","size_leaf_vector":"1"}},{"base_weights":[-4.3664738E-3,-8.8156044E-1,1.6493459E-1,-9.018228E-1,3.4836695E-1,2.996517E-1,-3.907801E-1,-1.1696867E-2,-9.169491E-2,-4.272517E-2,1.3064423E-1,-3.3791877E-2,4.9291138E-2,2.968196E-2,-5.7047006E-2],"categories":[],"categories_nodes":[],"categories_segments":[],"categories_sizes":[],"default_left":[0,0,0,0,0,0,0,0,0,0,0,0,0,0,0],"id":44,"left_children":[1,3,5,7,9,11,13,-1,-1,-1,-1,-1,-1,-1,-1],"loss_changes":[4.0599127E2,1.1335999E1,1.7167023E2,5.061493E0,6.420748E0,2.2749704E2,5.546698E1,0E0,0E0,0E0,0E0,0E0,0E0,0E0,0E0],"parents":[2147483647,0,0,1,1,2,2,3,3,4,4,5,5,6,6],"right_children":[2,4,6,8,10,12,14,-1,-1,-1,-1,-1,-1,-1,-1],"split_conditions":[4.961E1,5.19481E-2,1.6E1,9.4E1,4.784E1,2E0,1.5E0,-1.1696867E-2,-9.169491E-2,-4.272517E-2,1.3064423E-1,-3.3791877E-2,4.9291138E-2,2.968196E-2,-5.7047006E-2],"split_indices":[3,1,16,0,3,16,10,0,0,0,0,0,0,0,0],"split_type":[0,0,0,0,0,0,0,0,0,0,0,0,0,0,0],"sum_hessian":[2.7317874E3,4.412656E2,2.2905217E3,4.3437625E2,6.8893285E0,1.8439658E3,4.465559E2,8.37842E0,4.2599783E2,4.113367E0,2.7759616E0,4.2875134E2,1.4152145E3,9.238491E1,3.5417102E2],"tree_param":{"num_deleted":"0","num_feature":"35","num_nodes":"15","size_leaf_vector":"1"}},{"base_weights":[-4.2824782E-3,-7.083537E-1,1.8803427E-1,-7.9699165E-1,1.13079265E-1,3.764012E-1,-1.9110736E-1,-8.156244E-2,8.775132E-2,3.142387E-2,-6.277974E-2,1.38304755E-2,6.437191E-2,1.0002357E-3,-6.2901005E-2],"categories":[],"categories_nodes":[],"categories_segments":[],"categories_sizes":[],"default_left":[0,0,0,0,0,0,0,0,0,0,0,0,0,0,0],"id":45,"left_children":[1,3,5,7,9,11,13,-1,-1,-1,-1,-1,-1,-1,-1],"loss_changes":[3.595875E2,4.157431E1,1.4904272E2,1.6765015E1,8.598103E0,8.862862E1,6.1037758E1,0E0,0E0,0E0,0E0,0E0,0E0,0E0,0E0],"parents":[2147483647,0,0,1,1,2,2,3,3,4,4,5,5,6,6],"right_children":[2,4,6,8,10,12,14,-1,-1,-1,-1,-1,-1,-1,-1],"split_conditions":[4.40603E0,3.55363E0,3E0,3E0,1.375E0,2.1978E-2,1.52E2,-8.156244E-2,8.775132E-2,3.142387E-2,-6.277974E-2,1.38304755E-2,6.437191E-2,1.0002357E-3,-6.2901005E-2],"split_indices":[9,17,10,30,15,1,0,0,0,0,0,0,0,0,0],"split_type":[0,0,0,0,0,0,0,0,0,0,0,0,0,0,0],"sum_hessian":[2.6536665E3,5.687587E2,2.0849077E3,5.133903E2,5.536838E1,1.3928918E3,6.920158E2,5.082478E2,5.142517E0,4.399808E1,1.1370301E1,7.375149E2,6.55377E2,4.7489453E2,2.171213E2],"tree_param":{"num_deleted":"0","num_feature":"35","num_nodes":"15","size_leaf_vector":"1"}},{"base_weights":[-4.114825E-3,-8.5952765E-1,1.439901E-1,1.3220957E-1,-8.88278E-1,-9.7193174E-2,4.1201642E-1,7.4610285E-2,-8.515513E-2,-8.958986E-2,6.4265154E-2,-3.973039E-2,1.5344533E-2,-1.14077605E-1,4.4210654E-2],"categories":[],"categories_nodes":[],"categories_segments":[],"categories_sizes":[],"default_left":[0,0,0,0,0,0,0,0,0,0,0,0,0,0,0],"id":46,"left_children":[1,3,5,7,9,11,13,-1,-1,-1,-1,-1,-1,-1,-1],"loss_changes":[3.2674307E2,1.0970306E1,1.4215546E2,7.637261E0,4.8927917E0,8.716339E1,4.9165695E1,0E0,0E0,0E0,0E0,0E0,0E0,0E0,0E0],"parents":[2147483647,0,0,1,1,2,2,3,3,4,4,5,5,6,6],"right_children":[2,4,6,8,10,12,14,-1,-1,-1,-1,-1,-1,-1,-1],"split_conditions":[4.961E1,9.4E1,6.01436E0,7.7E1,4E0,1E0,7.9E1,7.4610285E-2,-8.515513E-2,-8.958986E-2,6.4265154E-2,-3.973039E-2,1.5344533E-2,-1.14077605E-1,4.4210654E-2],"split_indices":[3,0,17,21,26,30,0,0,0,0,0,0,0,0,0],"split_type":[0,0,0,0,0,0,0,0,0,0,0,0,0,0,0],"sum_hessian":[2.577081E3,3.7963153E2,2.1974495E3,1.0594032E1,3.690375E2,1.1569796E3,1.0404698E3,6.6720657E0,3.9219673E0,3.6762238E2,1.4151187E0,5.2625946E2,6.3072015E2,1.9077345E1,1.0213926E3],"tree_param":{"num_deleted":"0","num_feature":"35","num_nodes":"15","size_leaf_vector":"1"}},{"base_weights":[-4.0671295E-3,-8.4507453E-1,1.3256465E-1,-8.6932284E-1,4.0832335E-1,2.405522E-1,-4.4982886E-1,-2.0814715E-2,-8.922392E-2,1.495248E-1,-3.3426773E-2,3.6871877E-2,-2.7835494E-2,-1.00667536E-1,-2.253777E-2],"categories":[],"categories_nodes":[],"categories_segments":[],"categories_sizes":[],"default_left":[0,0,0,0,0,0,0,0,0,0,0,0,0,0,0],"id":47,"left_children":[1,3,5,7,9,11,13,-1,-1,-1,-1,-1,-1,-1,-1],"loss_changes":[2.8789453E2,1.0997025E1,1.3565788E2,5.0238037E0,6.4128213E0,1.2106657E2,4.1952385E1,0E0,0E0,0E0,0E0,0E0,0E0,0E0,0E0],"parents":[2147483647,0,0,1,1,2,2,3,3,4,4,5,5,6,6],"right_children":[2,4,6,8,10,12,14,-1,-1,-1,-1,-1,-1,-1,-1],"split_conditions":[4.961E1,5.19481E-2,2.5E0,1.03E2,2.75E0,1.6E1,1.82E2,-2.0814715E-2,-8.922392E-2,1.495248E-1,-3.3426773E-2,3.6871877E-2,-2.7835494E-2,-1.00667536E-1,-2.253777E-2],"split_indices":[3,1,15,0,10,16,11,0,0,0,0,0,0,0,0],"split_type":[0,0,0,0,0,0,0,0,0,0,0,0,0,0,0],"sum_hessian":[2.503453E3,3.491501E2,2.1543027E3,3.428242E2,6.3258734E0,1.8178276E3,3.364751E2,1.1822015E1,3.310022E2,2.156243E0,4.16963E0,1.4580009E3,3.5982687E2,9.566138E1,2.408137E2],"tree_param":{"num_deleted":"0","num_feature":"35","num_nodes":"15","size_leaf_vector":"1"}},{"base_weights":[-4.0837857E-3,-6.6994756E-1,1.5256028E-1,-8.0509686E-1,-1.5217642E-1,-1.6989502E-1,3.5167772E-1,-9.3207024E-2,-5.8312487E-2,7.21989E-2,-2.7541777E-2,3.1149074E-2,-3.1182626E-2,4.5330364E-2,-2.0938374E-2],"categories":[],"categories_nodes":[],"categories_segments":[],"categories_sizes":[],"default_left":[0,0,0,0,0,0,0,0,0,0,0,0,0,0,0],"id":48,"left_children":[1,3,5,7,9,11,13,-1,-1,-1,-1,-1,-1,-1,-1],"loss_changes":[2.5552203E2,3.2525253E1,1.27397705E2,9.877655E0,1.0735815E1,5.187345E1,7.002498E1,0E0,0E0,0E0,0E0,0E0,0E0,0E0,0E0],"parents":[2147483647,0,0,1,1,2,2,3,3,4,4,5,5,6,6],"right_children":[2,4,6,8,10,12,14,-1,-1,-1,-1,-1,-1,-1,-1],"split_conditions":[4.3321E0,5.911E1,1.5873E-2,4.809E1,1.5E0,1.375E0,2.6E0,-9.3207024E-2,-5.8312487E-2,7.21989E-2,-2.7541777E-2,3.1149074E-2,-3.1182626E-2,4.5330364E-2,-2.0938374E-2],"split_indices":[9,3,1,3,10,10,15,0,0,0,0,0,0,0,0],"split_type":[0,0,0,0,0,0,0,0,0,0,0,0,0,0,0],"sum_hessian":[2.447811E3,4.6555392E2,1.9822571E3,3.6874792E2,9.680601E1,7.5680945E2,1.2254476E3,2.325339E2,1.3621402E2,1.13612175E1,8.544479E1,1.7205585E2,5.847536E2,1.0376826E3,1.8776495E2],"tree_param":{"num_deleted":"0","num_feature":"35","num_nodes":"15","size_leaf_vector":"1"}},{"base_weights":[-3.95696E-3,-3.1285822E-1,3.0915466E-1,-8.712406E-1,-1.535439E-1,3.8261715E-1,-8.0161166E-1,2.8896395E-3,-8.95782E-2,-3.108717E-2,2.9336913E-2,1.7683908E-2,5.9007436E-2,-1.3349177E-1,-3.490898E-2],"categories":[],"categories_nodes":[],"categories_segments":[],"categories_sizes":[],"default_left":[0,0,0,0,0,0,0,0,0,0,0,0,0,0,0],"id":49,"left_children":[1,3,5,7,9,11,13,-1,-1,-1,-1,-1,-1,-1,-1],"loss_changes":[2.3095271E2,1.0679341E2,9.707102E1,5.915344E0,6.593035E1,4.740793E1,1.7365013E1,0E0,0E0,0E0,0E0,0E0,0E0,0E0,0E0],"parents":[2147483647,0,0,1,1,2,2,3,3,4,4,5,5,6,6],"right_children":[2,4,6,8,10,12,14,-1,-1,-1,-1,-1,-1,-1,-1],"split_conditions":[4.743E1,4.809E1,4.5E0,9.2E1,3.125E-2,3E0,1E0,2.8896395E-3,-8.95782E-2,-3.108717E-2,2.9336913E-2,1.7683908E-2,5.9007436E-2,-1.3349177E-1,-3.490898E-2],"split_indices":[20,3,10,0,1,5,31,0,0,0,0,0,0,0,0],"split_type":[0,0,0,0,0,0,0,0,0,0,0,0,0,0,0],"sum_hessian":[2.3858342E3,1.2009922E3,1.1848419E3,2.656043E2,9.3538794E2,1.1119563E3,7.2885666E1,7.0445333E0,2.5855975E2,6.9206366E2,2.433243E2,5.591673E2,5.52789E2,3.2561428E1,4.032424E1],"tree_param":{"num_deleted":"0","num_feature":"35","num_nodes":"15","size_leaf_vector":"1"}},{"base_weights":[-3.740235E-3,-8.0058676E-1,1.0471085E-1,-8.300519E-1,4.7409105E-1,2.8645858E-1,-1.9422299E-1,-1.3364828E-2,-8.581204E-2,1.4121155E-1,-2.6519144E-2,1.0474087E-2,6.1507937E-2,-6.259949E-2,-3.4423885E-3],"categories":[],"categories_nodes":[],"categories_segments":[],"categories_sizes":[],"default_left":[0,0,0,0,0,0,0,0,0,0,0,0,0,0,0],"id":50,"left_children":[1,3,5,7,9,11,13,-1,-1,-1,-1,-1,-1,-1,-1],"loss_changes":[2.0070815E2,1.0843292E1,1.1112399E2,5.2080383E0,5.175041E0,7.587969E1,5.3351395E1,0E0,0E0,0E0,0E0,0E0,0E0,0E0,0E0],"parents":[2147483647,0,0,1,1,2,2,3,3,4,4,5,5,6,6],"right_children":[2,4,6,8,10,12,14,-1,-1,-1,-1,-1,-1,-1,-1],"split_conditions":[4.961E1,5.19481E-2,2.66667E0,1.03E2,2.75E0,4E0,1.865E2,-1.3364828E-2,-8.581204E-2,1.4121155E-1,-2.6519144E-2,1.0474087E-2,6.1507937E-2,-6.259949E-2,-3.4423885E-3],"split_indices":[3,1,10,0,10,5,11,0,0,0,0,0,0,0,0],"split_type":[0,0,0,0,0,0,0,0,0,0,0,0,0,0,0],"sum_hessian":[2.3205337E3,2.7722623E2,2.0433075E3,2.7130365E2,5.9225707E0,1.2707501E3,7.725573E2,1.073443E1,2.605692E2,2.2092676E0,3.7133029E0,8.1911957E2,4.5163058E2,2.0790027E2,5.6465704E2],"tree_param":{"num_deleted":"0","num_feature":"35","num_nodes":"15","size_leaf_vector":"1"}},{"base_weights":[-3.5204554E-3,-6.121999E-1,1.2639432E-1,-7.155535E-1,1.1358416E-1,-2.7105324E-2,4.4469917E-1,-8.1969105E-2,-2.2167908E-2,7.3257826E-2,-1.7446157E-2,6.8489946E-3,-6.4291865E-2,-1.1883283E-1,5.0841E-2],"categories":[],"categories_nodes":[],"categories_segments":[],"categories_sizes":[],"default_left":[0,0,0,0,0,0,0,0,0,0,0,0,0,0,0],"id":51,"left_children":[1,3,5,7,9,11,13,-1,-1,-1,-1,-1,-1,-1,-1],"loss_changes":[1.8010811E2,3.0133087E1,9.172374E1,1.786142E1,9.185665E0,7.464832E1,6.414702E1,0E0,0E0,0E0,0E0,0E0,0E0,0E0,0E0],"parents":[2147483647,0,0,1,1,2,2,3,3,4,4,5,5,6,6],"right_children":[2,4,6,8,10,12,14,-1,-1,-1,-1,-1,-1,-1,-1],"split_conditions":[4.3321E0,3.55363E0,4E0,3.14465E-2,1.25E0,3.66667E0,2.23333E1,-8.1969105E-2,-2.2167908E-2,7.3257826E-2,-1.7446157E-2,6.8489946E-3,-6.4291865E-2,-1.1883283E-1,5.0841E-2],"split_indices":[9,17,5,1,13,15,12,0,0,0,0,0,0,0,0],"split_type":[0,0,0,0,0,0,0,0,0,0,0,0,0,0,0],"sum_hessian":[2.2756667E3,3.9962466E2,1.8760422E3,3.4982303E2,4.9801636E1,1.2662969E3,6.0974536E2,2.8836017E2,6.1462852E1,1.5325254E1,3.4476383E1,1.096908E3,1.6938882E2,2.2232508E1,5.875129E2],"tree_param":{"num_deleted":"0","num_feature":"35","num_nodes":"15","size_leaf_vector":"1"}},{"base_weights":[-3.45601E-3,-8.3469784E-1,8.442602E-2,5.8727518E-2,-8.6455923E-1,-3.4698772E-1,1.9413862E-1,-7.340486E-2,1.1850142E-1,-8.995236E-2,-3.7124652E-2,-6.7465045E-2,2.3573062E-3,3.853611E-2,-3.191717E-2],"categories":[],"categories_nodes":[],"categories_segments":[],"categories_sizes":[],"default_left":[0,0,0,0,0,0,0,0,0,0,0,0,0,0,0],"id":52,"left_children":[1,3,5,7,9,11,13,-1,-1,-1,-1,-1,-1,-1,-1],"loss_changes":[1.6275009E2,5.7338867E0,9.543593E1,7.8576074E0,3.2225647E0,4.9661446E1,1.5786319E2,0E0,0E0,0E0,0E0,0E0,0E0,0E0,0E0],"parents":[2147483647,0,0,1,1,2,2,3,3,4,4,5,5,6,6],"right_children":[2,4,6,8,10,12,14,-1,-1,-1,-1,-1,-1,-1,-1],"split_conditions":[4.809E1,9.2E1,2E0,1E0,5.99683E0,7.49811E0,1.37143E1,-7.340486E-2,1.1850142E-1,-8.995236E-2,-3.7124652E-2,-6.7465045E-2,2.3573062E-3,3.853611E-2,-3.191717E-2],"split_indices":[3,0,16,33,9,9,16,0,0,0,0,0,0,0,0],"split_type":[0,0,0,0,0,0,0,0,0,0,0,0,0,0,0],"sum_hessian":[2.2259253E3,2.1201933E2,2.013906E3,6.8259635E0,2.0519337E2,4.0787808E2,1.606028E3,4.210508E0,2.6154554E0,1.9084358E2,1.4349787E1,2.1603331E2,1.9184476E2,1.1703055E3,4.3572235E2],"tree_param":{"num_deleted":"0","num_feature":"35","num_nodes":"15","size_leaf_vector":"1"}},{"base_weights":[-3.435443E-3,-2.6231667E-1,2.539073E-1,-8.4777445E-1,-1.4318225E-1,3.095756E-1,-9.4213414E-1,-8.9368604E-2,-3.9101075E-2,-6.3777207E-3,-8.341735E-2,-2.4261385E-2,3.8555913E-2,-1.1385292E-1,3.5722945E-2],"categories":[],"categories_nodes":[],"categories_segments":[],"categories_sizes":[],"default_left":[0,0,0,0,0,0,0,0,0,0,0,0,0,0,0],"id":53,"left_children":[1,3,5,7,9,11,13,-1,-1,-1,-1,-1,-1,-1,-1],"loss_changes":[1.4541643E2,7.5772194E1,7.317365E1,3.5045013E0,4.9620667E1,4.4010147E1,1.2892975E1,0E0,0E0,0E0,0E0,0E0,0E0,0E0,0E0],"parents":[2147483647,0,0,1,1,2,2,3,3,4,4,5,5,6,6],"right_children":[2,4,6,8,10,12,14,-1,-1,-1,-1,-1,-1,-1,-1],"split_conditions":[4.743E1,4.756E1,5E0,3.26797E-2,4.657E1,1.2987E-2,6.831E1,-8.9368604E-2,-3.9101075E-2,-6.3777207E-3,-8.341735E-2,-2.4261385E-2,3.8555913E-2,-1.1385292E-1,3.5722945E-2],"split_indices":[20,3,10,1,20,1,3,0,0,0,0,0,0,0,0],"split_type":[0,0,0,0,0,0,0,0,0,0,0,0,0,0,0],"sum_hessian":[2.180735E3,1.0871083E3,1.0936268E3,1.8277722E2,9.043311E2,1.0456973E3,4.7929546E1,1.6521417E2,1.7563044E1,8.121011E2,9.2230034E1,1.2622182E2,9.1947546E2,4.1743862E1,6.185682E0],"tree_param":{"num_deleted":"0","num_feature":"35","num_nodes":"15","size_leaf_vector":"1"}},{"base_weights":[-3.2780746E-3,-6.9297004E-1,8.289891E-2,-8.3186847E-1,-1.7974283E-1,2.0450455E-1,-2.7691844E-1,-8.859964E-2,-1.0404778E-2,-7.6058716E-2,3.3044443E-2,-5.3444463E-3,3.8355432E-2,-8.326056E-2,-7.611358E-3],"categories":[],"categories_nodes":[],"categories_segments":[],"categories_sizes":[],"default_left":[0,0,0,0,0,0,0,0,0,0,0,0,0,0,0],"id":54,"left_children":[1,3,5,7,9,11,13,-1,-1,-1,-1,-1,-1,-1,-1],"loss_changes":[1.2727388E2,1.6805626E1,8.334862E1,7.271225E0,1.5641752E1,6.575688E1,5.3637634E1,0E0,0E0,0E0,0E0,0E0,0E0,0E0,0E0],"parents":[2147483647,0,0,1,1,2,2,3,3,4,4,5,5,6,6],"right_children":[2,4,6,8,10,12,14,-1,-1,-1,-1,-1,-1,-1,-1],"split_conditions":[3.82066E0,3.14465E-2,5.71429E-1,4.23383E0,3.03635E0,1.5625E-2,1.8025E2,-8.859964E-2,-1.0404778E-2,-7.6058716E-2,3.3044443E-2,-5.3444463E-3,3.8355432E-2,-8.326056E-2,-7.611358E-3],"split_indices":[9,1,15,17,9,1,11,0,0,0,0,0,0,0,0],"split_type":[0,0,0,0,0,0,0,0,0,0,0,0,0,0,0],"sum_hessian":[2.139409E3,2.3684541E2,1.9025636E3,1.8591031E2,5.0935116E1,1.4223058E3,4.8025784E2,1.7283897E2,1.3071324E1,2.3588728E1,2.7346388E1,5.83043E2,8.392627E2,1.266455E2,3.5361234E2],"tree_param":{"num_deleted":"0","num_feature":"35","num_nodes":"15","size_leaf_vector":"1"}},{"base_weights":[-3.2485567E-3,-7.915062E-1,6.661237E-2,1.3620743E-1,-8.281136E-1,3.201171E-1,-9.883911E-2,-6.824019E-2,1.1352887E-1,-8.761978E-2,-3.3081554E-2,1.4259378E-2,5.0316777E-2,-5.161894E-2,2.3689636E-3],"categories":[],"categories_nodes":[],"categories_segments":[],"categories_sizes":[],"default_left":[0,0,0,0,0,0,0,0,0,0,0,0,0,0,0],"id":55,"left_children":[1,3,5,7,9,11,13,-1,-1,-1,-1,-1,-1,-1,-1],"loss_changes":[1.1597917E2,5.935791E0,8.117718E1,6.80046E0,3.6578598E0,2.4763626E1,5.991508E1,0E0,0E0,0E0,0E0,0E0,0E0,0E0,0E0],"parents":[2147483647,0,0,1,1,2,2,3,3,4,4,5,5,6,6],"right_children":[2,4,6,8,10,12,14,-1,-1,-1,-1,-1,-1,-1,-1],"split_conditions":[4.809E1,9.2E1,2E0,1E0,5.69198E0,3E0,2.66667E0,-6.824019E-2,1.1352887E-1,-8.761978E-2,-3.3081554E-2,1.4259378E-2,5.0316777E-2,-5.161894E-2,2.3689636E-3],"split_indices":[3,0,10,33,9,5,16,0,0,0,0,0,0,0,0],"split_type":[0,0,0,0,0,0,0,0,0,0,0,0,0,0,0],"sum_hessian":[2.104135E3,1.7046034E2,1.9336747E3,6.3677115E0,1.6409264E2,7.632652E2,1.1704095E3,3.67419E0,2.6935215E0,1.489305E2,1.5162134E1,3.8838596E2,3.7487927E2,2.649022E2,9.055073E2],"tree_param":{"num_deleted":"0","num_feature":"35","num_nodes":"15","size_leaf_vector":"1"}},{"base_weights":[-3.0948946E-3,-2.4939638E-1,1.9801794E-1,-6.4769757E-1,-9.25223E-2,-6.8071806E-1,2.961071E-1,-7.068705E-2,4.075184E-2,2.4933638E-2,-5.9875797E-2,-2.403795E-1,-4.1738097E-2,3.6885094E-2,-2.8397372E-2],"categories":[],"categories_nodes":[],"categories_segments":[],"categories_sizes":[],"default_left":[0,0,0,0,0,0,0,0,0,0,0,0,0,0,0],"id":56,"left_children":[1,3,5,7,9,11,13,-1,-1,-1,-1,-1,-1,-1,-1],"loss_changes":[1.0278791E2,5.822086E1,9.866504E1,1.6734528E1,1.16160484E2,5.118376E1,4.34974E1,0E0,0E0,0E0,0E0,0E0,0E0,0E0,0E0],"parents":[2147483647,0,0,1,1,2,2,3,3,4,4,5,5,6,6],"right_children":[2,4,6,8,10,12,14,-1,-1,-1,-1,-1,-1,-1,-1],"split_conditions":[7.29771E0,3.2E0,4.25E1,9.50246E0,1.4E1,1.435E2,1.1E2,-7.068705E-2,4.075184E-2,2.4933638E-2,-5.9875797E-2,-2.403795E-1,-4.1738097E-2,3.6885094E-2,-2.8397372E-2],"split_indices":[9,16,12,17,16,11,21,0,0,0,0,0,0,0,0],"split_type":[0,0,0,0,0,0,0,0,0,0,0,0,0,0,0],"sum_hessian":[2.0730847E3,9.3174414E2,1.1413407E3,2.6239584E2,6.693483E2,1.1401276E2,1.0273279E3,2.487755E2,1.3620351E1,3.9984335E2,2.6950494E2,1.4037019E1,9.997573E1,9.13177E2,1.1415087E2],"tree_param":{"num_deleted":"0","num_feature":"35","num_nodes":"15","size_leaf_vector":"1"}},{"base_weights":[-3.0270128E-3,-7.965823E-1,5.568007E-2,-8.557756E-1,-2.769696E-1,1.7199402E-1,-2.7426052E-1,3.9913017E-2,-8.705331E-2,-6.710027E-2,7.595903E-2,5.2199545E-3,4.60456E-2,-6.0297396E-2,-8.8099716E-4],"categories":[],"categories_nodes":[],"categories_segments":[],"categories_sizes":[],"default_left":[0,0,0,0,0,0,0,0,0,0,0,0,0,0,0],"id":57,"left_children":[1,3,5,7,9,11,13,-1,-1,-1,-1,-1,-1,-1,-1],"loss_changes":[9.471941E1,4.0706177E0,7.270022E1,2.6669922E0,6.9635506E0,4.8365936E1,4.3084595E1,0E0,0E0,0E0,0E0,0E0,0E0,0E0,0E0],"parents":[2147483647,0,0,1,1,2,2,3,3,4,4,5,5,6,6],"right_children":[2,4,6,8,10,12,14,-1,-1,-1,-1,-1,-1,-1,-1],"split_conditions":[4.756E1,3.26797E-2,5.71429E-1,3.452418E6,3.82066E0,4E0,2.025E2,3.9913017E-2,-8.705331E-2,-6.710027E-2,7.595903E-2,5.2199545E-3,4.60456E-2,-6.0297396E-2,-8.8099716E-4],"split_indices":[3,1,15,2,9,5,11,0,0,0,0,0,0,0,0],"split_type":[0,0,0,0,0,0,0,0,0,0,0,0,0,0,0],"sum_hessian":[2.0312068E3,1.3905148E2,1.8921553E3,1.2425019E2,1.4801296E1,1.3993287E3,4.928266E2,1.1414422E0,1.2310875E2,1.0980054E1,3.8212426E0,9.895589E2,4.0976984E2,2.1960869E2,2.7321793E2],"tree_param":{"num_deleted":"0","num_feature":"35","num_nodes":"15","size_leaf_vector":"1"}},{"base_weights":[-2.8607356E-3,-6.29769E-1,6.565188E-2,-7.86589E-1,-1.2354202E-1,1.6411404E-1,-2.8148526E-1,-8.520217E-2,-7.1875066E-3,-7.147427E-2,3.304707E-2,-2.5218872E-2,3.1479176E-2,2.6996557E-2,-4.1668843E-2],"categories":[],"categories_nodes":[],"categories_segments":[],"categories_sizes":[],"default_left":[0,0,0,0,0,0,0,0,0,0,0,0,0,0,0],"id":58,"left_children":[1,3,5,7,9,11,13,-1,-1,-1,-1,-1,-1,-1,-1],"loss_changes":[8.624074E1,1.5606689E1,6.191529E1,6.993019E0,1.3112605E1,8.857315E1,2.9960928E1,0E0,0E0,0E0,0E0,0E0,0E0,0E0,0E0],"parents":[2147483647,0,0,1,1,2,2,3,3,4,4,5,5,6,6],"right_children":[2,4,6,8,10,12,14,-1,-1,-1,-1,-1,-1,-1,-1],"split_conditions":[3.82066E0,3.14465E-2,1.6E1,4.23383E0,3.03635E0,2E0,1.5E0,-8.520217E-2,-7.1875066E-3,-7.147427E-2,3.304707E-2,-2.5218872E-2,3.1479176E-2,2.6996557E-2,-4.1668843E-2],"split_indices":[9,1,16,17,9,16,10,0,0,0,0,0,0,0,0],"split_type":[0,0,0,0,0,0,0,0,0,0,0,0,0,0,0],"sum_hessian":[2.0059181E3,1.9681523E2,1.8091029E3,1.498428E2,4.6972424E1,1.4097639E3,3.9933896E2,1.3709915E2,1.2743656E1,2.0154112E1,2.6818312E1,3.7447232E2,1.0352916E3,7.843417E1,3.209048E2],"tree_param":{"num_deleted":"0","num_feature":"35","num_nodes":"15","size_leaf_vector":"1"}},{"base_weights":[-2.7763017E-3,1.6552943E-1,-2.3552573E-1,3.394848E-2,4.698738E-1,-8.2228534E-2,-5.486468E-1,-2.4246106E-2,2.1007886E-2,-1.922706E-1,5.0492194E-2,-4.8533425E-2,6.0382592E-3,-1.1835962E-1,-4.1510817E-2],"categories":[],"categories_nodes":[],"categories_segments":[],"categories_sizes":[],"default_left":[0,0,0,0,0,0,0,0,0,0,0,0,0,0,0],"id":59,"left_children":[1,3,5,7,9,11,13,-1,-1,-1,-1,-1,-1,-1,-1],"loss_changes":[7.750363E1,4.5965324E1,3.9809013E1,3.9130234E1,3.0026909E1,3.2140125E1,2.2632019E1,0E0,0E0,0E0,0E0,0E0,0E0,0E0,0E0],"parents":[2147483647,0,0,1,1,2,2,3,3,4,4,5,5,6,6],"right_children":[2,4,6,8,10,12,14,-1,-1,-1,-1,-1,-1,-1,-1],"split_conditions":[2.6E0,4E0,1.52E2,4.862E1,1.88571E1,4.98991E0,4.76667E1,-2.4246106E-2,2.1007886E-2,-1.922706E-1,5.0492194E-2,-4.8533425E-2,6.0382592E-3,-1.1835962E-1,-4.1510817E-2],"split_indices":[10,5,0,20,12,9,12,0,0,0,0,0,0,0,0],"split_type":[0,0,0,0,0,0,0,0,0,0,0,0,0,0,0],"sum_hessian":[1.9764979E3,1.1472137E3,8.292842E2,8.017115E2,3.4550226E2,5.5757184E2,2.7171234E2,3.118828E2,4.8982867E2,4.210508E0,3.4129175E2,1.4508115E2,4.124907E2,4.5848515E1,2.2586382E2],"tree_param":{"num_deleted":"0","num_feature":"35","num_nodes":"15","size_leaf_vector":"1"}},{"base_weights":[-2.6136122E-3,-7.577752E-1,4.621596E-2,-8.25277E-1,-2.2628957E-1,1.1772328E-1,-3.9722842E-1,4.4213858E-2,-8.427448E-2,-6.3178465E-2,6.9443084E-2,2.1539092E-2,-2.1299986E-2,-5.1554095E-2,4.7251057E-2],"categories":[],"categories_nodes":[],"categories_segments":[],"categories_sizes":[],"default_left":[0,0,0,0,0,0,0,0,0,0,0,0,0,0,0],"id":60,"left_children":[1,3,5,7,9,11,13,-1,-1,-1,-1,-1,-1,-1,-1],"loss_changes":[7.182535E1,4.0574265E0,5.806241E1,2.6881409E0,5.930455E0,5.0962082E1,2.6410358E1,0E0,0E0,0E0,0E0,0E0,0E0,0E0,0E0],"parents":[2147483647,0,0,1,1,2,2,3,3,4,4,5,5,6,6],"right_children":[2,4,6,8,10,12,14,-1,-1,-1,-1,-1,-1,-1,-1],"split_conditions":[4.756E1,3.26797E-2,3.66667E0,3.452418E6,3.82066E0,1.37143E1,2E0,4.4213858E-2,-8.427448E-2,-6.3178465E-2,6.9443084E-2,2.1539092E-2,-2.1299986E-2,-5.1554095E-2,4.7251057E-2],"split_indices":[3,1,15,2,9,16,30,0,0,0,0,0,0,0,0],"split_type":[0,0,0,0,0,0,0,0,0,0,0,0,0,0,0],"sum_hessian":[1.9458976E3,1.1730029E2,1.8285973E3,1.0359087E2,1.3709415E1,1.5753069E3,2.532905E2,1.0777888E0,1.02513084E2,9.735579E0,3.9738371E0,1.2164261E3,3.5888065E2,2.2331914E2,2.9971355E1],"tree_param":{"num_deleted":"0","num_feature":"35","num_nodes":"15","size_leaf_vector":"1"}},{"base_weights":[-2.5178082E-3,-5.806099E-1,5.533322E-2,-7.4736995E-1,-9.71971E-2,-4.8348716E-1,1.1364071E-1,-8.318505E-2,-1.1426114E-2,4.0943973E-2,-5.73829E-2,-9.333097E-2,7.900222E-3,-3.174044E-2,1.8733965E-2],"categories":[],"categories_nodes":[],"categories_segments":[],"categories_sizes":[],"default_left":[0,0,0,0,0,0,0,0,0,0,0,0,0,0,0],"id":61,"left_children":[1,3,5,7,9,11,13,-1,-1,-1,-1,-1,-1,-1,-1],"loss_changes":[6.445691E1,1.4061306E1,5.5100014E1,6.8692856E0,1.1371691E1,4.34094E1,5.0309113E1,0E0,0E0,0E0,0E0,0E0,0E0,0E0,0E0],"parents":[2147483647,0,0,1,1,2,2,3,3,4,4,5,5,6,6],"right_children":[2,4,6,8,10,12,14,-1,-1,-1,-1,-1,-1,-1,-1],"split_conditions":[3.82066E0,3.14465E-2,4.28333E1,3.32732E0,3.75E-1,2.02167E2,1.2987E-2,-8.318505E-2,-1.1426114E-2,4.0943973E-2,-5.73829E-2,-9.333097E-2,7.900222E-3,-3.174044E-2,1.8733965E-2],"split_indices":[9,1,12,17,15,11,1,0,0,0,0,0,0,0,0],"split_type":[0,0,0,0,0,0,0,0,0,0,0,0,0,0,0],"sum_hessian":[1.9253932E3,1.7432883E2,1.7510643E3,1.2920999E2,4.511884E1,1.702734E2,1.5807909E3,1.13721375E2,1.5488614E1,2.1939342E1,2.3179495E1,9.424581E1,7.602759E1,2.303324E2,1.3504585E3],"tree_param":{"num_deleted":"0","num_feature":"35","num_nodes":"15","size_leaf_vector":"1"}},{"base_weights":[-2.548729E-3,1.4758895E-1,-2.0896114E-1,3.0390853E-2,4.2747003E-1,-5.645722E-1,-7.608867E-2,-1.9590985E-2,2.1113612E-2,-1.6102661E-1,4.6156805E-2,-1.19965665E-1,-3.4372084E-2,-5.239279E-2,6.838669E-3],"categories":[],"categories_nodes":[],"categories_segments":[],"categories_sizes":[],"default_left":[0,0,0,0,0,0,0,0,0,0,0,0,0,0,0],"id":62,"left_children":[1,3,5,7,9,11,13,-1,-1,-1,-1,-1,-1,-1,-1],"loss_changes":[5.9110203E1,3.6207153E1,3.7907204E1,3.192043E1,2.338314E1,3.0208008E1,3.7941315E1,0E0,0E0,0E0,0E0,0E0,0E0,0E0,0E0],"parents":[2147483647,0,0,1,1,2,2,3,3,4,4,5,5,6,6],"right_children":[2,4,6,8,10,12,14,-1,-1,-1,-1,-1,-1,-1,-1],"split_conditions":[2.6E0,4E0,1.865E2,7.49811E0,1.88571E1,5.5E1,4.82117E0,-1.9590985E-2,2.1113612E-2,-1.6102661E-1,4.6156805E-2,-1.19965665E-1,-3.4372084E-2,-5.239279E-2,6.838669E-3],"split_indices":[10,5,11,9,12,12,9,0,0,0,0,0,0,0,0],"split_type":[0,0,0,0,0,0,0,0,0,0,0,0,0,0,0],"sum_hessian":[1.9053834E3,1.1032211E3,8.0216223E2,7.783863E2,3.2483484E2,2.1731252E2,5.8484973E2,3.4559848E2,4.3278778E2,4.5853333E0,3.202495E2,5.4928143E1,1.6238437E2,1.4201393E2,4.4283582E2],"tree_param":{"num_deleted":"0","num_feature":"35","num_nodes":"15","size_leaf_vector":"1"}},{"base_weights":[-2.4476075E-3,-7.158352E-1,3.813536E-2,6.503445E-2,-7.415217E-1,1.3784246E-1,-2.2701931E-1,1.3124506E-2,-7.8635E-2,-1.6971042E-2,2.2362934E-2,-1.14838056E-1,-1.4936595E-2],"categories":[],"categories_nodes":[],"categories_segments":[],"categories_sizes":[],"default_left":[0,0,0,0,0,0,0,0,0,0,0,0,0],"id":63,"left_children":[1,3,5,-1,7,9,11,-1,-1,-1,-1,-1,-1],"loss_changes":[5.445998E1,4.0353622E0,4.708769E1,0E0,4.0097656E0,3.41819E1,3.4655655E1,0E0,0E0,0E0,0E0,0E0,0E0],"parents":[2147483647,0,0,1,1,2,2,4,4,5,5,6,6],"right_children":[2,4,6,-1,8,10,12,-1,-1,-1,-1,-1,-1],"split_conditions":[4.756E1,6.66571E0,4E-1,6.503445E-2,9.2E1,2.66667E0,1.46667E2,1.3124506E-2,-7.8635E-2,-1.6971042E-2,2.2362934E-2,-1.14838056E-1,-1.4936595E-2],"split_indices":[3,8,15,0,0,16,11,0,0,0,0,0,0],"split_type":[0,0,0,0,0,0,0,0,0,0,0,0,0],"sum_hessian":[1.8791407E3,1.00250404E2,1.7788904E3,1.4013025E0,9.8849106E1,1.2931155E3,4.8577493E2,4.7350063E0,9.41141E1,2.818134E2,1.01130206E3,3.668748E1,4.4908743E2],"tree_param":{"num_deleted":"0","num_feature":"35","num_nodes":"13","size_leaf_vector":"1"}},{"base_weights":[-2.386142E-3,9.010489E-2,-3.0309317E-1,-2.9382682E-1,2.5226104E-1,-4.4089374E-1,1.4476122E-1,-5.9316903E-2,-2.4094172E-3,-3.5056103E-2,3.481083E-2,-2.3422906E-2,-6.94864E-2,4.219315E-2,-8.398631E-2],"categories":[],"categories_nodes":[],"categories_segments":[],"categories_sizes":[],"default_left":[0,0,0,0,0,0,0,0,0,0,0,0,0,0,0],"id":64,"left_children":[1,3,5,7,9,11,13,-1,-1,-1,-1,-1,-1,-1,-1],"loss_changes":[5.1859238E1,8.885279E1,2.7131897E1,3.4212566E1,5.8080185E1,1.7454308E1,2.8723915E1,0E0,0E0,0E0,0E0,0E0,0E0,0E0,0E0],"parents":[2147483647,0,0,1,1,2,2,3,3,4,4,5,5,6,6],"right_children":[2,4,6,8,10,12,14,-1,-1,-1,-1,-1,-1,-1,-1],"split_conditions":[1.6E1,2.66667E0,3E0,6.99739E0,4.6E1,2.57143E0,2E0,-5.9316903E-2,-2.4094172E-3,-3.5056103E-2,3.481083E-2,-2.3422906E-2,-6.94864E-2,4.219315E-2,-8.398631E-2],"split_indices":[16,16,7,9,12,10,4,0,0,0,0,0,0,0,0],"split_type":[0,0,0,0,0,0,0,0,0,0,0,0,0,0,0],"sum_hessian":[1.8626063E3,1.4250055E3,4.3760077E2,4.2290216E2,1.00210333E3,3.346482E2,1.02952576E2,1.998807E2,2.2302145E2,1.371094E2,8.649939E2,1.8556755E2,1.4908066E2,8.07836E1,2.2168978E1],"tree_param":{"num_deleted":"0","num_feature":"35","num_nodes":"15","size_leaf_vector":"1"}},{"base_weights":[-2.2452574E-3,-6.1803627E-1,3.9508354E-2,-6.542328E-1,1.186759E-1,1.0050754E-1,-3.3467484E-1,-7.450755E-2,1.9211361E-2,1.8853797E-2,-1.8456316E-2,-4.392128E-2,4.5840457E-2],"categories":[],"categories_nodes":[],"categories_segments":[],"categories_sizes":[],"default_left":[0,0,0,0,0,0,0,0,0,0,0,0,0],"id":65,"left_children":[1,3,5,7,-1,9,11,-1,-1,-1,-1,-1,-1],"loss_changes":[4.7345943E1,8.415096E0,3.9396305E1,9.005981E0,0E0,3.726536E1,2.0261497E1,0E0,0E0,0E0,0E0,0E0,0E0],"parents":[2147483647,0,0,1,1,2,2,3,3,5,5,6,6],"right_children":[2,4,6,8,-1,10,12,-1,-1,-1,-1,-1,-1],"split_conditions":[3.51866E0,4E0,3.66667E0,3.32732E0,1.186759E-1,1.37143E1,2E0,-7.450755E-2,1.9211361E-2,1.8853797E-2,-1.8456316E-2,-4.392128E-2,4.5840457E-2],"split_indices":[9,26,15,17,0,16,30,0,0,0,0,0,0],"split_type":[0,0,0,0,0,0,0,0,0,0,0,0,0],"sum_hessian":[1.839481E3,1.15929306E2,1.7235516E3,1.1427494E2,1.6543676E0,1.4825916E3,2.4096007E2,1.0330621E2,1.0968725E1,1.133044E3,3.4954764E2,2.132917E2,2.766837E1],"tree_param":{"num_deleted":"0","num_feature":"35","num_nodes":"13","size_leaf_vector":"1"}},{"base_weights":[-2.091179E-3,2.930598E-1,-8.428847E-2,7.9554933E-1,2.2188817E-1,-4.3543485E-1,2.9148087E-3,-4.478028E-2,8.8619284E-2,-7.0979945E-2,2.6948724E-2,-1.11596815E-1,-2.335507E-2,1.0610695E-2,-3.1819563E-2],"categories":[],"categories_nodes":[],"categories_segments":[],"categories_sizes":[],"default_left":[0,0,0,0,0,0,0,0,0,0,0,0,0,0,0],"id":66,"left_children":[1,3,5,7,9,11,13,-1,-1,-1,-1,-1,-1,-1,-1],"loss_changes":[4.427904E1,1.4041767E1,4.3714546E1,5.9122276E0,1.5696568E1,3.875747E1,3.7959843E1,0E0,0E0,0E0,0E0,0E0,0E0,0E0,0E0],"parents":[2147483647,0,0,1,1,2,2,3,3,4,4,5,5,6,6],"right_children":[2,4,6,8,10,12,14,-1,-1,-1,-1,-1,-1,-1,-1],"split_conditions":[1.42857E0,5.96667E1,1.69714E2,2.35E1,1.19048E-2,5.7125E1,1.6E1,-4.478028E-2,8.8619284E-2,-7.0979945E-2,2.6948724E-2,-1.11596815E-1,-2.335507E-2,1.0610695E-2,-3.1819563E-2],"split_indices":[10,12,11,12,1,12,16,0,0,0,0,0,0,0,0],"split_type":[0,0,0,0,0,0,0,0,0,0,0,0,0,0,0],"sum_hessian":[1.8231232E3,3.965698E2,1.4265533E3,4.793794E1,3.4863184E2,2.829976E2,1.1435558E3,2.9895906E0,4.494835E1,1.6269342E1,3.323625E2,6.3709812E1,2.1928777E2,8.65945E2,2.7761078E2],"tree_param":{"num_deleted":"0","num_feature":"35","num_nodes":"15","size_leaf_vector":"1"}},{"base_weights":[-1.8990168E-3,-2.8182432E-1,8.047735E-2,-5.570049E-1,-3.9935373E-2,2.2123465E-1,-2.2719453E-1,-6.0551E-2,8.3864614E-2,-2.0653725E-1,6.0535915E-4,-3.3940766E-2,3.0342523E-2,-3.5338894E-2,1.7625151E-2],"categories":[],"categories_nodes":[],"categories_segments":[],"categories_sizes":[],"default_left":[0,0,0,0,0,0,0,0,0,0,0,0,0,0,0],"id":67,"left_children":[1,3,5,7,9,11,13,-1,-1,-1,-1,-1,-1,-1,-1],"loss_changes":[4.18398E1,2.7438316E1,6.0763153E1,1.356749E1,2.056395E1,4.444882E1,2.2491364E1,0E0,0E0,0E0,0E0,0E0,0E0,0E0,0E0],"parents":[2147483647,0,0,1,1,2,2,3,3,4,4,5,5,6,6],"right_children":[2,4,6,8,10,12,14,-1,-1,-1,-1,-1,-1,-1,-1],"split_conditions":[2.66667E0,6.99739E0,1.37143E1,1.04777E1,2.8E1,4.3E1,3E0,-6.0551E-2,8.3864614E-2,-2.0653725E-1,6.0535915E-4,-3.3940766E-2,3.0342523E-2,-3.5338894E-2,1.7625151E-2],"split_indices":[16,9,16,17,19,12,7,0,0,0,0,0,0,0,0],"split_type":[0,0,0,0,0,0,0,0,0,0,0,0,0,0,0],"sum_hessian":[1.8124657E3,4.11549E2,1.4009166E3,1.9191623E2,2.196328E2,9.613761E2,4.3954053E2,1.8601744E2,5.898785E0,3.9013226E0,2.1573146E2,1.22518394E2,8.388577E2,3.3490823E2,1.046323E2],"tree_param":{"num_deleted":"0","num_feature":"35","num_nodes":"15","size_leaf_vector":"1"}},{"base_weights":[-1.7868056E-3,8.2991295E-2,-2.647673E-1,-1.8807788E-1,1.7106177E-1,-8.8028365E-1,-1.619715E-1,-4.4552293E-2,1.933115E-2,-4.5731515E-2,2.1468487E-2,-6.573682E-2,-2.4238177E-1,4.8293527E-3,-5.4621667E-2],"categories":[],"categories_nodes":[],"categories_segments":[],"categories_sizes":[],"default_left":[0,0,0,0,0,0,0,0,0,0,0,0,0,0,0],"id":68,"left_children":[1,3,5,7,9,11,13,-1,-1,-1,-1,-1,-1,-1,-1],"loss_changes":[4.0040287E1,3.2455025E1,2.7559288E1,3.2833878E1,2.8211756E1,1.9887287E1,3.0436092E1,0E0,0E0,0E0,0E0,0E0,0E0,0E0,0E0],"parents":[2147483647,0,0,1,1,2,2,3,3,4,4,5,5,6,6],"right_children":[2,4,6,8,10,12,14,-1,-1,-1,-1,-1,-1,-1,-1],"split_conditions":[3.8E0,1.06E2,4.46667E1,6.74296E0,1.21212E-2,6.695E1,4.658E1,-4.4552293E-2,1.933115E-2,-4.5731515E-2,2.1468487E-2,-6.573682E-2,-2.4238177E-1,4.8293527E-3,-5.4621667E-2],"split_indices":[10,19,12,17,1,3,20,0,0,0,0,0,0,0,0],"split_type":[0,0,0,0,0,0,0,0,0,0,0,0,0,0,0],"sum_hessian":[1.7939467E3,1.3571282E3,4.3681857E2,3.32525E2,1.0246031E3,6.1429592E1,3.7538898E2,1.9841977E2,1.3410522E2,6.589682E1,9.587063E2,5.492349E1,6.506104E0,2.4318735E2,1.3220164E2],"tree_param":{"num_deleted":"0","num_feature":"35","num_nodes":"15","size_leaf_vector":"1"}},{"base_weights":[-1.6756495E-3,-5.863737E-1,3.5831504E-2,-6.303789E-1,8.753745E-1,7.10839E-2,-5.4311067E-1,-7.232536E-2,1.4348998E-2,-6.052282E-2,2.0553708E-1,-2.5995094E-2,1.3137122E-2,-1.2520918E-1,-1.5741264E-2],"categories":[],"categories_nodes":[],"categories_segments":[],"categories_sizes":[],"default_left":[0,0,0,0,0,0,0,0,0,0,0,0,0,0,0],"id":69,"left_children":[1,3,5,7,9,11,13,-1,-1,-1,-1,-1,-1,-1,-1],"loss_changes":[3.9216274E1,7.485718E0,3.433539E1,7.6666985E0,7.4792867E0,3.166426E1,2.6209665E1,0E0,0E0,0E0,0E0,0E0,0E0,0E0,0E0],"parents":[2147483647,0,0,1,1,2,2,3,3,4,4,5,5,6,6],"right_children":[2,4,6,8,10,12,14,-1,-1,-1,-1,-1,-1,-1,-1],"split_conditions":[3.51866E0,3E0,2E0,3.32732E0,3.13726E0,1.2987E-2,1.8875E2,-7.232536E-2,1.4348998E-2,-6.052282E-2,2.0553708E-1,-2.5995094E-2,1.3137122E-2,-1.2520918E-1,-1.5741264E-2],"split_indices":[9,30,33,17,9,1,11,0,0,0,0,0,0,0,0],"split_type":[0,0,0,0,0,0,0,0,0,0,0,0,0,0,0],"sum_hessian":[1.7862607E3,1.06795456E2,1.6794652E3,1.0422652E2,2.5689414E0,1.5838972E3,9.5567955E1,9.311668E1,1.1109841E1,1.355375E0,1.2135663E0,2.4350587E2,1.3403914E3,3.2880848E1,6.2687107E1],"tree_param":{"num_deleted":"0","num_feature":"35","num_nodes":"15","size_leaf_vector":"1"}},{"base_weights":[-1.6680261E-3,-7.541532E-1,2.4429955E-2,7.412857E-2,-8.133558E-1,1.0808446E-1,-1.9352514E-1,2.1931512E-2,-8.7523304E-2,-9.2344895E-2,1.291874E-2,-4.8761413E-2,-1.775742E-4],"categories":[],"categories_nodes":[],"categories_segments":[],"categories_sizes":[],"default_left":[0,0,0,0,0,0,0,0,0,0,0,0,0],"id":70,"left_children":[1,3,5,-1,7,9,11,-1,-1,-1,-1,-1,-1],"loss_changes":[3.4875675E1,5.87315E0,3.131648E1,0E0,3.8813171E0,2.7133919E1,2.6865576E1,0E0,0E0,0E0,0E0,0E0,0E0],"parents":[2147483647,0,0,1,1,2,2,4,4,5,5,6,6],"right_children":[2,4,6,-1,8,10,12,-1,-1,-1,-1,-1,-1],"split_conditions":[4.685E1,7.765E0,4E-1,7.412857E-2,1.03E2,7.5E1,1.98E2,2.1931512E-2,-8.7523304E-2,-9.2344895E-2,1.291874E-2,-4.8761413E-2,-1.775742E-4],"split_indices":[3,8,15,0,0,0,11,0,0,0,0,0,0],"split_type":[0,0,0,0,0,0,0,0,0,0,0,0,0],"sum_hessian":[1.773959E3,5.852771E1,1.7154313E3,1.7900656E0,5.6737644E1,1.240003E3,4.7542813E2,3.063663E0,5.367398E1,2.4001976E1,1.2160011E3,1.8703172E2,2.8839642E2],"tree_param":{"num_deleted":"0","num_feature":"35","num_nodes":"13","size_leaf_vector":"1"}},{"base_weights":[-1.6366749E-3,-2.5512663E-1,7.247495E-2,1.7855035E-1,-3.900129E-1,1.9937284E-1,-2.017329E-1,7.2639294E-2,-1.0567911E-2,-5.191478E-2,4.2366456E-2,-8.059076E-2,2.3372E-2,-3.1548303E-2,1.6250512E-2],"categories":[],"categories_nodes":[],"categories_segments":[],"categories_sizes":[],"default_left":[0,0,0,0,0,0,0,0,0,0,0,0,0,0,0],"id":71,"left_children":[1,3,5,7,9,11,13,-1,-1,-1,-1,-1,-1,-1,-1],"loss_changes":[3.318917E1,2.3448439E1,4.7607006E1,1.4947507E1,3.228403E1,3.247346E1,1.7990385E1,0E0,0E0,0E0,0E0,0E0,0E0,0E0,0E0],"parents":[2147483647,0,0,1,1,2,2,3,3,4,4,5,5,6,6],"right_children":[2,4,6,8,10,12,14,-1,-1,-1,-1,-1,-1,-1,-1],"split_conditions":[2.66667E0,1E0,1.37143E1,1.34E2,6.831E1,1.29E2,3E0,7.2639294E-2,-1.0567911E-2,-5.191478E-2,4.2366456E-2,-8.059076E-2,2.3372E-2,-3.1548303E-2,1.6250512E-2],"split_indices":[16,7,16,0,3,11,7,0,0,0,0,0,0,0,0],"split_type":[0,0,0,0,0,0,0,0,0,0,0,0,0,0,0],"sum_hessian":[1.7646609E3,3.9865765E2,1.3660033E3,9.450097E1,3.0415668E2,9.3402716E2,4.319761E2,3.1749409E1,6.275156E1,2.6280942E2,4.1347282E1,3.0116173E1,9.0391095E2,3.292778E2,1.02698326E2],"tree_param":{"num_deleted":"0","num_feature":"35","num_nodes":"15","size_leaf_vector":"1"}},{"base_weights":[-1.3960944E-3,1.573004E-1,-1.1515962E-1,-2.3733051E-3,2.9952714E-1,-1.9399506E-1,2.562752E-1,-1.6414851E-2,1.8066088E-2,-1.7807171E-1,3.190652E-2,-2.9726153E-2,1.75944E-2,-9.3768105E-2,3.7881088E-2],"categories":[],"categories_nodes":[],"categories_segments":[],"categories_sizes":[],"default_left":[0,0,0,0,0,0,0,0,0,0,0,0,0,0,0],"id":72,"left_children":[1,3,5,7,9,11,13,-1,-1,-1,-1,-1,-1,-1,-1],"loss_changes":[3.165693E1,1.6627775E1,2.995611E1,1.0272252E1,1.6307072E1,3.2259445E1,2.6579521E1,0E0,0E0,0E0,0E0,0E0,0E0,0E0,0E0],"parents":[2147483647,0,0,1,1,2,2,3,3,4,4,5,5,6,6],"right_children":[2,4,6,8,10,12,14,-1,-1,-1,-1,-1,-1,-1,-1],"split_conditions":[1.33333E0,1.62602E-2,6.812E1,4.62963E0,1.88571E1,1E0,4.66667E1,-1.6414851E-2,1.8066088E-2,-1.7807171E-1,3.190652E-2,-2.9726153E-2,1.75944E-2,-9.3768105E-2,3.7881088E-2],"split_indices":[13,1,3,17,12,32,12,0,0,0,0,0,0,0,0],"split_type":[0,0,0,0,0,0,0,0,0,0,0,0,0,0,0],"sum_hessian":[1.751467E3,7.311514E2,1.0203156E3,3.449122E2,3.8623926E2,8.42068E2,1.7824757E2,1.8314352E2,1.6176866E2,2.755132E0,3.8348413E2,6.5845917E2,1.8360886E2,1.5971642E1,1.6227592E2],"tree_param":{"num_deleted":"0","num_feature":"35","num_nodes":"15","size_leaf_vector":"1"}},{"base_weights":[-1.2131745E-3,-5.401237E-1,3.054932E-2,-7.167842E-1,-1.2495533E-1,5.3181216E-2,-7.5926614E-1,-7.894973E-2,3.7562747E-2,-3.8846977E-2,8.888339E-2,8.546428E-3,-4.839276E-2,-1.6442296E-1,-4.560471E-2],"categories":[],"categories_nodes":[],"categories_segments":[],"categories_sizes":[],"default_left":[0,0,0,0,0,0,0,0,0,0,0,0,0,0,0],"id":73,"left_children":[1,3,5,7,9,11,13,-1,-1,-1,-1,-1,-1,-1,-1],"loss_changes":[2.9766514E1,7.009268E0,2.9395382E1,5.673031E0,8.387086E0,2.7739912E1,1.1543325E1,0E0,0E0,0E0,0E0,0E0,0E0,0E0,0E0],"parents":[2147483647,0,0,1,1,2,2,3,3,4,4,5,5,6,6],"right_children":[2,4,6,8,10,12,14,-1,-1,-1,-1,-1,-1,-1,-1],"split_conditions":[3.51866E0,3.14465E-2,1.85E2,5.59625E0,1.75E0,2E0,1.68E2,-7.894973E-2,3.7562747E-2,-3.8846977E-2,8.888339E-2,8.546428E-3,-4.839276E-2,-1.6442296E-1,-4.560471E-2],"split_indices":[9,1,0,17,14,33,11,0,0,0,0,0,0,0,0],"split_type":[0,0,0,0,0,0,0,0,0,0,0,0,0,0,0],"sum_hessian":[1.7370244E3,9.5788414E1,1.641236E3,6.668601E1,2.9102402E1,1.5964237E3,4.481232E1,6.278426E1,3.9017546E0,2.3587986E1,5.5144157E0,1.5067037E3,8.971992E1,1.0307287E1,3.450503E1],"tree_param":{"num_deleted":"0","num_feature":"35","num_nodes":"15","size_leaf_vector":"1"}},{"base_weights":[-1.3166583E-3,-1.2872921E-1,1.2926795E-1,-3.1211472E-1,6.552056E-2,1.5319438E-1,-1.4146881E0,-5.1849242E-2,-1.54270725E-2,-4.1093532E-2,2.0408055E-2,-5.5651437E-2,1.8404199E-2,-4.9567245E-2,-1.9622856E-1],"categories":[],"categories_nodes":[],"categories_segments":[],"categories_sizes":[],"default_left":[0,0,0,0,0,0,0,0,0,0,0,0,0,0,0],"id":74,"left_children":[1,3,5,7,9,11,13,-1,-1,-1,-1,-1,-1,-1,-1],"loss_changes":[2.8801067E1,3.1231209E1,3.1797081E1,1.4606731E1,2.822714E1,1.8552258E1,5.641798E0,0E0,0E0,0E0,0E0,0E0,0E0,0E0,0E0],"parents":[2147483647,0,0,1,1,2,2,3,3,4,4,5,5,6,6],"right_children":[2,4,6,8,10,12,14,-1,-1,-1,-1,-1,-1,-1,-1],"split_conditions":[1E0,7.4979E0,6E0,1.99875E2,1E0,1.29E2,1.37E2,-5.1849242E-2,-1.54270725E-2,-4.1093532E-2,2.0408055E-2,-5.5651437E-2,1.8404199E-2,-4.9567245E-2,-1.9622856E-1],"split_indices":[30,9,13,11,31,11,0,0,0,0,0,0,0,0,0],"split_type":[0,0,0,0,0,0,0,0,0,0,0,0,0,0,0],"sum_hessian":[1.729029E3,8.751508E2,8.538782E2,4.4985202E2,4.2529883E2,8.4173474E2,1.2143446E1,1.939637E2,2.558883E2,9.537481E1,3.2992404E2,3.435232E1,8.073824E2,5.245413E0,6.8980336E0],"tree_param":{"num_deleted":"0","num_feature":"35","num_nodes":"15","size_leaf_vector":"1"}},{"base_weights":[-1.3686386E-3,-7.07884E-1,1.9914413E-2,7.1343824E-2,-7.7643275E-1,7.701401E-2,-2.3403187E-1,2.677097E-2,-8.490708E-2,-4.9933266E-2,1.0335593E-2,1.4135989E-2,-4.4485714E-2],"categories":[],"categories_nodes":[],"categories_segments":[],"categories_sizes":[],"default_left":[0,0,0,0,0,0,0,0,0,0,0,0,0],"id":75,"left_children":[1,3,5,-1,7,9,11,-1,-1,-1,-1,-1,-1],"loss_changes":[2.5834532E1,5.449009E0,2.4203058E1,0E0,3.89888E0,2.0736837E1,2.43144E1,0E0,0E0,0E0,0E0,0E0,0E0],"parents":[2147483647,0,0,1,1,2,2,4,4,5,5,6,6],"right_children":[2,4,6,-1,8,10,12,-1,-1,-1,-1,-1,-1],"split_conditions":[4.685E1,7.765E0,1.61E2,7.1343824E-2,1.03E2,9.1E1,2E0,2.677097E-2,-8.490708E-2,-4.9933266E-2,1.0335593E-2,1.4135989E-2,-4.4485714E-2],"split_indices":[3,8,0,0,0,0,10,0,0,0,0,0,0],"split_type":[0,0,0,0,0,0,0,0,0,0,0,0,0],"sum_hessian":[1.716149E3,4.924205E1,1.6669071E3,1.832769E0,4.7409283E1,1.3614769E3,3.054301E2,2.9089396E0,4.4500343E1,5.872174E1,1.3027551E3,1.0996244E2,1.9546768E2],"tree_param":{"num_deleted":"0","num_feature":"35","num_nodes":"13","size_leaf_vector":"1"}},{"base_weights":[-1.3217096E-3,-2.2628371E-1,6.420801E-2,1.7204717E-1,-3.5145193E-1,-5.1917136E-2,3.1405E-1,3.4725066E-2,-6.1891507E-2,-4.6062317E-2,3.6707427E-2,-6.0070228E-2,-1.0558773E-4,-7.028454E-2,3.8887326E-2],"categories":[],"categories_nodes":[],"categories_segments":[],"categories_sizes":[],"default_left":[0,0,0,0,0,0,0,0,0,0,0,0,0,0,0],"id":76,"left_children":[1,3,5,7,9,11,13,-1,-1,-1,-1,-1,-1,-1,-1],"loss_changes":[2.5225792E1,1.9306376E1,3.8463932E1,1.30981455E1,2.3234695E1,2.527502E1,3.2278595E1,0E0,0E0,0E0,0E0,0E0,0E0,0E0,0E0],"parents":[2147483647,0,0,1,1,2,2,3,3,4,4,5,5,6,6],"right_children":[2,4,6,8,10,12,14,-1,-1,-1,-1,-1,-1,-1,-1],"split_conditions":[2.66667E0,1E0,2E0,3E0,6.831E1,2.342E1,2.475E1,3.4725066E-2,-6.1891507E-2,-4.6062317E-2,3.6707427E-2,-6.0070228E-2,-1.0558773E-4,-7.028454E-2,3.8887326E-2],"split_indices":[16,7,22,4,3,8,12,0,0,0,0,0,0,0,0],"split_type":[0,0,0,0,0,0,0,0,0,0,0,0,0,0,0],"sum_hessian":[1.7092008E3,3.8501163E2,1.3241892E3,9.1966415E1,2.9304523E2,9.0455115E2,4.1963806E2,7.574857E1,1.6217846E1,2.5470486E2,3.8340343E1,7.5805954E1,8.287452E2,2.8185532E1,3.914525E2],